svm_type c_svc
kernel_type rbf
gamma 0.0039
nr_class 2
total_sv 1553
rho 2855.14
label 1 -1
nr_sv 785 768
SV
100000 102:0.0022675737 103:0.015873017 104:0.015873017 105:0.0068027209 106:0.0068027209 107:0.015873017 108:0.020408163 109:0.031746034 110:0.013605442 111:0.015873017 112:0.034013607 113:0.0045351475 114:0.0022675737 115:0.022675738 116:0.0090702949 117:0.013605442 118:0.0022675737 119:0.0045351475 120:0.022675738 121:0.0045351475 122:0.013605442 123:0.020408163 124:0.029478459 125:0.015873017 126:0.052154195 127:0.0090702949 128:0.020408163 129:0.034013607 130:0.020408163 131:0.034013607 132:0.024943311 133:0.029478459 134:0.022675738 135:0.024943311 136:0.011337869 137:0.038548753 138:0.020408163 139:0.027210884 140:0.038548753 141:0.0090702949 142:0.029478459 143:0.013605442 144:0.031746034 145:0.022675738 146:0.0090702949 147:0.01814059 148:0.0068027209 149:0.0068027209 150:0.0090702949 151:0.0068027209 152:0.013605442 153:0.0045351475 154:0.011337869 155:0.0022675737 156:0.0068027209 158:0.0022675737 159:0.0022675737 161:0.0068027209 163:0.0022675737 166:0.0068027209 167:0.0022675737 170:0.0022675737 176:0.0022675737 186:0.0022675737 189:0.0022675737 191:0.0022675737 195:0.0022675737 196:0.0022675737 214:0.0022675737 215:0.0022675737 221:0.0022675737 
100000 102:0.0022675737 103:0.015873017 104:0.015873017 105:0.0068027209 106:0.0068027209 107:0.015873017 108:0.024943311 109:0.031746034 110:0.013605442 111:0.020408163 112:0.045351475 113:0.0045351475 114:0.0068027209 115:0.031746034 116:0.015873017 117:0.01814059 118:0.0045351475 119:0.0045351475 120:0.024943311 121:0.0068027209 122:0.013605442 123:0.024943311 124:0.031746034 125:0.01814059 126:0.040816326 127:0.0068027209 128:0.01814059 129:0.034013607 130:0.01814059 131:0.024943311 132:0.024943311 133:0.024943311 134:0.022675738 135:0.027210884 136:0.011337869 137:0.03628118 138:0.01814059 139:0.022675738 140:0.034013607 141:0.0090702949 142:0.024943311 143:0.013605442 144:0.01814059 145:0.022675738 146:0.0068027209 147:0.013605442 148:0.0068027209 149:0.0068027209 150:0.011337869 151:0.0090702949 152:0.011337869 153:0.0045351475 154:0.0090702949 156:0.0068027209 158:0.0022675737 159:0.0022675737 161:0.0045351475 163:0.0022675737 166:0.0045351475 167:0.0022675737 170:0.0022675737 171:0.0022675737 176:0.0022675737 186:0.0022675737 189:0.0045351475 191:0.0022675737 195:0.0022675737 196:0.0022675737 199:0.0022675737 214:0.0022675737 215:0.0022675737 220:0.0022675737 221:0.0022675737 224:0.0022675737 228:0.0022675737 
940.1201362497752 102:0.0022675737 103:0.015873017 104:0.015873017 105:0.0068027209 106:0.0068027209 107:0.015873017 108:0.027210884 109:0.031746034 110:0.015873017 111:0.020408163 112:0.047619049 113:0.0068027209 114:0.0068027209 115:0.031746034 116:0.01814059 117:0.020408163 118:0.0045351475 119:0.013605442 120:0.040816326 121:0.011337869 122:0.024943311 123:0.031746034 124:0.03628118 125:0.013605442 126:0.034013607 127:0.0022675737 128:0.015873017 129:0.031746034 130:0.020408163 131:0.01814059 132:0.024943311 133:0.020408163 134:0.015873017 135:0.027210884 136:0.0068027209 137:0.027210884 138:0.015873017 139:0.015873017 140:0.027210884 141:0.0068027209 142:0.020408163 143:0.011337869 144:0.01814059 145:0.022675738 146:0.0045351475 147:0.013605442 148:0.0045351475 149:0.0068027209 150:0.011337869 151:0.0090702949 152:0.011337869 153:0.0045351475 154:0.0090702949 156:0.0068027209 158:0.0022675737 159:0.0022675737 161:0.0045351475 163:0.0022675737 164:0.0022675737 166:0.0045351475 167:0.0022675737 170:0.0022675737 171:0.0022675737 176:0.0045351475 186:0.0022675737 189:0.0045351475 190:0.0022675737 191:0.0022675737 195:0.0022675737 196:0.0022675737 199:0.0022675737 207:0.0022675737 211:0.0022675737 214:0.0022675737 215:0.0045351475 220:0.0022675737 221:0.0022675737 224:0.0022675737 228:0.0022675737 
100000 97:0.0022675737 98:0.0045351475 100:0.0022675737 101:0.0022675737 102:0.0045351475 103:0.015873017 104:0.022675738 105:0.0090702949 106:0.0068027209 107:0.01814059 108:0.03628118 109:0.034013607 110:0.015873017 111:0.024943311 112:0.054421768 113:0.0068027209 114:0.0068027209 115:0.043083902 116:0.01814059 117:0.029478459 118:0.0068027209 119:0.01814059 120:0.058956917 121:0.013605442 122:0.031746034 123:0.070294783 124:0.090702951 125:0.011337869 126:0.024943311 127:0.0022675737 128:0.015873017 129:0.015873017 130:0.013605442 131:0.0090702949 132:0.011337869 133:0.011337869 134:0.0045351475 135:0.015873017 136:0.0068027209 137:0.011337869 139:0.0090702949 140:0.013605442 141:0.0045351475 142:0.011337869 143:0.0090702949 144:0.01814059 145:0.011337869 147:0.0045351475 148:0.0045351475 150:0.0068027209 151:0.0068027209 152:0.011337869 153:0.0045351475 154:0.0045351475 155:0.0022675737 156:0.0045351475 161:0.0045351475 163:0.0022675737 164:0.0022675737 166:0.0045351475 167:0.0022675737 170:0.0022675737 171:0.0022675737 176:0.0068027209 178:0.0022675737 179:0.0022675737 186:0.0022675737 189:0.0045351475 190:0.0022675737 191:0.0022675737 195:0.0022675737 196:0.0022675737 199:0.0022675737 207:0.0022675737 211:0.0022675737 214:0.0022675737 215:0.0045351475 220:0.0022675737 221:0.0022675737 224:0.0022675737 228:0.0022675737 
33759.98695582776 97:0.0022675737 98:0.0045351475 100:0.0022675737 101:0.0022675737 102:0.0045351475 103:0.01814059 104:0.022675738 105:0.011337869 106:0.0090702949 107:0.01814059 108:0.03628118 109:0.034013607 110:0.01814059 111:0.024943311 112:0.056689344 113:0.0068027209 114:0.0068027209 115:0.038548753 116:0.020408163 117:0.031746034 118:0.0068027209 119:0.020408163 120:0.056689344 121:0.011337869 122:0.027210884 123:0.09297052 124:0.11791383 125:0.013605442 126:0.027210884 127:0.0022675737 128:0.013605442 129:0.015873017 130:0.015873017 131:0.0068027209 132:0.0090702949 133:0.0068027209 134:0.0045351475 135:0.011337869 136:0.0068027209 137:0.0068027209 139:0.0068027209 140:0.011337869 141:0.0022675737 142:0.011337869 144:0.015873017 145:0.0090702949 147:0.0045351475 148:0.0045351475 150:0.0022675737 151:0.0022675737 152:0.0068027209 153:0.0045351475 154:0.0045351475 155:0.0022675737 161:0.0022675737 163:0.0022675737 164:0.0022675737 166:0.0045351475 167:0.0022675737 170:0.0022675737 171:0.0022675737 176:0.0068027209 178:0.0022675737 179:0.0022675737 186:0.0022675737 189:0.0045351475 190:0.0022675737 191:0.0022675737 195:0.0022675737 196:0.0022675737 199:0.0022675737 207:0.0022675737 211:0.0022675737 214:0.0022675737 215:0.0045351475 220:0.0022675737 221:0.0022675737 224:0.0022675737 228:0.0022675737 
53594.51146779293 97:0.0022675737 98:0.0045351475 100:0.0022675737 101:0.0022675737 102:0.0045351475 103:0.01814059 104:0.022675738 105:0.013605442 106:0.013605442 107:0.01814059 108:0.034013607 109:0.029478459 110:0.01814059 111:0.024943311 112:0.054421768 113:0.0090702949 114:0.0068027209 115:0.03628118 116:0.022675738 117:0.031746034 118:0.0068027209 119:0.022675738 120:0.058956917 121:0.0068027209 122:0.027210884 123:0.11564626 124:0.15192744 125:0.013605442 126:0.029478459 128:0.013605442 129:0.013605442 130:0.013605442 131:0.0045351475 132:0.0045351475 133:0.0068027209 134:0.0045351475 135:0.0068027209 136:0.0068027209 137:0.0068027209 139:0.0068027209 140:0.0068027209 142:0.0090702949 144:0.011337869 145:0.0045351475 147:0.0022675737 148:0.0022675737 150:0.0022675737 152:0.0022675737 153:0.0045351475 154:0.0045351475 161:0.0022675737 163:0.0022675737 164:0.0022675737 166:0.0045351475 167:0.0022675737 170:0.0022675737 171:0.0022675737 176:0.0022675737 178:0.0022675737 179:0.0022675737 186:0.0022675737 190:0.0022675737 191:0.0022675737 195:0.0022675737 196:0.0022675737 199:0.0022675737 207:0.0022675737 211:0.0022675737 214:0.0022675737 215:0.0045351475 220:0.0022675737 221:0.0022675737 224:0.0022675737 228:0.0022675737 
100000 111:0.0022675737 113:0.0045351475 115:0.0068027209 116:0.0068027209 118:0.0045351475 119:0.020408163 120:0.013605442 122:0.0090702949 123:0.040816326 124:0.17460318 125:0.18367347 126:0.24489796 127:0.15873016 129:0.029478459 130:0.022675738 131:0.022675738 132:0.0045351475 133:0.0090702949 134:0.0022675737 136:0.0045351475 137:0.0045351475 138:0.0045351475 139:0.0045351475 141:0.0022675737 143:0.0022675737 144:0.0045351475 145:0.0022675737 147:0.0022675737 150:0.0045351475 152:0.0022675737 
100000 111:0.0022675737 113:0.0045351475 115:0.0068027209 116:0.0068027209 118:0.0045351475 119:0.020408163 120:0.013605442 122:0.0090702949 123:0.049886622 124:0.22222222 125:0.17687075 126:0.19501135 127:0.15873016 129:0.029478459 130:0.022675738 131:0.022675738 132:0.0045351475 133:0.0090702949 134:0.0022675737 136:0.0045351475 137:0.0045351475 138:0.0045351475 139:0.0045351475 141:0.0022675737 143:0.0022675737 144:0.0045351475 145:0.0022675737 147:0.0022675737 150:0.0045351475 152:0.0022675737 
100000 111:0.0022675737 113:0.0045351475 115:0.0068027209 116:0.0068027209 118:0.0045351475 119:0.020408163 120:0.013605442 122:0.0090702949 123:0.049886622 124:0.27437642 125:0.17006803 126:0.15419501 127:0.15419501 129:0.029478459 130:0.022675738 131:0.022675738 132:0.0045351475 133:0.0090702949 134:0.0022675737 136:0.0045351475 137:0.0045351475 138:0.0045351475 139:0.0045351475 141:0.0022675737 143:0.0022675737 144:0.0045351475 145:0.0022675737 147:0.0022675737 150:0.0045351475 152:0.0022675737 
100000 111:0.0022675737 113:0.0045351475 115:0.0068027209 116:0.0068027209 118:0.0045351475 119:0.020408163 120:0.013605442 122:0.0090702949 123:0.049886622 124:0.30385488 125:0.20181406 126:0.11564626 127:0.13151927 129:0.029478459 130:0.022675738 131:0.022675738 132:0.0045351475 133:0.0090702949 134:0.0022675737 136:0.0045351475 137:0.0045351475 138:0.0045351475 139:0.0045351475 141:0.0022675737 143:0.0022675737 144:0.0045351475 145:0.0022675737 147:0.0022675737 150:0.0045351475 152:0.0022675737 
100000 111:0.0022675737 113:0.0045351475 115:0.0068027209 116:0.0068027209 118:0.0045351475 119:0.020408163 120:0.013605442 122:0.0090702949 123:0.049886622 124:0.32426304 125:0.2154195 126:0.099773243 127:0.11564626 129:0.027210884 130:0.022675738 131:0.022675738 132:0.0045351475 133:0.0090702949 134:0.0022675737 136:0.0045351475 137:0.0045351475 138:0.0045351475 139:0.0045351475 141:0.0022675737 143:0.0022675737 144:0.0045351475 145:0.0022675737 147:0.0022675737 150:0.0045351475 152:0.0022675737 
100000 111:0.0022675737 113:0.0045351475 115:0.0068027209 116:0.0068027209 118:0.0045351475 119:0.020408163 120:0.013605442 122:0.0090702949 123:0.049886622 124:0.3287982 125:0.26530612 126:0.074829936 127:0.097505674 129:0.01814059 130:0.020408163 131:0.022675738 132:0.0045351475 133:0.0090702949 134:0.0022675737 136:0.0045351475 137:0.0045351475 138:0.0045351475 139:0.0045351475 141:0.0022675737 143:0.0022675737 144:0.0045351475 145:0.0022675737 147:0.0022675737 150:0.0045351475 152:0.0022675737 
100000 111:0.0022675737 113:0.0045351475 115:0.0068027209 116:0.0068027209 118:0.0045351475 119:0.020408163 120:0.013605442 122:0.0090702949 123:0.049886622 124:0.32426304 125:0.32653061 126:0.054421768 127:0.074829936 129:0.01814059 130:0.015873017 131:0.013605442 132:0.0045351475 133:0.0090702949 134:0.0022675737 136:0.0045351475 137:0.0045351475 138:0.0045351475 139:0.0045351475 141:0.0022675737 143:0.0022675737 144:0.0045351475 145:0.0022675737 147:0.0022675737 150:0.0045351475 152:0.0022675737 
100000 129:0.0045351475 130:0.01814059 131:0.045351475 132:0.10204082 133:0.049886622 134:0.06122449 136:0.022675738 137:0.015873017 138:0.038548753 139:0.03628118 140:0.029478459 141:0.029478459 142:0.022675738 144:0.020408163 145:0.013605442 147:0.011337869 148:0.015873017 149:0.011337869 150:0.0022675737 151:0.011337869 152:0.015873017 153:0.0022675737 154:0.015873017 155:0.011337869 156:0.013605442 158:0.0068027209 159:0.011337869 160:0.0022675737 161:0.0090702949 162:0.011337869 163:0.011337869 164:0.0045351475 165:0.0045351475 166:0.0045351475 167:0.011337869 168:0.020408163 169:0.0068027209 170:0.0045351475 171:0.0068027209 172:0.0090702949 173:0.0022675737 174:0.0022675737 176:0.0022675737 177:0.011337869 178:0.0022675737 179:0.0045351475 181:0.0022675737 182:0.0045351475 183:0.0022675737 184:0.0022675737 186:0.0068027209 188:0.0022675737 189:0.0045351475 190:0.0045351475 191:0.0022675737 192:0.0045351475 193:0.01814059 196:0.0068027209 197:0.0022675737 198:0.0022675737 199:0.0022675737 200:0.0022675737 201:0.0068027209 202:0.0022675737 204:0.0022675737 205:0.0022675737 208:0.0022675737 209:0.0045351475 210:0.0022675737 214:0.0022675737 215:0.0045351475 218:0.0068027209 221:0.0090702949 222:0.0045351475 223:0.0068027209 224:0.0045351475 225:0.0022675737 228:0.0022675737 229:0.0045351475 230:0.0022675737 234:0.0022675737 235:0.0022675737 237:0.0090702949 238:0.011337869 239:0.0090702949 240:0.011337869 241:0.011337869 242:0.0045351475 243:0.0068027209 244:0.0022675737 245:0.0022675737 246:0.0045351475 247:0.0022675737 248:0.0022675737 249:0.0045351475 
100000 82:0.0045351475 84:0.0045351475 85:0.0090702949 86:0.0045351475 87:0.013605442 88:0.013605442 89:0.013605442 90:0.0068027209 91:0.022675738 92:0.024943311 93:0.038548753 94:0.029478459 95:0.013605442 96:0.0068027209 97:0.011337869 98:0.0045351475 99:0.0022675737 100:0.0045351475 101:0.013605442 102:0.0045351475 103:0.0090702949 104:0.0045351475 105:0.0068027209 107:0.011337869 108:0.0090702949 109:0.0022675737 110:0.0090702949 111:0.0022675737 112:0.0068027209 113:0.0022675737 114:0.0068027209 115:0.0068027209 116:0.0090702949 117:0.011337869 118:0.011337869 119:0.029478459 120:0.0045351475 121:0.011337869 122:0.049886622 123:0.049886622 124:0.047619049 125:0.020408163 126:0.081632651 127:0.027210884 128:0.13605443 129:0.054421768 130:0.015873017 131:0.013605442 132:0.0022675737 133:0.0068027209 134:0.0022675737 135:0.0022675737 136:0.0045351475 137:0.0045351475 138:0.0068027209 139:0.0022675737 140:0.0068027209 141:0.0045351475 142:0.0022675737 144:0.0045351475 146:0.0090702949 148:0.0068027209 151:0.0022675737 152:0.0068027209 153:0.0022675737 154:0.0045351475 155:0.0022675737 158:0.0022675737 161:0.0022675737 163:0.0022675737 164:0.0022675737 165:0.0022675737 167:0.0022675737 168:0.0022675737 170:0.0022675737 
100000 108:0.0045351475 109:0.013605442 110:0.011337869 111:0.0045351475 112:0.0090702949 113:0.0022675737 114:0.0068027209 115:0.011337869 116:0.0090702949 117:0.0068027209 118:0.0090702949 119:0.0068027209 120:0.0022675737 123:0.0090702949 124:0.0090702949 125:0.020408163 126:0.12471656 127:0.049886622 128:0.074829936 129:0.20181406 130:0.038548753 131:0.040816326 132:0.03628118 133:0.029478459 134:0.034013607 135:0.011337869 136:0.011337869 137:0.011337869 138:0.01814059 139:0.011337869 140:0.0090702949 141:0.0090702949 142:0.015873017 143:0.0022675737 144:0.0045351475 145:0.0090702949 146:0.0045351475 147:0.0045351475 148:0.0090702949 149:0.0045351475 150:0.0090702949 151:0.0045351475 152:0.0068027209 153:0.0022675737 154:0.0068027209 155:0.0022675737 158:0.0022675737 159:0.0022675737 160:0.0022675737 163:0.0022675737 164:0.0068027209 165:0.0045351475 166:0.0022675737 170:0.0022675737 173:0.0022675737 175:0.0045351475 179:0.0022675737 181:0.0022675737 185:0.0045351475 186:0.0068027209 188:0.0022675737 190:0.0022675737 192:0.0022675737 194:0.0022675737 195:0.0022675737 196:0.0022675737 198:0.0022675737 199:0.0022675737 
100000 108:0.0045351475 109:0.013605442 110:0.011337869 111:0.0045351475 112:0.0090702949 113:0.0022675737 114:0.0068027209 115:0.01814059 116:0.013605442 117:0.0090702949 118:0.013605442 119:0.0090702949 120:0.0045351475 123:0.013605442 124:0.013605442 125:0.024943311 126:0.11337869 127:0.045351475 128:0.049886622 129:0.19501135 130:0.03628118 131:0.029478459 132:0.022675738 133:0.029478459 134:0.031746034 135:0.013605442 136:0.011337869 137:0.013605442 138:0.022675738 139:0.01814059 140:0.0090702949 141:0.015873017 142:0.015873017 143:0.0022675737 144:0.0045351475 145:0.0090702949 146:0.0045351475 147:0.0068027209 148:0.0090702949 149:0.0045351475 150:0.0090702949 151:0.0068027209 152:0.0068027209 153:0.0045351475 154:0.0068027209 155:0.0022675737 158:0.0022675737 159:0.0022675737 160:0.0022675737 163:0.0022675737 164:0.0068027209 165:0.0045351475 166:0.0022675737 167:0.0022675737 170:0.0022675737 173:0.0022675737 175:0.0045351475 179:0.0022675737 181:0.0022675737 184:0.0022675737 185:0.0045351475 186:0.0068027209 187:0.0022675737 188:0.0022675737 190:0.0022675737 192:0.0022675737 194:0.0022675737 195:0.0022675737 196:0.0068027209 198:0.0022675737 199:0.0022675737 
6456.256390617712 105:0.0022675737 107:0.0090702949 108:0.013605442 109:0.01814059 110:0.027210884 111:0.0090702949 112:0.024943311 113:0.011337869 114:0.015873017 115:0.03628118 116:0.027210884 117:0.01814059 118:0.040816326 119:0.01814059 120:0.022675738 121:0.0022675737 122:0.011337869 123:0.024943311 124:0.034013607 125:0.077097505 126:0.21995465 127:0.1292517 128:0.024943311 129:0.0068027209 130:0.0045351475 132:0.0022675737 133:0.0045351475 135:0.013605442 136:0.0045351475 137:0.01814059 138:0.022675738 139:0.015873017 140:0.0045351475 141:0.0068027209 142:0.0090702949 143:0.0045351475 144:0.0045351475 145:0.0090702949 146:0.0090702949 147:0.0090702949 148:0.0090702949 149:0.0045351475 150:0.0045351475 151:0.0045351475 152:0.0022675737 154:0.0022675737 155:0.0022675737 158:0.0022675737 
100000 105:0.0022675737 107:0.0090702949 108:0.013605442 109:0.015873017 110:0.027210884 111:0.0090702949 112:0.022675738 113:0.011337869 114:0.013605442 115:0.034013607 116:0.027210884 117:0.015873017 118:0.038548753 119:0.01814059 120:0.022675738 121:0.0022675737 122:0.011337869 123:0.024943311 124:0.034013607 125:0.079365082 126:0.2335601 127:0.15192744 128:0.024943311 129:0.0045351475 130:0.0045351475 132:0.0022675737 133:0.0045351475 135:0.013605442 136:0.0045351475 137:0.01814059 138:0.01814059 139:0.015873017 140:0.0045351475 141:0.0068027209 142:0.0068027209 143:0.0045351475 144:0.0045351475 145:0.0068027209 146:0.0090702949 147:0.0090702949 148:0.0068027209 149:0.0022675737 150:0.0045351475 151:0.0022675737 152:0.0022675737 
100000 112:0.0090702949 115:0.024943311 116:0.027210884 117:0.022675738 118:0.0045351475 119:0.013605442 120:0.06122449 122:0.074829936 123:0.37641725 124:0.14058957 125:0.043083902 126:0.031746034 127:0.031746034 129:0.022675738 130:0.029478459 131:0.03628118 132:0.020408163 133:0.0090702949 134:0.0068027209 136:0.0045351475 137:0.0068027209 138:0.0022675737 
100000 112:0.0090702949 115:0.024943311 116:0.027210884 117:0.022675738 118:0.0045351475 119:0.013605442 120:0.06122449 122:0.065759636 123:0.33786848 124:0.14739229 125:0.047619049 126:0.03628118 127:0.03628118 129:0.027210884 130:0.034013607 131:0.043083902 132:0.031746034 133:0.0090702949 134:0.0068027209 136:0.0045351475 137:0.0068027209 138:0.0022675737 
100000 112:0.0068027209 115:0.013605442 116:0.022675738 117:0.022675738 118:0.0045351475 119:0.011337869 120:0.052154195 122:0.054421768 123:0.29931974 124:0.19501135 125:0.054421768 126:0.040816326 127:0.040816326 129:0.029478459 130:0.03628118 131:0.049886622 132:0.03628118 133:0.0090702949 134:0.0068027209 136:0.0045351475 137:0.0068027209 138:0.0022675737 
100000 112:0.0068027209 115:0.013605442 116:0.022675738 117:0.022675738 118:0.0045351475 119:0.011337869 120:0.052154195 122:0.045351475 123:0.26077098 124:0.20861678 125:0.063492067 126:0.045351475 127:0.043083902 129:0.031746034 130:0.040816326 131:0.06122449 132:0.03628118 133:0.0090702949 134:0.0068027209 136:0.0045351475 137:0.0068027209 138:0.0022675737 
100000 112:0.0068027209 115:0.0022675737 116:0.01814059 117:0.020408163 118:0.0045351475 119:0.011337869 120:0.040816326 122:0.03628118 123:0.22448979 124:0.26984128 125:0.065759636 126:0.047619049 127:0.045351475 129:0.038548753 130:0.047619049 131:0.058956917 132:0.031746034 133:0.0090702949 134:0.0068027209 136:0.0045351475 137:0.0068027209 138:0.0022675737 
100000 112:0.0068027209 115:0.0022675737 116:0.01814059 117:0.020408163 118:0.0045351475 119:0.011337869 120:0.040816326 122:0.03628118 123:0.17687075 124:0.29478458 125:0.070294783 126:0.049886622 127:0.047619049 129:0.052154195 130:0.047619049 131:0.058956917 132:0.031746034 133:0.0090702949 134:0.0068027209 136:0.0045351475 137:0.0068027209 138:0.0022675737 
81826.2925967866 108:0.0089285718 109:0.011904762 110:0.0029761905 111:0.0089285718 112:0.011904762 113:0.0059523811 115:0.0089285718 116:0.011904762 117:0.011904762 118:0.020833334 119:0.071428575 120:0.16666667 121:0.017857144 122:0.21130952 123:0.077380955 124:0.16964287 125:0.044642858 126:0.020833334 127:0.0059523811 128:0.017857144 129:0.014880952 130:0.0059523811 131:0.011904762 132:0.0089285718 133:0.0089285718 135:0.0089285718 136:0.0089285718 139:0.011904762 140:0.0059523811 144:0.0029761905 146:0.0029761905 
100000 108:0.0084033618 109:0.011204482 110:0.0028011205 111:0.0084033618 112:0.011204482 113:0.005602241 115:0.0084033618 116:0.011204482 117:0.011204482 118:0.019607844 119:0.067226894 120:0.15686275 121:0.016806724 122:0.19887955 123:0.092436977 124:0.19327731 125:0.047619049 126:0.019607844 127:0.005602241 128:0.016806724 129:0.014005602 130:0.005602241 131:0.011204482 132:0.0084033618 133:0.0084033618 135:0.0084033618 136:0.0084033618 139:0.011204482 140:0.005602241 144:0.0028011205 146:0.0028011205 
100000 108:0.0079365075 109:0.01058201 110:0.0026455026 111:0.0079365075 112:0.01058201 113:0.0052910051 115:0.0079365075 116:0.01058201 117:0.01058201 118:0.018518519 119:0.06349206 120:0.14814815 121:0.015873015 122:0.18783069 123:0.1058201 124:0.2142857 125:0.050264549 126:0.018518519 127:0.0052910051 128:0.015873015 129:0.013227513 130:0.0052910051 131:0.01058201 132:0.0079365075 133:0.0079365075 135:0.0079365075 136:0.0079365075 139:0.01058201 140:0.0052910051 144:0.0026455026 146:0.0026455026 
100000 108:0.0075187972 109:0.010025063 110:0.0025062656 111:0.0075187972 112:0.010025063 113:0.0050125313 115:0.0075187972 116:0.010025063 117:0.010025063 118:0.01754386 119:0.060150377 120:0.14035088 121:0.015037594 122:0.17794485 123:0.11278196 124:0.24060151 125:0.050125312 126:0.01754386 127:0.0050125313 128:0.015037594 129:0.012531328 130:0.0050125313 131:0.010025063 132:0.0075187972 133:0.0075187972 135:0.0075187972 136:0.0075187972 139:0.010025063 140:0.0050125313 144:0.0025062656 146:0.0025062656 
100000 108:0.0071428576 109:0.0095238099 110:0.0023809525 111:0.0071428576 112:0.0095238099 113:0.0047619049 115:0.0071428576 116:0.0095238099 117:0.0095238099 118:0.016666668 119:0.057142861 120:0.13333334 121:0.014285715 122:0.16904762 123:0.13571429 124:0.24285716 125:0.054761905 126:0.016666668 127:0.0047619049 128:0.014285715 129:0.011904762 130:0.0047619049 131:0.0095238099 132:0.0071428576 133:0.0071428576 135:0.0071428576 136:0.0071428576 139:0.0095238099 140:0.0047619049 144:0.0023809525 146:0.0023809525 
100000 108:0.0068027209 109:0.0090702949 110:0.0022675737 111:0.0068027209 112:0.0090702949 113:0.0045351475 115:0.0068027209 116:0.0090702949 117:0.0090702949 118:0.015873017 119:0.054421768 120:0.12698413 121:0.013605442 122:0.16099773 123:0.15646258 124:0.24489796 125:0.058956917 126:0.015873017 127:0.0045351475 128:0.013605442 129:0.011337869 130:0.0045351475 131:0.0090702949 132:0.0068027209 133:0.0068027209 135:0.0068027209 136:0.0068027209 139:0.0090702949 140:0.0045351475 144:0.0022675737 146:0.0022675737 
100000 108:0.0068027209 109:0.0090702949 110:0.0022675737 111:0.0068027209 112:0.0090702949 113:0.0045351475 115:0.0068027209 116:0.0090702949 117:0.0090702949 118:0.015873017 119:0.045351475 120:0.10884354 121:0.013605442 122:0.14739229 123:0.1814059 124:0.24943312 125:0.070294783 126:0.015873017 127:0.0045351475 128:0.013605442 129:0.011337869 130:0.0045351475 131:0.0090702949 132:0.0068027209 133:0.0068027209 135:0.0068027209 136:0.0068027209 139:0.0090702949 140:0.0045351475 144:0.0022675737 146:0.0022675737 
100000 86:0.0022675737 87:0.0022675737 89:0.0045351475 91:0.0068027209 94:0.0022675737 95:0.0022675737 96:0.0068027209 97:0.0022675737 101:0.0045351475 102:0.0022675737 104:0.011337869 105:0.0068027209 107:0.0045351475 108:0.0045351475 109:0.0022675737 110:0.0045351475 111:0.0068027209 112:0.0068027209 113:0.0022675737 114:0.0022675737 115:0.0045351475 116:0.0022675737 117:0.029478459 118:0.038548753 119:0.06122449 120:0.06122449 121:0.0045351475 122:0.20634921 123:0.16099773 124:0.043083902 125:0.027210884 126:0.03628118 127:0.024943311 129:0.0045351475 130:0.0068027209 131:0.0090702949 132:0.0045351475 133:0.0090702949 134:0.0068027209 135:0.0022675737 136:0.0045351475 137:0.0045351475 138:0.0022675737 139:0.0068027209 140:0.0068027209 141:0.0022675737 142:0.0022675737 143:0.0022675737 144:0.0068027209 145:0.0045351475 146:0.0068027209 147:0.0068027209 148:0.0022675737 149:0.0045351475 150:0.0022675737 151:0.0045351475 152:0.0045351475 153:0.0022675737 154:0.0022675737 155:0.0090702949 157:0.0022675737 159:0.0022675737 160:0.0022675737 161:0.0068027209 162:0.0022675737 164:0.0045351475 165:0.0068027209 167:0.0045351475 168:0.0022675737 170:0.0068027209 172:0.0045351475 175:0.0068027209 176:0.0022675737 177:0.0022675737 180:0.0045351475 181:0.0022675737 182:0.0022675737 183:0.0022675737 187:0.0022675737 189:0.0045351475 190:0.0022675737 193:0.0022675737 
100000 98:0.0022675737 102:0.0022675737 103:0.0022675737 104:0.0045351475 107:0.011337869 108:0.0068027209 109:0.0045351475 110:0.0022675737 111:0.020408163 112:0.0022675737 113:0.0022675737 114:0.0045351475 115:0.0068027209 116:0.0090702949 117:0.015873017 118:0.013605442 119:0.011337869 120:0.0090702949 121:0.0090702949 122:0.022675738 123:0.024943311 124:0.047619049 125:0.045351475 126:0.088435374 127:0.054421768 128:0.024943311 129:0.027210884 130:0.031746034 131:0.045351475 132:0.063492067 133:0.079365082 134:0.03628118 135:0.0045351475 136:0.0090702949 137:0.013605442 138:0.0068027209 139:0.01814059 140:0.011337869 141:0.020408163 142:0.013605442 143:0.0090702949 144:0.0045351475 145:0.013605442 146:0.0090702949 147:0.024943311 148:0.015873017 149:0.0090702949 150:0.011337869 151:0.011337869 152:0.0045351475 153:0.0068027209 154:0.0022675737 155:0.0022675737 156:0.0022675737 157:0.0022675737 158:0.0045351475 159:0.0068027209 160:0.0022675737 161:0.0068027209 163:0.0022675737 164:0.0022675737 166:0.0022675737 167:0.0022675737 169:0.0022675737 170:0.0022675737 172:0.0022675737 176:0.0022675737 179:0.0022675737 
27013.22785426417 98:0.0022675737 102:0.0022675737 103:0.0022675737 104:0.0045351475 107:0.011337869 108:0.0068027209 109:0.0045351475 110:0.0022675737 111:0.020408163 112:0.0022675737 113:0.0022675737 114:0.0045351475 115:0.0068027209 116:0.011337869 117:0.015873017 118:0.013605442 119:0.013605442 120:0.011337869 121:0.0090702949 122:0.022675738 123:0.024943311 124:0.047619049 125:0.052154195 126:0.090702951 127:0.058956917 128:0.024943311 129:0.024943311 130:0.029478459 131:0.043083902 132:0.058956917 133:0.079365082 134:0.027210884 135:0.0045351475 137:0.013605442 138:0.0068027209 139:0.015873017 140:0.011337869 141:0.01814059 142:0.015873017 143:0.0090702949 144:0.0022675737 145:0.013605442 146:0.013605442 147:0.020408163 148:0.013605442 149:0.0090702949 150:0.011337869 151:0.01814059 152:0.0068027209 153:0.0068027209 154:0.0022675737 155:0.0022675737 156:0.0022675737 157:0.0022675737 158:0.0045351475 159:0.0068027209 160:0.0022675737 161:0.0068027209 163:0.0022675737 164:0.0022675737 166:0.0022675737 167:0.0022675737 169:0.0045351475 170:0.0045351475 172:0.0022675737 176:0.0045351475 179:0.0022675737 
100000 98:0.0022675737 102:0.0022675737 103:0.0022675737 104:0.0045351475 107:0.011337869 108:0.0068027209 109:0.0045351475 110:0.0022675737 111:0.020408163 112:0.0022675737 113:0.0022675737 114:0.0045351475 115:0.0068027209 116:0.013605442 117:0.015873017 118:0.013605442 119:0.013605442 120:0.011337869 121:0.011337869 122:0.022675738 123:0.024943311 124:0.047619049 125:0.052154195 126:0.090702951 127:0.063492067 128:0.022675738 129:0.024943311 130:0.027210884 131:0.040816326 132:0.058956917 133:0.063492067 134:0.027210884 135:0.0045351475 137:0.013605442 138:0.0068027209 139:0.013605442 140:0.0090702949 141:0.015873017 142:0.020408163 143:0.0090702949 144:0.0022675737 145:0.0090702949 146:0.013605442 147:0.01814059 148:0.011337869 149:0.0090702949 150:0.011337869 151:0.01814059 152:0.0068027209 153:0.0068027209 154:0.0022675737 155:0.0022675737 156:0.0068027209 157:0.0022675737 158:0.0045351475 159:0.0068027209 160:0.0022675737 161:0.0068027209 163:0.0045351475 164:0.0045351475 165:0.0022675737 166:0.0045351475 167:0.0045351475 168:0.0022675737 169:0.0045351475 170:0.0045351475 172:0.0022675737 176:0.0045351475 179:0.0022675737 181:0.0022675737 186:0.0045351475 
100000 98:0.0022675737 102:0.0022675737 103:0.0022675737 104:0.0045351475 107:0.011337869 108:0.0068027209 109:0.0045351475 110:0.0022675737 111:0.020408163 112:0.0022675737 113:0.0022675737 114:0.0045351475 115:0.0068027209 116:0.013605442 117:0.015873017 118:0.013605442 119:0.013605442 120:0.013605442 121:0.011337869 122:0.022675738 123:0.024943311 124:0.047619049 125:0.052154195 126:0.088435374 127:0.068027213 128:0.022675738 129:0.024943311 130:0.024943311 131:0.034013607 132:0.058956917 133:0.043083902 134:0.024943311 135:0.0045351475 137:0.011337869 138:0.0068027209 139:0.013605442 140:0.0090702949 141:0.013605442 142:0.020408163 143:0.0090702949 144:0.0022675737 145:0.0068027209 146:0.015873017 147:0.015873017 148:0.011337869 149:0.013605442 150:0.011337869 151:0.01814059 152:0.0068027209 153:0.0068027209 154:0.0022675737 155:0.0022675737 156:0.0068027209 157:0.0022675737 158:0.0045351475 159:0.0068027209 160:0.0045351475 161:0.0068027209 162:0.0022675737 163:0.0045351475 164:0.0045351475 165:0.0022675737 166:0.0068027209 167:0.0045351475 168:0.0022675737 169:0.0045351475 170:0.0045351475 172:0.0022675737 175:0.0022675737 176:0.0068027209 179:0.0045351475 181:0.0022675737 182:0.0022675737 185:0.0022675737 186:0.0045351475 188:0.0022675737 192:0.0022675737 193:0.0022675737 196:0.0022675737 200:0.0022675737 
100000 98:0.0022675737 102:0.0022675737 103:0.0022675737 104:0.0045351475 107:0.011337869 108:0.0068027209 109:0.0045351475 110:0.0022675737 111:0.020408163 112:0.0022675737 113:0.0022675737 114:0.0045351475 115:0.0068027209 116:0.013605442 117:0.015873017 118:0.013605442 119:0.013605442 120:0.015873017 121:0.011337869 122:0.022675738 123:0.024943311 124:0.047619049 125:0.052154195 126:0.088435374 127:0.06122449 128:0.022675738 129:0.020408163 130:0.027210884 131:0.027210884 132:0.052154195 133:0.034013607 134:0.024943311 135:0.0045351475 137:0.0090702949 138:0.0068027209 139:0.013605442 140:0.0090702949 141:0.013605442 142:0.020408163 143:0.0068027209 144:0.0022675737 145:0.0068027209 146:0.015873017 147:0.011337869 148:0.011337869 149:0.013605442 150:0.011337869 151:0.01814059 152:0.0068027209 153:0.0068027209 154:0.0022675737 155:0.0045351475 156:0.011337869 157:0.0022675737 158:0.0045351475 159:0.0068027209 160:0.0068027209 161:0.0068027209 162:0.0022675737 163:0.0045351475 164:0.0045351475 165:0.0022675737 166:0.0068027209 167:0.0045351475 168:0.0045351475 169:0.0068027209 170:0.0045351475 171:0.0022675737 172:0.0022675737 175:0.0022675737 176:0.0090702949 177:0.0022675737 179:0.0068027209 181:0.0022675737 182:0.0022675737 185:0.0022675737 186:0.0045351475 188:0.0022675737 190:0.0022675737 191:0.0022675737 192:0.0022675737 193:0.0022675737 196:0.0045351475 199:0.0022675737 200:0.0022675737 227:0.0022675737 229:0.0022675737 238:0.0022675737 
100000 111:0.0068027209 112:0.034013607 113:0.0068027209 115:0.045351475 116:0.049886622 117:0.11337869 118:0.054421768 119:0.06122449 120:0.047619049 122:0.040816326 123:0.074829936 124:0.077097505 125:0.1201814 126:0.14965987 127:0.058956917 128:0.049886622 129:0.0090702949 
100000 111:0.0068027209 112:0.03628118 113:0.011337869 115:0.047619049 116:0.040816326 117:0.043083902 118:0.043083902 119:0.06122449 120:0.054421768 122:0.045351475 123:0.14058957 124:0.1632653 125:0.22222222 126:0.038548753 127:0.0090702949 129:0.015873017 130:0.0090702949 131:0.0045351475 132:0.0022675737 136:0.0022675737 137:0.0022675737 
100000 111:0.0068027209 112:0.034013607 113:0.011337869 115:0.038548753 116:0.034013607 117:0.038548753 118:0.043083902 119:0.06122449 120:0.052154195 122:0.045351475 123:0.138322 124:0.16099773 125:0.24263039 126:0.03628118 127:0.0068027209 129:0.020408163 130:0.011337869 131:0.0045351475 132:0.0045351475 136:0.0022675737 137:0.0045351475 140:0.0022675737 
100000 111:0.0022675737 112:0.027210884 113:0.011337869 115:0.024943311 116:0.020408163 117:0.024943311 118:0.024943311 119:0.056689344 120:0.052154195 122:0.040816326 123:0.1292517 124:0.15419501 125:0.27891156 126:0.038548753 127:0.020408163 129:0.029478459 130:0.011337869 131:0.0090702949 132:0.011337869 133:0.0045351475 134:0.0022675737 136:0.0090702949 137:0.0068027209 138:0.0045351475 140:0.0045351475 
100000 111:0.0022675737 112:0.027210884 113:0.011337869 115:0.020408163 116:0.020408163 117:0.022675738 118:0.022675738 119:0.049886622 120:0.040816326 122:0.038548753 123:0.12698413 124:0.14965987 125:0.29478458 126:0.043083902 127:0.029478459 129:0.029478459 130:0.015873017 131:0.011337869 132:0.011337869 133:0.0045351475 134:0.0022675737 136:0.0090702949 137:0.0068027209 138:0.0045351475 140:0.0045351475 
100000 111:0.0022675737 112:0.027210884 113:0.011337869 115:0.01814059 116:0.020408163 117:0.020408163 118:0.01814059 119:0.049886622 120:0.027210884 122:0.034013607 123:0.12244898 124:0.12244898 125:0.31519276 126:0.049886622 127:0.031746034 128:0.0045351475 129:0.031746034 130:0.024943311 131:0.013605442 132:0.013605442 133:0.0068027209 134:0.0022675737 136:0.0090702949 137:0.0068027209 138:0.0045351475 139:0.0045351475 140:0.0068027209 
100000 111:0.0022675737 112:0.027210884 113:0.0090702949 115:0.01814059 116:0.020408163 117:0.015873017 118:0.015873017 119:0.040816326 120:0.024943311 122:0.031746034 123:0.11791383 124:0.10884354 125:0.33333334 126:0.058956917 127:0.03628118 128:0.0090702949 129:0.031746034 130:0.029478459 131:0.013605442 132:0.013605442 133:0.0068027209 134:0.0022675737 136:0.0090702949 137:0.0068027209 138:0.0045351475 139:0.0045351475 140:0.0068027209 
100000 111:0.0022675737 112:0.027210884 113:0.0068027209 115:0.015873017 116:0.01814059 117:0.013605442 118:0.013605442 119:0.031746034 120:0.022675738 122:0.031746034 123:0.10884354 124:0.099773243 125:0.35147393 126:0.068027213 127:0.049886622 128:0.0090702949 129:0.031746034 130:0.029478459 131:0.013605442 132:0.013605442 133:0.0068027209 134:0.0022675737 136:0.0090702949 137:0.0068027209 138:0.0045351475 139:0.0045351475 140:0.0068027209 
100000 111:0.0022675737 112:0.024943311 113:0.0045351475 115:0.013605442 116:0.015873017 117:0.011337869 118:0.011337869 119:0.024943311 120:0.020408163 122:0.029478459 123:0.10204082 124:0.09297052 125:0.36734694 126:0.077097505 127:0.063492067 128:0.0090702949 129:0.031746034 130:0.029478459 131:0.013605442 132:0.013605442 133:0.0068027209 134:0.0022675737 136:0.0090702949 137:0.0068027209 138:0.0045351475 139:0.0045351475 140:0.0068027209 
100000 111:0.0022675737 112:0.01814059 113:0.0045351475 115:0.013605442 116:0.011337869 117:0.011337869 118:0.0090702949 119:0.01814059 120:0.01814059 122:0.027210884 123:0.095238097 124:0.086167805 125:0.37414965 126:0.10884354 127:0.063492067 128:0.0090702949 129:0.031746034 130:0.029478459 131:0.013605442 132:0.013605442 133:0.0068027209 134:0.0022675737 136:0.0090702949 137:0.0068027209 138:0.0045351475 139:0.0045351475 140:0.0068027209 
100000 112:0.013605442 113:0.0045351475 115:0.011337869 116:0.0090702949 117:0.0090702949 118:0.0090702949 119:0.011337869 120:0.015873017 122:0.024943311 123:0.083900228 124:0.058956917 125:0.35827664 126:0.16099773 127:0.065759636 128:0.013605442 129:0.034013607 130:0.03628118 131:0.015873017 132:0.013605442 133:0.0068027209 134:0.0022675737 136:0.011337869 137:0.0090702949 138:0.0045351475 139:0.0045351475 140:0.011337869 
100000 109:0.0045351475 110:0.0068027209 113:0.0068027209 115:0.0045351475 116:0.0045351475 117:0.0090702949 118:0.0090702949 119:0.013605442 120:0.01814059 122:0.031746034 123:0.034013607 124:0.065759636 125:0.48072562 126:0.12698413 127:0.011337869 129:0.01814059 130:0.038548753 131:0.011337869 132:0.013605442 133:0.0090702949 134:0.0090702949 136:0.0090702949 137:0.011337869 138:0.0045351475 139:0.0090702949 140:0.0045351475 141:0.0022675737 144:0.0045351475 145:0.0045351475 146:0.0022675737 147:0.0022675737 148:0.0022675737 150:0.0022675737 151:0.0022675737 154:0.0045351475 155:0.0045351475 160:0.0022675737 
100000 109:0.0045351475 110:0.0068027209 113:0.0068027209 115:0.0045351475 116:0.0045351475 117:0.0090702949 118:0.0090702949 119:0.013605442 120:0.01814059 122:0.031746034 123:0.034013607 124:0.065759636 125:0.45351475 126:0.15419501 127:0.011337869 129:0.01814059 130:0.038548753 131:0.011337869 132:0.013605442 133:0.0090702949 134:0.0090702949 136:0.0090702949 137:0.011337869 138:0.0045351475 139:0.0090702949 140:0.0045351475 141:0.0022675737 144:0.0045351475 145:0.0045351475 146:0.0022675737 147:0.0022675737 148:0.0022675737 150:0.0022675737 151:0.0022675737 154:0.0045351475 155:0.0045351475 160:0.0022675737 
100000 109:0.0045351475 110:0.0068027209 113:0.0068027209 115:0.0045351475 116:0.0045351475 117:0.0090702949 118:0.0090702949 119:0.013605442 120:0.01814059 122:0.031746034 123:0.034013607 124:0.040816326 125:0.44897959 126:0.18367347 127:0.011337869 129:0.01814059 130:0.038548753 131:0.011337869 132:0.013605442 133:0.0090702949 134:0.0090702949 136:0.0090702949 137:0.011337869 138:0.0045351475 139:0.0090702949 140:0.0045351475 141:0.0022675737 144:0.0045351475 145:0.0045351475 146:0.0022675737 147:0.0022675737 148:0.0022675737 150:0.0022675737 151:0.0022675737 154:0.0045351475 155:0.0045351475 160:0.0022675737 
100000 109:0.0045351475 110:0.0068027209 113:0.0068027209 115:0.0045351475 116:0.0045351475 117:0.0090702949 118:0.0090702949 119:0.013605442 120:0.01814059 122:0.031746034 123:0.027210884 124:0.020408163 125:0.42857143 126:0.23129252 127:0.011337869 129:0.01814059 130:0.038548753 131:0.011337869 132:0.013605442 133:0.0090702949 134:0.0090702949 136:0.0090702949 137:0.011337869 138:0.0045351475 139:0.0090702949 140:0.0045351475 141:0.0022675737 144:0.0045351475 145:0.0045351475 146:0.0022675737 147:0.0022675737 148:0.0022675737 150:0.0022675737 151:0.0022675737 154:0.0045351475 155:0.0045351475 160:0.0022675737 
100000 115:0.0043290043 117:0.0043290043 118:0.0043290043 120:0.012987013 121:0.0086580086 122:0.0086580086 123:0.021645021 124:0.051948052 125:0.025974026 126:0.025974026 127:0.030303031 128:0.047619049 129:0.15584415 130:0.17748918 131:0.086580083 132:0.073593073 133:0.073593073 134:0.043290041 136:0.038961038 137:0.030303031 138:0.0043290043 139:0.017316017 140:0.0043290043 141:0.0086580086 143:0.0043290043 145:0.012987013 149:0.0086580086 150:0.0043290043 154:0.0086580086 
100000 115:0.0039682542 117:0.0039682542 118:0.0039682542 120:0.019841271 121:0.0079365084 122:0.011904763 123:0.023809526 124:0.047619052 125:0.031746034 126:0.023809526 127:0.02777778 128:0.047619052 129:0.14285715 130:0.19047621 131:0.08730159 132:0.067460321 133:0.079365082 134:0.039682541 136:0.039682541 137:0.02777778 138:0.0079365084 139:0.015873017 140:0.0039682542 141:0.0079365084 143:0.0039682542 145:0.011904763 149:0.0079365084 150:0.0039682542 154:0.0079365084 
100000 115:0.0036630037 117:0.0036630037 118:0.0036630037 120:0.021978023 121:0.0073260074 122:0.021978023 123:0.021978023 124:0.040293042 125:0.025641026 126:0.021978023 127:0.025641026 128:0.0989011 129:0.13919415 130:0.17582418 131:0.084249087 132:0.062271062 133:0.062271062 134:0.029304029 136:0.036630038 137:0.036630038 138:0.018315019 139:0.014652015 140:0.0036630037 141:0.0073260074 143:0.0036630037 145:0.010989011 149:0.0073260074 150:0.0036630037 154:0.0073260074 
100000 115:0.0034013605 117:0.0034013605 118:0.0034013605 120:0.020408163 121:0.0068027209 122:0.020408163 123:0.017006803 124:0.030612245 125:0.030612245 126:0.027210884 127:0.023809522 128:0.1462585 129:0.13605443 130:0.14965986 131:0.081632651 132:0.057823129 133:0.057823129 134:0.023809522 136:0.034013607 137:0.040816326 138:0.030612245 139:0.013605442 140:0.0034013605 141:0.0068027209 143:0.0034013605 145:0.010204081 149:0.0068027209 150:0.0034013605 154:0.0068027209 
100000 115:0.0031746032 117:0.0031746032 118:0.0031746032 120:0.01904762 121:0.0063492064 122:0.01904762 123:0.015873017 124:0.028571429 125:0.028571429 126:0.025396826 127:0.022222223 128:0.14603175 129:0.13333334 130:0.13968255 131:0.085714288 132:0.06031746 133:0.057142857 134:0.022222223 136:0.031746034 137:0.044444446 138:0.050793651 139:0.015873017 140:0.0031746032 141:0.0063492064 143:0.0031746032 145:0.0095238099 149:0.0063492064 150:0.0031746032 154:0.0063492064 
100000 115:0.0029761905 117:0.0029761905 118:0.0029761905 120:0.017857144 122:0.017857144 123:0.014880952 124:0.023809524 125:0.023809524 126:0.023809524 127:0.011904762 128:0.19047619 129:0.12202381 130:0.13095239 131:0.086309522 132:0.056547619 133:0.047619049 134:0.023809524 135:0.0029761905 136:0.029761905 137:0.044642858 138:0.065476194 139:0.011904762 140:0.0029761905 141:0.0089285718 142:0.0059523811 143:0.0029761905 145:0.0089285718 149:0.0059523811 150:0.0029761905 154:0.0059523811 
100000 115:0.0028011205 117:0.0028011205 118:0.0028011205 120:0.0084033618 122:0.016806724 123:0.011204482 124:0.019607844 125:0.019607844 126:0.016806724 127:0.0084033618 128:0.23529412 129:0.11204482 130:0.12605043 131:0.081232496 132:0.047619049 133:0.053221289 134:0.022408964 135:0.0028011205 136:0.028011205 137:0.044817928 138:0.067226894 139:0.019607844 140:0.0028011205 141:0.011204482 142:0.0028011205 143:0.0028011205 145:0.011204482 148:0.005602241 149:0.005602241 150:0.0028011205 154:0.005602241 
100000 115:0.0026455026 117:0.0026455026 118:0.0026455026 120:0.0079365075 122:0.015873015 123:0.01058201 124:0.018518519 125:0.018518519 126:0.015873015 127:0.0079365075 128:0.23015872 129:0.1058201 130:0.12698412 131:0.079365075 132:0.044973545 133:0.055555552 134:0.023809522 135:0.0026455026 136:0.026455026 137:0.042328041 138:0.071428567 139:0.029100528 140:0.0026455026 141:0.013227513 142:0.0026455026 143:0.0026455026 145:0.013227513 148:0.0052910051 149:0.0079365075 150:0.0026455026 152:0.0026455026 154:0.0052910051 
100000 118:0.0025062656 120:0.0025062656 122:0.012531328 123:0.0075187972 124:0.01754386 125:0.015037594 126:0.012531328 127:0.0075187972 128:0.26065162 129:0.10025062 130:0.13283208 131:0.072681703 132:0.04010025 133:0.055137843 134:0.025062656 135:0.0025062656 136:0.025062656 137:0.042606518 138:0.075187966 139:0.03508772 140:0.0025062656 141:0.012531328 143:0.0025062656 145:0.012531328 147:0.0025062656 148:0.0075187972 149:0.0075187972 150:0.0025062656 154:0.0050125313 
100000 122:0.0047619049 123:0.0071428576 124:0.014285715 125:0.011904762 126:0.0095238099 127:0.0071428576 128:0.29523811 129:0.095238097 130:0.12380953 131:0.076190479 132:0.040476192 133:0.050000001 134:0.026190476 135:0.0047619049 136:0.023809524 137:0.040476192 138:0.080952384 139:0.040476192 140:0.0023809525 141:0.0095238099 143:0.0023809525 144:0.0023809525 145:0.011904762 147:0.0047619049 148:0.0023809525 149:0.0047619049 150:0.0023809525 154:0.0047619049 
100000 122:0.0045351475 123:0.0068027209 124:0.013605442 125:0.011337869 126:0.0090702949 127:0.0068027209 128:0.28344673 129:0.090702951 130:0.1292517 131:0.079365082 132:0.038548753 133:0.049886622 134:0.024943311 135:0.0090702949 136:0.022675738 137:0.040816326 138:0.086167805 139:0.043083902 140:0.0022675737 141:0.0090702949 143:0.0022675737 144:0.0022675737 145:0.011337869 147:0.0045351475 148:0.0045351475 149:0.0045351475 150:0.0022675737 154:0.0045351475 157:0.0022675737 
100000 122:0.0022675737 124:0.0090702949 125:0.0090702949 126:0.0045351475 127:0.0068027209 128:0.31519276 129:0.088435374 130:0.13378686 131:0.079365082 132:0.031746034 133:0.052154195 134:0.022675738 135:0.013605442 136:0.020408163 137:0.043083902 138:0.09297052 139:0.047619049 140:0.0022675737 141:0.0068027209 143:0.0022675737 144:0.0022675737 145:0.0022675737 148:0.0045351475 149:0.0045351475 156:0.0022675737 
100000 125:0.0022675737 126:0.0022675737 127:0.011337869 128:0.36961451 129:0.088435374 130:0.13378686 131:0.072562359 132:0.034013607 133:0.040816326 134:0.029478459 135:0.024943311 136:0.015873017 137:0.03628118 138:0.081632651 139:0.052154195 140:0.0045351475 
100000 125:0.0022675737 126:0.0022675737 127:0.020408163 128:0.39455783 129:0.083900228 130:0.13605443 131:0.070294783 132:0.029478459 133:0.038548753 134:0.029478459 135:0.034013607 136:0.011337869 137:0.029478459 138:0.063492067 139:0.054421768 
100000 125:0.0022675737 126:0.0022675737 127:0.027210884 128:0.37414965 129:0.077097505 130:0.13605443 131:0.077097505 132:0.022675738 133:0.03628118 134:0.029478459 135:0.03628118 136:0.01814059 137:0.03628118 138:0.068027213 139:0.056689344 
100000 125:0.0022675737 126:0.0022675737 127:0.043083902 128:0.39229026 129:0.065759636 130:0.138322 131:0.077097505 132:0.022675738 133:0.03628118 134:0.024943311 135:0.03628118 136:0.013605442 137:0.03628118 138:0.074829936 139:0.034013607 
100000 125:0.0022675737 126:0.049886622 127:0.052154195 128:0.36961451 129:0.049886622 130:0.14285715 131:0.077097505 132:0.022675738 133:0.027210884 134:0.024943311 135:0.038548753 136:0.015873017 137:0.040816326 138:0.070294783 139:0.015873017 
100000 126:0.049886622 127:0.056689344 128:0.34693879 129:0.038548753 130:0.14965987 131:0.077097505 132:0.024943311 133:0.027210884 134:0.024943311 135:0.038548753 136:0.022675738 137:0.040816326 138:0.077097505 139:0.020408163 140:0.0045351475 
100000 126:0.095238097 127:0.063492067 128:0.32426304 129:0.024943311 130:0.15646258 131:0.079365082 132:0.022675738 133:0.027210884 134:0.024943311 135:0.038548753 136:0.024943311 137:0.034013607 138:0.056689344 139:0.015873017 140:0.0068027209 143:0.0022675737 144:0.0022675737 
100000 113:0.0022675737 115:0.011337869 116:0.0090702949 117:0.034013607 118:0.029478459 119:0.020408163 120:0.01814059 122:0.01814059 123:0.054421768 124:0.48299322 125:0.081632651 126:0.065759636 127:0.047619049 129:0.031746034 130:0.01814059 131:0.011337869 132:0.011337869 133:0.0068027209 134:0.0022675737 137:0.0090702949 138:0.0022675737 139:0.0022675737 140:0.0022675737 141:0.0045351475 143:0.0022675737 144:0.0022675737 145:0.0068027209 146:0.0068027209 147:0.0045351475 
100000 113:0.0045351475 115:0.020408163 116:0.0090702949 117:0.03628118 118:0.029478459 119:0.022675738 120:0.024943311 122:0.022675738 123:0.06122449 124:0.44897959 125:0.081632651 126:0.065759636 127:0.047619049 129:0.031746034 130:0.01814059 131:0.011337869 132:0.011337869 133:0.0068027209 134:0.0022675737 137:0.0090702949 138:0.0022675737 139:0.0022675737 140:0.0022675737 141:0.0045351475 143:0.0022675737 144:0.0022675737 145:0.0068027209 146:0.0068027209 147:0.0045351475 
100000 113:0.0045351475 115:0.020408163 116:0.0090702949 117:0.03628118 118:0.031746034 119:0.031746034 120:0.029478459 122:0.024943311 123:0.072562359 124:0.41950113 125:0.081632651 126:0.065759636 127:0.047619049 129:0.031746034 130:0.01814059 131:0.011337869 132:0.011337869 133:0.0068027209 134:0.0022675737 137:0.0090702949 138:0.0022675737 139:0.0022675737 140:0.0022675737 141:0.0045351475 143:0.0022675737 144:0.0022675737 145:0.0068027209 146:0.0068027209 147:0.0045351475 
100000 113:0.0045351475 115:0.020408163 116:0.0090702949 117:0.03628118 118:0.031746034 119:0.031746034 120:0.031746034 122:0.03628118 123:0.088435374 124:0.3900227 125:0.081632651 126:0.065759636 127:0.047619049 129:0.031746034 130:0.01814059 131:0.011337869 132:0.011337869 133:0.0068027209 134:0.0022675737 137:0.0090702949 138:0.0022675737 139:0.0022675737 140:0.0022675737 141:0.0045351475 143:0.0022675737 144:0.0022675737 145:0.0068027209 146:0.0068027209 147:0.0045351475 
100000 113:0.0045351475 115:0.020408163 116:0.0090702949 117:0.03628118 118:0.031746034 119:0.031746034 120:0.031746034 122:0.038548753 123:0.11337869 124:0.3628118 125:0.081632651 126:0.065759636 127:0.047619049 129:0.031746034 130:0.01814059 131:0.011337869 132:0.011337869 133:0.0068027209 134:0.0022675737 137:0.0090702949 138:0.0022675737 139:0.0022675737 140:0.0022675737 141:0.0045351475 143:0.0022675737 144:0.0022675737 145:0.0068027209 146:0.0068027209 147:0.0045351475 
100000 113:0.0045351475 115:0.020408163 116:0.0090702949 117:0.03628118 118:0.031746034 119:0.031746034 120:0.031746034 122:0.038548753 123:0.14058957 124:0.33560091 125:0.081632651 126:0.065759636 127:0.047619049 129:0.031746034 130:0.01814059 131:0.011337869 132:0.011337869 133:0.0068027209 134:0.0022675737 137:0.0090702949 138:0.0022675737 139:0.0022675737 140:0.0022675737 141:0.0045351475 143:0.0022675737 144:0.0022675737 145:0.0068027209 146:0.0068027209 147:0.0045351475 
100000 113:0.0045351475 115:0.020408163 116:0.0090702949 117:0.03628118 118:0.031746034 119:0.031746034 120:0.031746034 122:0.038548753 123:0.16780046 124:0.29024944 125:0.095238097 126:0.070294783 127:0.047619049 129:0.031746034 130:0.01814059 131:0.011337869 132:0.011337869 133:0.0068027209 134:0.0022675737 137:0.0090702949 138:0.0022675737 139:0.0022675737 140:0.0022675737 141:0.0045351475 143:0.0022675737 144:0.0022675737 145:0.0068027209 146:0.0068027209 147:0.0045351475 
100000 113:0.0045351475 115:0.020408163 116:0.0090702949 117:0.03628118 118:0.031746034 119:0.031746034 120:0.031746034 122:0.038548753 123:0.19501135 124:0.26757371 125:0.090702951 126:0.070294783 127:0.047619049 129:0.031746034 130:0.01814059 131:0.011337869 132:0.011337869 133:0.0068027209 134:0.0022675737 137:0.0090702949 138:0.0022675737 139:0.0022675737 140:0.0022675737 141:0.0045351475 143:0.0022675737 144:0.0022675737 145:0.0068027209 146:0.0068027209 147:0.0045351475 
100000 113:0.0045351475 115:0.020408163 116:0.0090702949 117:0.03628118 118:0.031746034 119:0.031746034 120:0.031746034 122:0.038548753 123:0.22222222 124:0.24943312 125:0.081632651 126:0.070294783 127:0.047619049 129:0.031746034 130:0.01814059 131:0.011337869 132:0.011337869 133:0.0068027209 134:0.0022675737 137:0.0090702949 138:0.0022675737 139:0.0022675737 140:0.0022675737 141:0.0045351475 143:0.0022675737 144:0.0022675737 145:0.0068027209 146:0.0068027209 147:0.0045351475 
100000 113:0.0045351475 115:0.020408163 116:0.0090702949 117:0.03628118 118:0.031746034 119:0.031746034 120:0.031746034 122:0.038548753 123:0.24943312 124:0.24263039 125:0.065759636 126:0.065759636 127:0.047619049 129:0.031746034 130:0.01814059 131:0.011337869 132:0.011337869 133:0.0068027209 134:0.0022675737 137:0.0090702949 138:0.0022675737 139:0.0022675737 140:0.0022675737 141:0.0045351475 143:0.0022675737 144:0.0022675737 145:0.0068027209 146:0.0068027209 147:0.0045351475 
100000 112:0.0022675737 113:0.0090702949 115:0.020408163 116:0.0022675737 117:0.0068027209 118:0.0045351475 119:0.0022675737 120:0.027210884 122:0.024943311 123:0.015873017 124:0.045351475 125:0.074829936 126:0.55782312 127:0.049886622 129:0.027210884 130:0.01814059 131:0.0068027209 132:0.01814059 133:0.0090702949 134:0.015873017 136:0.011337869 137:0.011337869 138:0.01814059 139:0.0068027209 140:0.013605442 
100000 112:0.0022675737 113:0.0090702949 115:0.020408163 116:0.0068027209 117:0.013605442 118:0.0045351475 119:0.0022675737 120:0.027210884 122:0.029478459 123:0.024943311 124:0.052154195 125:0.072562359 126:0.52607709 127:0.052154195 129:0.027210884 130:0.01814059 131:0.0068027209 132:0.01814059 133:0.0090702949 134:0.015873017 136:0.011337869 137:0.011337869 138:0.01814059 139:0.0068027209 140:0.013605442 
100000 112:0.0022675737 113:0.0090702949 115:0.020408163 116:0.0068027209 117:0.013605442 118:0.0045351475 119:0.0022675737 120:0.027210884 122:0.029478459 123:0.034013607 124:0.045351475 125:0.065759636 126:0.53061223 127:0.052154195 129:0.027210884 130:0.01814059 131:0.0068027209 132:0.01814059 133:0.0090702949 134:0.015873017 136:0.011337869 137:0.011337869 138:0.01814059 139:0.0068027209 140:0.013605442 
100000 112:0.0022675737 113:0.0090702949 115:0.020408163 116:0.0068027209 117:0.015873017 118:0.0045351475 119:0.011337869 120:0.027210884 122:0.031746034 123:0.034013607 124:0.043083902 125:0.090702951 126:0.48979592 127:0.056689344 129:0.027210884 130:0.01814059 131:0.0068027209 132:0.01814059 133:0.0090702949 134:0.015873017 136:0.011337869 137:0.011337869 138:0.01814059 139:0.0068027209 140:0.013605442 
100000 112:0.0022675737 113:0.0090702949 115:0.020408163 116:0.0068027209 117:0.015873017 118:0.0045351475 119:0.011337869 120:0.027210884 122:0.031746034 123:0.034013607 124:0.038548753 125:0.083900228 126:0.5011338 127:0.056689344 129:0.027210884 130:0.01814059 131:0.0068027209 132:0.01814059 133:0.0090702949 134:0.015873017 136:0.011337869 137:0.011337869 138:0.01814059 139:0.0068027209 140:0.013605442 
100000 112:0.0022675737 113:0.0090702949 115:0.020408163 116:0.0068027209 117:0.015873017 118:0.0068027209 119:0.011337869 120:0.027210884 122:0.038548753 123:0.040816326 124:0.045351475 125:0.10657597 126:0.45124719 127:0.06122449 129:0.027210884 130:0.01814059 131:0.0068027209 132:0.01814059 133:0.0090702949 134:0.015873017 136:0.011337869 137:0.011337869 138:0.01814059 139:0.0068027209 140:0.013605442 
31149.1308896776 119:0.0022675737 121:0.0022675737 122:0.0045351475 123:0.013605442 124:0.0090702949 125:0.011337869 126:0.0045351475 127:0.0090702949 128:0.0045351475 129:0.029478459 130:0.063492067 131:0.10884354 132:0.054421768 133:0.056689344 134:0.022675738 135:0.0045351475 136:0.029478459 137:0.029478459 138:0.015873017 139:0.022675738 140:0.013605442 141:0.027210884 143:0.038548753 144:0.022675738 145:0.022675738 146:0.015873017 147:0.024943311 148:0.024943311 149:0.0022675737 150:0.022675738 151:0.015873017 152:0.015873017 153:0.022675738 154:0.020408163 155:0.015873017 156:0.0045351475 157:0.015873017 158:0.0068027209 159:0.0045351475 160:0.0090702949 161:0.0068027209 162:0.0068027209 163:0.0068027209 164:0.0068027209 165:0.0045351475 166:0.0068027209 168:0.013605442 169:0.0068027209 170:0.011337869 171:0.0045351475 172:0.0022675737 173:0.013605442 174:0.0068027209 175:0.0068027209 177:0.0090702949 178:0.0045351475 179:0.0045351475 182:0.0022675737 186:0.0022675737 187:0.0022675737 188:0.0022675737 190:0.0045351475 191:0.0022675737 193:0.0022675737 195:0.0022675737 197:0.0022675737 198:0.0022675737 199:0.0045351475 200:0.0022675737 
100000 119:0.0022675737 120:0.0022675737 121:0.0022675737 122:0.0045351475 123:0.013605442 124:0.0090702949 125:0.0090702949 126:0.0090702949 127:0.0068027209 128:0.0045351475 129:0.024943311 130:0.079365082 131:0.1201814 132:0.058956917 133:0.054421768 134:0.01814059 135:0.0045351475 136:0.029478459 137:0.029478459 138:0.015873017 139:0.029478459 140:0.011337869 141:0.024943311 143:0.034013607 144:0.01814059 145:0.027210884 146:0.01814059 147:0.029478459 148:0.024943311 149:0.0022675737 150:0.022675738 151:0.015873017 152:0.015873017 153:0.022675738 154:0.01814059 155:0.013605442 156:0.0045351475 157:0.015873017 158:0.0045351475 159:0.0022675737 160:0.0090702949 161:0.0068027209 162:0.0068027209 163:0.0068027209 164:0.0045351475 165:0.0045351475 166:0.0068027209 168:0.013605442 169:0.0068027209 170:0.011337869 171:0.0045351475 173:0.013605442 174:0.0068027209 175:0.0045351475 177:0.0090702949 178:0.0045351475 179:0.0045351475 182:0.0022675737 186:0.0022675737 187:0.0022675737 190:0.0045351475 193:0.0022675737 195:0.0022675737 199:0.0022675737 200:0.0022675737 
100000 115:0.0022675737 119:0.0022675737 120:0.0022675737 121:0.0022675737 122:0.0022675737 123:0.0090702949 124:0.0090702949 125:0.011337869 126:0.015873017 127:0.0045351475 128:0.0045351475 129:0.022675738 130:0.072562359 131:0.11791383 132:0.06122449 133:0.058956917 134:0.020408163 135:0.0045351475 136:0.029478459 137:0.027210884 138:0.015873017 139:0.034013607 140:0.011337869 141:0.022675738 143:0.031746034 144:0.015873017 145:0.027210884 146:0.020408163 147:0.027210884 148:0.024943311 149:0.0022675737 150:0.022675738 151:0.020408163 152:0.015873017 153:0.022675738 154:0.01814059 155:0.013605442 156:0.0045351475 157:0.015873017 158:0.0045351475 159:0.0022675737 160:0.0090702949 161:0.0068027209 162:0.0068027209 163:0.0068027209 164:0.0045351475 165:0.0045351475 166:0.0068027209 168:0.013605442 169:0.0068027209 170:0.011337869 171:0.0045351475 173:0.013605442 174:0.0068027209 175:0.0045351475 177:0.0090702949 178:0.0045351475 179:0.0045351475 182:0.0022675737 186:0.0022675737 187:0.0022675737 190:0.0045351475 193:0.0022675737 195:0.0022675737 199:0.0022675737 200:0.0022675737 
100000 115:0.0045351475 117:0.0045351475 120:0.0022675737 122:0.0022675737 123:0.0090702949 124:0.011337869 125:0.013605442 126:0.01814059 127:0.0022675737 128:0.0045351475 129:0.034013607 130:0.086167805 131:0.11111111 132:0.054421768 133:0.056689344 134:0.01814059 135:0.0045351475 136:0.029478459 137:0.027210884 138:0.01814059 139:0.03628118 140:0.013605442 141:0.024943311 143:0.031746034 144:0.015873017 145:0.027210884 146:0.022675738 147:0.024943311 148:0.022675738 149:0.0022675737 150:0.024943311 151:0.020408163 152:0.011337869 153:0.022675738 154:0.01814059 155:0.013605442 156:0.0045351475 157:0.015873017 158:0.0045351475 159:0.0022675737 160:0.0090702949 161:0.0045351475 162:0.0068027209 163:0.0068027209 164:0.0022675737 165:0.0045351475 166:0.0068027209 168:0.013605442 169:0.0068027209 170:0.011337869 171:0.0045351475 173:0.013605442 174:0.0068027209 175:0.0045351475 177:0.0068027209 178:0.0022675737 179:0.0045351475 182:0.0022675737 186:0.0022675737 187:0.0022675737 190:0.0022675737 195:0.0022675737 
100000 70:0.0045351475 71:0.011337869 72:0.015873017 73:0.029478459 74:0.013605442 75:0.01814059 76:0.031746034 77:0.011337869 78:0.038548753 80:0.015873017 82:0.0090702949 83:0.013605442 84:0.011337869 85:0.0068027209 86:0.013605442 87:0.0045351475 88:0.0022675737 89:0.0045351475 90:0.0022675737 91:0.011337869 92:0.0022675737 93:0.0045351475 94:0.0045351475 95:0.0068027209 96:0.0045351475 97:0.011337869 98:0.0045351475 100:0.0022675737 101:0.0045351475 102:0.0068027209 103:0.011337869 104:0.0022675737 105:0.0090702949 107:0.011337869 108:0.0090702949 109:0.020408163 110:0.0045351475 111:0.011337869 112:0.015873017 113:0.0022675737 114:0.013605442 115:0.01814059 116:0.022675738 117:0.022675738 118:0.011337869 119:0.022675738 120:0.022675738 121:0.031746034 122:0.14512472 123:0.11564626 124:0.086167805 125:0.027210884 126:0.015873017 128:0.011337869 131:0.0022675737 133:0.0022675737 135:0.0045351475 136:0.0045351475 
100000 102:0.0022675737 104:0.0022675737 105:0.0022675737 107:0.0045351475 108:0.0022675737 109:0.0022675737 110:0.0090702949 111:0.0022675737 112:0.0045351475 114:0.0068027209 116:0.0022675737 117:0.0022675737 119:0.0068027209 120:0.0090702949 121:0.0090702949 122:0.020408163 123:0.0090702949 124:0.022675738 125:0.09297052 126:0.25623584 127:0.20634921 128:0.0022675737 129:0.045351475 130:0.01814059 131:0.01814059 132:0.027210884 133:0.0090702949 134:0.024943311 136:0.01814059 137:0.015873017 138:0.015873017 139:0.015873017 140:0.020408163 141:0.013605442 142:0.0045351475 143:0.011337869 144:0.0090702949 146:0.0045351475 149:0.0068027209 150:0.013605442 151:0.0068027209 152:0.0022675737 153:0.0022675737 157:0.0022675737 158:0.0090702949 159:0.0022675737 163:0.0022675737 165:0.0022675737 
100000 102:0.0022675737 104:0.0022675737 105:0.0022675737 106:0.0022675737 107:0.0068027209 108:0.0022675737 109:0.0045351475 110:0.013605442 111:0.0045351475 112:0.0045351475 114:0.0068027209 116:0.0045351475 117:0.0045351475 119:0.0090702949 120:0.0090702949 121:0.0090702949 122:0.024943311 123:0.0090702949 124:0.024943311 125:0.088435374 126:0.23582767 127:0.19047619 128:0.0022675737 129:0.045351475 130:0.027210884 131:0.01814059 132:0.029478459 133:0.0090702949 134:0.024943311 136:0.01814059 137:0.015873017 138:0.01814059 139:0.015873017 140:0.020408163 141:0.013605442 142:0.0045351475 143:0.011337869 144:0.0090702949 146:0.0045351475 149:0.0068027209 150:0.013605442 151:0.0068027209 152:0.0022675737 153:0.0022675737 157:0.0022675737 158:0.0090702949 159:0.0022675737 163:0.0022675737 165:0.0022675737 
100000 102:0.0022675737 104:0.0022675737 105:0.0022675737 106:0.0022675737 107:0.0090702949 108:0.0068027209 109:0.0068027209 110:0.015873017 111:0.0045351475 112:0.0045351475 113:0.0022675737 114:0.0068027209 115:0.0022675737 116:0.0045351475 117:0.0068027209 118:0.0022675737 119:0.0090702949 120:0.0090702949 121:0.0090702949 122:0.031746034 123:0.0090702949 124:0.027210884 125:0.09297052 126:0.21995465 127:0.19047619 128:0.0022675737 129:0.043083902 130:0.031746034 131:0.015873017 132:0.027210884 133:0.0090702949 134:0.022675738 136:0.011337869 137:0.011337869 138:0.015873017 139:0.015873017 140:0.020408163 141:0.013605442 142:0.0045351475 143:0.011337869 144:0.0090702949 146:0.0045351475 149:0.0068027209 150:0.013605442 151:0.0068027209 152:0.0022675737 153:0.0022675737 157:0.0022675737 158:0.0090702949 159:0.0022675737 163:0.0022675737 165:0.0022675737 
100000 102:0.0022675737 104:0.0045351475 105:0.0045351475 106:0.0022675737 107:0.0090702949 108:0.0090702949 109:0.011337869 110:0.015873017 111:0.0045351475 112:0.0068027209 113:0.0022675737 114:0.0068027209 115:0.0022675737 116:0.0068027209 117:0.0068027209 118:0.0022675737 119:0.011337869 120:0.013605442 121:0.0090702949 122:0.03628118 123:0.0090702949 124:0.031746034 125:0.090702951 126:0.19727892 127:0.1814059 128:0.0022675737 129:0.045351475 130:0.031746034 131:0.015873017 132:0.027210884 133:0.0090702949 134:0.022675738 136:0.011337869 137:0.011337869 138:0.015873017 139:0.015873017 140:0.020408163 141:0.013605442 142:0.0045351475 143:0.011337869 144:0.0090702949 146:0.0045351475 149:0.0068027209 150:0.013605442 151:0.0068027209 152:0.0022675737 153:0.0022675737 157:0.0022675737 158:0.0090702949 159:0.0022675737 163:0.0022675737 165:0.0022675737 
100000 102:0.0022675737 104:0.0045351475 105:0.0068027209 106:0.0022675737 107:0.013605442 108:0.011337869 109:0.013605442 110:0.015873017 111:0.0045351475 112:0.0068027209 113:0.0022675737 114:0.0068027209 115:0.0045351475 116:0.0090702949 117:0.0068027209 118:0.0022675737 119:0.015873017 120:0.01814059 121:0.0090702949 122:0.043083902 123:0.0090702949 124:0.034013607 125:0.088435374 126:0.17687075 127:0.17006803 128:0.0022675737 129:0.045351475 130:0.031746034 131:0.015873017 132:0.027210884 133:0.0090702949 134:0.022675738 136:0.011337869 137:0.011337869 138:0.015873017 139:0.015873017 140:0.020408163 141:0.013605442 142:0.0045351475 143:0.011337869 144:0.0090702949 146:0.0045351475 149:0.0068027209 150:0.013605442 151:0.0068027209 152:0.0022675737 153:0.0022675737 157:0.0022675737 158:0.0090702949 159:0.0022675737 163:0.0022675737 165:0.0022675737 
36839.38925231294 112:0.0022675737 116:0.0045351475 119:0.0022675737 120:0.034013607 122:0.029478459 123:0.013605442 124:0.01814059 125:0.054421768 126:0.10884354 127:0.19501135 128:0.0045351475 129:0.081632651 130:0.06122449 131:0.031746034 132:0.058956917 133:0.052154195 134:0.10657597 136:0.027210884 137:0.020408163 138:0.020408163 139:0.011337869 140:0.020408163 141:0.013605442 143:0.0090702949 144:0.013605442 145:0.0022675737 146:0.0022675737 
35693.21629969443 111:0.0022675737 112:0.027210884 113:0.0090702949 115:0.011337869 116:0.011337869 117:0.0045351475 118:0.0068027209 119:0.022675738 120:0.01814059 122:0.015873017 123:0.081632651 124:0.054421768 125:0.20861678 126:0.12471656 127:0.12471656 128:0.0090702949 129:0.074829936 130:0.047619049 131:0.020408163 132:0.020408163 133:0.0068027209 134:0.0068027209 136:0.015873017 137:0.011337869 138:0.013605442 139:0.0090702949 140:0.022675738 141:0.0068027209 143:0.0090702949 144:0.0022675737 
100000 111:0.0022675737 112:0.027210884 113:0.011337869 115:0.029478459 116:0.020408163 117:0.029478459 118:0.038548753 119:0.058956917 120:0.052154195 122:0.045351475 123:0.1292517 124:0.15646258 125:0.26757371 126:0.047619049 127:0.013605442 129:0.024943311 130:0.011337869 131:0.0068027209 132:0.0068027209 133:0.0022675737 134:0.0022675737 136:0.0045351475 137:0.0068027209 138:0.0022675737 140:0.0022675737 
100000 111:0.0022675737 112:0.027210884 113:0.011337869 115:0.034013607 116:0.029478459 117:0.03628118 118:0.043083902 119:0.058956917 120:0.049886622 122:0.045351475 123:0.13151927 124:0.14512472 125:0.26984128 126:0.054421768 127:0.011337869 129:0.020408163 130:0.011337869 131:0.0022675737 132:0.0068027209 133:0.0022675737 136:0.0022675737 137:0.0045351475 
100000 111:0.0022675737 112:0.027210884 113:0.011337869 115:0.034013607 116:0.029478459 117:0.03628118 118:0.043083902 119:0.058956917 120:0.047619049 122:0.040816326 123:0.1292517 124:0.13151927 125:0.28117913 126:0.074829936 127:0.011337869 129:0.020408163 130:0.011337869 132:0.0068027209 133:0.0022675737 
100000 111:0.0068027209 112:0.034013607 113:0.011337869 115:0.038548753 116:0.034013607 117:0.03628118 118:0.040816326 119:0.058956917 120:0.045351475 122:0.040816326 123:0.11337869 124:0.1201814 125:0.2857143 126:0.097505674 127:0.0068027209 129:0.020408163 130:0.0090702949 
100000 68:0.049886622 69:0.038548753 70:0.045351475 71:0.027210884 72:0.034013607 73:0.031746034 74:0.020408163 76:0.0090702949 77:0.0090702949 78:0.0068027209 79:0.0090702949 80:0.013605442 81:0.013605442 82:0.0068027209 83:0.0045351475 84:0.0045351475 85:0.0045351475 86:0.0090702949 87:0.0045351475 88:0.0068027209 89:0.0045351475 91:0.0045351475 93:0.0022675737 94:0.0090702949 95:0.0022675737 96:0.0090702949 97:0.0022675737 98:0.0045351475 100:0.0045351475 101:0.0022675737 102:0.0068027209 103:0.0068027209 104:0.0045351475 105:0.015873017 107:0.0045351475 108:0.0045351475 109:0.011337869 110:0.0090702949 111:0.0045351475 112:0.0090702949 113:0.0045351475 114:0.0068027209 115:0.01814059 116:0.011337869 117:0.03628118 118:0.027210884 119:0.027210884 120:0.024943311 121:0.0045351475 122:0.068027213 123:0.13605443 124:0.14058957 125:0.022675738 
100000 68:0.049886622 69:0.038548753 70:0.045351475 71:0.027210884 72:0.034013607 73:0.031746034 74:0.020408163 75:0.011337869 76:0.020408163 77:0.011337869 78:0.0090702949 79:0.0090702949 80:0.020408163 81:0.024943311 82:0.0068027209 83:0.0045351475 84:0.0045351475 85:0.0068027209 86:0.0090702949 87:0.0045351475 88:0.0068027209 89:0.0045351475 91:0.0045351475 93:0.0022675737 94:0.0090702949 95:0.0022675737 96:0.0090702949 97:0.0022675737 98:0.0045351475 100:0.0045351475 101:0.0022675737 102:0.0068027209 103:0.0068027209 104:0.0045351475 105:0.015873017 107:0.0045351475 108:0.0045351475 109:0.011337869 110:0.0090702949 111:0.0045351475 112:0.0090702949 113:0.0045351475 114:0.0068027209 115:0.01814059 116:0.011337869 117:0.03628118 118:0.027210884 119:0.027210884 120:0.024943311 121:0.0045351475 122:0.068027213 123:0.13151927 124:0.11111111 125:0.0090702949 
80611.26536310541 68:0.049886622 69:0.038548753 70:0.045351475 71:0.027210884 72:0.034013607 73:0.031746034 74:0.020408163 75:0.011337869 76:0.038548753 77:0.013605442 78:0.011337869 79:0.011337869 80:0.020408163 81:0.024943311 82:0.0068027209 83:0.0068027209 84:0.020408163 85:0.0068027209 86:0.011337869 87:0.0068027209 88:0.0068027209 89:0.0045351475 91:0.0045351475 93:0.0022675737 94:0.0090702949 95:0.0022675737 96:0.0090702949 97:0.0022675737 98:0.0045351475 100:0.0045351475 101:0.0022675737 102:0.0068027209 103:0.0068027209 104:0.0045351475 105:0.015873017 107:0.0045351475 108:0.0045351475 109:0.011337869 110:0.0090702949 111:0.0045351475 112:0.0090702949 113:0.0045351475 114:0.0068027209 115:0.01814059 116:0.011337869 117:0.03628118 118:0.027210884 119:0.027210884 120:0.024943311 121:0.0045351475 122:0.068027213 123:0.12698413 124:0.077097505 
29712.63796066808 115:0.0022675737 119:0.0022675737 120:0.0022675737 121:0.0022675737 123:0.0090702949 124:0.0090702949 125:0.011337869 126:0.024943311 127:0.029478459 128:0.027210884 129:0.049886622 130:0.086167805 131:0.11791383 132:0.056689344 133:0.065759636 134:0.020408163 135:0.0045351475 136:0.034013607 137:0.020408163 138:0.013605442 139:0.034013607 140:0.011337869 141:0.020408163 143:0.029478459 144:0.011337869 145:0.024943311 146:0.01814059 147:0.024943311 148:0.015873017 149:0.0022675737 150:0.020408163 151:0.01814059 152:0.0090702949 153:0.022675738 154:0.015873017 155:0.011337869 156:0.0045351475 157:0.013605442 158:0.0045351475 159:0.0022675737 160:0.0090702949 161:0.0022675737 162:0.0068027209 163:0.0068027209 164:0.0022675737 165:0.0045351475 166:0.0045351475 168:0.011337869 169:0.0022675737 170:0.011337869 171:0.0045351475 173:0.013605442 174:0.0068027209 175:0.0045351475 177:0.0022675737 179:0.0022675737 
100000 119:0.0022675737 120:0.0022675737 121:0.0022675737 122:0.0045351475 123:0.013605442 124:0.0090702949 125:0.0090702949 126:0.01814059 127:0.029478459 128:0.031746034 129:0.054421768 130:0.09297052 131:0.12244898 132:0.056689344 133:0.06122449 134:0.01814059 135:0.0045351475 136:0.031746034 137:0.022675738 138:0.013605442 139:0.029478459 140:0.011337869 141:0.022675738 143:0.029478459 144:0.011337869 145:0.022675738 146:0.015873017 147:0.024943311 148:0.015873017 149:0.0022675737 150:0.020408163 151:0.013605442 152:0.0090702949 153:0.022675738 154:0.015873017 155:0.011337869 156:0.0045351475 157:0.013605442 158:0.0045351475 159:0.0022675737 160:0.0090702949 161:0.0022675737 162:0.0068027209 163:0.0068027209 164:0.0022675737 165:0.0045351475 166:0.0045351475 168:0.011337869 169:0.0022675737 170:0.011337869 171:0.0045351475 173:0.013605442 174:0.0068027209 175:0.0045351475 177:0.0022675737 179:0.0022675737 
100000 119:0.0022675737 121:0.0022675737 122:0.0045351475 123:0.013605442 124:0.0090702949 125:0.0090702949 126:0.013605442 127:0.029478459 128:0.03628118 129:0.06122449 130:0.09297052 131:0.12471656 132:0.054421768 133:0.063492067 134:0.020408163 135:0.0045351475 136:0.034013607 137:0.022675738 138:0.013605442 139:0.024943311 140:0.013605442 141:0.01814059 143:0.031746034 144:0.011337869 145:0.022675738 146:0.015873017 147:0.020408163 148:0.013605442 149:0.0022675737 150:0.020408163 151:0.013605442 152:0.0090702949 153:0.022675738 154:0.015873017 155:0.011337869 156:0.0045351475 157:0.013605442 158:0.0045351475 159:0.0022675737 160:0.0090702949 161:0.0022675737 162:0.0068027209 163:0.0068027209 164:0.0022675737 165:0.0045351475 166:0.0045351475 168:0.011337869 169:0.0022675737 170:0.011337869 171:0.0045351475 173:0.013605442 174:0.0068027209 175:0.0045351475 177:0.0022675737 179:0.0022675737 
100000 119:0.0022675737 121:0.0022675737 122:0.0045351475 123:0.013605442 124:0.0090702949 125:0.0090702949 126:0.013605442 127:0.027210884 128:0.043083902 129:0.065759636 130:0.09297052 131:0.12244898 132:0.056689344 133:0.065759636 134:0.01814059 135:0.0045351475 136:0.034013607 137:0.022675738 138:0.015873017 139:0.022675738 140:0.013605442 141:0.01814059 143:0.034013607 144:0.0090702949 145:0.020408163 146:0.015873017 147:0.01814059 148:0.0090702949 149:0.0022675737 150:0.020408163 151:0.013605442 152:0.0090702949 153:0.022675738 154:0.015873017 155:0.011337869 156:0.0045351475 157:0.013605442 158:0.0045351475 159:0.0022675737 160:0.0090702949 161:0.0022675737 162:0.0068027209 163:0.0068027209 164:0.0022675737 165:0.0045351475 166:0.0045351475 168:0.011337869 169:0.0022675737 170:0.011337869 171:0.0045351475 173:0.013605442 174:0.0068027209 175:0.0045351475 177:0.0022675737 179:0.0022675737 
100000 126:0.095238097 127:0.063492067 128:0.32426304 129:0.024943311 130:0.15646258 131:0.079365082 132:0.022675738 133:0.027210884 134:0.024943311 135:0.038548753 136:0.024943311 137:0.034013607 138:0.056689344 139:0.015873017 140:0.0068027209 143:0.0022675737 144:0.0022675737 
100000 123:0.0022675737 126:0.049886622 127:0.072562359 128:0.30158731 129:0.027210884 130:0.14512472 131:0.081632651 132:0.024943311 133:0.031746034 134:0.024943311 135:0.038548753 136:0.029478459 137:0.040816326 138:0.083900228 139:0.027210884 140:0.0090702949 143:0.0022675737 144:0.0045351475 147:0.0022675737 
100000 123:0.0022675737 124:0.0045351475 125:0.0022675737 126:0.056689344 127:0.072562359 128:0.27437642 129:0.038548753 130:0.13378686 131:0.077097505 132:0.027210884 133:0.03628118 134:0.024943311 135:0.038548753 136:0.031746034 137:0.043083902 138:0.083900228 139:0.031746034 140:0.0090702949 141:0.0022675737 143:0.0022675737 144:0.0045351475 147:0.0022675737 
100000 99:0.0022675737 100:0.0045351475 101:0.0045351475 102:0.024943311 103:0.0022675737 104:0.022675738 105:0.0022675737 106:0.015873017 107:0.0068027209 108:0.022675738 109:0.020408163 110:0.022675738 111:0.01814059 112:0.031746034 113:0.0022675737 114:0.013605442 115:0.052154195 116:0.03628118 117:0.043083902 118:0.034013607 119:0.01814059 120:0.034013607 121:0.0068027209 122:0.038548753 123:0.038548753 124:0.063492067 125:0.011337869 126:0.01814059 127:0.0068027209 128:0.020408163 129:0.0090702949 130:0.027210884 131:0.01814059 132:0.031746034 133:0.020408163 134:0.011337869 135:0.015873017 136:0.027210884 137:0.038548753 138:0.022675738 139:0.031746034 140:0.0022675737 141:0.013605442 142:0.0045351475 143:0.015873017 144:0.013605442 145:0.0068027209 146:0.0045351475 147:0.015873017 148:0.0022675737 150:0.0022675737 152:0.0022675737 153:0.0022675737 155:0.0022675737 158:0.0022675737 159:0.0022675737 167:0.0045351475 177:0.0022675737 179:0.0022675737 181:0.0045351475 
100000 99:0.0022675737 100:0.0045351475 101:0.0045351475 102:0.024943311 103:0.0022675737 104:0.020408163 105:0.0022675737 106:0.015873017 107:0.0068027209 108:0.013605442 109:0.020408163 110:0.022675738 111:0.015873017 112:0.034013607 113:0.0022675737 114:0.011337869 115:0.065759636 116:0.040816326 117:0.052154195 118:0.040816326 119:0.024943311 120:0.038548753 121:0.0090702949 122:0.054421768 123:0.081632651 124:0.18594104 125:0.0068027209 126:0.0090702949 127:0.0045351475 128:0.013605442 129:0.0068027209 130:0.0045351475 131:0.0045351475 132:0.013605442 133:0.0068027209 134:0.0090702949 135:0.0090702949 136:0.0090702949 137:0.01814059 138:0.0045351475 139:0.01814059 140:0.0022675737 141:0.0090702949 143:0.013605442 144:0.011337869 145:0.0068027209 146:0.0045351475 147:0.013605442 148:0.0022675737 
100000 109:0.0045351475 110:0.0068027209 113:0.0068027209 115:0.0045351475 116:0.0045351475 117:0.0090702949 118:0.0090702949 119:0.013605442 120:0.01814059 122:0.020408163 123:0.01814059 124:0.022675738 125:0.32653061 126:0.2335601 127:0.054421768 129:0.040816326 130:0.049886622 131:0.01814059 132:0.027210884 133:0.020408163 134:0.013605442 136:0.013605442 137:0.011337869 138:0.0045351475 139:0.0090702949 140:0.0045351475 141:0.0022675737 144:0.0045351475 145:0.0045351475 146:0.0022675737 147:0.0022675737 148:0.0022675737 150:0.0022675737 151:0.0022675737 154:0.0045351475 155:0.0045351475 160:0.0022675737 
100000 109:0.0045351475 110:0.0068027209 113:0.0068027209 115:0.0045351475 116:0.0045351475 117:0.0090702949 118:0.0090702949 119:0.013605442 120:0.01814059 122:0.031746034 123:0.027210884 124:0.022675738 125:0.36054423 126:0.20181406 127:0.043083902 129:0.040816326 130:0.038548753 131:0.01814059 132:0.027210884 133:0.020408163 134:0.013605442 136:0.013605442 137:0.011337869 138:0.0045351475 139:0.0090702949 140:0.0045351475 141:0.0022675737 144:0.0045351475 145:0.0045351475 146:0.0022675737 147:0.0022675737 148:0.0022675737 150:0.0022675737 151:0.0022675737 154:0.0045351475 155:0.0045351475 160:0.0022675737 
100000 109:0.0045351475 110:0.0068027209 113:0.0068027209 115:0.0045351475 116:0.0045351475 117:0.0090702949 118:0.0090702949 119:0.013605442 120:0.01814059 122:0.031746034 123:0.027210884 124:0.020408163 125:0.38321996 126:0.21315193 127:0.024943311 129:0.038548753 130:0.038548753 131:0.015873017 132:0.01814059 133:0.020408163 134:0.013605442 136:0.013605442 137:0.011337869 138:0.0045351475 139:0.0090702949 140:0.0045351475 141:0.0022675737 144:0.0045351475 145:0.0045351475 146:0.0022675737 147:0.0022675737 148:0.0022675737 150:0.0022675737 151:0.0022675737 154:0.0045351475 155:0.0045351475 160:0.0022675737 
100000 109:0.0045351475 110:0.0068027209 113:0.0068027209 115:0.0045351475 116:0.0045351475 117:0.0090702949 118:0.0090702949 119:0.013605442 120:0.01814059 122:0.031746034 123:0.034013607 124:0.040816326 125:0.42630386 126:0.17460318 127:0.015873017 129:0.029478459 130:0.038548753 131:0.013605442 132:0.015873017 133:0.011337869 134:0.013605442 136:0.013605442 137:0.011337869 138:0.0045351475 139:0.0090702949 140:0.0045351475 141:0.0022675737 144:0.0045351475 145:0.0045351475 146:0.0022675737 147:0.0022675737 148:0.0022675737 150:0.0022675737 151:0.0022675737 154:0.0045351475 155:0.0045351475 160:0.0022675737 
100000 109:0.0045351475 110:0.0068027209 113:0.0068027209 115:0.0045351475 116:0.0045351475 117:0.0090702949 118:0.0090702949 119:0.013605442 120:0.01814059 122:0.031746034 123:0.034013607 124:0.040816326 125:0.44897959 126:0.18367347 127:0.011337869 129:0.01814059 130:0.038548753 131:0.011337869 132:0.013605442 133:0.0090702949 134:0.0090702949 136:0.0090702949 137:0.011337869 138:0.0045351475 139:0.0090702949 140:0.0045351475 141:0.0022675737 144:0.0045351475 145:0.0045351475 146:0.0022675737 147:0.0022675737 148:0.0022675737 150:0.0022675737 151:0.0022675737 154:0.0045351475 155:0.0045351475 160:0.0022675737 
100000 109:0.0045351475 110:0.0068027209 113:0.0068027209 115:0.0045351475 116:0.0045351475 117:0.0090702949 118:0.0090702949 119:0.013605442 120:0.01814059 122:0.029478459 123:0.031746034 124:0.065759636 125:0.47845805 126:0.15873016 127:0.011337869 129:0.015873017 130:0.031746034 131:0.011337869 132:0.0068027209 133:0.0068027209 134:0.0090702949 136:0.0045351475 137:0.011337869 138:0.0045351475 139:0.0068027209 140:0.0045351475 141:0.0022675737 144:0.0045351475 145:0.0045351475 146:0.0022675737 147:0.0022675737 148:0.0022675737 150:0.0022675737 151:0.0022675737 154:0.0045351475 155:0.0045351475 160:0.0022675737 
48464.31387050248 109:0.0045351475 110:0.0045351475 112:0.0068027209 115:0.0022675737 116:0.0045351475 117:0.0045351475 120:0.0068027209 122:0.0068027209 123:0.0068027209 124:0.0045351475 125:0.03628118 126:0.15873016 127:0.11564626 129:0.099773243 130:0.058956917 131:0.034013607 132:0.022675738 133:0.027210884 134:0.022675738 136:0.013605442 137:0.0068027209 138:0.015873017 139:0.0090702949 140:0.0090702949 141:0.0090702949 142:0.0068027209 143:0.015873017 144:0.0068027209 145:0.0068027209 146:0.015873017 147:0.034013607 148:0.013605442 149:0.0022675737 150:0.015873017 151:0.015873017 152:0.020408163 153:0.0068027209 154:0.0045351475 155:0.0068027209 157:0.011337869 158:0.0068027209 159:0.013605442 160:0.0068027209 161:0.013605442 163:0.0022675737 164:0.0068027209 165:0.0090702949 166:0.0022675737 168:0.0022675737 170:0.0022675737 172:0.0068027209 173:0.0068027209 174:0.0022675737 177:0.0068027209 179:0.0022675737 180:0.0022675737 181:0.0068027209 182:0.0022675737 183:0.0022675737 184:0.0045351475 191:0.0022675737 192:0.0022675737 194:0.0045351475 197:0.0022675737 198:0.0045351475 
100000 109:0.0022675737 110:0.0022675737 120:0.0022675737 124:0.0022675737 125:0.0022675737 126:0.015873017 127:0.20181406 129:0.17913832 130:0.052154195 131:0.024943311 132:0.058956917 133:0.045351475 134:0.027210884 135:0.0068027209 136:0.011337869 137:0.024943311 138:0.027210884 139:0.01814059 140:0.01814059 141:0.0090702949 142:0.0068027209 143:0.01814059 144:0.0045351475 145:0.015873017 146:0.015873017 147:0.024943311 148:0.015873017 149:0.0022675737 150:0.013605442 151:0.013605442 152:0.020408163 153:0.013605442 154:0.0068027209 155:0.0090702949 156:0.0068027209 157:0.015873017 158:0.011337869 159:0.0090702949 160:0.0045351475 161:0.011337869 163:0.0022675737 164:0.0045351475 165:0.0022675737 172:0.0022675737 173:0.0045351475 177:0.0045351475 179:0.0022675737 180:0.0022675737 182:0.0022675737 
100000 124:0.0022675737 125:0.0022675737 126:0.020408163 127:0.24036281 129:0.17913832 130:0.052154195 131:0.020408163 132:0.056689344 133:0.043083902 134:0.024943311 135:0.0068027209 136:0.0045351475 137:0.024943311 138:0.024943311 139:0.015873017 140:0.01814059 141:0.0090702949 142:0.0068027209 143:0.015873017 144:0.0045351475 145:0.013605442 146:0.015873017 147:0.024943311 148:0.015873017 149:0.0022675737 150:0.013605442 151:0.013605442 152:0.020408163 153:0.011337869 154:0.0068027209 155:0.0090702949 156:0.0045351475 157:0.013605442 158:0.0090702949 159:0.0090702949 160:0.0045351475 161:0.011337869 163:0.0022675737 164:0.0045351475 165:0.0022675737 172:0.0022675737 173:0.0045351475 177:0.0045351475 179:0.0022675737 180:0.0022675737 182:0.0022675737 
100000 102:0.0022675737 104:0.0022675737 105:0.0022675737 107:0.0045351475 108:0.0022675737 109:0.0022675737 110:0.0090702949 111:0.0022675737 112:0.0045351475 114:0.0068027209 116:0.0022675737 117:0.0022675737 119:0.0068027209 120:0.0090702949 121:0.0090702949 122:0.020408163 123:0.0090702949 124:0.022675738 125:0.09297052 126:0.25623584 127:0.20634921 128:0.0022675737 129:0.045351475 130:0.01814059 131:0.01814059 132:0.027210884 133:0.0090702949 134:0.024943311 136:0.01814059 137:0.015873017 138:0.015873017 139:0.015873017 140:0.020408163 141:0.013605442 142:0.0045351475 143:0.011337869 144:0.0090702949 146:0.0045351475 149:0.0068027209 150:0.013605442 151:0.0068027209 152:0.0022675737 153:0.0022675737 157:0.0022675737 158:0.0090702949 159:0.0022675737 163:0.0022675737 165:0.0022675737 
46529.05742256638 107:0.0031746032 108:0.0063492064 109:0.0031746032 110:0.012698413 111:0.012698413 112:0.0063492064 114:0.0095238099 115:0.0095238099 116:0.012698413 117:0.0095238099 118:0.0095238099 119:0.012698413 120:0.022222223 121:0.0031746032 122:0.028571429 123:0.025396826 124:0.03809524 125:0.015873017 126:0.022222223 127:0.073015876 128:0.0063492064 129:0.13333334 130:0.03809524 131:0.057142857 132:0.063492067 133:0.012698413 134:0.0031746032 135:0.012698413 136:0.015873017 137:0.0063492064 138:0.015873017 139:0.015873017 140:0.022222223 141:0.012698413 142:0.012698413 143:0.0063492064 144:0.0095238099 145:0.0063492064 146:0.0031746032 147:0.012698413 148:0.0031746032 149:0.0063492064 150:0.0063492064 151:0.012698413 152:0.0063492064 154:0.0095238099 155:0.0063492064 157:0.0031746032 158:0.0063492064 160:0.0031746032 161:0.0031746032 164:0.0031746032 165:0.0031746032 166:0.0031746032 170:0.0095238099 171:0.0031746032 176:0.0031746032 177:0.0063492064 178:0.0031746032 179:0.0031746032 181:0.0031746032 184:0.0031746032 191:0.0095238099 192:0.0031746032 193:0.0031746032 198:0.0031746032 200:0.0031746032 204:0.0063492064 205:0.0031746032 208:0.0031746032 209:0.0063492064 211:0.0031746032 214:0.0031746032 215:0.0031746032 218:0.0031746032 221:0.0063492064 222:0.0095238099 224:0.0095238099 227:0.0031746032 228:0.0031746032 
100000 107:0.0029761905 108:0.0059523811 109:0.0029761905 110:0.011904762 111:0.011904762 112:0.0059523811 114:0.0089285718 115:0.0089285718 116:0.011904762 117:0.0059523811 118:0.0059523811 119:0.0059523811 120:0.020833334 121:0.0029761905 122:0.029761905 123:0.020833334 124:0.032738097 125:0.011904762 126:0.020833334 127:0.095238097 128:0.0059523811 129:0.15476191 130:0.035714287 131:0.074404761 132:0.065476194 133:0.011904762 134:0.0029761905 135:0.011904762 136:0.014880952 137:0.011904762 138:0.014880952 139:0.011904762 140:0.026785715 141:0.011904762 142:0.011904762 143:0.0059523811 144:0.011904762 145:0.0059523811 147:0.014880952 148:0.0029761905 149:0.0089285718 150:0.0059523811 151:0.011904762 152:0.0059523811 154:0.0089285718 155:0.0059523811 157:0.0029761905 158:0.0059523811 160:0.0029761905 161:0.0029761905 165:0.0029761905 166:0.0029761905 170:0.0089285718 171:0.0029761905 176:0.0029761905 177:0.0029761905 178:0.0029761905 179:0.0029761905 181:0.0029761905 184:0.0029761905 191:0.0059523811 192:0.0029761905 193:0.0029761905 198:0.0029761905 200:0.0029761905 204:0.0059523811 205:0.0029761905 208:0.0029761905 211:0.0029761905 214:0.0029761905 215:0.0029761905 218:0.0029761905 221:0.0029761905 222:0.0089285718 224:0.0089285718 227:0.0029761905 228:0.0029761905 
100000 107:0.0028011205 108:0.005602241 109:0.0028011205 110:0.011204482 111:0.011204482 112:0.005602241 114:0.0084033618 115:0.011204482 116:0.011204482 117:0.005602241 118:0.005602241 119:0.005602241 120:0.022408964 121:0.0028011205 122:0.025210084 123:0.014005602 124:0.030812325 125:0.014005602 126:0.025210084 127:0.10084034 128:0.019607844 129:0.17086835 130:0.053221289 131:0.072829135 132:0.064425774 133:0.011204482 134:0.0028011205 135:0.011204482 136:0.016806724 137:0.011204482 138:0.014005602 139:0.011204482 140:0.016806724 141:0.014005602 142:0.011204482 143:0.005602241 144:0.011204482 145:0.005602241 147:0.014005602 148:0.0028011205 149:0.0084033618 150:0.005602241 151:0.011204482 152:0.005602241 154:0.0084033618 155:0.005602241 157:0.0028011205 158:0.005602241 160:0.0028011205 161:0.0028011205 166:0.0028011205 170:0.005602241 171:0.0028011205 176:0.0028011205 177:0.0028011205 178:0.0028011205 179:0.0028011205 181:0.0028011205 184:0.0028011205 191:0.0028011205 192:0.0028011205 193:0.0028011205 198:0.0028011205 200:0.0028011205 204:0.0028011205 205:0.0028011205 208:0.0028011205 211:0.0028011205 214:0.0028011205 218:0.0028011205 222:0.005602241 224:0.0084033618 227:0.0028011205 228:0.0028011205 
100000 107:0.0026455026 108:0.0052910051 109:0.0026455026 110:0.01058201 111:0.01058201 112:0.0052910051 114:0.0079365075 115:0.015873015 116:0.01058201 117:0.0052910051 118:0.0052910051 119:0.0052910051 120:0.021164021 121:0.0026455026 122:0.023809522 123:0.013227513 124:0.034391534 125:0.015873015 126:0.026455026 127:0.1058201 128:0.047619045 129:0.16137566 130:0.050264549 131:0.068783067 132:0.06084656 133:0.01058201 134:0.0026455026 135:0.01058201 136:0.015873015 137:0.01058201 138:0.013227513 139:0.01058201 140:0.015873015 141:0.013227513 142:0.01058201 143:0.0052910051 144:0.01058201 145:0.0052910051 147:0.013227513 148:0.0026455026 149:0.0079365075 150:0.0052910051 151:0.01058201 152:0.0052910051 154:0.0079365075 155:0.0052910051 157:0.0026455026 158:0.0052910051 160:0.0026455026 161:0.0026455026 166:0.0026455026 170:0.0052910051 171:0.0026455026 176:0.0026455026 177:0.0026455026 178:0.0026455026 179:0.0026455026 181:0.0026455026 184:0.0026455026 191:0.0026455026 192:0.0026455026 193:0.0026455026 198:0.0026455026 200:0.0026455026 204:0.0026455026 205:0.0026455026 208:0.0026455026 211:0.0026455026 214:0.0026455026 218:0.0026455026 222:0.0052910051 224:0.0079365075 227:0.0026455026 228:0.0026455026 
100000 109:0.0068027209 111:0.0022675737 112:0.0022675737 114:0.0068027209 115:0.0022675737 116:0.0022675737 117:0.011337869 118:0.0068027209 120:0.0022675737 121:0.0045351475 122:0.0068027209 123:0.0068027209 124:0.011337869 125:0.0022675737 126:0.0090702949 127:0.056689344 128:0.0068027209 129:0.070294783 130:0.045351475 131:0.029478459 132:0.052154195 133:0.029478459 134:0.01814059 135:0.047619049 136:0.01814059 137:0.040816326 138:0.031746034 139:0.011337869 140:0.0090702949 141:0.020408163 142:0.027210884 143:0.011337869 144:0.011337869 145:0.022675738 146:0.043083902 147:0.029478459 148:0.011337869 149:0.013605442 150:0.0068027209 151:0.0068027209 152:0.0068027209 153:0.0068027209 154:0.011337869 155:0.0045351475 156:0.0045351475 157:0.0068027209 158:0.0068027209 159:0.0022675737 160:0.0068027209 161:0.0045351475 162:0.0090702949 163:0.0045351475 164:0.0022675737 165:0.0022675737 166:0.0045351475 167:0.0022675737 168:0.0068027209 169:0.0022675737 170:0.0045351475 171:0.0068027209 172:0.0045351475 174:0.0022675737 175:0.0022675737 176:0.0045351475 178:0.0045351475 179:0.0022675737 181:0.0045351475 183:0.0068027209 184:0.0045351475 185:0.0022675737 187:0.0045351475 188:0.0045351475 189:0.0022675737 190:0.0022675737 192:0.0022675737 193:0.0022675737 194:0.0068027209 195:0.0022675737 196:0.0045351475 197:0.0022675737 199:0.0022675737 200:0.0022675737 201:0.0022675737 202:0.0022675737 204:0.0022675737 205:0.0022675737 206:0.0022675737 208:0.0022675737 209:0.0022675737 211:0.0022675737 215:0.0045351475 220:0.0045351475 222:0.0045351475 225:0.0045351475 227:0.0045351475 228:0.0022675737 232:0.0022675737 238:0.0022675737 239:0.0045351475 240:0.0022675737 241:0.0022675737 242:0.0022675737 246:0.0022675737 
100000 109:0.0068027209 111:0.0022675737 112:0.0022675737 114:0.0068027209 115:0.0022675737 116:0.0022675737 117:0.0068027209 118:0.0068027209 121:0.0045351475 122:0.0045351475 123:0.0045351475 124:0.0068027209 126:0.0045351475 127:0.034013607 128:0.0068027209 129:0.068027213 130:0.045351475 131:0.029478459 132:0.052154195 133:0.029478459 134:0.01814059 135:0.054421768 136:0.022675738 137:0.040816326 138:0.034013607 139:0.013605442 140:0.011337869 141:0.020408163 142:0.027210884 143:0.013605442 144:0.013605442 145:0.031746034 146:0.047619049 147:0.031746034 148:0.011337869 149:0.013605442 150:0.0068027209 151:0.0068027209 152:0.0068027209 153:0.0068027209 154:0.011337869 155:0.0068027209 156:0.0045351475 157:0.0068027209 158:0.0068027209 159:0.0022675737 160:0.0068027209 161:0.0045351475 162:0.0090702949 163:0.0045351475 164:0.0022675737 165:0.0022675737 166:0.0068027209 167:0.0022675737 168:0.0068027209 169:0.0022675737 170:0.0068027209 171:0.0068027209 172:0.0045351475 174:0.0022675737 175:0.0022675737 176:0.0068027209 178:0.0045351475 179:0.0022675737 181:0.0045351475 183:0.0068027209 184:0.0045351475 185:0.0022675737 187:0.0045351475 188:0.0045351475 189:0.0022675737 190:0.0022675737 192:0.0022675737 193:0.0022675737 194:0.0068027209 195:0.0022675737 196:0.0045351475 197:0.0022675737 199:0.0022675737 200:0.0022675737 201:0.0022675737 202:0.0022675737 204:0.0022675737 205:0.0022675737 206:0.0022675737 208:0.0022675737 209:0.0022675737 211:0.0022675737 215:0.0045351475 220:0.0045351475 222:0.0045351475 225:0.0045351475 227:0.0045351475 228:0.0022675737 232:0.0022675737 238:0.0022675737 239:0.0045351475 240:0.0022675737 241:0.0022675737 242:0.0022675737 246:0.0022675737 
100000 109:0.0068027209 111:0.0022675737 114:0.0045351475 115:0.0022675737 116:0.0022675737 117:0.0045351475 118:0.0045351475 121:0.0022675737 122:0.0022675737 123:0.0045351475 124:0.0045351475 126:0.0022675737 127:0.013605442 128:0.0045351475 129:0.06122449 130:0.045351475 131:0.029478459 132:0.052154195 133:0.029478459 134:0.01814059 135:0.06122449 136:0.027210884 137:0.040816326 138:0.038548753 139:0.01814059 140:0.011337869 141:0.020408163 142:0.027210884 143:0.015873017 144:0.013605442 145:0.034013607 146:0.049886622 147:0.034013607 148:0.01814059 149:0.01814059 150:0.0090702949 151:0.0068027209 152:0.0068027209 153:0.0068027209 154:0.011337869 155:0.0068027209 156:0.0045351475 157:0.0068027209 158:0.0090702949 159:0.0045351475 160:0.0068027209 161:0.0045351475 162:0.0090702949 163:0.0045351475 164:0.0022675737 165:0.0022675737 166:0.0068027209 167:0.0022675737 168:0.0068027209 169:0.0022675737 170:0.0068027209 171:0.0068027209 172:0.0045351475 174:0.0022675737 175:0.0022675737 176:0.0068027209 178:0.0045351475 179:0.0022675737 181:0.0045351475 183:0.0068027209 184:0.0045351475 185:0.0022675737 187:0.0045351475 188:0.0045351475 189:0.0022675737 190:0.0022675737 192:0.0022675737 193:0.0022675737 194:0.0068027209 195:0.0022675737 196:0.0045351475 197:0.0022675737 199:0.0022675737 200:0.0022675737 201:0.0022675737 202:0.0022675737 204:0.0022675737 205:0.0022675737 206:0.0022675737 208:0.0022675737 209:0.0022675737 211:0.0022675737 215:0.0045351475 220:0.0045351475 222:0.0045351475 225:0.0045351475 227:0.0045351475 228:0.0022675737 232:0.0022675737 238:0.0022675737 239:0.0045351475 240:0.0022675737 241:0.0022675737 242:0.0022675737 246:0.0022675737 
100000 109:0.0022675737 111:0.0022675737 114:0.0022675737 116:0.0022675737 117:0.0022675737 118:0.0045351475 121:0.0022675737 123:0.0022675737 124:0.0045351475 126:0.0022675737 128:0.0022675737 129:0.047619049 130:0.043083902 131:0.029478459 132:0.052154195 133:0.031746034 134:0.027210884 135:0.06122449 136:0.029478459 137:0.049886622 138:0.038548753 139:0.01814059 140:0.011337869 141:0.020408163 142:0.027210884 143:0.01814059 144:0.015873017 145:0.034013607 146:0.058956917 147:0.043083902 148:0.020408163 149:0.01814059 150:0.0090702949 151:0.0068027209 152:0.0068027209 153:0.0068027209 154:0.011337869 155:0.0068027209 156:0.0045351475 157:0.0068027209 158:0.0090702949 159:0.0045351475 160:0.0068027209 161:0.0045351475 162:0.0090702949 163:0.0045351475 164:0.0022675737 165:0.0022675737 166:0.0068027209 167:0.0022675737 168:0.0068027209 169:0.0022675737 170:0.0068027209 171:0.0068027209 172:0.0045351475 174:0.0022675737 175:0.0022675737 176:0.0068027209 178:0.0045351475 179:0.0022675737 181:0.0045351475 183:0.0068027209 184:0.0045351475 185:0.0022675737 187:0.0045351475 188:0.0045351475 189:0.0022675737 190:0.0022675737 192:0.0022675737 193:0.0022675737 194:0.0068027209 195:0.0022675737 196:0.0045351475 197:0.0022675737 199:0.0022675737 200:0.0022675737 201:0.0022675737 202:0.0022675737 204:0.0022675737 205:0.0022675737 206:0.0022675737 208:0.0022675737 209:0.0022675737 211:0.0022675737 215:0.0045351475 220:0.0045351475 222:0.0045351475 225:0.0045351475 227:0.0045351475 228:0.0022675737 232:0.0022675737 238:0.0022675737 239:0.0045351475 240:0.0022675737 241:0.0022675737 242:0.0022675737 246:0.0022675737 
100000 116:0.0022675737 118:0.0022675737 121:0.0022675737 123:0.0022675737 124:0.0022675737 129:0.024943311 130:0.038548753 131:0.027210884 132:0.052154195 133:0.034013607 134:0.03628118 135:0.06122449 136:0.03628118 137:0.054421768 138:0.038548753 139:0.01814059 140:0.013605442 141:0.022675738 142:0.027210884 143:0.01814059 144:0.024943311 145:0.040816326 146:0.063492067 147:0.043083902 148:0.020408163 149:0.01814059 150:0.0090702949 151:0.0068027209 152:0.0068027209 153:0.0068027209 154:0.011337869 155:0.0068027209 156:0.0045351475 157:0.0068027209 158:0.0090702949 159:0.0045351475 160:0.0068027209 161:0.0045351475 162:0.0090702949 163:0.0045351475 164:0.0022675737 165:0.0022675737 166:0.0068027209 167:0.0022675737 168:0.0068027209 169:0.0022675737 170:0.0068027209 171:0.0068027209 172:0.0045351475 174:0.0022675737 175:0.0022675737 176:0.0068027209 178:0.0045351475 179:0.0022675737 181:0.0045351475 183:0.0068027209 184:0.0045351475 185:0.0022675737 187:0.0045351475 188:0.0045351475 189:0.0022675737 190:0.0022675737 192:0.0022675737 193:0.0022675737 194:0.0068027209 195:0.0022675737 196:0.0045351475 197:0.0022675737 199:0.0022675737 200:0.0022675737 201:0.0022675737 202:0.0022675737 204:0.0022675737 205:0.0022675737 206:0.0022675737 208:0.0022675737 209:0.0022675737 211:0.0022675737 215:0.0045351475 220:0.0045351475 222:0.0045351475 225:0.0045351475 227:0.0045351475 228:0.0022675737 232:0.0022675737 238:0.0022675737 239:0.0045351475 240:0.0022675737 241:0.0022675737 242:0.0022675737 246:0.0022675737 
100000 129:0.011337869 130:0.022675738 131:0.020408163 132:0.052154195 133:0.03628118 134:0.045351475 135:0.063492067 136:0.040816326 137:0.063492067 138:0.038548753 139:0.027210884 140:0.013605442 141:0.022675738 142:0.029478459 143:0.01814059 144:0.027210884 145:0.047619049 146:0.063492067 147:0.043083902 148:0.020408163 149:0.01814059 150:0.0090702949 151:0.0068027209 152:0.0068027209 153:0.0068027209 154:0.011337869 155:0.0068027209 156:0.0045351475 157:0.0068027209 158:0.0090702949 159:0.0045351475 160:0.0068027209 161:0.0045351475 162:0.0090702949 163:0.0045351475 164:0.0022675737 165:0.0022675737 166:0.0068027209 167:0.0022675737 168:0.0068027209 169:0.0022675737 170:0.0068027209 171:0.0068027209 172:0.0045351475 174:0.0022675737 175:0.0022675737 176:0.0068027209 178:0.0045351475 179:0.0022675737 181:0.0045351475 183:0.0068027209 184:0.0045351475 185:0.0022675737 187:0.0045351475 188:0.0045351475 189:0.0022675737 190:0.0022675737 192:0.0022675737 193:0.0022675737 194:0.0068027209 195:0.0022675737 196:0.0045351475 197:0.0022675737 199:0.0022675737 200:0.0022675737 201:0.0022675737 202:0.0022675737 204:0.0022675737 205:0.0022675737 206:0.0022675737 208:0.0022675737 209:0.0022675737 211:0.0022675737 215:0.0045351475 220:0.0045351475 222:0.0045351475 225:0.0045351475 227:0.0045351475 228:0.0022675737 232:0.0022675737 238:0.0022675737 239:0.0045351475 240:0.0022675737 241:0.0022675737 242:0.0022675737 246:0.0022675737 
100000 130:0.011337869 131:0.01814059 132:0.045351475 133:0.038548753 134:0.052154195 135:0.065759636 136:0.040816326 137:0.065759636 138:0.045351475 139:0.029478459 140:0.015873017 141:0.022675738 142:0.03628118 143:0.01814059 144:0.027210884 145:0.047619049 146:0.063492067 147:0.043083902 148:0.020408163 149:0.01814059 150:0.0090702949 151:0.0068027209 152:0.0068027209 153:0.0068027209 154:0.011337869 155:0.0068027209 156:0.0045351475 157:0.0068027209 158:0.0090702949 159:0.0045351475 160:0.0068027209 161:0.0045351475 162:0.0090702949 163:0.0045351475 164:0.0022675737 165:0.0022675737 166:0.0068027209 167:0.0022675737 168:0.0068027209 169:0.0022675737 170:0.0068027209 171:0.0068027209 172:0.0045351475 174:0.0022675737 175:0.0022675737 176:0.0068027209 178:0.0045351475 179:0.0022675737 181:0.0045351475 183:0.0068027209 184:0.0045351475 185:0.0022675737 187:0.0045351475 188:0.0045351475 189:0.0022675737 190:0.0022675737 192:0.0022675737 193:0.0022675737 194:0.0068027209 195:0.0022675737 196:0.0045351475 197:0.0022675737 199:0.0022675737 200:0.0022675737 201:0.0022675737 202:0.0022675737 204:0.0022675737 205:0.0022675737 206:0.0022675737 208:0.0022675737 209:0.0022675737 211:0.0022675737 215:0.0045351475 220:0.0045351475 222:0.0045351475 225:0.0045351475 227:0.0045351475 228:0.0022675737 232:0.0022675737 238:0.0022675737 239:0.0045351475 240:0.0022675737 241:0.0022675737 242:0.0022675737 246:0.0022675737 
100000 109:0.0022675737 110:0.0022675737 111:0.0022675737 112:0.013605442 114:0.027210884 115:0.013605442 116:0.0090702949 117:0.024943311 118:0.015873017 119:0.020408163 120:0.013605442 121:0.0045351475 122:0.027210884 123:0.029478459 124:0.056689344 125:0.052154195 126:0.19047619 127:0.14512472 129:0.063492067 130:0.056689344 131:0.01814059 132:0.022675738 133:0.038548753 134:0.011337869 135:0.0045351475 136:0.029478459 137:0.029478459 138:0.027210884 139:0.0090702949 140:0.0045351475 141:0.0068027209 143:0.011337869 144:0.0045351475 145:0.0045351475 146:0.0068027209 
100000 109:0.0022675737 110:0.0022675737 111:0.0022675737 112:0.013605442 114:0.027210884 115:0.013605442 116:0.0090702949 117:0.024943311 118:0.015873017 119:0.020408163 120:0.013605442 121:0.0045351475 122:0.020408163 123:0.015873017 124:0.029478459 125:0.013605442 126:0.099773243 127:0.16553289 129:0.072562359 130:0.083900228 131:0.024943311 132:0.047619049 133:0.06122449 134:0.031746034 135:0.0045351475 136:0.047619049 137:0.047619049 138:0.03628118 139:0.0090702949 140:0.0045351475 141:0.0068027209 143:0.011337869 144:0.0045351475 145:0.0045351475 146:0.0068027209 
100000 109:0.0022675737 110:0.0022675737 111:0.0022675737 112:0.013605442 114:0.027210884 115:0.013605442 116:0.0090702949 117:0.024943311 118:0.015873017 119:0.020408163 120:0.0022675737 121:0.0045351475 122:0.013605442 123:0.013605442 124:0.027210884 125:0.013605442 126:0.081632651 127:0.16553289 129:0.079365082 130:0.090702951 131:0.031746034 132:0.049886622 133:0.06122449 134:0.03628118 135:0.0045351475 136:0.047619049 137:0.054421768 138:0.040816326 139:0.011337869 140:0.0045351475 141:0.0068027209 143:0.011337869 144:0.0045351475 145:0.0045351475 146:0.0068027209 
100000 109:0.0022675737 110:0.0022675737 111:0.0022675737 112:0.013605442 114:0.022675738 115:0.011337869 116:0.0068027209 117:0.024943311 118:0.0090702949 119:0.01814059 120:0.0022675737 121:0.0045351475 122:0.013605442 123:0.011337869 124:0.024943311 125:0.011337869 126:0.065759636 127:0.16553289 129:0.083900228 130:0.099773243 131:0.03628118 132:0.054421768 133:0.063492067 134:0.038548753 135:0.0045351475 136:0.049886622 137:0.06122449 138:0.043083902 139:0.013605442 140:0.0045351475 141:0.0068027209 143:0.011337869 144:0.0045351475 145:0.0045351475 146:0.0068027209 
