svm_type c_svc
kernel_type rbf
gamma 0.0039
nr_class 2
total_sv 2574
rho 2714.63
label 1 -1
nr_sv 1296 1278
SV
100000 111:0.0022675737 112:0.027210884 113:0.011337869 115:0.01814059 116:0.020408163 117:0.020408163 118:0.01814059 119:0.049886622 120:0.027210884 122:0.034013607 123:0.10657597 124:0.11337869 125:0.35827664 126:0.1292517 127:0.022675738 128:0.0022675737 129:0.027210884 130:0.0090702949 132:0.0022675737 
100000 111:0.0022675737 112:0.027210884 113:0.011337869 115:0.020408163 116:0.020408163 117:0.022675738 118:0.022675738 119:0.049886622 120:0.03628118 122:0.038548753 123:0.10884354 124:0.11564626 125:0.34013605 126:0.12244898 127:0.022675738 129:0.027210884 130:0.0090702949 132:0.0022675737 
100000 111:0.0022675737 112:0.027210884 113:0.011337869 115:0.024943311 116:0.020408163 117:0.024943311 118:0.024943311 119:0.056689344 120:0.045351475 122:0.038548753 123:0.10884354 124:0.11791383 125:0.32426304 126:0.11791383 127:0.015873017 129:0.027210884 130:0.0090702949 132:0.0022675737 
100000 111:0.0022675737 112:0.027210884 113:0.011337869 115:0.029478459 116:0.020408163 117:0.029478459 118:0.038548753 119:0.056689344 120:0.045351475 122:0.040816326 123:0.10884354 124:0.1201814 125:0.31065759 126:0.11111111 127:0.011337869 129:0.024943311 130:0.0090702949 132:0.0022675737 
100000 111:0.0022675737 112:0.027210884 113:0.011337869 115:0.034013607 116:0.029478459 117:0.03628118 118:0.040816326 119:0.056689344 120:0.045351475 122:0.040816326 123:0.11111111 124:0.1201814 125:0.29931974 126:0.10430839 127:0.0090702949 129:0.020408163 130:0.0090702949 132:0.0022675737 
100000 111:0.0068027209 112:0.034013607 113:0.011337869 115:0.038548753 116:0.034013607 117:0.03628118 118:0.040816326 119:0.058956917 120:0.045351475 122:0.040816326 123:0.11337869 124:0.1201814 125:0.2857143 126:0.097505674 127:0.0068027209 129:0.020408163 130:0.0090702949 
100000 111:0.0068027209 112:0.03628118 113:0.011337869 115:0.047619049 116:0.040816326 117:0.038548753 118:0.040816326 119:0.058956917 120:0.047619049 122:0.040816326 123:0.11337869 124:0.1201814 125:0.26530612 126:0.09297052 127:0.015873017 129:0.015873017 130:0.0068027209 
100000 111:0.0068027209 112:0.03628118 113:0.011337869 115:0.047619049 116:0.040816326 117:0.052154195 118:0.043083902 119:0.058956917 120:0.052154195 122:0.040816326 123:0.11564626 124:0.1201814 125:0.23809524 126:0.083900228 127:0.03628118 129:0.011337869 130:0.0045351475 
98778.2902521658 111:0.0068027209 112:0.03628118 113:0.011337869 115:0.047619049 116:0.040816326 117:0.063492067 118:0.045351475 119:0.06122449 120:0.052154195 122:0.045351475 123:0.11564626 124:0.11791383 125:0.20634921 126:0.079365082 127:0.06122449 129:0.0068027209 130:0.0022675737 
100000 107:0.0068027209 109:0.0045351475 111:0.013605442 113:0.0022675737 114:0.0045351475 115:0.0022675737 116:0.0045351475 117:0.013605442 118:0.0090702949 119:0.0090702949 120:0.0045351475 121:0.0090702949 122:0.0045351475 123:0.0022675737 124:0.01814059 125:0.0090702949 126:0.022675738 127:0.056689344 128:0.0090702949 129:0.043083902 130:0.06122449 131:0.052154195 132:0.054421768 133:0.056689344 134:0.049886622 135:0.0045351475 136:0.0022675737 137:0.022675738 138:0.027210884 139:0.01814059 140:0.015873017 141:0.011337869 142:0.029478459 144:0.013605442 145:0.0090702949 146:0.011337869 147:0.020408163 148:0.013605442 149:0.015873017 150:0.011337869 151:0.020408163 152:0.0068027209 153:0.0068027209 154:0.0045351475 155:0.0045351475 156:0.0068027209 157:0.0045351475 158:0.0090702949 159:0.0068027209 160:0.0068027209 161:0.011337869 162:0.0022675737 163:0.0068027209 164:0.0045351475 165:0.0022675737 166:0.0045351475 167:0.0068027209 168:0.0068027209 169:0.0022675737 170:0.0068027209 172:0.0045351475 175:0.0022675737 176:0.0022675737 179:0.0045351475 180:0.0045351475 181:0.0022675737 183:0.0045351475 184:0.0022675737 185:0.0022675737 188:0.0022675737 189:0.0045351475 190:0.0022675737 191:0.0045351475 193:0.0022675737 194:0.0022675737 196:0.0068027209 197:0.0022675737 200:0.0022675737 202:0.0022675737 205:0.0022675737 208:0.0090702949 210:0.0022675737 211:0.0022675737 213:0.0022675737 215:0.0045351475 223:0.0045351475 224:0.0068027209 231:0.0022675737 233:0.0045351475 234:0.0022675737 236:0.0022675737 237:0.0022675737 240:0.0022675737 241:0.0045351475 242:0.0022675737 
100000 98:0.0068027209 100:0.0022675737 101:0.0045351475 102:0.0022675737 103:0.0045351475 104:0.0090702949 105:0.0090702949 107:0.0068027209 109:0.03628118 110:0.0022675737 111:0.015873017 112:0.01814059 113:0.01814059 115:0.013605442 116:0.01814059 117:0.03628118 118:0.022675738 119:0.024943311 120:0.047619049 121:0.0090702949 122:0.18594104 123:0.17460318 124:0.034013607 125:0.052154195 126:0.034013607 127:0.027210884 128:0.0090702949 129:0.029478459 130:0.029478459 131:0.029478459 132:0.015873017 133:0.0090702949 134:0.0045351475 136:0.0045351475 137:0.0068027209 138:0.0022675737 139:0.0022675737 140:0.013605442 141:0.0090702949 142:0.0045351475 143:0.0022675737 144:0.0090702949 145:0.0022675737 
100000 98:0.0068027209 100:0.0022675737 101:0.0045351475 102:0.0022675737 103:0.0045351475 104:0.0090702949 105:0.0090702949 107:0.0068027209 109:0.03628118 110:0.0022675737 111:0.015873017 112:0.01814059 113:0.01814059 115:0.013605442 116:0.01814059 117:0.03628118 118:0.022675738 119:0.022675738 120:0.047619049 122:0.17913832 123:0.26077098 124:0.045351475 125:0.058956917 126:0.01814059 127:0.020408163 129:0.027210884 130:0.01814059 131:0.029478459 132:0.013605442 133:0.0068027209 134:0.0045351475 136:0.0022675737 137:0.0045351475 138:0.0022675737 140:0.0090702949 141:0.0022675737 
100000 109:0.0068027209 111:0.0022675737 112:0.0022675737 113:0.0068027209 115:0.0090702949 116:0.0090702949 117:0.01814059 118:0.013605442 119:0.013605442 120:0.03628118 121:0.0068027209 122:0.065759636 123:0.20861678 124:0.19501135 125:0.11791383 126:0.047619049 127:0.034013607 129:0.022675738 130:0.020408163 131:0.024943311 132:0.015873017 133:0.0090702949 134:0.013605442 136:0.022675738 137:0.0090702949 138:0.0068027209 139:0.01814059 140:0.015873017 141:0.0090702949 142:0.0045351475 143:0.0022675737 144:0.0090702949 145:0.0022675737 
100000 96:0.0022675737 97:0.0022675737 98:0.0068027209 100:0.0045351475 101:0.0090702949 102:0.024943311 103:0.013605442 104:0.020408163 105:0.0045351475 106:0.0068027209 107:0.0045351475 108:0.0068027209 109:0.020408163 110:0.0045351475 111:0.011337869 112:0.0090702949 113:0.0090702949 115:0.0090702949 116:0.011337869 117:0.0068027209 118:0.015873017 119:0.015873017 120:0.020408163 122:0.01814059 123:0.06122449 124:0.28344673 125:0.17233561 126:0.065759636 127:0.0068027209 128:0.0090702949 129:0.011337869 130:0.0068027209 131:0.013605442 132:0.020408163 133:0.020408163 134:0.011337869 135:0.0022675737 136:0.022675738 137:0.0068027209 138:0.0045351475 139:0.0022675737 140:0.0068027209 142:0.0045351475 144:0.0022675737 145:0.0022675737 146:0.0045351475 
100000 96:0.0022675737 97:0.0022675737 98:0.0068027209 100:0.0068027209 101:0.011337869 102:0.03628118 103:0.013605442 104:0.027210884 105:0.0068027209 106:0.0068027209 107:0.0045351475 108:0.011337869 109:0.024943311 110:0.0090702949 111:0.013605442 112:0.0090702949 113:0.0090702949 114:0.0022675737 115:0.011337869 116:0.01814059 117:0.0068027209 118:0.01814059 119:0.015873017 120:0.020408163 122:0.01814059 123:0.063492067 124:0.26984128 125:0.15192744 126:0.056689344 127:0.0045351475 128:0.0090702949 129:0.0090702949 130:0.0045351475 131:0.011337869 132:0.01814059 133:0.01814059 134:0.011337869 135:0.0022675737 136:0.022675738 137:0.0068027209 138:0.0045351475 139:0.0022675737 140:0.0068027209 142:0.0045351475 144:0.0022675737 145:0.0022675737 146:0.0045351475 
100000 96:0.0022675737 97:0.0022675737 98:0.0068027209 100:0.0068027209 101:0.011337869 102:0.03628118 103:0.013605442 104:0.027210884 105:0.0068027209 106:0.0068027209 107:0.0045351475 108:0.011337869 109:0.024943311 110:0.011337869 111:0.015873017 112:0.015873017 113:0.0090702949 114:0.0022675737 115:0.013605442 116:0.020408163 117:0.0090702949 118:0.01814059 119:0.01814059 120:0.020408163 122:0.022675738 123:0.063492067 124:0.25396827 125:0.1292517 126:0.06122449 127:0.0045351475 128:0.0090702949 129:0.0090702949 130:0.0068027209 131:0.013605442 132:0.020408163 133:0.020408163 134:0.011337869 135:0.0022675737 136:0.022675738 137:0.0068027209 138:0.0045351475 139:0.0022675737 140:0.0068027209 142:0.0045351475 144:0.0022675737 145:0.0022675737 146:0.0045351475 
100000 96:0.0022675737 97:0.0022675737 98:0.0068027209 100:0.0068027209 101:0.011337869 102:0.03628118 103:0.013605442 104:0.027210884 105:0.0068027209 106:0.0068027209 107:0.0045351475 108:0.022675738 109:0.027210884 110:0.013605442 111:0.020408163 112:0.015873017 113:0.0090702949 114:0.0022675737 115:0.015873017 116:0.022675738 117:0.0090702949 118:0.022675738 119:0.01814059 120:0.022675738 122:0.029478459 123:0.06122449 124:0.24263039 125:0.11564626 126:0.043083902 128:0.0090702949 129:0.0090702949 130:0.011337869 131:0.013605442 132:0.01814059 133:0.015873017 134:0.011337869 135:0.0022675737 136:0.022675738 137:0.011337869 138:0.011337869 139:0.0045351475 140:0.0068027209 142:0.0045351475 144:0.0022675737 145:0.0022675737 146:0.0045351475 
100000 96:0.0022675737 97:0.0022675737 98:0.0068027209 100:0.0068027209 101:0.011337869 102:0.03628118 103:0.013605442 104:0.027210884 105:0.0068027209 106:0.0068027209 107:0.0045351475 108:0.022675738 109:0.027210884 110:0.013605442 111:0.020408163 112:0.015873017 113:0.0090702949 114:0.0022675737 115:0.015873017 116:0.022675738 117:0.0090702949 118:0.022675738 119:0.020408163 120:0.022675738 122:0.029478459 123:0.068027213 124:0.23129252 125:0.097505674 126:0.045351475 128:0.0090702949 129:0.0090702949 130:0.013605442 131:0.013605442 132:0.01814059 133:0.015873017 134:0.013605442 135:0.0022675737 136:0.022675738 137:0.011337869 138:0.013605442 139:0.011337869 140:0.0090702949 141:0.0022675737 142:0.0045351475 144:0.0022675737 145:0.0022675737 146:0.0045351475 
100000 110:0.0022675737 111:0.0022675737 112:0.0045351475 113:0.0090702949 115:0.0045351475 116:0.022675738 117:0.015873017 118:0.01814059 119:0.015873017 120:0.031746034 122:0.040816326 123:0.047619049 124:0.19954649 125:0.23129252 126:0.06122449 127:0.027210884 129:0.049886622 130:0.097505674 131:0.034013607 132:0.01814059 133:0.024943311 134:0.031746034 136:0.0068027209 139:0.0022675737 
100000 110:0.0022675737 111:0.0022675737 112:0.0045351475 113:0.0090702949 115:0.0045351475 116:0.022675738 117:0.01814059 118:0.022675738 119:0.015873017 120:0.034013607 122:0.038548753 123:0.043083902 124:0.17687075 125:0.19047619 126:0.074829936 127:0.03628118 129:0.056689344 130:0.11111111 131:0.034013607 132:0.020408163 133:0.029478459 134:0.038548753 136:0.0090702949 137:0.0022675737 139:0.0022675737 
100000 108:0.0045351475 109:0.013605442 110:0.011337869 111:0.0045351475 112:0.01814059 113:0.0045351475 114:0.013605442 115:0.029478459 116:0.01814059 117:0.011337869 118:0.015873017 119:0.011337869 120:0.0090702949 121:0.0022675737 122:0.011337869 123:0.020408163 124:0.013605442 125:0.038548753 126:0.25623584 127:0.065759636 128:0.01814059 129:0.10884354 130:0.03628118 131:0.029478459 132:0.01814059 133:0.0090702949 134:0.027210884 135:0.0068027209 136:0.0090702949 137:0.0068027209 138:0.0090702949 139:0.0068027209 140:0.0090702949 141:0.0090702949 142:0.011337869 143:0.0022675737 144:0.0022675737 145:0.0090702949 146:0.0022675737 147:0.0045351475 148:0.0068027209 149:0.0045351475 150:0.0068027209 151:0.0045351475 152:0.0068027209 153:0.0022675737 154:0.0068027209 159:0.0022675737 160:0.0022675737 163:0.0022675737 164:0.0045351475 165:0.0045351475 166:0.0022675737 170:0.0022675737 173:0.0022675737 175:0.0045351475 179:0.0022675737 181:0.0022675737 186:0.0068027209 188:0.0022675737 190:0.0022675737 192:0.0022675737 194:0.0022675737 196:0.0022675737 199:0.0022675737 
70078.17877638972 108:0.0045351475 109:0.011337869 110:0.0090702949 111:0.0045351475 112:0.0045351475 113:0.0022675737 114:0.0022675737 115:0.0068027209 116:0.0022675737 119:0.0022675737 123:0.0090702949 125:0.0022675737 126:0.0090702949 127:0.0022675737 128:0.027210884 129:0.038548753 130:0.0090702949 131:0.011337869 132:0.038548753 133:0.047619049 134:0.049886622 135:0.027210884 136:0.020408163 137:0.043083902 138:0.043083902 139:0.040816326 140:0.020408163 141:0.045351475 142:0.038548753 143:0.0068027209 144:0.029478459 145:0.047619049 146:0.024943311 147:0.024943311 148:0.013605442 149:0.0068027209 150:0.011337869 151:0.013605442 152:0.015873017 153:0.0068027209 154:0.0068027209 155:0.0045351475 156:0.0068027209 158:0.0068027209 159:0.0022675737 160:0.0045351475 162:0.0090702949 163:0.0022675737 164:0.0068027209 165:0.0045351475 166:0.0045351475 167:0.0022675737 170:0.0022675737 171:0.0022675737 172:0.0022675737 173:0.0022675737 175:0.0045351475 177:0.0022675737 179:0.0022675737 180:0.0090702949 181:0.0068027209 182:0.0022675737 183:0.0022675737 184:0.0045351475 185:0.0045351475 186:0.0090702949 187:0.0045351475 188:0.011337869 190:0.0022675737 191:0.0022675737 192:0.0022675737 193:0.0045351475 194:0.0045351475 195:0.0045351475 196:0.0068027209 198:0.0022675737 199:0.0045351475 200:0.0022675737 201:0.0022675737 202:0.0045351475 205:0.0022675737 207:0.0045351475 209:0.0022675737 210:0.0045351475 211:0.0022675737 214:0.0022675737 218:0.0045351475 219:0.0022675737 220:0.0068027209 222:0.0022675737 228:0.0022675737 234:0.0045351475 237:0.0022675737 238:0.0022675737 242:0.0022675737 
100000 99:0.0022675737 101:0.0022675737 102:0.0045351475 104:0.0022675737 106:0.0045351475 108:0.0022675737 109:0.0022675737 111:0.0068027209 112:0.0022675737 115:0.0090702949 116:0.0022675737 117:0.0022675737 118:0.0045351475 119:0.0022675737 120:0.0068027209 122:0.0068027209 123:0.011337869 124:0.020408163 125:0.063492067 126:0.10430839 127:0.011337869 128:0.077097505 129:0.083900228 130:0.056689344 131:0.024943311 132:0.049886622 133:0.040816326 134:0.031746034 135:0.015873017 136:0.068027213 137:0.06122449 138:0.047619049 139:0.049886622 140:0.0068027209 141:0.029478459 142:0.0090702949 143:0.01814059 144:0.01814059 145:0.0090702949 146:0.0045351475 147:0.020408163 148:0.0022675737 
100000 120:0.0022675737 123:0.011337869 124:0.022675738 125:0.043083902 126:0.1814059 127:0.013605442 128:0.088435374 129:0.10884354 130:0.06122449 131:0.024943311 132:0.052154195 133:0.047619049 134:0.022675738 135:0.01814059 136:0.068027213 137:0.054421768 138:0.049886622 139:0.040816326 140:0.0090702949 141:0.020408163 143:0.01814059 144:0.011337869 145:0.0090702949 146:0.0045351475 147:0.013605442 148:0.0022675737 
100000 123:0.0090702949 124:0.022675738 125:0.052154195 126:0.21768707 127:0.015873017 128:0.088435374 129:0.10884354 130:0.058956917 131:0.024943311 132:0.052154195 133:0.045351475 134:0.020408163 135:0.015873017 136:0.063492067 137:0.052154195 138:0.043083902 139:0.034013607 140:0.0068027209 141:0.01814059 143:0.01814059 144:0.0090702949 145:0.0068027209 146:0.0045351475 147:0.0090702949 148:0.0022675737 
100000 123:0.0045351475 124:0.01814059 125:0.043083902 126:0.24716553 127:0.024943311 128:0.088435374 129:0.11111111 130:0.052154195 131:0.027210884 132:0.047619049 133:0.038548753 134:0.020408163 135:0.013605442 136:0.065759636 137:0.047619049 138:0.045351475 139:0.038548753 140:0.0090702949 141:0.015873017 143:0.01814059 144:0.0090702949 145:0.0045351475 146:0.0022675737 147:0.0068027209 
100000 123:0.0045351475 124:0.01814059 125:0.086167805 126:0.24716553 127:0.024943311 128:0.088435374 129:0.10430839 130:0.043083902 131:0.024943311 132:0.040816326 133:0.038548753 134:0.020408163 135:0.013605442 136:0.065759636 137:0.047619049 138:0.043083902 139:0.03628118 140:0.0090702949 141:0.015873017 143:0.015873017 144:0.0068027209 145:0.0022675737 147:0.0022675737 
100000 123:0.0022675737 124:0.015873017 125:0.10204082 126:0.24716553 127:0.034013607 128:0.083900228 129:0.097505674 130:0.03628118 131:0.020408163 132:0.038548753 133:0.038548753 134:0.01814059 135:0.013605442 136:0.070294783 137:0.045351475 138:0.049886622 139:0.040816326 140:0.013605442 141:0.013605442 143:0.0068027209 144:0.0068027209 145:0.0022675737 147:0.0022675737 
76861.93732784374 109:0.0045351475 110:0.0090702949 111:0.0022675737 112:0.011337869 115:0.045351475 116:0.043083902 117:0.034013607 118:0.0045351475 119:0.020408163 120:0.11791383 122:0.1201814 123:0.27437642 124:0.03628118 125:0.01814059 126:0.029478459 127:0.027210884 129:0.027210884 130:0.038548753 131:0.070294783 132:0.03628118 133:0.0090702949 134:0.0068027209 136:0.0045351475 137:0.0068027209 138:0.0022675737 
100000 109:0.0045351475 110:0.0090702949 111:0.0022675737 112:0.011337869 115:0.045351475 116:0.043083902 117:0.034013607 118:0.0045351475 119:0.020408163 120:0.11791383 122:0.11337869 123:0.27891156 124:0.038548753 125:0.022675738 126:0.031746034 127:0.027210884 129:0.038548753 130:0.03628118 131:0.065759636 132:0.03628118 133:0.0090702949 134:0.0022675737 136:0.0045351475 137:0.0022675737 
100000 109:0.0045351475 110:0.0090702949 111:0.0022675737 112:0.011337869 115:0.045351475 116:0.043083902 117:0.034013607 118:0.0045351475 119:0.020408163 120:0.11791383 122:0.095238097 123:0.33106577 124:0.040816326 125:0.020408163 126:0.034013607 127:0.031746034 129:0.031746034 130:0.027210884 131:0.06122449 132:0.034013607 
100000 109:0.0045351475 110:0.0090702949 111:0.0022675737 112:0.011337869 115:0.045351475 116:0.043083902 117:0.034013607 118:0.0045351475 119:0.01814059 120:0.10657597 122:0.079365082 123:0.3628118 124:0.043083902 125:0.03628118 126:0.040816326 127:0.027210884 129:0.024943311 130:0.024943311 131:0.056689344 132:0.024943311 
100000 109:0.0045351475 110:0.0090702949 111:0.0022675737 112:0.011337869 115:0.043083902 116:0.043083902 117:0.031746034 118:0.0045351475 119:0.01814059 120:0.088435374 122:0.065759636 123:0.38321996 124:0.074829936 125:0.049886622 126:0.03628118 127:0.024943311 129:0.020408163 130:0.020408163 131:0.045351475 132:0.022675738 
100000 112:0.0022675737 113:0.013605442 115:0.047619049 116:0.045351475 117:0.034013607 118:0.027210884 119:0.0090702949 120:0.038548753 122:0.038548753 123:0.054421768 124:0.13378686 125:0.31519276 126:0.19954649 127:0.0045351475 129:0.0068027209 130:0.0045351475 131:0.0045351475 132:0.0045351475 133:0.0045351475 134:0.0022675737 137:0.0022675737 138:0.0068027209 
100000 111:0.0022675737 114:0.0022675737 115:0.0022675737 117:0.0022675737 118:0.0090702949 119:0.0045351475 120:0.0045351475 121:0.0090702949 124:0.0090702949 125:0.013605442 126:0.088435374 127:0.1201814 128:0.03628118 129:0.052154195 130:0.083900228 131:0.063492067 132:0.034013607 133:0.052154195 134:0.045351475 135:0.0022675737 136:0.011337869 137:0.022675738 138:0.034013607 139:0.013605442 140:0.015873017 141:0.015873017 142:0.027210884 144:0.013605442 145:0.0068027209 146:0.0090702949 147:0.01814059 148:0.0090702949 149:0.0068027209 150:0.0045351475 151:0.0045351475 152:0.0022675737 153:0.0022675737 154:0.0022675737 155:0.0022675737 156:0.0022675737 157:0.0022675737 158:0.0045351475 160:0.0022675737 161:0.0045351475 162:0.0022675737 163:0.0022675737 165:0.0022675737 166:0.0022675737 167:0.0045351475 168:0.0045351475 170:0.0045351475 172:0.0022675737 175:0.0022675737 180:0.0045351475 181:0.0022675737 183:0.0045351475 184:0.0022675737 185:0.0022675737 188:0.0022675737 189:0.0045351475 190:0.0022675737 191:0.0045351475 194:0.0022675737 196:0.0045351475 197:0.0022675737 202:0.0022675737 205:0.0022675737 208:0.0090702949 210:0.0022675737 211:0.0022675737 213:0.0022675737 215:0.0045351475 223:0.0045351475 224:0.0068027209 231:0.0022675737 233:0.0045351475 234:0.0022675737 236:0.0022675737 237:0.0022675737 240:0.0022675737 241:0.0045351475 242:0.0022675737 
100000 111:0.0022675737 114:0.0022675737 115:0.0022675737 117:0.0022675737 118:0.0090702949 119:0.0045351475 120:0.0045351475 121:0.0090702949 124:0.013605442 125:0.011337869 126:0.068027213 127:0.09297052 128:0.034013607 129:0.043083902 130:0.077097505 131:0.056689344 132:0.038548753 133:0.052154195 134:0.047619049 135:0.0022675737 136:0.013605442 137:0.027210884 138:0.038548753 139:0.013605442 140:0.024943311 141:0.020408163 142:0.027210884 144:0.013605442 145:0.0068027209 146:0.0090702949 147:0.01814059 148:0.0090702949 149:0.011337869 150:0.0045351475 151:0.0068027209 152:0.0022675737 153:0.0022675737 154:0.0022675737 155:0.0045351475 156:0.0045351475 157:0.0045351475 158:0.0068027209 159:0.0022675737 160:0.0045351475 161:0.0045351475 162:0.0022675737 163:0.0022675737 165:0.0022675737 166:0.0022675737 167:0.0045351475 168:0.0045351475 170:0.0045351475 172:0.0022675737 175:0.0022675737 176:0.0022675737 180:0.0068027209 181:0.0022675737 183:0.0045351475 184:0.0022675737 185:0.0022675737 188:0.0022675737 189:0.0045351475 190:0.0022675737 191:0.0068027209 194:0.0022675737 196:0.0045351475 197:0.0022675737 202:0.0022675737 205:0.0022675737 208:0.0090702949 210:0.0045351475 211:0.0022675737 213:0.0022675737 215:0.0068027209 223:0.0045351475 224:0.0068027209 226:0.0022675737 231:0.0022675737 232:0.0022675737 233:0.0045351475 234:0.0022675737 236:0.0022675737 237:0.0045351475 240:0.0022675737 241:0.0045351475 242:0.0022675737 
100000 111:0.0022675737 114:0.0022675737 115:0.0022675737 117:0.0022675737 118:0.0090702949 119:0.0045351475 120:0.0045351475 121:0.0090702949 124:0.013605442 125:0.0090702949 126:0.054421768 127:0.058956917 128:0.031746034 129:0.040816326 130:0.068027213 131:0.052154195 132:0.043083902 133:0.043083902 134:0.049886622 135:0.0045351475 136:0.0090702949 137:0.03628118 138:0.045351475 139:0.01814059 140:0.024943311 141:0.022675738 142:0.029478459 144:0.013605442 145:0.0090702949 146:0.0090702949 147:0.01814059 148:0.0090702949 149:0.013605442 150:0.0045351475 151:0.0090702949 152:0.0022675737 153:0.0022675737 154:0.0022675737 155:0.0068027209 156:0.0045351475 157:0.0045351475 158:0.0068027209 159:0.0022675737 160:0.0068027209 161:0.011337869 162:0.0022675737 163:0.0045351475 165:0.0045351475 166:0.0045351475 167:0.0045351475 168:0.0068027209 169:0.0022675737 170:0.0045351475 172:0.0022675737 175:0.0022675737 176:0.0022675737 178:0.0022675737 180:0.0068027209 181:0.0022675737 183:0.0045351475 184:0.0022675737 185:0.0022675737 187:0.0022675737 188:0.0022675737 189:0.0045351475 190:0.0045351475 191:0.0068027209 193:0.0022675737 194:0.0022675737 196:0.0045351475 197:0.0022675737 202:0.0022675737 205:0.0022675737 206:0.0022675737 208:0.0090702949 210:0.0068027209 211:0.0022675737 213:0.0022675737 215:0.0068027209 222:0.0022675737 223:0.0045351475 224:0.0068027209 226:0.0045351475 231:0.0022675737 232:0.0022675737 233:0.0045351475 234:0.0022675737 236:0.0022675737 237:0.0045351475 240:0.0022675737 241:0.0045351475 242:0.0022675737 
100000 111:0.0022675737 114:0.0022675737 115:0.0022675737 117:0.0022675737 118:0.0090702949 119:0.0045351475 120:0.0045351475 121:0.0090702949 124:0.015873017 125:0.0090702949 126:0.047619049 127:0.040816326 128:0.015873017 129:0.034013607 130:0.058956917 131:0.047619049 132:0.038548753 133:0.034013607 134:0.049886622 135:0.0045351475 136:0.0090702949 137:0.038548753 138:0.043083902 139:0.022675738 140:0.027210884 141:0.022675738 142:0.029478459 144:0.013605442 145:0.011337869 146:0.011337869 147:0.020408163 148:0.013605442 149:0.013605442 150:0.0068027209 151:0.011337869 152:0.0022675737 153:0.0022675737 154:0.0022675737 155:0.0090702949 156:0.0090702949 157:0.0045351475 158:0.0068027209 159:0.0045351475 160:0.0090702949 161:0.011337869 162:0.0022675737 163:0.0045351475 164:0.0022675737 165:0.0068027209 166:0.0045351475 167:0.0045351475 168:0.0090702949 169:0.0045351475 170:0.0045351475 172:0.0045351475 174:0.0022675737 175:0.0022675737 176:0.0022675737 178:0.0045351475 179:0.0022675737 180:0.0068027209 181:0.0022675737 183:0.0045351475 184:0.0022675737 185:0.0045351475 187:0.0022675737 188:0.0022675737 189:0.0045351475 190:0.0045351475 191:0.0068027209 193:0.0022675737 194:0.0045351475 196:0.0068027209 197:0.0022675737 199:0.0045351475 202:0.0022675737 205:0.0022675737 206:0.0022675737 208:0.0090702949 210:0.0068027209 211:0.0022675737 212:0.0022675737 213:0.0022675737 214:0.0022675737 215:0.0068027209 222:0.0022675737 223:0.0045351475 224:0.0090702949 226:0.0045351475 231:0.0022675737 232:0.0022675737 233:0.0045351475 234:0.0022675737 235:0.0022675737 236:0.0022675737 237:0.0045351475 240:0.0022675737 241:0.0045351475 242:0.0022675737 
43027.67201374377 103:0.0022675737 104:0.0022675737 111:0.0068027209 114:0.0022675737 115:0.0022675737 116:0.0022675737 117:0.0045351475 118:0.011337869 119:0.0045351475 120:0.0045351475 121:0.0090702949 123:0.0022675737 124:0.011337869 125:0.011337869 126:0.0068027209 127:0.0068027209 128:0.0045351475 129:0.0022675737 130:0.0090702949 131:0.015873017 132:0.013605442 133:0.013605442 134:0.011337869 135:0.0090702949 136:0.0090702949 137:0.0068027209 138:0.011337869 139:0.022675738 140:0.011337869 141:0.0090702949 142:0.022675738 143:0.01814059 144:0.0068027209 145:0.013605442 146:0.01814059 147:0.027210884 148:0.0090702949 149:0.013605442 150:0.013605442 151:0.022675738 152:0.011337869 153:0.013605442 154:0.0068027209 155:0.015873017 156:0.015873017 157:0.0090702949 158:0.01814059 159:0.01814059 160:0.013605442 161:0.015873017 162:0.0090702949 163:0.011337869 164:0.0068027209 165:0.013605442 166:0.020408163 167:0.011337869 168:0.011337869 169:0.0090702949 170:0.011337869 171:0.0045351475 172:0.011337869 173:0.0022675737 174:0.0090702949 175:0.0045351475 176:0.011337869 178:0.0045351475 179:0.0090702949 180:0.0068027209 181:0.0068027209 182:0.0022675737 183:0.0068027209 184:0.0045351475 185:0.0068027209 186:0.0068027209 187:0.0022675737 188:0.0045351475 189:0.0068027209 190:0.0045351475 191:0.0068027209 192:0.0045351475 193:0.0045351475 194:0.0068027209 195:0.0045351475 196:0.011337869 197:0.0022675737 198:0.0022675737 199:0.0045351475 200:0.0045351475 202:0.0022675737 205:0.0045351475 206:0.0022675737 207:0.0022675737 208:0.0090702949 210:0.0068027209 211:0.0022675737 212:0.0022675737 213:0.0022675737 214:0.0022675737 215:0.0068027209 218:0.0045351475 221:0.0022675737 222:0.0022675737 223:0.0068027209 224:0.011337869 225:0.0022675737 226:0.0045351475 227:0.0022675737 229:0.0045351475 231:0.0045351475 232:0.0022675737 233:0.0068027209 234:0.0022675737 235:0.0045351475 236:0.0022675737 237:0.0068027209 238:0.0022675737 240:0.0045351475 241:0.0045351475 242:0.0022675737 247:0.0022675737 248:0.0022675737 249:0.0022675737 250:0.0045351475 251:0.0045351475 252:0.0022675737 253:0.0022675737 254:0.0045351475 255:0.031746034 
100000 116:0.0045351475 119:0.0022675737 120:0.0068027209 121:0.0022675737 125:0.0068027209 126:0.0045351475 127:0.072562359 128:0.020408163 129:0.068027213 130:0.01814059 131:0.029478459 132:0.052154195 133:0.086167805 134:0.049886622 135:0.0090702949 136:0.01814059 137:0.015873017 138:0.020408163 139:0.0090702949 140:0.0068027209 141:0.015873017 142:0.015873017 143:0.0045351475 144:0.011337869 145:0.0090702949 146:0.015873017 147:0.020408163 148:0.0068027209 149:0.0090702949 150:0.0022675737 151:0.024943311 152:0.0022675737 153:0.0090702949 154:0.0068027209 155:0.011337869 156:0.015873017 157:0.0090702949 158:0.013605442 159:0.0090702949 160:0.0068027209 161:0.0090702949 162:0.0068027209 163:0.0045351475 164:0.0022675737 165:0.013605442 166:0.011337869 167:0.0090702949 168:0.0090702949 169:0.0090702949 170:0.0068027209 171:0.0045351475 172:0.0068027209 173:0.0022675737 174:0.0068027209 175:0.0022675737 176:0.0045351475 177:0.0022675737 179:0.0045351475 181:0.0045351475 182:0.0022675737 183:0.0022675737 185:0.0022675737 186:0.0090702949 187:0.0022675737 188:0.0022675737 189:0.0022675737 190:0.0022675737 192:0.0068027209 193:0.0022675737 194:0.0022675737 195:0.0045351475 196:0.0068027209 198:0.0022675737 199:0.0022675737 200:0.0045351475 205:0.0022675737 207:0.0022675737 218:0.0045351475 221:0.0022675737 223:0.0022675737 224:0.0045351475 225:0.0022675737 227:0.0022675737 229:0.0045351475 231:0.0022675737 233:0.0022675737 235:0.0045351475 237:0.0022675737 238:0.0022675737 240:0.0022675737 247:0.0022675737 248:0.0022675737 249:0.0022675737 250:0.0045351475 251:0.0045351475 252:0.0022675737 253:0.0022675737 254:0.0045351475 255:0.031746034 
100000 116:0.0022675737 120:0.0045351475 121:0.0022675737 125:0.0022675737 126:0.0022675737 127:0.083900228 128:0.024943311 129:0.095238097 130:0.020408163 131:0.034013607 132:0.081632651 133:0.077097505 134:0.047619049 135:0.0090702949 136:0.01814059 137:0.011337869 138:0.020408163 139:0.0090702949 140:0.0068027209 141:0.015873017 142:0.013605442 143:0.0022675737 144:0.011337869 145:0.0090702949 146:0.0090702949 147:0.01814059 148:0.0068027209 149:0.0090702949 150:0.0022675737 151:0.015873017 153:0.0090702949 154:0.0068027209 155:0.0090702949 156:0.015873017 157:0.0090702949 158:0.013605442 159:0.0090702949 160:0.0022675737 161:0.0090702949 162:0.0068027209 163:0.0045351475 164:0.0022675737 165:0.011337869 166:0.0090702949 167:0.0090702949 168:0.0045351475 169:0.0068027209 170:0.0022675737 171:0.0045351475 172:0.0068027209 173:0.0022675737 174:0.0068027209 175:0.0022675737 176:0.0022675737 177:0.0022675737 179:0.0045351475 181:0.0045351475 182:0.0022675737 183:0.0022675737 185:0.0022675737 186:0.0090702949 187:0.0022675737 188:0.0022675737 189:0.0022675737 190:0.0022675737 192:0.0068027209 193:0.0022675737 194:0.0022675737 195:0.0045351475 196:0.0068027209 198:0.0022675737 199:0.0022675737 200:0.0045351475 205:0.0022675737 207:0.0022675737 218:0.0045351475 221:0.0022675737 223:0.0022675737 224:0.0045351475 225:0.0022675737 227:0.0022675737 229:0.0045351475 231:0.0022675737 233:0.0022675737 235:0.0045351475 237:0.0022675737 238:0.0022675737 240:0.0022675737 247:0.0022675737 248:0.0022675737 249:0.0022675737 250:0.0045351475 251:0.0045351475 252:0.0022675737 253:0.0022675737 254:0.0045351475 255:0.031746034 
100000 120:0.0045351475 125:0.0022675737 126:0.0022675737 127:0.090702951 128:0.029478459 129:0.11791383 130:0.052154195 131:0.049886622 132:0.077097505 133:0.063492067 134:0.047619049 135:0.0090702949 136:0.01814059 137:0.0068027209 138:0.020408163 139:0.0090702949 140:0.0068027209 141:0.013605442 142:0.011337869 143:0.0022675737 144:0.011337869 145:0.0068027209 146:0.0068027209 147:0.015873017 148:0.0068027209 149:0.0090702949 150:0.0022675737 151:0.013605442 153:0.0090702949 154:0.0068027209 155:0.0090702949 156:0.0090702949 157:0.0090702949 158:0.011337869 159:0.0090702949 160:0.0022675737 161:0.0090702949 162:0.0068027209 163:0.0022675737 165:0.0022675737 166:0.0068027209 167:0.0045351475 168:0.0022675737 169:0.0045351475 170:0.0022675737 171:0.0045351475 172:0.0068027209 173:0.0022675737 174:0.0068027209 175:0.0022675737 176:0.0022675737 177:0.0022675737 179:0.0045351475 181:0.0022675737 182:0.0022675737 183:0.0022675737 185:0.0022675737 186:0.0045351475 187:0.0022675737 188:0.0022675737 189:0.0022675737 190:0.0022675737 192:0.0068027209 193:0.0022675737 194:0.0022675737 195:0.0045351475 196:0.0068027209 198:0.0022675737 199:0.0022675737 200:0.0045351475 205:0.0022675737 207:0.0022675737 218:0.0045351475 221:0.0022675737 223:0.0022675737 224:0.0045351475 225:0.0022675737 227:0.0022675737 229:0.0045351475 231:0.0022675737 233:0.0022675737 235:0.0045351475 237:0.0022675737 238:0.0022675737 240:0.0022675737 247:0.0022675737 248:0.0022675737 249:0.0022675737 250:0.0045351475 251:0.0045351475 252:0.0022675737 253:0.0022675737 254:0.0045351475 255:0.031746034 
100000 113:0.0045351475 115:0.0022675737 116:0.0045351475 117:0.027210884 118:0.015873017 119:0.0090702949 120:0.01814059 122:0.015873017 123:0.14512472 124:0.3968254 125:0.12471656 126:0.063492067 127:0.047619049 129:0.031746034 130:0.01814059 131:0.011337869 132:0.011337869 133:0.0068027209 134:0.0022675737 137:0.0090702949 138:0.0022675737 139:0.0022675737 140:0.0022675737 141:0.0045351475 143:0.0022675737 144:0.0022675737 145:0.0068027209 146:0.0068027209 147:0.0045351475 
100000 113:0.0045351475 115:0.0068027209 116:0.0068027209 117:0.029478459 118:0.020408163 119:0.011337869 120:0.020408163 122:0.01814059 123:0.15192744 124:0.35600907 125:0.13151927 126:0.070294783 127:0.047619049 129:0.031746034 130:0.01814059 131:0.011337869 132:0.011337869 133:0.0068027209 134:0.0022675737 137:0.0090702949 138:0.0022675737 139:0.0022675737 140:0.0022675737 141:0.0045351475 143:0.0022675737 144:0.0022675737 145:0.0068027209 146:0.0068027209 147:0.0045351475 
100000 113:0.0045351475 115:0.011337869 116:0.0090702949 117:0.031746034 118:0.024943311 119:0.013605442 120:0.020408163 122:0.020408163 123:0.15192744 124:0.33333334 125:0.13605443 126:0.070294783 127:0.047619049 129:0.031746034 130:0.01814059 131:0.011337869 132:0.011337869 133:0.0068027209 134:0.0022675737 137:0.0090702949 138:0.0022675737 139:0.0022675737 140:0.0022675737 141:0.0045351475 143:0.0022675737 144:0.0022675737 145:0.0068027209 146:0.0068027209 147:0.0045351475 
100000 113:0.0045351475 115:0.015873017 116:0.0090702949 117:0.03628118 118:0.027210884 119:0.01814059 120:0.020408163 122:0.022675738 123:0.16099773 124:0.31519276 125:0.12698413 126:0.070294783 127:0.047619049 129:0.031746034 130:0.01814059 131:0.011337869 132:0.011337869 133:0.0068027209 134:0.0022675737 137:0.0090702949 138:0.0022675737 139:0.0022675737 140:0.0022675737 141:0.0045351475 143:0.0022675737 144:0.0022675737 145:0.0068027209 146:0.0068027209 147:0.0045351475 
100000 113:0.0045351475 115:0.020408163 116:0.0090702949 117:0.03628118 118:0.029478459 119:0.029478459 120:0.022675738 122:0.024943311 123:0.16553289 124:0.29705215 125:0.11791383 126:0.070294783 127:0.047619049 129:0.031746034 130:0.01814059 131:0.011337869 132:0.011337869 133:0.0068027209 134:0.0022675737 137:0.0090702949 138:0.0022675737 139:0.0022675737 140:0.0022675737 141:0.0045351475 143:0.0022675737 144:0.0022675737 145:0.0068027209 146:0.0068027209 147:0.0045351475 
100000 113:0.0045351475 115:0.020408163 116:0.0090702949 117:0.03628118 118:0.031746034 119:0.031746034 120:0.029478459 122:0.029478459 123:0.17006803 124:0.2857143 125:0.10884354 126:0.070294783 127:0.047619049 129:0.031746034 130:0.01814059 131:0.011337869 132:0.011337869 133:0.0068027209 134:0.0022675737 137:0.0090702949 138:0.0022675737 139:0.0022675737 140:0.0022675737 141:0.0045351475 143:0.0022675737 144:0.0022675737 145:0.0068027209 146:0.0068027209 147:0.0045351475 
100000 113:0.0045351475 115:0.020408163 116:0.0090702949 117:0.03628118 118:0.031746034 119:0.031746034 120:0.031746034 122:0.038548753 123:0.17913832 124:0.27437642 125:0.099773243 126:0.070294783 127:0.047619049 129:0.031746034 130:0.01814059 131:0.011337869 132:0.011337869 133:0.0068027209 134:0.0022675737 137:0.0090702949 138:0.0022675737 139:0.0022675737 140:0.0022675737 141:0.0045351475 143:0.0022675737 144:0.0022675737 145:0.0068027209 146:0.0068027209 147:0.0045351475 
100000 113:0.0045351475 115:0.020408163 116:0.0090702949 117:0.03628118 118:0.031746034 119:0.031746034 120:0.031746034 122:0.038548753 123:0.19501135 124:0.2857143 125:0.077097505 126:0.065759636 127:0.047619049 129:0.031746034 130:0.01814059 131:0.011337869 132:0.011337869 133:0.0068027209 134:0.0022675737 137:0.0090702949 138:0.0022675737 139:0.0022675737 140:0.0022675737 141:0.0045351475 143:0.0022675737 144:0.0022675737 145:0.0068027209 146:0.0068027209 147:0.0045351475 
100000 113:0.0045351475 115:0.020408163 116:0.0090702949 117:0.03628118 118:0.031746034 119:0.031746034 120:0.031746034 122:0.038548753 123:0.19501135 124:0.30839002 125:0.068027213 126:0.056689344 127:0.043083902 129:0.031746034 130:0.01814059 131:0.011337869 132:0.011337869 133:0.0068027209 134:0.0022675737 137:0.0090702949 138:0.0022675737 139:0.0022675737 140:0.0022675737 141:0.0045351475 143:0.0022675737 144:0.0022675737 145:0.0068027209 146:0.0068027209 147:0.0045351475 
100000 113:0.0045351475 115:0.020408163 116:0.0090702949 117:0.03628118 118:0.031746034 119:0.031746034 120:0.031746034 122:0.038548753 123:0.19501135 124:0.33106577 125:0.06122449 126:0.047619049 127:0.03628118 129:0.031746034 130:0.01814059 131:0.011337869 132:0.011337869 133:0.0068027209 134:0.0022675737 137:0.0090702949 138:0.0022675737 139:0.0022675737 140:0.0022675737 141:0.0045351475 143:0.0022675737 144:0.0022675737 145:0.0068027209 146:0.0068027209 147:0.0045351475 
100000 125:0.0022675737 126:0.049886622 127:0.052154195 128:0.36961451 129:0.049886622 130:0.14285715 131:0.077097505 132:0.022675738 133:0.027210884 134:0.024943311 135:0.038548753 136:0.015873017 137:0.040816326 138:0.070294783 139:0.015873017 
100000 125:0.0022675737 126:0.0022675737 127:0.052154195 128:0.36961451 129:0.049886622 130:0.14285715 131:0.077097505 132:0.024943311 133:0.034013607 134:0.024943311 135:0.038548753 136:0.015873017 137:0.040816326 138:0.088435374 139:0.03628118 
100000 125:0.0022675737 126:0.0022675737 127:0.040816326 128:0.33333334 129:0.049886622 130:0.14285715 131:0.077097505 132:0.024943311 133:0.034013607 134:0.029478459 135:0.038548753 136:0.020408163 137:0.045351475 138:0.09297052 139:0.063492067 140:0.0022675737 
100000 98:0.0022675737 101:0.0045351475 102:0.0022675737 103:0.0022675737 104:0.011337869 105:0.0045351475 106:0.0045351475 107:0.0090702949 108:0.0068027209 109:0.01814059 110:0.0090702949 111:0.011337869 112:0.013605442 113:0.0068027209 114:0.0068027209 115:0.022675738 116:0.01814059 117:0.027210884 118:0.015873017 119:0.029478459 120:0.034013607 121:0.0022675737 122:0.045351475 123:0.083900228 124:0.15419501 125:0.34013605 126:0.022675738 127:0.0068027209 128:0.0045351475 129:0.0068027209 130:0.013605442 131:0.0090702949 132:0.0022675737 133:0.0022675737 134:0.0022675737 136:0.0022675737 137:0.0022675737 139:0.0045351475 140:0.0022675737 141:0.0045351475 143:0.0045351475 144:0.0068027209 145:0.0022675737 148:0.0045351475 150:0.0022675737 151:0.0022675737 152:0.0045351475 
100000 98:0.0022675737 101:0.0045351475 102:0.0022675737 103:0.0022675737 104:0.011337869 105:0.0045351475 106:0.0045351475 107:0.0090702949 108:0.0045351475 109:0.01814059 110:0.0022675737 111:0.011337869 112:0.013605442 113:0.0068027209 114:0.0045351475 115:0.020408163 116:0.013605442 117:0.027210884 118:0.013605442 119:0.027210884 120:0.031746034 121:0.0022675737 122:0.043083902 123:0.081632651 124:0.15192744 125:0.38548753 126:0.020408163 127:0.0068027209 128:0.0045351475 129:0.0045351475 130:0.013605442 131:0.0090702949 132:0.0022675737 134:0.0022675737 136:0.0022675737 137:0.0022675737 139:0.0045351475 140:0.0022675737 141:0.0045351475 143:0.0022675737 144:0.0068027209 145:0.0022675737 148:0.0045351475 152:0.0045351475 
100000 98:0.0022675737 101:0.0045351475 102:0.0022675737 103:0.0022675737 104:0.0090702949 105:0.0045351475 106:0.0022675737 107:0.0090702949 108:0.0045351475 109:0.01814059 110:0.0022675737 111:0.0090702949 112:0.0090702949 113:0.0068027209 114:0.0045351475 115:0.01814059 116:0.013605442 117:0.027210884 118:0.011337869 119:0.027210884 120:0.029478459 122:0.043083902 123:0.079365082 124:0.15192744 125:0.43310657 126:0.013605442 127:0.0045351475 128:0.0022675737 129:0.0045351475 130:0.013605442 131:0.0068027209 132:0.0022675737 134:0.0022675737 137:0.0022675737 139:0.0045351475 141:0.0022675737 143:0.0022675737 144:0.0022675737 145:0.0022675737 148:0.0045351475 152:0.0045351475 
100000 107:0.0068027209 108:0.0045351475 109:0.0022675737 110:0.011337869 111:0.0090702949 112:0.0090702949 114:0.0045351475 115:0.011337869 116:0.020408163 117:0.0022675737 118:0.015873017 119:0.0090702949 120:0.0022675737 121:0.0090702949 122:0.0090702949 123:0.0090702949 124:0.0090702949 125:0.047619049 126:0.17913832 127:0.15192744 128:0.083900228 129:0.083900228 130:0.063492067 131:0.022675738 132:0.03628118 133:0.027210884 134:0.038548753 135:0.020408163 136:0.011337869 137:0.0045351475 138:0.0090702949 139:0.0068027209 140:0.0068027209 141:0.0045351475 142:0.0022675737 143:0.0022675737 144:0.0022675737 148:0.0045351475 149:0.0045351475 150:0.0022675737 151:0.0068027209 153:0.0022675737 154:0.0022675737 158:0.0022675737 159:0.0022675737 163:0.0022675737 164:0.0022675737 165:0.0022675737 168:0.0022675737 169:0.0022675737 170:0.0022675737 172:0.0045351475 178:0.0022675737 179:0.0022675737 
100000 107:0.0068027209 108:0.0045351475 109:0.0022675737 110:0.011337869 111:0.0090702949 112:0.0090702949 114:0.0045351475 115:0.011337869 116:0.020408163 117:0.0022675737 118:0.015873017 119:0.0090702949 120:0.0022675737 121:0.0090702949 122:0.01814059 123:0.01814059 124:0.013605442 125:0.058956917 126:0.16780046 127:0.1292517 128:0.083900228 129:0.083900228 130:0.063492067 131:0.022675738 132:0.03628118 133:0.027210884 134:0.038548753 135:0.020408163 136:0.011337869 137:0.0045351475 138:0.0090702949 139:0.0068027209 140:0.0068027209 141:0.0045351475 142:0.0022675737 143:0.0022675737 144:0.0022675737 148:0.0045351475 149:0.0045351475 150:0.0022675737 151:0.0068027209 153:0.0022675737 154:0.0022675737 158:0.0022675737 159:0.0022675737 163:0.0022675737 164:0.0022675737 165:0.0022675737 168:0.0022675737 169:0.0022675737 170:0.0022675737 172:0.0045351475 178:0.0022675737 179:0.0022675737 
100000 107:0.0068027209 108:0.0045351475 109:0.0022675737 110:0.011337869 111:0.0090702949 112:0.0090702949 114:0.0045351475 115:0.011337869 116:0.020408163 117:0.0022675737 118:0.015873017 119:0.0090702949 120:0.0022675737 121:0.0090702949 122:0.01814059 123:0.01814059 124:0.03628118 125:0.070294783 126:0.16780046 127:0.097505674 128:0.083900228 129:0.081632651 130:0.063492067 131:0.022675738 132:0.03628118 133:0.027210884 134:0.038548753 135:0.020408163 136:0.011337869 137:0.0045351475 138:0.0090702949 139:0.0068027209 140:0.0068027209 141:0.0045351475 142:0.0022675737 143:0.0022675737 144:0.0022675737 148:0.0045351475 149:0.0045351475 150:0.0022675737 151:0.0068027209 153:0.0022675737 154:0.0022675737 158:0.0022675737 159:0.0022675737 163:0.0022675737 164:0.0022675737 165:0.0022675737 168:0.0022675737 169:0.0022675737 170:0.0022675737 172:0.0045351475 178:0.0022675737 179:0.0022675737 
100000 107:0.0068027209 108:0.0045351475 109:0.0022675737 110:0.011337869 111:0.0090702949 112:0.0090702949 114:0.0045351475 115:0.011337869 116:0.020408163 117:0.0022675737 118:0.015873017 119:0.0090702949 120:0.0022675737 121:0.0090702949 122:0.01814059 123:0.01814059 124:0.045351475 125:0.13151927 126:0.17006803 127:0.056689344 128:0.077097505 129:0.063492067 130:0.056689344 131:0.022675738 132:0.03628118 133:0.027210884 134:0.038548753 135:0.020408163 136:0.011337869 137:0.0045351475 138:0.0090702949 139:0.0068027209 140:0.0068027209 141:0.0045351475 142:0.0022675737 143:0.0022675737 144:0.0022675737 148:0.0045351475 149:0.0045351475 150:0.0022675737 151:0.0068027209 153:0.0022675737 154:0.0022675737 158:0.0022675737 159:0.0022675737 163:0.0022675737 164:0.0022675737 165:0.0022675737 168:0.0022675737 169:0.0022675737 170:0.0022675737 172:0.0045351475 178:0.0022675737 179:0.0022675737 
100000 107:0.0068027209 108:0.0045351475 109:0.0022675737 110:0.011337869 111:0.0090702949 112:0.0090702949 114:0.0045351475 115:0.011337869 116:0.020408163 117:0.0022675737 118:0.015873017 119:0.0090702949 120:0.011337869 121:0.0090702949 122:0.029478459 123:0.020408163 124:0.052154195 125:0.17233561 126:0.13605443 127:0.047619049 128:0.070294783 129:0.049886622 130:0.049886622 131:0.022675738 132:0.03628118 133:0.027210884 134:0.038548753 135:0.020408163 136:0.011337869 137:0.0045351475 138:0.0090702949 139:0.0068027209 140:0.0068027209 141:0.0045351475 142:0.0022675737 143:0.0022675737 144:0.0022675737 148:0.0045351475 149:0.0045351475 150:0.0022675737 151:0.0068027209 153:0.0022675737 154:0.0022675737 158:0.0022675737 159:0.0022675737 163:0.0022675737 164:0.0022675737 165:0.0022675737 168:0.0022675737 169:0.0022675737 170:0.0022675737 172:0.0045351475 178:0.0022675737 179:0.0022675737 
100000 107:0.0068027209 108:0.0045351475 109:0.0022675737 110:0.011337869 111:0.0090702949 112:0.0090702949 114:0.0045351475 115:0.011337869 116:0.020408163 117:0.0022675737 118:0.015873017 119:0.0090702949 120:0.011337869 121:0.0090702949 122:0.029478459 123:0.020408163 124:0.052154195 125:0.24943312 126:0.13151927 127:0.034013607 128:0.070294783 129:0.027210884 130:0.038548753 131:0.013605442 132:0.034013607 133:0.022675738 134:0.034013607 135:0.020408163 136:0.0068027209 137:0.0045351475 138:0.0090702949 139:0.0068027209 140:0.0068027209 141:0.0045351475 142:0.0022675737 143:0.0022675737 144:0.0022675737 148:0.0045351475 149:0.0045351475 150:0.0022675737 151:0.0068027209 153:0.0022675737 154:0.0022675737 158:0.0022675737 159:0.0022675737 163:0.0022675737 164:0.0022675737 165:0.0022675737 168:0.0022675737 169:0.0022675737 170:0.0022675737 172:0.0045351475 178:0.0022675737 179:0.0022675737 
100000 107:0.0068027209 108:0.0045351475 109:0.0022675737 110:0.011337869 111:0.0090702949 112:0.0090702949 114:0.0045351475 115:0.011337869 116:0.020408163 117:0.0022675737 118:0.015873017 119:0.0090702949 120:0.011337869 121:0.0090702949 122:0.029478459 123:0.020408163 124:0.052154195 125:0.28798187 126:0.13378686 127:0.022675738 128:0.070294783 129:0.022675738 130:0.03628118 131:0.013605442 132:0.024943311 133:0.022675738 134:0.024943311 135:0.015873017 136:0.0068027209 137:0.0045351475 138:0.0090702949 139:0.0068027209 140:0.0068027209 141:0.0045351475 142:0.0022675737 143:0.0022675737 144:0.0022675737 148:0.0045351475 149:0.0045351475 150:0.0022675737 151:0.0068027209 153:0.0022675737 154:0.0022675737 158:0.0022675737 159:0.0022675737 163:0.0022675737 164:0.0022675737 165:0.0022675737 168:0.0022675737 169:0.0022675737 170:0.0022675737 172:0.0045351475 178:0.0022675737 179:0.0022675737 
100000 103:0.0022675737 107:0.0045351475 109:0.0045351475 110:0.0045351475 112:0.0022675737 114:0.0022675737 115:0.0022675737 116:0.0045351475 117:0.0022675737 118:0.0022675737 119:0.0022675737 120:0.0022675737 122:0.0022675737 123:0.0068027209 124:0.027210884 125:0.10430839 126:0.43764174 127:0.15192744 128:0.0045351475 129:0.047619049 130:0.020408163 131:0.013605442 132:0.0090702949 133:0.015873017 134:0.0068027209 135:0.0045351475 136:0.0068027209 137:0.0068027209 138:0.0022675737 140:0.0068027209 141:0.0022675737 143:0.0022675737 144:0.0022675737 145:0.0022675737 147:0.0045351475 150:0.0068027209 152:0.0045351475 153:0.0022675737 154:0.0068027209 155:0.0022675737 156:0.0022675737 158:0.0068027209 159:0.0045351475 163:0.0022675737 166:0.0022675737 168:0.0045351475 169:0.0022675737 170:0.0022675737 172:0.0068027209 173:0.0022675737 175:0.0045351475 176:0.0045351475 178:0.0022675737 179:0.0022675737 181:0.0022675737 
100000 101:0.0022675737 103:0.0022675737 106:0.0022675737 107:0.0045351475 108:0.0022675737 109:0.0045351475 110:0.0045351475 112:0.0022675737 114:0.0022675737 115:0.0045351475 116:0.0045351475 117:0.0022675737 118:0.0022675737 119:0.0022675737 120:0.0022675737 122:0.0022675737 123:0.011337869 124:0.031746034 125:0.097505674 126:0.39909297 127:0.15646258 128:0.0045351475 129:0.049886622 130:0.020408163 131:0.01814059 132:0.0090702949 133:0.01814059 134:0.0068027209 135:0.0045351475 136:0.0090702949 137:0.0068027209 138:0.0022675737 140:0.0090702949 141:0.0022675737 143:0.0022675737 144:0.0022675737 145:0.0022675737 147:0.0045351475 150:0.0068027209 152:0.0045351475 153:0.0022675737 154:0.0090702949 155:0.0022675737 156:0.0022675737 158:0.0068027209 159:0.0045351475 160:0.0022675737 163:0.0022675737 166:0.0022675737 168:0.0068027209 169:0.0022675737 170:0.0022675737 172:0.0090702949 173:0.0022675737 175:0.0045351475 176:0.0045351475 178:0.0022675737 179:0.0022675737 181:0.0022675737 
100000 100:0.0022675737 101:0.0022675737 103:0.0045351475 105:0.0022675737 106:0.0022675737 107:0.0045351475 108:0.0022675737 109:0.0045351475 110:0.0045351475 112:0.0022675737 114:0.0022675737 115:0.0045351475 116:0.0068027209 117:0.0022675737 118:0.0022675737 119:0.0022675737 120:0.0022675737 122:0.0045351475 123:0.013605442 124:0.034013607 125:0.095238097 126:0.36734694 127:0.15646258 128:0.0068027209 129:0.049886622 130:0.020408163 131:0.020408163 132:0.0090702949 133:0.01814059 134:0.0090702949 135:0.0045351475 136:0.0090702949 137:0.0068027209 138:0.0022675737 139:0.0022675737 140:0.0090702949 141:0.0022675737 143:0.0022675737 144:0.0022675737 145:0.0022675737 146:0.0022675737 147:0.0068027209 149:0.0022675737 150:0.0068027209 152:0.0045351475 153:0.0022675737 154:0.0090702949 155:0.0022675737 156:0.0045351475 158:0.0068027209 159:0.0045351475 160:0.0022675737 163:0.0022675737 166:0.0022675737 168:0.0068027209 169:0.0022675737 170:0.0022675737 172:0.0090702949 173:0.0022675737 175:0.0045351475 176:0.0045351475 178:0.0022675737 179:0.0022675737 181:0.0022675737 
100000 97:0.0045351475 99:0.0022675737 100:0.0068027209 101:0.0022675737 102:0.0022675737 103:0.0068027209 104:0.0045351475 105:0.0022675737 106:0.0022675737 107:0.0045351475 108:0.0045351475 109:0.0090702949 110:0.0090702949 111:0.0045351475 112:0.0045351475 114:0.0022675737 115:0.0045351475 116:0.0090702949 117:0.0068027209 118:0.0068027209 119:0.0068027209 120:0.011337869 122:0.015873017 123:0.031746034 124:0.045351475 125:0.40136054 126:0.20181406 127:0.013605442 128:0.0045351475 129:0.015873017 130:0.0068027209 131:0.01814059 132:0.0068027209 133:0.0090702949 134:0.0045351475 135:0.0022675737 136:0.011337869 137:0.0022675737 139:0.0068027209 140:0.0090702949 143:0.0022675737 145:0.0045351475 146:0.0022675737 147:0.0045351475 149:0.0022675737 150:0.0022675737 154:0.0090702949 156:0.0045351475 158:0.0045351475 159:0.0045351475 160:0.0022675737 163:0.0022675737 168:0.0045351475 169:0.0022675737 172:0.0068027209 173:0.0022675737 175:0.0045351475 176:0.0045351475 179:0.0022675737 181:0.0022675737 
100000 97:0.0045351475 99:0.0022675737 100:0.0068027209 101:0.0022675737 102:0.0022675737 103:0.0068027209 104:0.0045351475 105:0.0022675737 106:0.0022675737 107:0.0045351475 108:0.0045351475 109:0.0090702949 110:0.0090702949 111:0.0045351475 112:0.0045351475 114:0.0022675737 115:0.0045351475 116:0.0090702949 117:0.0045351475 118:0.0068027209 119:0.0068027209 120:0.0090702949 122:0.015873017 123:0.029478459 124:0.045351475 125:0.41950113 126:0.21088436 127:0.013605442 128:0.0045351475 129:0.013605442 130:0.0068027209 131:0.01814059 132:0.0068027209 133:0.0068027209 134:0.0045351475 136:0.011337869 137:0.0022675737 139:0.0068027209 140:0.0090702949 143:0.0022675737 145:0.0022675737 146:0.0022675737 147:0.0045351475 149:0.0022675737 154:0.0090702949 156:0.0022675737 158:0.0045351475 159:0.0045351475 160:0.0022675737 163:0.0022675737 168:0.0022675737 169:0.0022675737 172:0.0068027209 173:0.0022675737 175:0.0045351475 176:0.0022675737 179:0.0022675737 
100000 96:0.0022675737 97:0.0022675737 99:0.0022675737 100:0.0022675737 101:0.0045351475 103:0.0090702949 104:0.0022675737 105:0.0022675737 107:0.0022675737 108:0.0090702949 109:0.0090702949 110:0.0045351475 111:0.0045351475 116:0.0090702949 117:0.011337869 118:0.0045351475 119:0.0022675737 120:0.0045351475 122:0.0022675737 123:0.0022675737 124:0.058956917 125:0.41269842 126:0.19954649 127:0.090702951 129:0.015873017 130:0.015873017 131:0.0090702949 132:0.015873017 133:0.0068027209 134:0.0045351475 137:0.0068027209 139:0.0045351475 140:0.0022675737 141:0.0068027209 143:0.0022675737 144:0.0045351475 145:0.0022675737 146:0.0022675737 147:0.0045351475 148:0.0022675737 151:0.0022675737 158:0.0090702949 160:0.0045351475 161:0.0045351475 163:0.0022675737 165:0.0022675737 172:0.0022675737 177:0.0022675737 180:0.0068027209 182:0.0022675737 
100000 96:0.0022675737 97:0.0022675737 99:0.0022675737 100:0.0022675737 101:0.0045351475 103:0.0090702949 104:0.0022675737 105:0.0022675737 107:0.0022675737 108:0.0090702949 109:0.0090702949 110:0.0045351475 111:0.0068027209 115:0.0022675737 116:0.0090702949 117:0.011337869 118:0.0068027209 119:0.0045351475 120:0.0068027209 122:0.0022675737 123:0.0068027209 124:0.081632651 125:0.37188208 126:0.19954649 127:0.09297052 129:0.015873017 130:0.015873017 131:0.0090702949 132:0.015873017 133:0.0068027209 134:0.0045351475 137:0.0068027209 139:0.0045351475 140:0.0022675737 141:0.0068027209 143:0.0022675737 144:0.0045351475 145:0.0022675737 146:0.0022675737 147:0.0045351475 148:0.0022675737 151:0.0022675737 158:0.0090702949 160:0.0045351475 161:0.0045351475 163:0.0022675737 165:0.0022675737 172:0.0022675737 177:0.0022675737 180:0.0068027209 182:0.0022675737 
100000 96:0.0022675737 97:0.0022675737 99:0.0022675737 100:0.0022675737 101:0.0045351475 103:0.0090702949 104:0.0022675737 105:0.0022675737 107:0.0022675737 108:0.0090702949 109:0.0090702949 110:0.0045351475 111:0.0068027209 115:0.0022675737 116:0.0090702949 117:0.011337869 118:0.0068027209 119:0.0045351475 120:0.0068027209 122:0.0045351475 123:0.03628118 124:0.097505674 125:0.32426304 126:0.19954649 127:0.09297052 129:0.015873017 130:0.015873017 131:0.0090702949 132:0.015873017 133:0.0068027209 134:0.0045351475 137:0.0068027209 139:0.0045351475 140:0.0022675737 141:0.0068027209 143:0.0022675737 144:0.0045351475 145:0.0022675737 146:0.0022675737 147:0.0045351475 148:0.0022675737 151:0.0022675737 158:0.0090702949 160:0.0045351475 161:0.0045351475 163:0.0022675737 165:0.0022675737 172:0.0022675737 177:0.0022675737 180:0.0068027209 182:0.0022675737 
100000 96:0.0022675737 97:0.0022675737 99:0.0022675737 100:0.0022675737 101:0.0045351475 103:0.0090702949 104:0.0022675737 105:0.0022675737 107:0.0022675737 108:0.0090702949 109:0.0090702949 110:0.0045351475 111:0.0068027209 115:0.0022675737 116:0.0090702949 117:0.011337869 118:0.0068027209 119:0.0045351475 120:0.0068027209 122:0.0045351475 123:0.065759636 124:0.11564626 125:0.2857143 126:0.19047619 127:0.09297052 129:0.015873017 130:0.015873017 131:0.0090702949 132:0.015873017 133:0.0068027209 134:0.0045351475 137:0.0068027209 139:0.0045351475 140:0.0022675737 141:0.0068027209 143:0.0022675737 144:0.0045351475 145:0.0022675737 146:0.0022675737 147:0.0045351475 148:0.0022675737 151:0.0022675737 158:0.0090702949 160:0.0045351475 161:0.0045351475 163:0.0022675737 165:0.0022675737 172:0.0022675737 177:0.0022675737 180:0.0068027209 182:0.0022675737 
100000 131:0.0022675737 132:0.0045351475 133:0.01814059 134:0.097505674 135:0.0090702949 136:0.1632653 137:0.099773243 138:0.063492067 139:0.03628118 140:0.038548753 141:0.027210884 142:0.040816326 143:0.0045351475 144:0.013605442 145:0.01814059 146:0.0068027209 147:0.0068027209 148:0.01814059 149:0.0022675737 150:0.011337869 151:0.0045351475 152:0.015873017 153:0.0045351475 154:0.0068027209 155:0.0090702949 156:0.013605442 157:0.020408163 158:0.011337869 159:0.015873017 161:0.0090702949 162:0.01814059 163:0.0045351475 164:0.0090702949 165:0.0022675737 166:0.0045351475 169:0.0068027209 170:0.0045351475 171:0.0022675737 172:0.0022675737 174:0.0045351475 175:0.0045351475 176:0.0068027209 181:0.0022675737 186:0.0022675737 187:0.0022675737 188:0.0022675737 191:0.0022675737 194:0.0022675737 196:0.0022675737 199:0.0045351475 201:0.0022675737 202:0.0022675737 203:0.0022675737 208:0.0022675737 211:0.0022675737 214:0.0022675737 216:0.0045351475 220:0.0022675737 222:0.0022675737 231:0.0022675737 232:0.0022675737 233:0.0022675737 235:0.0022675737 236:0.0022675737 237:0.0022675737 240:0.0022675737 244:0.0045351475 245:0.0068027209 246:0.0090702949 247:0.0068027209 248:0.015873017 249:0.0068027209 250:0.015873017 251:0.011337869 
53239.89895551885 119:0.0022675737 121:0.0022675737 122:0.0045351475 123:0.013605442 124:0.0090702949 125:0.0090702949 126:0.031746034 127:0.056689344 128:0.043083902 129:0.065759636 130:0.09297052 131:0.12244898 132:0.056689344 133:0.065759636 134:0.01814059 135:0.0045351475 136:0.034013607 137:0.020408163 138:0.013605442 139:0.020408163 140:0.013605442 141:0.015873017 143:0.022675738 144:0.0068027209 145:0.01814059 146:0.015873017 147:0.013605442 148:0.0090702949 149:0.0022675737 150:0.020408163 151:0.013605442 152:0.0090702949 153:0.022675738 154:0.013605442 155:0.011337869 156:0.0045351475 157:0.013605442 158:0.0045351475 159:0.0022675737 160:0.0068027209 161:0.0022675737 162:0.0068027209 163:0.0045351475 164:0.0022675737 165:0.0045351475 166:0.0045351475 168:0.0090702949 169:0.0022675737 170:0.0090702949 171:0.0045351475 173:0.011337869 174:0.0068027209 175:0.0022675737 177:0.0022675737 
100000 93:0.0045351475 96:0.0022675737 97:0.0022675737 98:0.0022675737 100:0.0022675737 101:0.0045351475 102:0.0022675737 103:0.0022675737 106:0.0022675737 108:0.015873017 111:0.0090702949 112:0.0090702949 113:0.0045351475 115:0.0068027209 116:0.0045351475 117:0.020408163 118:0.0045351475 119:0.01814059 120:0.020408163 122:0.015873017 123:0.0022675737 124:0.03628118 125:0.15646258 126:0.29478458 127:0.074829936 129:0.022675738 130:0.043083902 131:0.040816326 132:0.01814059 133:0.020408163 134:0.0068027209 136:0.029478459 137:0.0090702949 138:0.0045351475 139:0.0068027209 140:0.0068027209 141:0.0068027209 143:0.0022675737 145:0.0022675737 146:0.0045351475 148:0.0022675737 150:0.0045351475 151:0.0022675737 152:0.0068027209 153:0.0022675737 154:0.0022675737 155:0.0022675737 158:0.0045351475 159:0.0022675737 160:0.0022675737 161:0.0045351475 164:0.0068027209 166:0.0045351475 171:0.0022675737 172:0.0022675737 174:0.0045351475 
100000 93:0.0045351475 96:0.0022675737 97:0.0022675737 98:0.0022675737 100:0.0022675737 101:0.0045351475 102:0.0022675737 103:0.0022675737 106:0.0022675737 108:0.015873017 111:0.0090702949 112:0.0090702949 113:0.0045351475 115:0.0068027209 116:0.0045351475 117:0.020408163 118:0.0045351475 119:0.01814059 120:0.031746034 122:0.01814059 123:0.0045351475 124:0.045351475 125:0.16553289 126:0.25850341 127:0.077097505 129:0.022675738 130:0.043083902 131:0.040816326 132:0.01814059 133:0.020408163 134:0.0068027209 136:0.029478459 137:0.0090702949 138:0.0045351475 139:0.0068027209 140:0.0068027209 141:0.0068027209 143:0.0022675737 145:0.0022675737 146:0.0045351475 148:0.0022675737 150:0.0045351475 151:0.0022675737 152:0.0068027209 153:0.0022675737 154:0.0022675737 155:0.0022675737 158:0.0045351475 159:0.0022675737 160:0.0022675737 161:0.0045351475 164:0.0068027209 166:0.0045351475 171:0.0022675737 172:0.0022675737 174:0.0045351475 
100000 93:0.0045351475 96:0.0022675737 97:0.0022675737 98:0.0022675737 100:0.0022675737 101:0.0045351475 102:0.0022675737 103:0.0022675737 106:0.0022675737 108:0.015873017 111:0.0090702949 112:0.0090702949 113:0.0045351475 115:0.0068027209 116:0.0045351475 117:0.020408163 118:0.0045351475 119:0.01814059 120:0.031746034 122:0.027210884 123:0.015873017 124:0.24489796 125:0.17006803 126:0.090702951 127:0.052154195 129:0.013605442 130:0.031746034 131:0.03628118 132:0.01814059 133:0.013605442 134:0.0068027209 136:0.029478459 137:0.0090702949 138:0.0045351475 139:0.0068027209 140:0.0068027209 141:0.0068027209 143:0.0022675737 145:0.0022675737 146:0.0045351475 148:0.0022675737 150:0.0045351475 151:0.0022675737 152:0.0068027209 153:0.0022675737 154:0.0022675737 155:0.0022675737 158:0.0045351475 159:0.0022675737 160:0.0022675737 161:0.0045351475 164:0.0068027209 166:0.0045351475 171:0.0022675737 172:0.0022675737 174:0.0045351475 
100000 93:0.0045351475 96:0.0022675737 97:0.0022675737 98:0.0022675737 100:0.0022675737 101:0.0045351475 102:0.0022675737 103:0.0022675737 106:0.0022675737 108:0.015873017 111:0.0090702949 112:0.0090702949 113:0.0045351475 115:0.0068027209 116:0.0045351475 117:0.020408163 118:0.0045351475 119:0.01814059 120:0.031746034 122:0.027210884 123:0.015873017 124:0.27210885 125:0.17233561 126:0.086167805 127:0.047619049 129:0.013605442 130:0.029478459 131:0.034013607 132:0.013605442 133:0.0090702949 134:0.0068027209 136:0.022675738 137:0.0090702949 138:0.0045351475 139:0.0068027209 140:0.0068027209 141:0.0068027209 143:0.0022675737 145:0.0022675737 146:0.0045351475 148:0.0022675737 150:0.0045351475 151:0.0022675737 152:0.0068027209 153:0.0022675737 154:0.0022675737 155:0.0022675737 158:0.0045351475 159:0.0022675737 160:0.0022675737 161:0.0045351475 164:0.0068027209 166:0.0045351475 171:0.0022675737 172:0.0022675737 174:0.0045351475 
100000 117:0.0068027209 118:0.0022675737 120:0.0022675737 122:0.0022675737 123:0.0022675737 124:0.69841272 125:0.081632651 126:0.06122449 127:0.040816326 129:0.027210884 130:0.013605442 131:0.0045351475 132:0.0090702949 133:0.0068027209 134:0.0022675737 137:0.0068027209 138:0.0022675737 140:0.0022675737 141:0.0045351475 143:0.0022675737 144:0.0022675737 145:0.0068027209 146:0.0068027209 147:0.0045351475 
100000 117:0.011337869 118:0.0090702949 120:0.0022675737 122:0.0045351475 123:0.0022675737 124:0.65079367 125:0.097505674 126:0.065759636 127:0.043083902 129:0.029478459 130:0.013605442 131:0.0068027209 132:0.011337869 133:0.0068027209 134:0.0022675737 137:0.0090702949 138:0.0022675737 139:0.0022675737 140:0.0022675737 141:0.0045351475 143:0.0022675737 144:0.0022675737 145:0.0068027209 146:0.0068027209 147:0.0045351475 
100000 117:0.022675738 118:0.013605442 120:0.0022675737 122:0.0045351475 123:0.0045351475 124:0.60317463 125:0.11564626 126:0.068027213 127:0.045351475 129:0.029478459 130:0.015873017 131:0.011337869 132:0.011337869 133:0.0068027209 134:0.0022675737 137:0.0090702949 138:0.0022675737 139:0.0022675737 140:0.0022675737 141:0.0045351475 143:0.0022675737 144:0.0022675737 145:0.0068027209 146:0.0068027209 147:0.0045351475 
100000 115:0.0022675737 116:0.0045351475 117:0.027210884 118:0.015873017 119:0.0022675737 120:0.0045351475 122:0.0045351475 123:0.0045351475 124:0.55555558 125:0.13605443 126:0.070294783 127:0.047619049 129:0.031746034 130:0.01814059 131:0.011337869 132:0.011337869 133:0.0068027209 134:0.0022675737 137:0.0090702949 138:0.0022675737 139:0.0022675737 140:0.0022675737 141:0.0045351475 143:0.0022675737 144:0.0022675737 145:0.0068027209 146:0.0068027209 147:0.0045351475 
100000 113:0.0022675737 115:0.0045351475 116:0.0068027209 117:0.027210884 118:0.01814059 119:0.0068027209 120:0.0090702949 122:0.0068027209 123:0.0068027209 124:0.53287983 125:0.13605443 126:0.070294783 127:0.047619049 129:0.031746034 130:0.01814059 131:0.011337869 132:0.011337869 133:0.0068027209 134:0.0022675737 137:0.0090702949 138:0.0022675737 139:0.0022675737 140:0.0022675737 141:0.0045351475 143:0.0022675737 144:0.0022675737 145:0.0068027209 146:0.0068027209 147:0.0045351475 
100000 113:0.0045351475 115:0.0068027209 116:0.0068027209 117:0.029478459 118:0.01814059 119:0.0090702949 120:0.013605442 122:0.011337869 123:0.011337869 124:0.51020408 125:0.13605443 126:0.070294783 127:0.047619049 129:0.031746034 130:0.01814059 131:0.011337869 132:0.011337869 133:0.0068027209 134:0.0022675737 137:0.0090702949 138:0.0022675737 139:0.0022675737 140:0.0022675737 141:0.0045351475 143:0.0022675737 144:0.0022675737 145:0.0068027209 146:0.0068027209 147:0.0045351475 
100000 113:0.0045351475 115:0.011337869 116:0.0090702949 117:0.031746034 118:0.024943311 119:0.013605442 120:0.01814059 122:0.011337869 123:0.022675738 124:0.46938777 125:0.14058957 126:0.070294783 127:0.047619049 129:0.031746034 130:0.01814059 131:0.011337869 132:0.011337869 133:0.0068027209 134:0.0022675737 137:0.0090702949 138:0.0022675737 139:0.0022675737 140:0.0022675737 141:0.0045351475 143:0.0022675737 144:0.0022675737 145:0.0068027209 146:0.0068027209 147:0.0045351475 
100000 113:0.0045351475 115:0.011337869 116:0.0090702949 117:0.031746034 118:0.024943311 119:0.013605442 120:0.020408163 122:0.01814059 123:0.03628118 124:0.44671202 125:0.14058957 126:0.070294783 127:0.047619049 129:0.031746034 130:0.01814059 131:0.011337869 132:0.011337869 133:0.0068027209 134:0.0022675737 137:0.0090702949 138:0.0022675737 139:0.0022675737 140:0.0022675737 141:0.0045351475 143:0.0022675737 144:0.0022675737 145:0.0068027209 146:0.0068027209 147:0.0045351475 
100000 113:0.0045351475 115:0.011337869 116:0.0090702949 117:0.031746034 118:0.024943311 119:0.013605442 120:0.020408163 122:0.020408163 123:0.063492067 124:0.41723356 125:0.14058957 126:0.070294783 127:0.047619049 129:0.031746034 130:0.01814059 131:0.011337869 132:0.011337869 133:0.0068027209 134:0.0022675737 137:0.0090702949 138:0.0022675737 139:0.0022675737 140:0.0022675737 141:0.0045351475 143:0.0022675737 144:0.0022675737 145:0.0068027209 146:0.0068027209 147:0.0045351475 
100000 113:0.0045351475 115:0.011337869 116:0.0090702949 117:0.031746034 118:0.024943311 119:0.013605442 120:0.020408163 122:0.020408163 123:0.09297052 124:0.3877551 125:0.14058957 126:0.070294783 127:0.047619049 129:0.031746034 130:0.01814059 131:0.011337869 132:0.011337869 133:0.0068027209 134:0.0022675737 137:0.0090702949 138:0.0022675737 139:0.0022675737 140:0.0022675737 141:0.0045351475 143:0.0022675737 144:0.0022675737 145:0.0068027209 146:0.0068027209 147:0.0045351475 
100000 113:0.0045351475 115:0.011337869 116:0.0090702949 117:0.031746034 118:0.024943311 119:0.013605442 120:0.020408163 122:0.020408163 123:0.12244898 124:0.35827664 125:0.14058957 126:0.070294783 127:0.047619049 129:0.031746034 130:0.01814059 131:0.011337869 132:0.011337869 133:0.0068027209 134:0.0022675737 137:0.0090702949 138:0.0022675737 139:0.0022675737 140:0.0022675737 141:0.0045351475 143:0.0022675737 144:0.0022675737 145:0.0068027209 146:0.0068027209 147:0.0045351475 
100000 113:0.0045351475 115:0.011337869 116:0.0090702949 117:0.031746034 118:0.024943311 119:0.013605442 120:0.020408163 122:0.020408163 123:0.15192744 124:0.33333334 125:0.13605443 126:0.070294783 127:0.047619049 129:0.031746034 130:0.01814059 131:0.011337869 132:0.011337869 133:0.0068027209 134:0.0022675737 137:0.0090702949 138:0.0022675737 139:0.0022675737 140:0.0022675737 141:0.0045351475 143:0.0022675737 144:0.0022675737 145:0.0068027209 146:0.0068027209 147:0.0045351475 
100000 113:0.0045351475 115:0.011337869 116:0.0090702949 117:0.031746034 118:0.024943311 119:0.013605442 120:0.020408163 122:0.020408163 123:0.1814059 124:0.31292516 125:0.12698413 126:0.070294783 127:0.047619049 129:0.031746034 130:0.01814059 131:0.011337869 132:0.011337869 133:0.0068027209 134:0.0022675737 137:0.0090702949 138:0.0022675737 139:0.0022675737 140:0.0022675737 141:0.0045351475 143:0.0022675737 144:0.0022675737 145:0.0068027209 146:0.0068027209 147:0.0045351475 
100000 113:0.0045351475 115:0.015873017 116:0.0090702949 117:0.03628118 118:0.027210884 119:0.01814059 120:0.020408163 122:0.022675738 123:0.21995465 124:0.2857143 125:0.10204082 126:0.065759636 127:0.047619049 129:0.031746034 130:0.01814059 131:0.011337869 132:0.011337869 133:0.0068027209 134:0.0022675737 137:0.0090702949 138:0.0022675737 139:0.0022675737 140:0.0022675737 141:0.0045351475 143:0.0022675737 144:0.0022675737 145:0.0068027209 146:0.0068027209 147:0.0045351475 
55102.16643101679 68:0.045351475 69:0.031746034 70:0.034013607 71:0.01814059 72:0.022675738 73:0.013605442 74:0.0068027209 76:0.011337869 77:0.0045351475 78:0.0022675737 79:0.0090702949 80:0.011337869 81:0.013605442 82:0.0022675737 83:0.013605442 84:0.0068027209 85:0.0068027209 86:0.0068027209 87:0.0090702949 88:0.0090702949 89:0.0090702949 91:0.0045351475 92:0.0045351475 93:0.0022675737 94:0.01814059 95:0.0068027209 96:0.011337869 97:0.0090702949 98:0.0045351475 99:0.0045351475 100:0.0045351475 101:0.011337869 102:0.013605442 103:0.0045351475 104:0.0045351475 105:0.01814059 107:0.013605442 108:0.0045351475 109:0.01814059 110:0.011337869 111:0.015873017 112:0.0090702949 114:0.029478459 115:0.022675738 116:0.031746034 117:0.065759636 118:0.043083902 119:0.029478459 120:0.043083902 121:0.0045351475 122:0.068027213 123:0.095238097 124:0.065759636 125:0.01814059 
100000 79:0.0023809525 85:0.0023809525 86:0.0047619049 87:0.0047619049 89:0.0071428576 91:0.011904762 92:0.0047619049 94:0.0047619049 95:0.0095238099 96:0.0071428576 97:0.0047619049 101:0.0047619049 102:0.0047619049 103:0.0023809525 104:0.016666668 105:0.0095238099 106:0.0023809525 107:0.0071428576 108:0.011904762 109:0.0023809525 110:0.011904762 111:0.0095238099 112:0.011904762 113:0.0023809525 114:0.0047619049 115:0.0071428576 116:0.0071428576 117:0.052380953 118:0.040476192 119:0.06666667 120:0.12857144 121:0.0047619049 122:0.25 123:0.061904766 124:0.01904762 125:0.01904762 126:0.030952383 127:0.023809524 130:0.0047619049 131:0.0023809525 132:0.0047619049 133:0.0047619049 134:0.0071428576 135:0.0023809525 136:0.0023809525 137:0.0047619049 138:0.0023809525 139:0.0047619049 140:0.0047619049 141:0.0023809525 143:0.0023809525 144:0.0047619049 145:0.0023809525 146:0.0047619049 147:0.0047619049 148:0.0023809525 152:0.0023809525 154:0.0023809525 155:0.0047619049 157:0.0023809525 159:0.0023809525 162:0.0023809525 164:0.0023809525 165:0.0023809525 167:0.0023809525 168:0.0023809525 170:0.0023809525 172:0.0023809525 175:0.0023809525 176:0.0023809525 180:0.0023809525 181:0.0023809525 182:0.0023809525 183:0.0023809525 189:0.0023809525 190:0.0023809525 193:0.0023809525 
100000 79:0.0022675737 85:0.0022675737 86:0.0045351475 87:0.0045351475 89:0.0068027209 91:0.011337869 92:0.0045351475 94:0.0045351475 95:0.0090702949 96:0.0068027209 97:0.0045351475 101:0.0045351475 102:0.0045351475 104:0.013605442 105:0.0068027209 106:0.0022675737 107:0.0068027209 108:0.0068027209 109:0.0022675737 110:0.0068027209 111:0.0068027209 112:0.011337869 113:0.0045351475 114:0.0045351475 115:0.0045351475 116:0.0068027209 117:0.043083902 118:0.038548753 119:0.06122449 120:0.12244898 121:0.0045351475 122:0.24943312 123:0.083900228 124:0.024943311 125:0.022675738 126:0.031746034 127:0.022675738 129:0.0022675737 130:0.0045351475 131:0.0022675737 132:0.0045351475 133:0.0045351475 134:0.0068027209 135:0.0022675737 136:0.0045351475 137:0.0045351475 138:0.0022675737 139:0.0045351475 140:0.0045351475 141:0.0022675737 143:0.0022675737 144:0.0045351475 145:0.0022675737 146:0.0045351475 147:0.0068027209 148:0.0022675737 152:0.0045351475 154:0.0022675737 155:0.0045351475 157:0.0022675737 159:0.0022675737 161:0.0022675737 162:0.0022675737 164:0.0045351475 165:0.0022675737 167:0.0022675737 168:0.0022675737 170:0.0068027209 172:0.0022675737 175:0.0022675737 176:0.0022675737 177:0.0022675737 180:0.0022675737 181:0.0022675737 182:0.0022675737 183:0.0022675737 187:0.0022675737 189:0.0045351475 190:0.0022675737 193:0.0022675737 
100000 79:0.0022675737 85:0.0022675737 86:0.0045351475 87:0.0045351475 89:0.0068027209 91:0.011337869 92:0.0045351475 94:0.0045351475 95:0.0090702949 96:0.0068027209 97:0.0045351475 101:0.0045351475 102:0.0045351475 104:0.013605442 105:0.0068027209 106:0.0022675737 107:0.0068027209 108:0.0068027209 109:0.0022675737 110:0.0068027209 111:0.0068027209 112:0.011337869 113:0.0045351475 114:0.0045351475 115:0.0045351475 116:0.0068027209 117:0.043083902 118:0.038548753 119:0.063492067 120:0.11791383 121:0.0045351475 122:0.20861678 123:0.090702951 124:0.034013607 125:0.022675738 126:0.034013607 127:0.022675738 129:0.0022675737 130:0.0045351475 131:0.0068027209 132:0.0045351475 133:0.0045351475 134:0.0068027209 135:0.0022675737 136:0.0045351475 137:0.0045351475 138:0.0022675737 139:0.0045351475 140:0.0068027209 141:0.0022675737 143:0.0022675737 144:0.0045351475 145:0.0022675737 146:0.0045351475 147:0.0068027209 148:0.0022675737 149:0.0022675737 152:0.0045351475 154:0.0022675737 155:0.0068027209 157:0.0022675737 159:0.0022675737 161:0.0045351475 162:0.0022675737 164:0.0045351475 165:0.0022675737 167:0.0045351475 168:0.0022675737 170:0.0068027209 172:0.0045351475 175:0.0068027209 176:0.0022675737 177:0.0022675737 180:0.0045351475 181:0.0022675737 182:0.0022675737 183:0.0022675737 187:0.0022675737 189:0.0045351475 190:0.0022675737 193:0.0022675737 
100000 79:0.0022675737 85:0.0022675737 86:0.0045351475 87:0.0045351475 89:0.0045351475 91:0.0090702949 92:0.0022675737 94:0.0022675737 95:0.0068027209 96:0.0068027209 97:0.0022675737 101:0.0045351475 102:0.0022675737 104:0.011337869 105:0.0068027209 106:0.0022675737 107:0.0068027209 108:0.0045351475 109:0.0022675737 110:0.0045351475 111:0.0068027209 112:0.011337869 113:0.0022675737 114:0.0022675737 115:0.0045351475 116:0.0045351475 117:0.03628118 118:0.038548753 119:0.063492067 120:0.090702951 121:0.0045351475 122:0.20861678 123:0.12244898 124:0.040816326 125:0.022675738 126:0.03628118 127:0.022675738 129:0.0022675737 130:0.0045351475 131:0.0090702949 132:0.0045351475 133:0.0068027209 134:0.0068027209 135:0.0022675737 136:0.0045351475 137:0.0045351475 138:0.0022675737 139:0.0045351475 140:0.0068027209 141:0.0022675737 143:0.0022675737 144:0.0045351475 145:0.0045351475 146:0.0068027209 147:0.0068027209 148:0.0022675737 149:0.0022675737 152:0.0045351475 153:0.0022675737 154:0.0022675737 155:0.0090702949 157:0.0022675737 159:0.0022675737 160:0.0022675737 161:0.0068027209 162:0.0022675737 164:0.0045351475 165:0.0068027209 167:0.0045351475 168:0.0022675737 170:0.0068027209 172:0.0045351475 175:0.0068027209 176:0.0022675737 177:0.0022675737 180:0.0045351475 181:0.0022675737 182:0.0022675737 183:0.0022675737 187:0.0022675737 189:0.0045351475 190:0.0022675737 193:0.0022675737 
100000 79:0.0022675737 85:0.0022675737 86:0.0045351475 87:0.0045351475 89:0.0045351475 91:0.0090702949 92:0.0022675737 94:0.0022675737 95:0.0068027209 96:0.0068027209 97:0.0022675737 101:0.0045351475 102:0.0022675737 104:0.011337869 105:0.0068027209 106:0.0022675737 107:0.0068027209 108:0.0045351475 109:0.0022675737 110:0.0045351475 111:0.0068027209 112:0.011337869 113:0.0022675737 114:0.0022675737 115:0.0045351475 116:0.0045351475 117:0.03628118 118:0.038548753 119:0.063492067 120:0.065759636 121:0.0045351475 122:0.19047619 123:0.13151927 124:0.043083902 125:0.027210884 126:0.038548753 127:0.024943311 129:0.0045351475 130:0.0068027209 131:0.0090702949 132:0.0045351475 133:0.0090702949 134:0.0068027209 135:0.0022675737 136:0.0045351475 137:0.0045351475 138:0.0022675737 139:0.0068027209 140:0.0068027209 141:0.0022675737 142:0.0022675737 143:0.0022675737 144:0.0068027209 145:0.0045351475 146:0.0068027209 147:0.0068027209 148:0.0022675737 149:0.0045351475 150:0.0022675737 151:0.0045351475 152:0.0045351475 153:0.0022675737 154:0.0022675737 155:0.0090702949 157:0.0022675737 159:0.0022675737 160:0.0022675737 161:0.0068027209 162:0.0022675737 164:0.0045351475 165:0.0068027209 167:0.0045351475 168:0.0022675737 170:0.0068027209 172:0.0045351475 175:0.0068027209 176:0.0022675737 177:0.0022675737 180:0.0045351475 181:0.0022675737 182:0.0022675737 183:0.0022675737 187:0.0022675737 189:0.0045351475 190:0.0022675737 193:0.0022675737 
100000 86:0.0022675737 87:0.0022675737 89:0.0045351475 91:0.0068027209 94:0.0022675737 95:0.0022675737 96:0.0068027209 97:0.0022675737 101:0.0045351475 102:0.0022675737 104:0.011337869 105:0.0068027209 107:0.0045351475 108:0.0045351475 109:0.0022675737 110:0.0045351475 111:0.0068027209 112:0.0068027209 113:0.0022675737 114:0.0022675737 115:0.0045351475 116:0.0022675737 117:0.029478459 118:0.038548753 119:0.047619049 120:0.027210884 121:0.0045351475 122:0.16780046 123:0.18367347 124:0.049886622 125:0.034013607 126:0.03628118 127:0.034013607 129:0.01814059 130:0.011337869 131:0.015873017 132:0.0068027209 133:0.011337869 134:0.0068027209 135:0.0045351475 136:0.0045351475 137:0.0045351475 138:0.0045351475 139:0.0090702949 140:0.0068027209 141:0.0068027209 142:0.0022675737 143:0.0022675737 144:0.0068027209 145:0.0045351475 146:0.0068027209 147:0.0068027209 148:0.0022675737 149:0.0045351475 150:0.0022675737 151:0.0045351475 152:0.0045351475 153:0.0022675737 154:0.0022675737 155:0.0090702949 157:0.0022675737 159:0.0022675737 160:0.0022675737 161:0.0068027209 162:0.0022675737 164:0.0045351475 165:0.0068027209 167:0.0045351475 168:0.0022675737 170:0.0068027209 172:0.0045351475 175:0.0068027209 176:0.0022675737 177:0.0022675737 180:0.0045351475 181:0.0022675737 182:0.0022675737 183:0.0022675737 187:0.0022675737 189:0.0045351475 190:0.0022675737 193:0.0022675737 
100000 98:0.0068027209 100:0.0045351475 101:0.0045351475 102:0.0022675737 103:0.0045351475 104:0.013605442 105:0.011337869 107:0.0068027209 109:0.03628118 110:0.0022675737 111:0.015873017 112:0.020408163 113:0.01814059 114:0.0022675737 115:0.013605442 116:0.020408163 117:0.03628118 118:0.022675738 119:0.022675738 120:0.049886622 122:0.17913832 123:0.25850341 124:0.043083902 125:0.058956917 126:0.01814059 127:0.020408163 129:0.024943311 130:0.020408163 131:0.029478459 132:0.011337869 133:0.0068027209 134:0.0022675737 136:0.0022675737 137:0.0022675737 138:0.0022675737 140:0.0045351475 
100000 98:0.0068027209 100:0.0045351475 101:0.0045351475 102:0.0022675737 103:0.0045351475 104:0.013605442 105:0.011337869 107:0.0068027209 109:0.03628118 110:0.0022675737 111:0.015873017 112:0.020408163 113:0.01814059 114:0.0022675737 115:0.013605442 116:0.020408163 117:0.03628118 118:0.022675738 119:0.024943311 120:0.049886622 121:0.0090702949 122:0.1814059 123:0.22675738 124:0.034013607 125:0.056689344 126:0.022675738 127:0.027210884 129:0.024943311 130:0.029478459 131:0.029478459 132:0.011337869 133:0.0068027209 134:0.0022675737 136:0.0045351475 137:0.0022675737 138:0.0022675737 139:0.0022675737 140:0.0045351475 141:0.0045351475 
100000 98:0.0068027209 100:0.0022675737 101:0.0045351475 102:0.0022675737 103:0.0045351475 104:0.0090702949 105:0.0090702949 107:0.0068027209 109:0.03628118 110:0.0022675737 111:0.015873017 112:0.01814059 113:0.01814059 115:0.013605442 116:0.01814059 117:0.03628118 118:0.022675738 119:0.024943311 120:0.047619049 121:0.0090702949 122:0.18594104 123:0.17460318 124:0.034013607 125:0.052154195 126:0.034013607 127:0.027210884 128:0.0090702949 129:0.029478459 130:0.029478459 131:0.029478459 132:0.015873017 133:0.0090702949 134:0.0045351475 136:0.0045351475 137:0.0068027209 138:0.0022675737 139:0.0022675737 140:0.013605442 141:0.0090702949 142:0.0045351475 143:0.0022675737 144:0.0090702949 145:0.0022675737 
100000 105:0.0022675737 107:0.0068027209 108:0.0090702949 109:0.015873017 110:0.022675738 111:0.0090702949 112:0.020408163 113:0.0090702949 114:0.013605442 115:0.034013607 116:0.024943311 117:0.015873017 118:0.027210884 119:0.01814059 120:0.022675738 121:0.0022675737 122:0.011337869 123:0.022675738 124:0.034013607 125:0.077097505 126:0.25623584 127:0.19727892 128:0.024943311 129:0.0045351475 130:0.0022675737 132:0.0022675737 133:0.0045351475 135:0.013605442 136:0.0045351475 137:0.015873017 138:0.01814059 139:0.013605442 140:0.0045351475 141:0.0045351475 142:0.0068027209 145:0.0022675737 146:0.0045351475 147:0.0045351475 148:0.0045351475 149:0.0022675737 150:0.0045351475 151:0.0022675737 152:0.0022675737 
100000 124:0.0022675737 133:0.0045351475 134:0.0022675737 136:0.0090702949 138:0.01814059 139:0.029478459 140:0.0068027209 141:0.027210884 142:0.063492067 143:0.020408163 144:0.086167805 145:0.063492067 146:0.083900228 147:0.054421768 148:0.045351475 149:0.031746034 150:0.011337869 151:0.024943311 152:0.020408163 153:0.011337869 154:0.011337869 155:0.0090702949 156:0.0022675737 157:0.011337869 158:0.0068027209 159:0.013605442 160:0.013605442 161:0.011337869 162:0.01814059 163:0.0022675737 164:0.0022675737 165:0.0068027209 166:0.0068027209 167:0.0022675737 168:0.0090702949 169:0.0022675737 170:0.0090702949 171:0.0090702949 172:0.0045351475 173:0.0022675737 174:0.0045351475 175:0.0022675737 176:0.0068027209 177:0.0045351475 178:0.0090702949 179:0.0022675737 180:0.0090702949 181:0.0068027209 182:0.0022675737 183:0.0045351475 184:0.0045351475 185:0.0022675737 186:0.0022675737 187:0.0068027209 188:0.013605442 189:0.0068027209 190:0.0090702949 191:0.013605442 192:0.0022675737 193:0.0068027209 194:0.011337869 195:0.0045351475 196:0.011337869 197:0.0045351475 199:0.0045351475 200:0.0022675737 201:0.0045351475 202:0.0045351475 204:0.0022675737 205:0.0022675737 206:0.0022675737 207:0.0045351475 208:0.0022675737 209:0.0022675737 211:0.0022675737 215:0.0045351475 220:0.0045351475 222:0.0045351475 225:0.0045351475 227:0.0045351475 228:0.0022675737 232:0.0022675737 238:0.0022675737 239:0.0045351475 240:0.0022675737 241:0.0022675737 242:0.0022675737 246:0.0022675737 
100000 133:0.0022675737 134:0.0022675737 136:0.0090702949 137:0.0068027209 138:0.01814059 139:0.027210884 140:0.0068027209 141:0.024943311 142:0.063492067 143:0.015873017 144:0.081632651 145:0.06122449 146:0.090702951 147:0.054421768 148:0.045351475 149:0.029478459 150:0.011337869 151:0.024943311 152:0.020408163 153:0.011337869 154:0.013605442 155:0.0090702949 156:0.0045351475 157:0.011337869 158:0.0068027209 159:0.013605442 160:0.011337869 161:0.011337869 162:0.01814059 163:0.0022675737 164:0.0022675737 165:0.0090702949 166:0.0068027209 167:0.0022675737 168:0.0090702949 169:0.0022675737 170:0.0090702949 171:0.0090702949 172:0.0068027209 173:0.0022675737 174:0.0045351475 175:0.0045351475 176:0.0068027209 177:0.0045351475 178:0.011337869 179:0.0022675737 180:0.0090702949 181:0.0090702949 182:0.0022675737 183:0.0090702949 184:0.0045351475 185:0.0022675737 186:0.0022675737 187:0.0068027209 188:0.011337869 189:0.0068027209 190:0.0090702949 191:0.013605442 192:0.0022675737 193:0.0045351475 194:0.011337869 195:0.0045351475 196:0.011337869 197:0.0045351475 199:0.0045351475 200:0.0022675737 201:0.0045351475 202:0.0045351475 204:0.0022675737 205:0.0022675737 206:0.0022675737 208:0.0022675737 209:0.0022675737 211:0.0022675737 215:0.0045351475 220:0.0045351475 222:0.0045351475 225:0.0045351475 227:0.0045351475 228:0.0022675737 232:0.0022675737 238:0.0022675737 239:0.0045351475 240:0.0022675737 241:0.0022675737 242:0.0022675737 246:0.0022675737 
100000 113:0.0045351475 115:0.020408163 116:0.0090702949 117:0.03628118 118:0.031746034 119:0.031746034 120:0.031746034 122:0.038548753 123:0.16780046 124:0.3537415 125:0.065759636 126:0.047619049 127:0.03628118 129:0.031746034 130:0.01814059 131:0.011337869 132:0.011337869 133:0.0068027209 134:0.0022675737 137:0.0090702949 138:0.0022675737 139:0.0022675737 140:0.0022675737 141:0.0045351475 143:0.0022675737 144:0.0022675737 145:0.0068027209 146:0.0068027209 147:0.0045351475 
100000 113:0.0045351475 115:0.020408163 116:0.0090702949 117:0.03628118 118:0.031746034 119:0.031746034 120:0.031746034 122:0.038548753 123:0.16780046 124:0.33106577 125:0.072562359 126:0.056689344 127:0.043083902 129:0.031746034 130:0.01814059 131:0.011337869 132:0.011337869 133:0.0068027209 134:0.0022675737 137:0.0090702949 138:0.0022675737 139:0.0022675737 140:0.0022675737 141:0.0045351475 143:0.0022675737 144:0.0022675737 145:0.0068027209 146:0.0068027209 147:0.0045351475 
100000 113:0.0045351475 115:0.020408163 116:0.0090702949 117:0.03628118 118:0.031746034 119:0.031746034 120:0.031746034 122:0.038548753 123:0.16780046 124:0.30839002 125:0.081632651 126:0.065759636 127:0.047619049 129:0.031746034 130:0.01814059 131:0.011337869 132:0.011337869 133:0.0068027209 134:0.0022675737 137:0.0090702949 138:0.0022675737 139:0.0022675737 140:0.0022675737 141:0.0045351475 143:0.0022675737 144:0.0022675737 145:0.0068027209 146:0.0068027209 147:0.0045351475 
100000 113:0.0045351475 115:0.020408163 116:0.0090702949 117:0.03628118 118:0.031746034 119:0.031746034 120:0.031746034 122:0.038548753 123:0.16780046 124:0.29024944 125:0.095238097 126:0.070294783 127:0.047619049 129:0.031746034 130:0.01814059 131:0.011337869 132:0.011337869 133:0.0068027209 134:0.0022675737 137:0.0090702949 138:0.0022675737 139:0.0022675737 140:0.0022675737 141:0.0045351475 143:0.0022675737 144:0.0022675737 145:0.0068027209 146:0.0068027209 147:0.0045351475 
100000 113:0.0045351475 115:0.020408163 116:0.0090702949 117:0.03628118 118:0.031746034 119:0.031746034 120:0.031746034 122:0.038548753 123:0.15192744 124:0.29705215 125:0.10430839 126:0.070294783 127:0.047619049 129:0.031746034 130:0.01814059 131:0.011337869 132:0.011337869 133:0.0068027209 134:0.0022675737 137:0.0090702949 138:0.0022675737 139:0.0022675737 140:0.0022675737 141:0.0045351475 143:0.0022675737 144:0.0022675737 145:0.0068027209 146:0.0068027209 147:0.0045351475 
100000 113:0.0045351475 115:0.020408163 116:0.0090702949 117:0.03628118 118:0.031746034 119:0.031746034 120:0.029478459 122:0.029478459 123:0.14285715 124:0.30839002 125:0.11337869 126:0.070294783 127:0.047619049 129:0.031746034 130:0.01814059 131:0.011337869 132:0.011337869 133:0.0068027209 134:0.0022675737 137:0.0090702949 138:0.0022675737 139:0.0022675737 140:0.0022675737 141:0.0045351475 143:0.0022675737 144:0.0022675737 145:0.0068027209 146:0.0068027209 147:0.0045351475 
100000 113:0.0045351475 115:0.020408163 116:0.0090702949 117:0.03628118 118:0.029478459 119:0.029478459 120:0.022675738 122:0.024943311 123:0.13605443 124:0.32199547 125:0.12244898 126:0.070294783 127:0.047619049 129:0.031746034 130:0.01814059 131:0.011337869 132:0.011337869 133:0.0068027209 134:0.0022675737 137:0.0090702949 138:0.0022675737 139:0.0022675737 140:0.0022675737 141:0.0045351475 143:0.0022675737 144:0.0022675737 145:0.0068027209 146:0.0068027209 147:0.0045351475 
100000 113:0.0045351475 115:0.015873017 116:0.0090702949 117:0.03628118 118:0.027210884 119:0.01814059 120:0.020408163 122:0.022675738 123:0.13151927 124:0.34013605 125:0.13151927 126:0.070294783 127:0.047619049 129:0.031746034 130:0.01814059 131:0.011337869 132:0.011337869 133:0.0068027209 134:0.0022675737 137:0.0090702949 138:0.0022675737 139:0.0022675737 140:0.0022675737 141:0.0045351475 143:0.0022675737 144:0.0022675737 145:0.0068027209 146:0.0068027209 147:0.0045351475 
100000 113:0.0045351475 115:0.011337869 116:0.0090702949 117:0.031746034 118:0.024943311 119:0.013605442 120:0.020408163 122:0.020408163 123:0.12244898 124:0.35827664 125:0.14058957 126:0.070294783 127:0.047619049 129:0.031746034 130:0.01814059 131:0.011337869 132:0.011337869 133:0.0068027209 134:0.0022675737 137:0.0090702949 138:0.0022675737 139:0.0022675737 140:0.0022675737 141:0.0045351475 143:0.0022675737 144:0.0022675737 145:0.0068027209 146:0.0068027209 147:0.0045351475 
100000 113:0.0045351475 115:0.0068027209 116:0.0068027209 117:0.029478459 118:0.020408163 119:0.011337869 120:0.020408163 122:0.01814059 123:0.12244898 124:0.38095239 125:0.13605443 126:0.070294783 127:0.047619049 129:0.031746034 130:0.01814059 131:0.011337869 132:0.011337869 133:0.0068027209 134:0.0022675737 137:0.0090702949 138:0.0022675737 139:0.0022675737 140:0.0022675737 141:0.0045351475 143:0.0022675737 144:0.0022675737 145:0.0068027209 146:0.0068027209 147:0.0045351475 
100000 113:0.0045351475 115:0.0022675737 116:0.0045351475 117:0.027210884 118:0.015873017 119:0.0090702949 120:0.01814059 122:0.015873017 123:0.11791383 124:0.41950113 125:0.1292517 126:0.063492067 127:0.047619049 129:0.031746034 130:0.01814059 131:0.011337869 132:0.011337869 133:0.0068027209 134:0.0022675737 137:0.0090702949 138:0.0022675737 139:0.0022675737 140:0.0022675737 141:0.0045351475 143:0.0022675737 144:0.0022675737 145:0.0068027209 146:0.0068027209 147:0.0045351475 
100000 112:0.0068027209 113:0.031746034 115:0.047619049 116:0.049886622 117:0.043083902 118:0.031746034 119:0.011337869 120:0.040816326 122:0.043083902 123:0.054421768 124:0.17006803 125:0.27891156 126:0.14965987 127:0.0045351475 129:0.0068027209 130:0.0045351475 131:0.0045351475 132:0.0045351475 133:0.0045351475 134:0.0022675737 137:0.0022675737 138:0.0068027209 
100000 112:0.0022675737 113:0.013605442 115:0.047619049 116:0.049886622 117:0.034013607 118:0.029478459 119:0.0090702949 120:0.040816326 122:0.038548753 123:0.054421768 124:0.13605443 125:0.29024944 126:0.19501135 127:0.0045351475 129:0.0090702949 130:0.0045351475 131:0.0068027209 132:0.0045351475 133:0.0068027209 134:0.0022675737 136:0.0022675737 137:0.0022675737 138:0.0068027209 139:0.0090702949 
100000 112:0.0022675737 113:0.0045351475 115:0.040816326 116:0.043083902 117:0.031746034 118:0.029478459 119:0.0068027209 120:0.043083902 122:0.040816326 123:0.056689344 124:0.12244898 125:0.29478458 126:0.20408164 127:0.0068027209 129:0.011337869 130:0.0068027209 131:0.0090702949 132:0.0090702949 133:0.0090702949 134:0.0068027209 136:0.0022675737 137:0.0022675737 138:0.0068027209 139:0.0090702949 
100000 112:0.0022675737 113:0.0022675737 115:0.027210884 116:0.03628118 117:0.029478459 118:0.029478459 119:0.0045351475 120:0.040816326 122:0.040816326 123:0.056689344 124:0.10657597 125:0.33106577 126:0.21315193 127:0.0068027209 129:0.011337869 130:0.0068027209 131:0.0090702949 132:0.0090702949 133:0.0090702949 134:0.0068027209 136:0.0022675737 137:0.0022675737 138:0.0068027209 139:0.0090702949 
100000 102:0.031746034 103:0.0090702949 104:0.011337869 105:0.0068027209 106:0.0022675737 107:0.0045351475 108:0.01814059 109:0.01814059 110:0.0045351475 111:0.01814059 112:0.0090702949 113:0.015873017 114:0.070294783 115:0.020408163 116:0.034013607 117:0.0090702949 118:0.020408163 119:0.013605442 120:0.011337869 121:0.0090702949 122:0.024943311 123:0.047619049 124:0.26530612 125:0.30612245 126:0.0068027209 128:0.0045351475 132:0.0022675737 133:0.0022675737 134:0.0022675737 
100000 96:0.0022675737 98:0.0045351475 101:0.0045351475 102:0.031746034 103:0.013605442 104:0.013605442 105:0.0068027209 106:0.0022675737 107:0.0045351475 108:0.01814059 109:0.020408163 110:0.0068027209 111:0.01814059 112:0.011337869 113:0.015873017 114:0.070294783 115:0.022675738 116:0.034013607 117:0.0090702949 118:0.020408163 119:0.013605442 120:0.015873017 121:0.0090702949 122:0.024943311 123:0.038548753 124:0.24716553 125:0.29931974 126:0.011337869 127:0.0022675737 128:0.0022675737 130:0.0022675737 131:0.0022675737 
27116.08721295457 96:0.0022675737 97:0.0022675737 98:0.0068027209 100:0.0045351475 101:0.0090702949 102:0.034013607 103:0.013605442 104:0.022675738 105:0.0068027209 106:0.0068027209 107:0.0045351475 108:0.020408163 109:0.022675738 110:0.0090702949 111:0.01814059 112:0.01814059 113:0.015873017 114:0.070294783 115:0.022675738 116:0.038548753 117:0.0090702949 118:0.020408163 119:0.01814059 120:0.01814059 121:0.0090702949 122:0.024943311 123:0.027210884 124:0.21088436 125:0.24716553 126:0.022675738 127:0.0068027209 129:0.0022675737 130:0.0068027209 131:0.0045351475 132:0.0068027209 133:0.0045351475 136:0.0045351475 137:0.0022675737 139:0.0022675737 142:0.0022675737 
100000 126:0.045351475 127:0.22675738 129:0.16553289 130:0.052154195 131:0.020408163 132:0.06122449 133:0.040816326 134:0.029478459 135:0.0068027209 136:0.0068027209 137:0.031746034 138:0.022675738 139:0.015873017 140:0.01814059 141:0.0090702949 142:0.0068027209 143:0.011337869 144:0.0022675737 145:0.013605442 146:0.011337869 147:0.024943311 148:0.01814059 149:0.0045351475 150:0.0090702949 151:0.013605442 152:0.020408163 153:0.011337869 154:0.0090702949 155:0.015873017 156:0.0068027209 157:0.013605442 158:0.0090702949 159:0.0068027209 160:0.0090702949 161:0.0068027209 163:0.0022675737 164:0.0045351475 165:0.0045351475 173:0.0045351475 177:0.0022675737 179:0.0022675737 182:0.0022675737 
100000 116:0.0022675737 117:0.0022675737 118:0.0022675737 119:0.0022675737 120:0.0045351475 122:0.0068027209 123:0.0090702949 124:0.040816326 125:0.14058957 126:0.53514743 127:0.031746034 129:0.049886622 130:0.058956917 131:0.024943311 132:0.01814059 133:0.029478459 134:0.029478459 136:0.0068027209 137:0.0022675737 139:0.0022675737 
100000 119:0.0022675737 120:0.0022675737 122:0.0022675737 123:0.0068027209 124:0.024943311 125:0.13605443 126:0.56462586 127:0.03628118 129:0.052154195 130:0.06122449 131:0.022675738 132:0.01814059 133:0.029478459 134:0.029478459 136:0.0068027209 137:0.0022675737 139:0.0022675737 
100000 119:0.0022675737 120:0.0022675737 122:0.0022675737 123:0.0068027209 124:0.024943311 125:0.14512472 126:0.53968257 127:0.038548753 129:0.054421768 130:0.072562359 131:0.022675738 132:0.01814059 133:0.029478459 134:0.029478459 136:0.0068027209 137:0.0022675737 139:0.0022675737 
100000 97:0.0022675737 98:0.0068027209 100:0.0022675737 102:0.0068027209 103:0.0022675737 104:0.0068027209 105:0.0022675737 107:0.0068027209 108:0.0045351475 109:0.0045351475 110:0.0022675737 111:0.0090702949 112:0.0068027209 115:0.0090702949 116:0.0045351475 117:0.0090702949 118:0.0068027209 119:0.013605442 120:0.0022675737 121:0.0068027209 122:0.011337869 123:0.022675738 124:0.029478459 125:0.070294783 126:0.23582767 127:0.074829936 128:0.068027213 129:0.16099773 130:0.029478459 131:0.024943311 132:0.011337869 133:0.0068027209 134:0.0068027209 135:0.0022675737 136:0.0068027209 137:0.0090702949 138:0.013605442 139:0.0022675737 140:0.011337869 141:0.0045351475 142:0.0022675737 143:0.0022675737 144:0.0068027209 146:0.0090702949 148:0.0068027209 150:0.0045351475 151:0.0022675737 152:0.0068027209 153:0.0022675737 154:0.0045351475 155:0.0068027209 157:0.0022675737 158:0.0022675737 159:0.0022675737 161:0.0022675737 163:0.0022675737 164:0.0022675737 165:0.0022675737 167:0.0022675737 168:0.0068027209 170:0.0022675737 
100000 97:0.0022675737 98:0.0068027209 100:0.0022675737 102:0.0068027209 103:0.0022675737 104:0.0068027209 105:0.0022675737 107:0.0068027209 108:0.0045351475 109:0.0045351475 111:0.0090702949 112:0.0022675737 115:0.0045351475 116:0.0022675737 117:0.011337869 118:0.011337869 119:0.0068027209 120:0.0022675737 121:0.0022675737 122:0.011337869 123:0.015873017 124:0.027210884 125:0.063492067 126:0.23129252 127:0.074829936 128:0.081632651 129:0.17233561 130:0.034013607 131:0.034013607 132:0.011337869 133:0.0068027209 134:0.0068027209 135:0.0022675737 136:0.0068027209 137:0.0090702949 138:0.013605442 139:0.0022675737 140:0.011337869 141:0.0045351475 142:0.0022675737 143:0.0022675737 144:0.0068027209 146:0.0090702949 148:0.0068027209 150:0.0045351475 151:0.0022675737 152:0.0068027209 153:0.0022675737 154:0.0045351475 155:0.0068027209 157:0.0022675737 158:0.0022675737 159:0.0022675737 161:0.0022675737 163:0.0022675737 164:0.0022675737 165:0.0022675737 167:0.0022675737 168:0.0068027209 170:0.0022675737 
100000 97:0.0022675737 98:0.0068027209 100:0.0022675737 102:0.0068027209 104:0.0045351475 107:0.0068027209 108:0.0045351475 109:0.0045351475 111:0.0068027209 115:0.0045351475 116:0.0045351475 117:0.0068027209 118:0.011337869 119:0.0022675737 120:0.0022675737 122:0.0090702949 123:0.013605442 124:0.020408163 125:0.052154195 126:0.19274376 127:0.088435374 128:0.11337869 129:0.19047619 130:0.03628118 131:0.040816326 132:0.020408163 133:0.0068027209 134:0.0068027209 135:0.0022675737 136:0.0068027209 137:0.0090702949 138:0.013605442 139:0.0022675737 140:0.011337869 141:0.0045351475 142:0.0022675737 143:0.0022675737 144:0.0068027209 146:0.0090702949 148:0.0068027209 150:0.0045351475 151:0.0022675737 152:0.0068027209 153:0.0022675737 154:0.0045351475 155:0.0068027209 157:0.0022675737 158:0.0022675737 159:0.0022675737 161:0.0022675737 163:0.0022675737 164:0.0022675737 165:0.0022675737 167:0.0022675737 168:0.0068027209 170:0.0022675737 
100000 97:0.0022675737 98:0.0045351475 102:0.0068027209 104:0.0022675737 107:0.0045351475 108:0.0045351475 109:0.0045351475 111:0.0068027209 114:0.0022675737 115:0.0022675737 116:0.0045351475 117:0.0068027209 118:0.0090702949 119:0.0022675737 122:0.0090702949 123:0.013605442 124:0.015873017 125:0.040816326 126:0.18594104 127:0.086167805 128:0.12471656 129:0.20181406 130:0.038548753 131:0.043083902 132:0.022675738 133:0.0068027209 134:0.015873017 135:0.0022675737 136:0.0068027209 137:0.0090702949 138:0.013605442 139:0.0022675737 140:0.011337869 141:0.0045351475 142:0.0022675737 143:0.0022675737 144:0.0068027209 146:0.0090702949 148:0.0068027209 150:0.0045351475 151:0.0022675737 152:0.0068027209 153:0.0022675737 154:0.0045351475 155:0.0068027209 157:0.0022675737 158:0.0022675737 159:0.0022675737 161:0.0022675737 163:0.0022675737 164:0.0022675737 165:0.0022675737 167:0.0022675737 168:0.0068027209 170:0.0022675737 
100000 98:0.0022675737 102:0.0045351475 104:0.0022675737 107:0.0022675737 108:0.0045351475 109:0.0022675737 111:0.0045351475 112:0.0022675737 114:0.0022675737 115:0.0022675737 117:0.0068027209 118:0.0045351475 119:0.0022675737 122:0.0090702949 123:0.015873017 124:0.011337869 125:0.038548753 126:0.17460318 127:0.083900228 128:0.14965987 129:0.20634921 130:0.040816326 131:0.043083902 132:0.020408163 133:0.0090702949 134:0.024943311 135:0.0022675737 136:0.0068027209 137:0.0068027209 138:0.013605442 139:0.0022675737 140:0.011337869 141:0.0045351475 142:0.0022675737 143:0.0022675737 144:0.0068027209 146:0.0090702949 148:0.0068027209 150:0.0045351475 151:0.0022675737 152:0.0068027209 153:0.0022675737 154:0.0045351475 155:0.0068027209 157:0.0022675737 158:0.0022675737 159:0.0022675737 161:0.0022675737 163:0.0022675737 164:0.0022675737 165:0.0022675737 167:0.0022675737 168:0.0068027209 170:0.0022675737 
100000 123:0.0022675737 124:0.0068027209 125:0.0045351475 126:0.068027213 127:0.072562359 128:0.24716553 129:0.043083902 130:0.1292517 131:0.077097505 132:0.024943311 133:0.038548753 134:0.029478459 135:0.038548753 136:0.031746034 137:0.043083902 138:0.083900228 139:0.031746034 140:0.013605442 141:0.0022675737 143:0.0045351475 144:0.0045351475 147:0.0022675737 
100000 124:0.0045351475 125:0.0090702949 126:0.10884354 127:0.072562359 128:0.24716553 129:0.040816326 130:0.1292517 131:0.077097505 132:0.024943311 133:0.038548753 134:0.029478459 135:0.038548753 136:0.029478459 137:0.03628118 138:0.063492067 139:0.022675738 140:0.013605442 141:0.0022675737 143:0.0045351475 144:0.0045351475 147:0.0022675737 
100000 115:0.0022675737 116:0.0045351475 117:0.0045351475 118:0.0022675737 119:0.0045351475 120:0.0045351475 122:0.0022675737 123:0.011337869 124:0.0090702949 125:0.01814059 126:0.01814059 127:0.020408163 128:0.0022675737 129:0.013605442 130:0.011337869 131:0.020408163 132:0.045351475 133:0.063492067 134:0.081632651 135:0.01814059 136:0.052154195 137:0.081632651 138:0.052154195 139:0.031746034 140:0.031746034 141:0.038548753 142:0.022675738 143:0.022675738 144:0.040816326 145:0.034013607 146:0.0068027209 147:0.031746034 148:0.015873017 149:0.0022675737 150:0.011337869 151:0.013605442 152:0.011337869 153:0.011337869 154:0.013605442 155:0.0045351475 156:0.0068027209 157:0.0022675737 158:0.0045351475 159:0.0068027209 160:0.0022675737 161:0.0090702949 162:0.0068027209 166:0.0022675737 167:0.011337869 168:0.0022675737 170:0.0068027209 172:0.0022675737 173:0.0022675737 177:0.0022675737 178:0.0022675737 179:0.0022675737 180:0.0045351475 181:0.0022675737 182:0.0045351475 184:0.0045351475 185:0.0022675737 188:0.0045351475 189:0.0022675737 191:0.0022675737 192:0.0022675737 196:0.0045351475 199:0.0022675737 201:0.0022675737 
100000 112:0.0045351475 115:0.0068027209 116:0.011337869 117:0.0068027209 118:0.0068027209 119:0.011337869 120:0.0068027209 122:0.011337869 123:0.01814059 124:0.0090702949 125:0.027210884 126:0.038548753 127:0.043083902 128:0.072562359 129:0.040816326 130:0.045351475 131:0.020408163 132:0.034013607 133:0.027210884 134:0.090702951 135:0.0068027209 136:0.0090702949 137:0.031746034 138:0.022675738 139:0.01814059 140:0.022675738 141:0.020408163 142:0.022675738 143:0.015873017 144:0.029478459 145:0.01814059 146:0.0068027209 147:0.022675738 148:0.011337869 149:0.0022675737 150:0.0090702949 151:0.0090702949 152:0.011337869 153:0.0068027209 154:0.015873017 155:0.0045351475 156:0.0045351475 157:0.0022675737 158:0.0045351475 159:0.0068027209 160:0.0022675737 161:0.0090702949 162:0.0068027209 163:0.0045351475 165:0.0022675737 166:0.0022675737 167:0.013605442 168:0.0022675737 170:0.0045351475 172:0.0022675737 173:0.0045351475 176:0.0022675737 177:0.0022675737 178:0.0022675737 179:0.0022675737 180:0.0045351475 181:0.0022675737 182:0.0022675737 184:0.0068027209 185:0.0022675737 186:0.0045351475 188:0.0045351475 189:0.0022675737 191:0.0045351475 192:0.0045351475 195:0.0045351475 196:0.0045351475 198:0.0022675737 199:0.0068027209 200:0.0022675737 201:0.0022675737 204:0.0022675737 206:0.0022675737 207:0.0022675737 
