svm_type c_svc
kernel_type rbf
gamma 0.0039
nr_class 2
total_sv 2594
rho -467.211
label 1 -1
nr_sv 1304 1290
SV
34900.51888004218 50:0.0022675737 52:0.0022675737 53:0.0090702949 54:0.0090702949 55:0.011337869 56:0.013605442 57:0.013605442 58:0.020408163 59:0.034013607 60:0.027210884 61:0.020408163 62:0.027210884 63:0.024943311 64:0.047619049 65:0.024943311 66:0.052154195 67:0.029478459 68:0.045351475 69:0.043083902 70:0.03628118 71:0.029478459 72:0.056689344 73:0.038548753 74:0.031746034 75:0.031746034 76:0.043083902 77:0.029478459 78:0.027210884 79:0.015873017 80:0.027210884 81:0.027210884 82:0.013605442 83:0.0090702949 84:0.022675738 85:0.013605442 86:0.013605442 87:0.011337869 88:0.0045351475 89:0.0045351475 90:0.011337869 91:0.0022675737 92:0.0090702949 93:0.0022675737 94:0.0068027209 96:0.0022675737 98:0.0045351475 100:0.0022675737 101:0.0022675737 102:0.0068027209 107:0.0022675737 109:0.0022675737 
100000 0:0.6099773 1:0.054421768 2:0.0068027209 4:0.0045351475 8:0.0022675737 13:0.0022675737 16:0.0022675737 23:0.0022675737 33:0.0022675737 53:0.0022675737 67:0.0022675737 69:0.0045351475 72:0.0022675737 84:0.0022675737 85:0.0022675737 86:0.0022675737 92:0.0022675737 95:0.0022675737 107:0.0022675737 111:0.0022675737 120:0.0022675737 123:0.0022675737 132:0.0022675737 155:0.0022675737 168:0.0022675737 175:0.0022675737 176:0.0022675737 183:0.0022675737 188:0.0022675737 191:0.0022675737 192:0.0022675737 193:0.0022675737 194:0.0045351475 197:0.0068027209 198:0.0090702949 199:0.0068027209 200:0.0068027209 201:0.015873017 202:0.0068027209 203:0.0090702949 204:0.0022675737 205:0.011337869 206:0.0090702949 207:0.0068027209 208:0.0045351475 209:0.0068027209 210:0.0045351475 211:0.011337869 212:0.0045351475 213:0.011337869 214:0.0068027209 215:0.013605442 216:0.0022675737 217:0.0022675737 218:0.0090702949 219:0.0090702949 220:0.0045351475 221:0.0068027209 222:0.0068027209 223:0.0090702949 224:0.0045351475 225:0.0045351475 226:0.011337869 227:0.0045351475 228:0.0022675737 229:0.0022675737 230:0.0045351475 231:0.0022675737 232:0.0022675737 233:0.0022675737 234:0.0022675737 235:0.0022675737 240:0.0022675737 249:0.0022675737 
100000 0:0.65759641 1:0.047619049 2:0.013605442 3:0.0068027209 4:0.0045351475 7:0.0022675737 8:0.0022675737 13:0.0022675737 17:0.0022675737 19:0.0022675737 24:0.0022675737 36:0.0045351475 43:0.0022675737 59:0.0022675737 60:0.0022675737 75:0.0022675737 79:0.0022675737 84:0.0022675737 95:0.0022675737 101:0.0022675737 111:0.0022675737 132:0.0022675737 139:0.0022675737 155:0.0022675737 160:0.0022675737 168:0.0022675737 171:0.0022675737 175:0.0022675737 176:0.0022675737 186:0.0022675737 193:0.0022675737 200:0.0022675737 206:0.0022675737 207:0.0045351475 208:0.0045351475 210:0.0090702949 211:0.0045351475 212:0.0068027209 213:0.011337869 214:0.020408163 215:0.0022675737 216:0.0090702949 217:0.013605442 218:0.0090702949 219:0.0022675737 220:0.0022675737 221:0.0090702949 222:0.011337869 223:0.011337869 224:0.013605442 225:0.0090702949 226:0.0068027209 227:0.0022675737 228:0.0068027209 229:0.0045351475 231:0.0022675737 232:0.0022675737 233:0.0022675737 234:0.0022675737 235:0.0022675737 236:0.0022675737 239:0.0045351475 240:0.0045351475 245:0.0045351475 249:0.0022675737 
100000 0:0.61678004 1:0.045351475 2:0.013605442 3:0.0090702949 4:0.0045351475 7:0.0022675737 13:0.0022675737 17:0.0022675737 19:0.0022675737 24:0.0022675737 36:0.0045351475 43:0.0022675737 59:0.0022675737 60:0.0022675737 75:0.0022675737 79:0.0022675737 84:0.0022675737 95:0.0022675737 101:0.0022675737 111:0.0022675737 132:0.0022675737 139:0.0022675737 155:0.0045351475 160:0.0022675737 168:0.0022675737 171:0.0022675737 176:0.0022675737 186:0.0022675737 193:0.0045351475 200:0.0022675737 202:0.0045351475 204:0.0045351475 205:0.0022675737 206:0.0022675737 207:0.0045351475 208:0.0045351475 209:0.0022675737 210:0.011337869 211:0.0068027209 212:0.0068027209 213:0.011337869 214:0.01814059 215:0.0045351475 216:0.0090702949 217:0.015873017 218:0.0090702949 219:0.0090702949 220:0.0068027209 221:0.011337869 222:0.011337869 223:0.013605442 224:0.013605442 225:0.0090702949 226:0.0068027209 227:0.0022675737 228:0.0068027209 229:0.0045351475 231:0.0045351475 232:0.0045351475 233:0.0022675737 234:0.0022675737 235:0.0022675737 236:0.0022675737 239:0.0045351475 240:0.0045351475 245:0.0045351475 249:0.0022675737 
100000 0:0.62358278 1:0.045351475 2:0.013605442 3:0.0090702949 4:0.0045351475 7:0.0022675737 17:0.0022675737 19:0.0022675737 24:0.0022675737 36:0.0045351475 43:0.0022675737 59:0.0022675737 60:0.0022675737 75:0.0022675737 79:0.0022675737 84:0.0022675737 95:0.0022675737 101:0.0022675737 111:0.0022675737 130:0.0022675737 132:0.0022675737 139:0.0022675737 155:0.0045351475 160:0.0022675737 171:0.0022675737 176:0.0022675737 186:0.0022675737 193:0.0045351475 200:0.0022675737 202:0.0045351475 204:0.0045351475 205:0.0022675737 206:0.0022675737 207:0.0045351475 208:0.0022675737 209:0.0022675737 210:0.011337869 211:0.0045351475 212:0.0045351475 213:0.013605442 214:0.01814059 215:0.0045351475 216:0.0090702949 217:0.015873017 218:0.0090702949 219:0.011337869 220:0.0045351475 221:0.011337869 222:0.011337869 223:0.0090702949 224:0.013605442 225:0.0090702949 226:0.0068027209 227:0.0045351475 228:0.0068027209 229:0.0045351475 230:0.0022675737 231:0.0045351475 232:0.0045351475 233:0.0022675737 234:0.0022675737 235:0.0022675737 236:0.0022675737 239:0.0045351475 240:0.0045351475 245:0.0045351475 249:0.0022675737 
12588.5009708649 0:0.58276647 1:0.043083902 2:0.015873017 3:0.0090702949 4:0.0022675737 7:0.0022675737 17:0.0022675737 19:0.0022675737 24:0.0022675737 36:0.0045351475 43:0.0022675737 59:0.0022675737 60:0.0022675737 75:0.0022675737 79:0.0022675737 81:0.0022675737 84:0.0022675737 95:0.0022675737 101:0.0022675737 111:0.0022675737 130:0.0022675737 132:0.0022675737 139:0.0022675737 155:0.0022675737 160:0.0022675737 171:0.0022675737 176:0.0022675737 186:0.0045351475 187:0.0022675737 193:0.0045351475 200:0.0022675737 201:0.0022675737 202:0.0045351475 204:0.0068027209 205:0.0022675737 206:0.0022675737 207:0.0068027209 208:0.0022675737 209:0.0045351475 210:0.015873017 211:0.0090702949 212:0.0045351475 213:0.01814059 214:0.01814059 215:0.0090702949 216:0.0090702949 217:0.015873017 218:0.011337869 219:0.0090702949 220:0.0068027209 221:0.013605442 222:0.015873017 223:0.011337869 224:0.013605442 225:0.0090702949 226:0.0068027209 227:0.0045351475 228:0.0045351475 229:0.0068027209 230:0.0022675737 231:0.0045351475 232:0.0045351475 233:0.0022675737 234:0.0022675737 235:0.0045351475 236:0.0022675737 239:0.0045351475 240:0.0022675737 245:0.0045351475 249:0.0022675737 
100000 0:0.59183675 1:0.040816326 2:0.015873017 3:0.0090702949 7:0.0022675737 17:0.0022675737 19:0.0022675737 24:0.0022675737 36:0.0045351475 43:0.0022675737 54:0.0022675737 59:0.0022675737 60:0.0022675737 75:0.0022675737 79:0.0022675737 81:0.0022675737 84:0.0022675737 95:0.0022675737 101:0.0022675737 111:0.0022675737 130:0.0022675737 139:0.0022675737 155:0.0022675737 160:0.0022675737 171:0.0022675737 176:0.0022675737 186:0.0045351475 187:0.0022675737 193:0.0045351475 200:0.0022675737 201:0.0022675737 202:0.0045351475 204:0.0068027209 205:0.0045351475 206:0.0022675737 207:0.0068027209 208:0.0022675737 209:0.0045351475 210:0.015873017 211:0.0090702949 212:0.0045351475 213:0.01814059 214:0.01814059 215:0.011337869 216:0.0090702949 217:0.015873017 218:0.0090702949 219:0.0090702949 220:0.0068027209 221:0.011337869 222:0.015873017 223:0.0090702949 224:0.013605442 225:0.0090702949 226:0.0068027209 227:0.0068027209 228:0.0045351475 229:0.0068027209 230:0.0022675737 231:0.0045351475 232:0.0045351475 234:0.0022675737 235:0.0045351475 236:0.0022675737 239:0.0045351475 240:0.0022675737 245:0.0045351475 
100000 0:0.52834469 1:0.034013607 2:0.011337869 3:0.0090702949 6:0.0022675737 7:0.0022675737 9:0.0022675737 17:0.0022675737 19:0.0022675737 24:0.0022675737 31:0.0022675737 36:0.0045351475 43:0.0022675737 54:0.0022675737 59:0.0022675737 60:0.0022675737 75:0.0022675737 81:0.0022675737 101:0.0022675737 115:0.0022675737 130:0.0022675737 139:0.0022675737 141:0.0022675737 155:0.0022675737 160:0.0022675737 171:0.0022675737 173:0.0022675737 176:0.0045351475 178:0.0022675737 186:0.0068027209 187:0.0022675737 188:0.0022675737 191:0.0022675737 192:0.0022675737 193:0.0045351475 195:0.0022675737 198:0.0022675737 199:0.0022675737 200:0.0022675737 201:0.0068027209 202:0.0090702949 203:0.0068027209 204:0.0068027209 205:0.0045351475 206:0.0045351475 207:0.0022675737 208:0.0045351475 209:0.0045351475 210:0.013605442 211:0.0090702949 212:0.0068027209 213:0.01814059 214:0.015873017 215:0.011337869 216:0.013605442 217:0.022675738 218:0.013605442 219:0.0090702949 220:0.0068027209 221:0.011337869 222:0.024943311 223:0.0090702949 224:0.013605442 225:0.011337869 226:0.0090702949 227:0.0090702949 228:0.0045351475 229:0.0090702949 230:0.0022675737 231:0.011337869 232:0.0022675737 234:0.0022675737 235:0.0022675737 236:0.0022675737 239:0.0045351475 240:0.0022675737 245:0.0045351475 
100000 0:0.52380955 1:0.063492067 2:0.040816326 3:0.011337869 4:0.0068027209 5:0.0022675737 6:0.0022675737 8:0.0045351475 15:0.0022675737 17:0.0022675737 18:0.0022675737 19:0.0022675737 22:0.0022675737 26:0.0022675737 39:0.0022675737 41:0.0045351475 50:0.0022675737 52:0.0022675737 59:0.0022675737 63:0.0022675737 69:0.0022675737 72:0.0022675737 88:0.0022675737 102:0.0022675737 117:0.0045351475 118:0.0022675737 131:0.0022675737 141:0.0022675737 146:0.0022675737 149:0.0022675737 153:0.0022675737 161:0.0022675737 165:0.0022675737 166:0.0022675737 167:0.0022675737 168:0.0045351475 169:0.0045351475 170:0.0045351475 171:0.0022675737 172:0.0068027209 173:0.0045351475 174:0.011337869 175:0.0045351475 176:0.0090702949 177:0.0022675737 178:0.0068027209 180:0.0045351475 181:0.0022675737 182:0.0022675737 183:0.0022675737 185:0.0068027209 187:0.0045351475 188:0.0045351475 189:0.0022675737 191:0.0022675737 193:0.0045351475 194:0.0045351475 196:0.0068027209 197:0.0090702949 198:0.0068027209 199:0.0068027209 200:0.0045351475 201:0.013605442 202:0.0068027209 203:0.011337869 204:0.013605442 205:0.011337869 206:0.0068027209 207:0.0045351475 208:0.011337869 209:0.0068027209 210:0.0090702949 211:0.0045351475 212:0.0068027209 215:0.0090702949 217:0.0022675737 220:0.0045351475 221:0.0022675737 223:0.0068027209 227:0.0045351475 228:0.0022675737 231:0.0022675737 236:0.0022675737 
37780.74479996005 0:0.5714286 1:0.058956917 2:0.040816326 3:0.011337869 4:0.0045351475 5:0.0022675737 6:0.0022675737 8:0.0045351475 15:0.0022675737 17:0.0022675737 18:0.0022675737 19:0.0022675737 22:0.0022675737 26:0.0022675737 39:0.0022675737 41:0.0045351475 50:0.0022675737 52:0.0022675737 59:0.0022675737 63:0.0022675737 72:0.0022675737 88:0.0022675737 102:0.0022675737 117:0.0045351475 118:0.0022675737 131:0.0022675737 141:0.0022675737 146:0.0022675737 149:0.0022675737 153:0.0022675737 161:0.0022675737 165:0.0022675737 166:0.0022675737 167:0.0022675737 168:0.0045351475 169:0.0045351475 170:0.0045351475 171:0.0022675737 172:0.0068027209 173:0.0045351475 174:0.0090702949 175:0.0022675737 176:0.0068027209 177:0.0022675737 180:0.0022675737 181:0.0022675737 183:0.0022675737 185:0.0045351475 187:0.0022675737 188:0.0045351475 189:0.0022675737 191:0.0022675737 193:0.0022675737 194:0.0045351475 196:0.0068027209 197:0.0090702949 198:0.0068027209 199:0.0045351475 200:0.0045351475 201:0.011337869 202:0.0068027209 203:0.0090702949 204:0.011337869 205:0.011337869 206:0.0068027209 207:0.0045351475 208:0.011337869 209:0.0068027209 210:0.0090702949 211:0.0045351475 212:0.0068027209 215:0.0045351475 217:0.0022675737 220:0.0045351475 221:0.0022675737 223:0.0068027209 227:0.0045351475 228:0.0022675737 231:0.0022675737 236:0.0022675737 
100000 0:0.57596374 1:0.065759636 2:0.038548753 3:0.011337869 4:0.0045351475 5:0.0022675737 8:0.0045351475 15:0.0022675737 17:0.0022675737 18:0.0022675737 19:0.0022675737 22:0.0022675737 26:0.0022675737 35:0.0022675737 39:0.0022675737 41:0.0045351475 50:0.0022675737 52:0.0022675737 59:0.0022675737 63:0.0022675737 88:0.0022675737 102:0.0022675737 117:0.0045351475 118:0.0022675737 131:0.0022675737 141:0.0022675737 146:0.0022675737 149:0.0022675737 153:0.0022675737 161:0.0022675737 165:0.0068027209 166:0.0022675737 167:0.0022675737 168:0.0045351475 169:0.0045351475 170:0.0045351475 171:0.0068027209 172:0.0090702949 173:0.0022675737 174:0.0045351475 175:0.0022675737 176:0.0045351475 179:0.0022675737 181:0.0022675737 183:0.0022675737 185:0.0022675737 187:0.0022675737 188:0.0022675737 189:0.0022675737 191:0.0022675737 193:0.0022675737 194:0.0022675737 196:0.0045351475 197:0.0068027209 198:0.0090702949 199:0.0022675737 200:0.0090702949 201:0.011337869 202:0.0068027209 203:0.0090702949 204:0.011337869 205:0.0090702949 206:0.0068027209 207:0.0022675737 208:0.011337869 209:0.0068027209 210:0.0090702949 211:0.0045351475 212:0.0068027209 215:0.0045351475 217:0.0022675737 220:0.0045351475 221:0.0022675737 223:0.0068027209 227:0.0045351475 228:0.0022675737 230:0.0022675737 231:0.0022675737 232:0.0022675737 236:0.0022675737 
100000 0:0.62131518 1:0.063492067 2:0.03628118 3:0.011337869 4:0.0022675737 5:0.0022675737 8:0.0045351475 15:0.0022675737 17:0.0022675737 18:0.0022675737 19:0.0022675737 22:0.0022675737 26:0.0022675737 35:0.0022675737 39:0.0022675737 41:0.0022675737 50:0.0022675737 52:0.0022675737 59:0.0022675737 63:0.0022675737 88:0.0022675737 102:0.0022675737 117:0.0045351475 118:0.0022675737 131:0.0022675737 146:0.0022675737 149:0.0022675737 153:0.0022675737 161:0.0022675737 165:0.0068027209 167:0.0022675737 168:0.0022675737 169:0.0045351475 170:0.0045351475 171:0.0022675737 172:0.0045351475 173:0.0022675737 174:0.0045351475 175:0.0022675737 176:0.0022675737 179:0.0022675737 181:0.0022675737 183:0.0022675737 185:0.0022675737 187:0.0022675737 189:0.0022675737 191:0.0022675737 193:0.0022675737 194:0.0022675737 196:0.0045351475 197:0.0022675737 198:0.0068027209 199:0.0022675737 200:0.0090702949 201:0.011337869 202:0.0045351475 203:0.0090702949 204:0.011337869 205:0.0090702949 206:0.0068027209 207:0.0022675737 208:0.011337869 209:0.0068027209 210:0.0068027209 211:0.0045351475 212:0.0068027209 215:0.0045351475 217:0.0022675737 220:0.0045351475 223:0.0068027209 227:0.0022675737 228:0.0022675737 230:0.0022675737 231:0.0022675737 232:0.0022675737 236:0.0022675737 
100000 0:0.63265306 1:0.058956917 2:0.03628118 3:0.011337869 4:0.0022675737 5:0.0022675737 7:0.0022675737 8:0.0045351475 15:0.0022675737 17:0.0022675737 18:0.0022675737 19:0.0022675737 26:0.0022675737 35:0.0022675737 39:0.0022675737 41:0.0022675737 50:0.0022675737 52:0.0022675737 59:0.0022675737 63:0.0022675737 88:0.0022675737 102:0.0022675737 117:0.0045351475 125:0.0022675737 131:0.0022675737 146:0.0022675737 149:0.0022675737 153:0.0022675737 161:0.0022675737 163:0.0022675737 165:0.0090702949 167:0.0045351475 168:0.0022675737 169:0.0022675737 170:0.0022675737 171:0.0022675737 172:0.0022675737 173:0.0022675737 174:0.0022675737 175:0.0022675737 179:0.0045351475 183:0.0022675737 185:0.0022675737 187:0.0022675737 189:0.0022675737 193:0.0022675737 194:0.0022675737 196:0.0022675737 198:0.0068027209 199:0.0022675737 200:0.011337869 201:0.015873017 202:0.0045351475 203:0.0068027209 204:0.0090702949 205:0.0090702949 206:0.0045351475 207:0.0022675737 208:0.011337869 209:0.0068027209 210:0.0068027209 211:0.0045351475 212:0.0090702949 215:0.0045351475 217:0.0022675737 218:0.0022675737 220:0.0045351475 222:0.0022675737 223:0.0068027209 227:0.0022675737 228:0.0022675737 230:0.0022675737 232:0.0022675737 241:0.0022675737 
100000 0:0.64172339 1:0.058956917 2:0.034013607 3:0.013605442 4:0.0022675737 5:0.0022675737 7:0.0022675737 8:0.0045351475 15:0.0022675737 17:0.0022675737 19:0.0022675737 26:0.0022675737 35:0.0022675737 39:0.0022675737 41:0.0022675737 50:0.0022675737 52:0.0022675737 56:0.0022675737 59:0.0022675737 63:0.0022675737 88:0.0022675737 102:0.0022675737 117:0.0022675737 125:0.0022675737 131:0.0022675737 146:0.0022675737 149:0.0022675737 153:0.0022675737 161:0.0022675737 163:0.0022675737 164:0.0022675737 165:0.0090702949 167:0.0022675737 169:0.0045351475 170:0.0022675737 171:0.0022675737 173:0.0022675737 174:0.0022675737 179:0.0045351475 183:0.0022675737 185:0.0022675737 186:0.0022675737 187:0.0022675737 189:0.0022675737 194:0.0022675737 196:0.0022675737 198:0.0090702949 199:0.0045351475 200:0.0090702949 201:0.015873017 202:0.0068027209 203:0.0068027209 204:0.0045351475 205:0.0068027209 206:0.0045351475 207:0.0022675737 208:0.011337869 209:0.0068027209 210:0.0068027209 211:0.0045351475 212:0.0090702949 215:0.0022675737 217:0.0022675737 218:0.0022675737 220:0.0022675737 222:0.0022675737 223:0.0068027209 226:0.0022675737 227:0.0022675737 228:0.0022675737 230:0.0045351475 232:0.0022675737 241:0.0022675737 
100000 0:0.68480724 1:0.054421768 2:0.031746034 3:0.013605442 4:0.0022675737 5:0.0022675737 7:0.0022675737 8:0.0045351475 17:0.0022675737 19:0.0022675737 26:0.0022675737 35:0.0022675737 39:0.0022675737 41:0.0022675737 50:0.0022675737 52:0.0022675737 56:0.0022675737 59:0.0022675737 63:0.0022675737 102:0.0022675737 117:0.0022675737 125:0.0022675737 131:0.0022675737 146:0.0022675737 149:0.0022675737 153:0.0022675737 161:0.0022675737 164:0.0022675737 165:0.0045351475 169:0.0045351475 171:0.0022675737 173:0.0022675737 179:0.0045351475 185:0.0022675737 186:0.0022675737 187:0.0022675737 189:0.0022675737 194:0.0022675737 196:0.0022675737 198:0.0090702949 199:0.0045351475 200:0.0090702949 201:0.015873017 202:0.0045351475 203:0.0068027209 205:0.0045351475 206:0.0045351475 207:0.0022675737 208:0.0090702949 209:0.0068027209 210:0.0045351475 211:0.0045351475 212:0.0068027209 215:0.0022675737 217:0.0022675737 218:0.0022675737 220:0.0022675737 222:0.0022675737 223:0.0068027209 226:0.0022675737 227:0.0022675737 228:0.0022675737 230:0.0045351475 232:0.0022675737 241:0.0022675737 
100000 0:0.69841272 1:0.056689344 2:0.029478459 3:0.0090702949 5:0.0022675737 7:0.0022675737 8:0.0045351475 17:0.0022675737 18:0.0022675737 19:0.0022675737 26:0.0022675737 35:0.0022675737 39:0.0022675737 41:0.0022675737 50:0.0022675737 56:0.0022675737 59:0.0022675737 63:0.0022675737 102:0.0022675737 117:0.0022675737 125:0.0022675737 131:0.0022675737 146:0.0045351475 149:0.0022675737 153:0.0022675737 161:0.0022675737 169:0.0022675737 171:0.0045351475 176:0.0022675737 179:0.0045351475 183:0.0022675737 186:0.0022675737 187:0.0022675737 189:0.0022675737 194:0.0045351475 197:0.0045351475 198:0.0045351475 199:0.0045351475 200:0.0090702949 201:0.015873017 202:0.0022675737 203:0.0045351475 205:0.0045351475 206:0.0045351475 207:0.0022675737 208:0.0068027209 209:0.0090702949 210:0.0022675737 211:0.0045351475 212:0.0068027209 215:0.0022675737 216:0.0022675737 217:0.0022675737 218:0.0022675737 220:0.0022675737 222:0.0022675737 223:0.0068027209 224:0.0022675737 226:0.0022675737 227:0.0022675737 228:0.0022675737 230:0.0045351475 232:0.0022675737 241:0.0022675737 
100000 0:0.73922902 1:0.054421768 2:0.024943311 3:0.0090702949 7:0.0022675737 8:0.0045351475 17:0.0022675737 18:0.0022675737 19:0.0022675737 26:0.0022675737 35:0.0022675737 39:0.0022675737 41:0.0022675737 56:0.0022675737 59:0.0022675737 63:0.0022675737 102:0.0022675737 117:0.0022675737 125:0.0022675737 131:0.0022675737 146:0.0045351475 149:0.0022675737 153:0.0022675737 171:0.0022675737 176:0.0022675737 183:0.0022675737 186:0.0022675737 189:0.0022675737 194:0.0045351475 197:0.0045351475 198:0.0045351475 199:0.0045351475 200:0.0090702949 201:0.0090702949 202:0.0022675737 203:0.0022675737 205:0.0045351475 206:0.0045351475 207:0.0022675737 208:0.0022675737 209:0.0068027209 210:0.0022675737 211:0.0045351475 212:0.0068027209 215:0.0022675737 216:0.0022675737 217:0.0022675737 218:0.0022675737 220:0.0022675737 222:0.0022675737 223:0.0068027209 224:0.0022675737 226:0.0022675737 227:0.0022675737 228:0.0022675737 230:0.0045351475 232:0.0022675737 241:0.0022675737 
100000 0:0.75736964 1:0.045351475 2:0.022675738 3:0.011337869 7:0.0022675737 8:0.0045351475 17:0.0022675737 18:0.0022675737 19:0.0022675737 26:0.0022675737 35:0.0022675737 39:0.0022675737 56:0.0022675737 59:0.0022675737 63:0.0022675737 84:0.0022675737 102:0.0022675737 117:0.0022675737 125:0.0022675737 131:0.0022675737 146:0.0045351475 149:0.0022675737 171:0.0022675737 179:0.0022675737 183:0.0022675737 189:0.0022675737 190:0.0022675737 194:0.0068027209 197:0.0045351475 198:0.0022675737 199:0.0068027209 200:0.0068027209 201:0.0068027209 202:0.0045351475 203:0.0022675737 205:0.0022675737 206:0.0022675737 207:0.0022675737 209:0.0022675737 210:0.0022675737 211:0.0045351475 212:0.0068027209 215:0.0022675737 216:0.0045351475 217:0.0022675737 218:0.0022675737 220:0.0022675737 222:0.0022675737 223:0.0090702949 224:0.0022675737 226:0.0022675737 227:0.0022675737 228:0.0022675737 230:0.0045351475 232:0.0022675737 241:0.0022675737 
100000 0:0.79591841 1:0.038548753 2:0.020408163 3:0.011337869 7:0.0022675737 8:0.0045351475 17:0.0022675737 18:0.0022675737 19:0.0022675737 26:0.0022675737 35:0.0022675737 56:0.0022675737 59:0.0022675737 63:0.0022675737 84:0.0022675737 102:0.0022675737 117:0.0022675737 125:0.0022675737 131:0.0022675737 146:0.0022675737 149:0.0022675737 171:0.0022675737 189:0.0022675737 190:0.0022675737 194:0.0068027209 197:0.0045351475 198:0.0022675737 199:0.0022675737 200:0.0045351475 201:0.0045351475 202:0.0045351475 203:0.0022675737 206:0.0022675737 207:0.0022675737 209:0.0022675737 210:0.0022675737 211:0.0022675737 212:0.0045351475 216:0.0045351475 217:0.0022675737 218:0.0022675737 220:0.0022675737 222:0.0022675737 223:0.0068027209 224:0.0022675737 226:0.0022675737 227:0.0022675737 228:0.0022675737 230:0.0045351475 232:0.0022675737 241:0.0022675737 
100000 0:0.81405896 1:0.031746034 2:0.01814059 3:0.011337869 7:0.0022675737 8:0.0045351475 17:0.0022675737 18:0.0022675737 19:0.0022675737 29:0.0022675737 35:0.0022675737 56:0.0022675737 59:0.0022675737 63:0.0022675737 84:0.0022675737 102:0.0022675737 117:0.0022675737 125:0.0022675737 146:0.0022675737 149:0.0022675737 171:0.0022675737 173:0.0022675737 188:0.0022675737 189:0.0022675737 194:0.0045351475 195:0.0022675737 197:0.0045351475 198:0.0022675737 199:0.0022675737 200:0.0022675737 202:0.0022675737 203:0.0022675737 204:0.0022675737 206:0.0022675737 207:0.0045351475 209:0.0022675737 210:0.0022675737 212:0.0045351475 213:0.0022675737 216:0.0045351475 217:0.0022675737 218:0.0022675737 220:0.0022675737 222:0.0022675737 223:0.0068027209 224:0.0022675737 226:0.0022675737 230:0.0045351475 232:0.0022675737 241:0.0022675737 
100000 0:0.84807259 1:0.029478459 2:0.015873017 3:0.0090702949 7:0.0022675737 8:0.0045351475 18:0.0022675737 19:0.0022675737 29:0.0022675737 35:0.0022675737 56:0.0022675737 59:0.0022675737 63:0.0022675737 84:0.0022675737 102:0.0022675737 125:0.0022675737 146:0.0022675737 149:0.0022675737 171:0.0022675737 173:0.0022675737 189:0.0022675737 194:0.0022675737 195:0.0022675737 197:0.0022675737 199:0.0022675737 202:0.0022675737 203:0.0022675737 204:0.0022675737 206:0.0022675737 207:0.0045351475 209:0.0022675737 212:0.0022675737 213:0.0022675737 216:0.0045351475 218:0.0022675737 222:0.0022675737 223:0.0045351475 224:0.0022675737 226:0.0022675737 230:0.0045351475 232:0.0022675737 241:0.0022675737 
100000 0:0.85714287 1:0.029478459 2:0.015873017 3:0.0090702949 7:0.0045351475 8:0.0022675737 18:0.0022675737 19:0.0022675737 29:0.0022675737 35:0.0022675737 56:0.0022675737 59:0.0022675737 84:0.0022675737 102:0.0022675737 125:0.0022675737 127:0.0022675737 146:0.0022675737 171:0.0022675737 173:0.0022675737 189:0.0022675737 194:0.0022675737 202:0.0045351475 204:0.0022675737 205:0.0022675737 206:0.0022675737 207:0.0022675737 209:0.0045351475 212:0.0022675737 213:0.0045351475 216:0.0068027209 222:0.0022675737 223:0.0022675737 224:0.0022675737 226:0.0022675737 230:0.0045351475 241:0.0022675737 
100000 0:0.91836739 1:0.049886622 2:0.013605442 3:0.0022675737 4:0.0045351475 6:0.0022675737 7:0.0022675737 10:0.0022675737 12:0.0022675737 22:0.0022675737 
100000 0:0.90249437 1:0.054421768 2:0.013605442 3:0.0045351475 4:0.0045351475 6:0.0022675737 7:0.0045351475 9:0.0022675737 10:0.0022675737 12:0.0022675737 17:0.0022675737 19:0.0022675737 22:0.0022675737 
100000 0:0.88662136 1:0.065759636 2:0.013605442 3:0.0090702949 4:0.0022675737 5:0.0022675737 6:0.0022675737 7:0.0045351475 9:0.0022675737 12:0.0022675737 14:0.0022675737 17:0.0022675737 19:0.0022675737 22:0.0022675737 
100000 0:0.88208616 1:0.070294783 2:0.013605442 3:0.0090702949 4:0.0022675737 5:0.0022675737 6:0.0022675737 7:0.0045351475 9:0.0022675737 12:0.0022675737 14:0.0022675737 17:0.0022675737 19:0.0022675737 22:0.0022675737 
100000 0:0.87528348 1:0.077097505 2:0.013605442 3:0.0090702949 4:0.0022675737 5:0.0022675737 6:0.0022675737 7:0.0045351475 9:0.0022675737 12:0.0022675737 14:0.0022675737 17:0.0022675737 19:0.0022675737 22:0.0022675737 
100000 0:0.86621314 1:0.086167805 2:0.013605442 3:0.0090702949 5:0.0045351475 6:0.0022675737 7:0.0045351475 9:0.0022675737 12:0.0022675737 14:0.0022675737 17:0.0022675737 19:0.0022675737 22:0.0022675737 
100000 0:0.85487527 1:0.095238097 2:0.013605442 3:0.0090702949 5:0.0045351475 6:0.0022675737 7:0.0045351475 8:0.0022675737 9:0.0022675737 12:0.0022675737 14:0.0022675737 17:0.0022675737 19:0.0022675737 22:0.0022675737 
100000 0:0.83446711 1:0.10657597 2:0.015873017 3:0.011337869 4:0.0022675737 5:0.0022675737 6:0.0022675737 7:0.0068027209 8:0.0022675737 9:0.0022675737 11:0.0022675737 12:0.0022675737 14:0.0022675737 17:0.0022675737 19:0.0022675737 22:0.0022675737 
100000 0:0.80952382 1:0.11111111 2:0.027210884 3:0.011337869 4:0.0045351475 5:0.0045351475 6:0.0022675737 7:0.0068027209 8:0.0022675737 9:0.0022675737 10:0.0045351475 11:0.0022675737 12:0.0022675737 14:0.0022675737 17:0.0022675737 19:0.0022675737 22:0.0022675737 
100000 0:0.79138321 1:0.11111111 2:0.027210884 3:0.013605442 4:0.0068027209 5:0.0090702949 6:0.0022675737 7:0.0090702949 8:0.0045351475 9:0.0045351475 10:0.0045351475 11:0.0022675737 12:0.0022675737 14:0.0022675737 15:0.0022675737 17:0.0022675737 19:0.0022675737 22:0.0022675737 
100000 0:0.76643991 1:0.1292517 2:0.029478459 3:0.015873017 4:0.0090702949 5:0.0090702949 7:0.0090702949 8:0.0068027209 9:0.0045351475 10:0.0045351475 11:0.0045351475 12:0.0022675737 14:0.0022675737 15:0.0022675737 17:0.0022675737 22:0.0022675737 
100000 0:0.73696148 1:0.14512472 2:0.034013607 3:0.01814059 4:0.011337869 5:0.011337869 6:0.0022675737 7:0.0090702949 8:0.0068027209 9:0.0045351475 10:0.0045351475 11:0.0045351475 12:0.0022675737 14:0.0022675737 15:0.0022675737 17:0.0022675737 22:0.0022675737 
100000 0:0.69614512 1:0.15873016 2:0.038548753 3:0.027210884 4:0.013605442 5:0.011337869 6:0.0022675737 7:0.0090702949 8:0.011337869 9:0.0045351475 10:0.0068027209 11:0.0068027209 12:0.0045351475 14:0.0022675737 15:0.0045351475 22:0.0022675737 
100000 0:0.66213155 1:0.17006803 2:0.045351475 3:0.031746034 4:0.015873017 5:0.013605442 6:0.0022675737 7:0.011337869 8:0.011337869 9:0.0045351475 10:0.0068027209 11:0.0068027209 12:0.0045351475 14:0.0022675737 15:0.0045351475 22:0.0022675737 29:0.0022675737 46:0.0022675737 
100000 0:0.62358278 1:0.19954649 2:0.047619049 3:0.031746034 4:0.015873017 5:0.013605442 6:0.0022675737 7:0.011337869 8:0.011337869 9:0.0045351475 10:0.0068027209 11:0.011337869 12:0.0045351475 14:0.0022675737 15:0.0045351475 22:0.0022675737 29:0.0022675737 37:0.0022675737 46:0.0022675737 
100000 0:0.5714286 1:0.22222222 2:0.063492067 3:0.034013607 4:0.022675738 5:0.01814059 6:0.0022675737 7:0.0090702949 8:0.015873017 9:0.0045351475 10:0.0068027209 11:0.011337869 12:0.0022675737 14:0.0022675737 15:0.0045351475 22:0.0022675737 29:0.0022675737 37:0.0022675737 46:0.0022675737 
100000 0:0.53061223 1:0.24263039 2:0.068027213 3:0.03628118 4:0.027210884 5:0.01814059 6:0.0022675737 7:0.011337869 8:0.01814059 9:0.0068027209 10:0.0068027209 11:0.011337869 12:0.0022675737 14:0.0022675737 15:0.0045351475 22:0.0022675737 29:0.0045351475 37:0.0022675737 46:0.0022675737 
100000 0:0.6145125 1:0.065759636 2:0.029478459 3:0.0068027209 7:0.0022675737 8:0.0045351475 9:0.0022675737 11:0.0045351475 13:0.0045351475 15:0.0022675737 25:0.0022675737 36:0.0022675737 38:0.0022675737 47:0.0022675737 60:0.0022675737 72:0.0022675737 77:0.0022675737 86:0.0022675737 87:0.0022675737 93:0.0022675737 97:0.0022675737 102:0.0022675737 107:0.0022675737 118:0.0022675737 129:0.0022675737 158:0.0022675737 162:0.0045351475 169:0.0022675737 176:0.0022675737 177:0.0022675737 181:0.0022675737 182:0.0045351475 184:0.0022675737 186:0.0045351475 187:0.0045351475 188:0.0045351475 189:0.0022675737 190:0.0068027209 191:0.0068027209 192:0.020408163 193:0.011337869 194:0.01814059 195:0.0045351475 196:0.0090702949 197:0.0090702949 198:0.011337869 199:0.0068027209 200:0.0090702949 202:0.0090702949 204:0.0090702949 206:0.0045351475 207:0.011337869 208:0.0045351475 209:0.0068027209 211:0.0022675737 212:0.0045351475 213:0.0022675737 218:0.0022675737 219:0.0045351475 221:0.0045351475 223:0.0022675737 228:0.0022675737 236:0.0022675737 239:0.0022675737 245:0.0022675737 
100000 0:0.65759641 1:0.058956917 2:0.029478459 3:0.0068027209 7:0.0022675737 8:0.0022675737 9:0.0022675737 11:0.0045351475 13:0.0045351475 15:0.0022675737 25:0.0022675737 36:0.0022675737 38:0.0022675737 47:0.0022675737 60:0.0022675737 72:0.0022675737 77:0.0022675737 87:0.0022675737 93:0.0022675737 97:0.0022675737 102:0.0022675737 107:0.0022675737 118:0.0022675737 129:0.0022675737 158:0.0022675737 162:0.0045351475 169:0.0022675737 176:0.0022675737 177:0.0022675737 181:0.0022675737 182:0.0045351475 186:0.0045351475 187:0.0045351475 188:0.0022675737 189:0.0022675737 190:0.0045351475 191:0.0068027209 192:0.01814059 193:0.011337869 194:0.013605442 195:0.0045351475 196:0.0090702949 197:0.0068027209 198:0.011337869 199:0.0068027209 200:0.0045351475 202:0.0090702949 204:0.0068027209 206:0.0022675737 207:0.0090702949 208:0.0045351475 209:0.0068027209 211:0.0022675737 212:0.0045351475 219:0.0045351475 221:0.0045351475 223:0.0022675737 228:0.0022675737 236:0.0022675737 239:0.0022675737 245:0.0022675737 
100000 0:0.69841272 1:0.056689344 2:0.024943311 3:0.0068027209 7:0.0022675737 8:0.0022675737 11:0.0045351475 13:0.0045351475 15:0.0022675737 25:0.0022675737 36:0.0022675737 38:0.0022675737 47:0.0022675737 60:0.0022675737 72:0.0022675737 77:0.0022675737 87:0.0022675737 97:0.0022675737 102:0.0022675737 107:0.0022675737 118:0.0022675737 129:0.0022675737 158:0.0022675737 162:0.0045351475 169:0.0022675737 176:0.0022675737 177:0.0022675737 182:0.0045351475 186:0.0045351475 188:0.0022675737 189:0.0022675737 190:0.0022675737 191:0.0068027209 192:0.015873017 193:0.0090702949 194:0.013605442 195:0.0022675737 196:0.0090702949 197:0.0068027209 198:0.011337869 199:0.0068027209 200:0.0045351475 202:0.0090702949 204:0.0068027209 206:0.0022675737 207:0.0045351475 208:0.0045351475 209:0.0068027209 212:0.0022675737 219:0.0045351475 221:0.0022675737 228:0.0022675737 236:0.0022675737 239:0.0022675737 245:0.0022675737 
100000 0:0.6371882 1:0.063492067 2:0.013605442 3:0.0045351475 4:0.0022675737 7:0.0022675737 8:0.0022675737 10:0.0045351475 15:0.0022675737 16:0.0022675737 18:0.0022675737 22:0.0022675737 28:0.0022675737 32:0.0022675737 35:0.0022675737 53:0.0022675737 59:0.0022675737 65:0.0022675737 70:0.0022675737 71:0.0022675737 77:0.0022675737 88:0.0022675737 89:0.0022675737 96:0.0022675737 104:0.0022675737 130:0.0022675737 133:0.0022675737 142:0.0022675737 143:0.0022675737 147:0.0022675737 157:0.0022675737 160:0.0022675737 165:0.0022675737 166:0.0022675737 169:0.0022675737 170:0.0022675737 171:0.0022675737 172:0.0022675737 176:0.0022675737 179:0.0045351475 181:0.0022675737 182:0.0022675737 184:0.0022675737 185:0.0022675737 186:0.0045351475 188:0.0045351475 189:0.0022675737 190:0.0045351475 191:0.0022675737 192:0.011337869 193:0.0068027209 195:0.0068027209 196:0.0045351475 197:0.0090702949 198:0.0045351475 199:0.0045351475 200:0.0068027209 201:0.0068027209 202:0.0022675737 203:0.013605442 205:0.011337869 206:0.0068027209 207:0.0045351475 208:0.0090702949 209:0.0090702949 210:0.0045351475 212:0.0068027209 213:0.0045351475 214:0.0045351475 216:0.0022675737 217:0.0068027209 218:0.0045351475 219:0.0045351475 221:0.0045351475 222:0.0022675737 224:0.0022675737 227:0.0022675737 
100000 0:0.61678004 1:0.058956917 2:0.01814059 3:0.0022675737 4:0.0022675737 5:0.0022675737 7:0.0022675737 8:0.0022675737 10:0.0045351475 15:0.0022675737 16:0.0022675737 18:0.0022675737 22:0.0022675737 28:0.0022675737 32:0.0022675737 35:0.0022675737 53:0.0022675737 59:0.0022675737 65:0.0022675737 70:0.0022675737 71:0.0022675737 77:0.0022675737 88:0.0022675737 89:0.0022675737 96:0.0022675737 111:0.0022675737 130:0.0022675737 133:0.0022675737 142:0.0022675737 143:0.0022675737 147:0.0022675737 157:0.0022675737 160:0.0022675737 163:0.0022675737 165:0.0022675737 166:0.0045351475 169:0.0022675737 170:0.0022675737 171:0.0022675737 172:0.0022675737 176:0.0022675737 179:0.0045351475 180:0.0022675737 181:0.0022675737 182:0.0022675737 184:0.0022675737 185:0.0022675737 186:0.0045351475 188:0.0045351475 189:0.0022675737 190:0.0045351475 191:0.0022675737 192:0.011337869 193:0.011337869 194:0.0022675737 195:0.0068027209 196:0.0045351475 197:0.0090702949 198:0.0068027209 199:0.0045351475 200:0.0068027209 201:0.0068027209 202:0.0045351475 203:0.013605442 205:0.011337869 206:0.0068027209 207:0.0045351475 208:0.0090702949 209:0.0090702949 210:0.0045351475 212:0.0068027209 213:0.0045351475 214:0.0045351475 215:0.0022675737 216:0.0022675737 217:0.0068027209 218:0.0045351475 219:0.0045351475 221:0.0045351475 222:0.0022675737 224:0.0022675737 227:0.0022675737 
100000 0:0.59410429 1:0.058956917 2:0.020408163 3:0.0022675737 4:0.0022675737 5:0.0022675737 7:0.0022675737 8:0.0022675737 10:0.0045351475 15:0.0022675737 16:0.0022675737 22:0.0022675737 27:0.0022675737 28:0.0022675737 32:0.0022675737 35:0.0022675737 53:0.0022675737 59:0.0022675737 65:0.0022675737 70:0.0022675737 71:0.0022675737 77:0.0022675737 88:0.0022675737 89:0.0022675737 96:0.0022675737 111:0.0022675737 130:0.0022675737 133:0.0022675737 142:0.0022675737 143:0.0022675737 147:0.0022675737 153:0.0022675737 156:0.0022675737 157:0.0022675737 160:0.0022675737 163:0.0022675737 165:0.0022675737 166:0.0022675737 167:0.0022675737 169:0.0022675737 170:0.0022675737 171:0.0045351475 172:0.0022675737 176:0.0022675737 179:0.0045351475 180:0.0022675737 181:0.0022675737 182:0.0022675737 184:0.0022675737 185:0.0022675737 186:0.0045351475 188:0.0068027209 189:0.0022675737 190:0.0068027209 191:0.0022675737 192:0.011337869 193:0.011337869 194:0.0022675737 195:0.0068027209 196:0.0068027209 197:0.0090702949 198:0.0068027209 199:0.0045351475 200:0.0068027209 201:0.0068027209 202:0.0045351475 203:0.013605442 205:0.011337869 206:0.0068027209 207:0.0068027209 208:0.0090702949 209:0.0090702949 210:0.0045351475 212:0.0090702949 213:0.0045351475 214:0.0045351475 215:0.0045351475 216:0.0022675737 217:0.0068027209 218:0.0045351475 219:0.0045351475 221:0.0045351475 222:0.0022675737 224:0.0022675737 227:0.0022675737 
100000 0:0.57596374 1:0.058956917 2:0.015873017 3:0.0045351475 4:0.0022675737 5:0.0022675737 7:0.0022675737 8:0.0022675737 10:0.0045351475 15:0.0022675737 16:0.0022675737 22:0.0022675737 27:0.0022675737 28:0.0022675737 32:0.0022675737 35:0.0022675737 53:0.0022675737 59:0.0022675737 65:0.0022675737 70:0.0022675737 71:0.0022675737 77:0.0022675737 80:0.0022675737 89:0.0022675737 96:0.0022675737 111:0.0022675737 130:0.0022675737 133:0.0022675737 142:0.0022675737 143:0.0022675737 147:0.0022675737 153:0.0022675737 154:0.0022675737 156:0.0022675737 157:0.0022675737 160:0.0022675737 163:0.0022675737 165:0.0022675737 166:0.0022675737 167:0.0022675737 169:0.0045351475 170:0.0022675737 171:0.0045351475 172:0.0022675737 176:0.0022675737 179:0.0068027209 180:0.0022675737 181:0.0022675737 182:0.0022675737 183:0.0022675737 184:0.0022675737 185:0.0022675737 186:0.0045351475 188:0.0068027209 189:0.0022675737 190:0.0090702949 191:0.0022675737 192:0.011337869 193:0.013605442 194:0.0022675737 195:0.0045351475 196:0.0068027209 197:0.0090702949 198:0.0068027209 199:0.0068027209 200:0.0068027209 201:0.0068027209 202:0.0045351475 203:0.013605442 205:0.011337869 206:0.0068027209 207:0.0068027209 208:0.0090702949 209:0.0090702949 210:0.0068027209 212:0.011337869 213:0.0045351475 214:0.0045351475 215:0.0045351475 216:0.0045351475 217:0.0068027209 218:0.0045351475 219:0.0045351475 221:0.0045351475 222:0.0022675737 224:0.0022675737 227:0.0022675737 
100000 0:0.38095239 1:0.06122449 2:0.015873017 3:0.0022675737 4:0.0022675737 5:0.0022675737 7:0.0022675737 10:0.0045351475 13:0.0022675737 15:0.0022675737 16:0.0022675737 27:0.0022675737 28:0.0022675737 32:0.0022675737 35:0.0045351475 49:0.0022675737 59:0.0022675737 65:0.0022675737 71:0.0022675737 77:0.0022675737 79:0.0022675737 80:0.0022675737 89:0.0022675737 96:0.0022675737 111:0.0022675737 114:0.0022675737 129:0.0022675737 130:0.0022675737 142:0.0022675737 147:0.0022675737 153:0.0022675737 154:0.0022675737 155:0.0022675737 156:0.0022675737 157:0.0022675737 159:0.0045351475 160:0.0022675737 161:0.0022675737 162:0.0022675737 163:0.0022675737 165:0.0045351475 166:0.0022675737 167:0.0022675737 169:0.0090702949 170:0.0045351475 171:0.0022675737 172:0.0045351475 173:0.0022675737 174:0.0022675737 175:0.0022675737 176:0.0045351475 177:0.0022675737 179:0.0090702949 180:0.0090702949 181:0.0045351475 182:0.0022675737 183:0.0045351475 184:0.0022675737 185:0.013605442 186:0.0068027209 187:0.0022675737 188:0.011337869 189:0.0022675737 190:0.013605442 191:0.0045351475 192:0.013605442 193:0.013605442 194:0.0022675737 195:0.015873017 196:0.0090702949 197:0.011337869 198:0.011337869 199:0.0090702949 200:0.0068027209 201:0.013605442 202:0.015873017 203:0.022675738 204:0.011337869 205:0.013605442 206:0.0090702949 207:0.013605442 208:0.0090702949 209:0.013605442 210:0.013605442 211:0.0045351475 212:0.01814059 213:0.0068027209 214:0.0090702949 215:0.013605442 216:0.0068027209 217:0.0068027209 218:0.0068027209 219:0.0045351475 220:0.0022675737 221:0.0045351475 222:0.0045351475 224:0.0022675737 227:0.0022675737 
100000 0:0.62358278 1:0.074829936 2:0.034013607 3:0.0090702949 4:0.011337869 5:0.0022675737 6:0.0022675737 8:0.0022675737 15:0.0022675737 16:0.0022675737 18:0.0022675737 22:0.0022675737 33:0.0022675737 41:0.0022675737 49:0.0022675737 50:0.0022675737 52:0.0022675737 53:0.0022675737 69:0.0022675737 72:0.0022675737 88:0.0022675737 98:0.0022675737 103:0.0022675737 117:0.0022675737 118:0.0022675737 137:0.0022675737 141:0.0022675737 157:0.0022675737 165:0.0022675737 169:0.0022675737 174:0.0022675737 181:0.0090702949 182:0.0022675737 183:0.0045351475 184:0.011337869 185:0.0045351475 186:0.0022675737 187:0.0022675737 188:0.013605442 189:0.0045351475 190:0.0090702949 191:0.011337869 192:0.0068027209 193:0.0068027209 194:0.0068027209 195:0.0022675737 196:0.0068027209 197:0.0090702949 198:0.0045351475 199:0.0068027209 200:0.0045351475 201:0.0022675737 202:0.0090702949 203:0.0068027209 204:0.0068027209 205:0.011337869 206:0.0022675737 207:0.0045351475 209:0.0045351475 210:0.0045351475 211:0.0022675737 215:0.0045351475 
100000 0:0.66666669 1:0.070294783 2:0.031746034 3:0.0090702949 4:0.0090702949 5:0.0022675737 6:0.0022675737 8:0.0022675737 15:0.0022675737 16:0.0022675737 18:0.0022675737 22:0.0022675737 33:0.0022675737 41:0.0022675737 49:0.0022675737 50:0.0022675737 52:0.0022675737 69:0.0022675737 72:0.0022675737 88:0.0022675737 98:0.0022675737 103:0.0022675737 117:0.0022675737 118:0.0022675737 137:0.0022675737 141:0.0022675737 157:0.0022675737 165:0.0022675737 169:0.0022675737 174:0.0022675737 181:0.0068027209 184:0.011337869 185:0.0045351475 188:0.0068027209 189:0.0045351475 190:0.0045351475 191:0.011337869 192:0.0068027209 193:0.0068027209 194:0.0045351475 195:0.0022675737 196:0.0045351475 197:0.0090702949 198:0.0045351475 199:0.0068027209 200:0.0045351475 201:0.0022675737 202:0.0090702949 203:0.0068027209 204:0.0068027209 205:0.011337869 206:0.0022675737 207:0.0045351475 209:0.0045351475 210:0.0045351475 215:0.0045351475 
100000 0:0.67346942 1:0.065759636 2:0.03628118 3:0.0090702949 4:0.0068027209 5:0.0022675737 6:0.0022675737 8:0.0022675737 15:0.0022675737 16:0.0022675737 18:0.0022675737 22:0.0022675737 33:0.0022675737 41:0.0045351475 50:0.0022675737 52:0.0022675737 69:0.0022675737 72:0.0022675737 88:0.0022675737 98:0.0022675737 103:0.0022675737 117:0.0022675737 118:0.0022675737 137:0.0022675737 141:0.0022675737 161:0.0022675737 165:0.0022675737 169:0.0022675737 174:0.0045351475 175:0.0022675737 180:0.0022675737 184:0.0068027209 185:0.0022675737 187:0.0022675737 188:0.0068027209 189:0.0045351475 190:0.0045351475 191:0.0068027209 192:0.0068027209 193:0.0068027209 194:0.0045351475 195:0.0022675737 196:0.0068027209 197:0.0068027209 198:0.0045351475 199:0.0068027209 200:0.0022675737 201:0.0022675737 202:0.0068027209 203:0.0068027209 204:0.0068027209 205:0.011337869 206:0.0045351475 207:0.0045351475 209:0.0045351475 210:0.0068027209 212:0.0022675737 215:0.0045351475 221:0.0022675737 
100000 0:0.71201813 1:0.063492067 2:0.034013607 3:0.0068027209 4:0.0068027209 5:0.0022675737 6:0.0022675737 8:0.0022675737 15:0.0022675737 16:0.0022675737 18:0.0022675737 22:0.0022675737 41:0.0045351475 50:0.0022675737 52:0.0022675737 69:0.0022675737 72:0.0022675737 88:0.0022675737 98:0.0022675737 103:0.0022675737 117:0.0022675737 118:0.0022675737 141:0.0022675737 161:0.0022675737 165:0.0022675737 169:0.0022675737 174:0.0022675737 175:0.0022675737 180:0.0022675737 184:0.0022675737 185:0.0022675737 187:0.0022675737 188:0.0068027209 189:0.0022675737 190:0.0022675737 191:0.0045351475 192:0.0045351475 193:0.0045351475 194:0.0045351475 196:0.0045351475 197:0.0068027209 198:0.0045351475 199:0.0068027209 200:0.0022675737 201:0.0022675737 202:0.0045351475 203:0.0068027209 204:0.0068027209 205:0.011337869 206:0.0045351475 207:0.0045351475 209:0.0022675737 210:0.0068027209 212:0.0022675737 215:0.0045351475 221:0.0022675737 
100000 0:0.7482993 1:0.06122449 2:0.029478459 3:0.0068027209 4:0.0068027209 5:0.0022675737 6:0.0022675737 8:0.0022675737 15:0.0022675737 18:0.0022675737 22:0.0022675737 41:0.0045351475 50:0.0022675737 52:0.0022675737 69:0.0022675737 72:0.0022675737 88:0.0022675737 98:0.0022675737 117:0.0022675737 118:0.0022675737 141:0.0022675737 161:0.0022675737 165:0.0022675737 169:0.0022675737 174:0.0022675737 180:0.0022675737 185:0.0022675737 187:0.0022675737 188:0.0045351475 191:0.0022675737 192:0.0022675737 193:0.0045351475 194:0.0045351475 196:0.0045351475 197:0.0068027209 198:0.0022675737 199:0.0068027209 200:0.0022675737 201:0.0022675737 202:0.0045351475 203:0.0045351475 204:0.0068027209 205:0.0068027209 206:0.0045351475 207:0.0045351475 209:0.0022675737 210:0.0068027209 212:0.0022675737 215:0.0045351475 221:0.0022675737 
100000 0:0.6099773 1:0.068027213 2:0.01814059 3:0.0090702949 4:0.0045351475 5:0.0068027209 8:0.0022675737 13:0.0022675737 14:0.0045351475 15:0.0022675737 21:0.0022675737 23:0.0022675737 27:0.0022675737 30:0.0022675737 33:0.0022675737 34:0.0045351475 36:0.0022675737 38:0.0022675737 44:0.0022675737 46:0.0022675737 49:0.0022675737 50:0.0022675737 52:0.0022675737 57:0.0022675737 58:0.0022675737 64:0.0022675737 72:0.0022675737 75:0.0022675737 79:0.0022675737 83:0.0022675737 84:0.0022675737 91:0.0022675737 94:0.0022675737 95:0.0022675737 99:0.0022675737 102:0.0045351475 107:0.0090702949 108:0.0022675737 111:0.0022675737 112:0.0022675737 114:0.0022675737 115:0.0022675737 117:0.0022675737 118:0.0022675737 119:0.0022675737 120:0.0022675737 121:0.0022675737 124:0.0022675737 125:0.0022675737 126:0.0068027209 129:0.0068027209 130:0.0022675737 133:0.0022675737 134:0.0022675737 135:0.0022675737 136:0.0022675737 137:0.0022675737 139:0.0045351475 140:0.0045351475 142:0.0068027209 147:0.0022675737 148:0.0022675737 150:0.0045351475 151:0.0022675737 152:0.0022675737 154:0.0045351475 155:0.0022675737 156:0.0022675737 157:0.0022675737 158:0.0045351475 159:0.0045351475 160:0.0045351475 161:0.0045351475 162:0.0022675737 163:0.0068027209 164:0.0090702949 165:0.0022675737 166:0.0068027209 167:0.0022675737 168:0.0022675737 169:0.0045351475 170:0.0045351475 171:0.0022675737 172:0.0045351475 173:0.0045351475 174:0.0022675737 175:0.0068027209 177:0.0022675737 180:0.0022675737 183:0.0045351475 185:0.0022675737 188:0.0045351475 198:0.0022675737 201:0.0022675737 202:0.0022675737 224:0.0022675737 
100000 0:0.53514743 1:0.063492067 2:0.01814059 3:0.013605442 4:0.0045351475 5:0.0068027209 8:0.0022675737 12:0.0022675737 13:0.0022675737 14:0.0045351475 15:0.0022675737 21:0.0022675737 23:0.0022675737 27:0.0022675737 30:0.0022675737 33:0.0022675737 34:0.0045351475 36:0.0022675737 38:0.0022675737 44:0.0022675737 46:0.0022675737 49:0.0022675737 50:0.0022675737 52:0.0022675737 56:0.0022675737 57:0.0022675737 58:0.0022675737 64:0.0022675737 67:0.0022675737 71:0.0022675737 72:0.0045351475 75:0.0022675737 79:0.0022675737 83:0.0022675737 84:0.0022675737 88:0.0022675737 91:0.0022675737 92:0.0022675737 94:0.0022675737 95:0.0022675737 99:0.0022675737 102:0.0045351475 107:0.0090702949 108:0.0022675737 111:0.0022675737 112:0.0045351475 114:0.0022675737 115:0.0022675737 117:0.0022675737 118:0.0045351475 119:0.0022675737 120:0.0022675737 121:0.0022675737 124:0.0045351475 125:0.0022675737 126:0.0068027209 127:0.0022675737 129:0.0068027209 130:0.0022675737 133:0.0068027209 134:0.0022675737 135:0.0022675737 136:0.0068027209 137:0.0045351475 139:0.0068027209 140:0.0068027209 142:0.0090702949 145:0.0022675737 147:0.0022675737 148:0.0022675737 150:0.0045351475 151:0.0045351475 152:0.0022675737 153:0.0022675737 154:0.0068027209 155:0.0045351475 156:0.0068027209 157:0.0022675737 158:0.0045351475 159:0.011337869 160:0.0068027209 161:0.0045351475 162:0.0022675737 163:0.0068027209 164:0.0090702949 165:0.0045351475 166:0.0090702949 167:0.0022675737 168:0.0022675737 169:0.0045351475 170:0.0045351475 171:0.0022675737 172:0.0045351475 173:0.0045351475 174:0.0045351475 175:0.0068027209 177:0.0022675737 180:0.0022675737 183:0.0045351475 185:0.0022675737 188:0.0045351475 198:0.0022675737 201:0.0022675737 202:0.0022675737 224:0.0022675737 
70064.01730319198 0:0.48979592 1:0.058956917 2:0.0090702949 3:0.013605442 4:0.0068027209 5:0.0068027209 8:0.0022675737 14:0.0045351475 15:0.0022675737 21:0.0022675737 23:0.0045351475 27:0.0022675737 30:0.0022675737 33:0.0022675737 34:0.0045351475 36:0.0022675737 38:0.0022675737 44:0.0022675737 46:0.0022675737 49:0.0022675737 50:0.0022675737 52:0.0022675737 57:0.0022675737 58:0.0022675737 64:0.0022675737 67:0.0022675737 71:0.0022675737 72:0.0045351475 74:0.0022675737 75:0.0022675737 79:0.0022675737 83:0.0022675737 84:0.0022675737 88:0.0022675737 91:0.0022675737 92:0.0022675737 94:0.0022675737 95:0.0022675737 97:0.0022675737 99:0.0022675737 102:0.0045351475 107:0.0090702949 108:0.0022675737 111:0.0022675737 112:0.0045351475 114:0.0022675737 115:0.0022675737 116:0.0022675737 117:0.0022675737 118:0.0045351475 119:0.0022675737 120:0.0022675737 121:0.0022675737 122:0.0045351475 124:0.0045351475 125:0.0045351475 126:0.0068027209 127:0.0045351475 129:0.0090702949 130:0.0022675737 131:0.0022675737 133:0.0090702949 134:0.0045351475 135:0.0022675737 136:0.0068027209 137:0.0045351475 138:0.0022675737 139:0.0090702949 140:0.0068027209 142:0.0090702949 144:0.0022675737 145:0.0022675737 147:0.0090702949 148:0.0068027209 150:0.0090702949 151:0.0045351475 152:0.0045351475 153:0.0022675737 154:0.0068027209 155:0.0045351475 156:0.0068027209 157:0.0045351475 158:0.0045351475 159:0.011337869 160:0.0068027209 161:0.0045351475 162:0.0068027209 163:0.0090702949 164:0.0090702949 165:0.0045351475 166:0.0090702949 167:0.0022675737 168:0.0022675737 169:0.0045351475 170:0.0045351475 171:0.0022675737 172:0.0045351475 173:0.0045351475 174:0.0045351475 175:0.0090702949 177:0.0022675737 180:0.0022675737 183:0.0045351475 185:0.0022675737 188:0.0045351475 198:0.0022675737 201:0.0022675737 202:0.0022675737 224:0.0022675737 
100000 0:0.51473922 1:0.065759636 2:0.034013607 3:0.0022675737 4:0.0022675737 5:0.0022675737 6:0.0045351475 8:0.0022675737 9:0.0022675737 14:0.0022675737 16:0.0022675737 19:0.0022675737 20:0.0022675737 24:0.0022675737 28:0.0022675737 33:0.0022675737 34:0.0022675737 35:0.0022675737 43:0.0045351475 51:0.0022675737 76:0.0022675737 84:0.0022675737 92:0.0022675737 93:0.0022675737 95:0.0022675737 97:0.0022675737 104:0.0022675737 106:0.0022675737 112:0.0022675737 130:0.0022675737 136:0.0045351475 138:0.0022675737 140:0.0022675737 143:0.0022675737 145:0.0022675737 152:0.0022675737 153:0.0022675737 154:0.0022675737 155:0.0022675737 156:0.0022675737 157:0.0022675737 159:0.0045351475 160:0.0022675737 161:0.0022675737 162:0.0022675737 164:0.0045351475 165:0.0022675737 166:0.0045351475 167:0.0090702949 168:0.0045351475 170:0.0022675737 171:0.0022675737 172:0.0022675737 173:0.0022675737 175:0.0045351475 176:0.0022675737 177:0.0022675737 178:0.0045351475 179:0.0022675737 181:0.0045351475 182:0.0045351475 183:0.0045351475 184:0.0022675737 185:0.0022675737 186:0.0022675737 187:0.0022675737 188:0.0022675737 189:0.0022675737 190:0.0022675737 191:0.0068027209 192:0.0068027209 193:0.0022675737 195:0.0045351475 196:0.0022675737 198:0.0045351475 199:0.0045351475 201:0.0068027209 202:0.0045351475 203:0.0068027209 204:0.0090702949 205:0.011337869 206:0.0045351475 207:0.0022675737 208:0.013605442 209:0.0045351475 210:0.0022675737 211:0.011337869 212:0.0068027209 213:0.0022675737 214:0.011337869 215:0.0090702949 216:0.0022675737 217:0.0068027209 218:0.0045351475 220:0.0045351475 221:0.0045351475 222:0.0045351475 223:0.0090702949 224:0.0045351475 225:0.0045351475 226:0.0022675737 228:0.0045351475 229:0.0045351475 232:0.0022675737 240:0.0022675737 244:0.0022675737 
100000 0:0.56235826 1:0.065759636 2:0.034013607 3:0.0022675737 4:0.0022675737 5:0.0022675737 6:0.0045351475 8:0.0022675737 9:0.0022675737 14:0.0022675737 16:0.0022675737 19:0.0022675737 20:0.0022675737 24:0.0022675737 28:0.0022675737 33:0.0022675737 34:0.0022675737 35:0.0022675737 43:0.0045351475 51:0.0022675737 76:0.0022675737 84:0.0022675737 92:0.0022675737 93:0.0022675737 95:0.0022675737 97:0.0022675737 104:0.0022675737 106:0.0022675737 112:0.0022675737 130:0.0022675737 136:0.0045351475 140:0.0022675737 143:0.0022675737 145:0.0022675737 152:0.0022675737 153:0.0022675737 154:0.0022675737 155:0.0022675737 156:0.0022675737 157:0.0022675737 159:0.0022675737 160:0.0022675737 161:0.0022675737 162:0.0022675737 164:0.0045351475 165:0.0022675737 166:0.0045351475 167:0.0090702949 168:0.0045351475 170:0.0022675737 172:0.0022675737 173:0.0022675737 177:0.0022675737 178:0.0022675737 179:0.0022675737 182:0.0045351475 183:0.0045351475 184:0.0022675737 185:0.0022675737 186:0.0022675737 187:0.0022675737 189:0.0022675737 190:0.0022675737 191:0.0068027209 193:0.0022675737 196:0.0022675737 198:0.0045351475 199:0.0045351475 201:0.0022675737 202:0.0045351475 203:0.0068027209 204:0.0090702949 205:0.0068027209 206:0.0045351475 207:0.0022675737 208:0.013605442 209:0.0022675737 210:0.0022675737 211:0.011337869 212:0.0068027209 213:0.0022675737 214:0.011337869 215:0.0068027209 216:0.0022675737 217:0.0068027209 218:0.0045351475 220:0.0045351475 221:0.0045351475 222:0.0045351475 223:0.0090702949 224:0.0045351475 225:0.0045351475 226:0.0022675737 228:0.0045351475 229:0.0045351475 232:0.0022675737 240:0.0022675737 244:0.0022675737 
100000 0:0.58049887 1:0.065759636 2:0.03628118 3:0.0022675737 4:0.0022675737 5:0.0022675737 6:0.0045351475 8:0.0022675737 9:0.0022675737 14:0.0022675737 16:0.0022675737 19:0.0022675737 24:0.0022675737 28:0.0022675737 33:0.0022675737 34:0.0022675737 35:0.0022675737 43:0.0045351475 51:0.0022675737 52:0.0022675737 76:0.0022675737 92:0.0022675737 93:0.0022675737 95:0.0022675737 97:0.0022675737 104:0.0022675737 106:0.0022675737 112:0.0022675737 130:0.0022675737 136:0.0045351475 139:0.0022675737 140:0.0022675737 142:0.0022675737 143:0.0022675737 145:0.0022675737 152:0.0022675737 153:0.0022675737 154:0.0022675737 155:0.0022675737 156:0.0022675737 157:0.0022675737 158:0.0068027209 160:0.0022675737 161:0.0022675737 162:0.0045351475 166:0.0045351475 167:0.0068027209 168:0.0045351475 170:0.0022675737 172:0.0022675737 173:0.0022675737 174:0.0022675737 175:0.0022675737 177:0.0022675737 179:0.0022675737 182:0.0045351475 183:0.0022675737 185:0.0022675737 186:0.0022675737 187:0.0022675737 190:0.0022675737 191:0.0022675737 196:0.0022675737 198:0.0045351475 199:0.0022675737 201:0.0022675737 202:0.0045351475 203:0.0068027209 204:0.0090702949 205:0.0068027209 206:0.0022675737 207:0.0022675737 208:0.013605442 209:0.0022675737 210:0.0022675737 211:0.0090702949 212:0.0068027209 213:0.0022675737 214:0.013605442 215:0.0068027209 216:0.0022675737 217:0.0068027209 218:0.0022675737 220:0.0022675737 221:0.0045351475 222:0.0045351475 223:0.0090702949 224:0.0045351475 225:0.0045351475 226:0.0022675737 228:0.0045351475 229:0.0045351475 232:0.0022675737 240:0.0022675737 244:0.0022675737 
100000 0:0.62811792 1:0.065759636 2:0.03628118 3:0.0022675737 4:0.0022675737 6:0.0045351475 8:0.0022675737 9:0.0022675737 14:0.0022675737 16:0.0022675737 19:0.0022675737 24:0.0022675737 28:0.0022675737 33:0.0022675737 34:0.0022675737 35:0.0022675737 43:0.0022675737 51:0.0022675737 52:0.0022675737 76:0.0022675737 92:0.0022675737 93:0.0022675737 95:0.0022675737 97:0.0022675737 104:0.0022675737 106:0.0022675737 112:0.0022675737 136:0.0045351475 139:0.0022675737 140:0.0022675737 142:0.0022675737 143:0.0022675737 145:0.0022675737 152:0.0022675737 153:0.0022675737 154:0.0022675737 156:0.0022675737 157:0.0022675737 158:0.0045351475 162:0.0045351475 166:0.0045351475 167:0.0045351475 168:0.0045351475 170:0.0022675737 172:0.0022675737 174:0.0022675737 175:0.0022675737 177:0.0022675737 179:0.0022675737 182:0.0045351475 183:0.0022675737 186:0.0022675737 187:0.0022675737 190:0.0022675737 191:0.0022675737 198:0.0022675737 201:0.0022675737 202:0.0045351475 203:0.0045351475 204:0.0045351475 205:0.0068027209 206:0.0022675737 207:0.0022675737 208:0.013605442 209:0.0022675737 211:0.0090702949 212:0.0045351475 213:0.0022675737 214:0.013605442 215:0.0068027209 216:0.0022675737 217:0.0068027209 218:0.0022675737 220:0.0022675737 221:0.0045351475 222:0.0022675737 223:0.0090702949 224:0.0022675737 225:0.0045351475 228:0.0045351475 229:0.0045351475 232:0.0022675737 240:0.0022675737 244:0.0022675737 
100000 0:0.67573696 1:0.06122449 2:0.03628118 3:0.0022675737 4:0.0022675737 6:0.0045351475 8:0.0022675737 9:0.0022675737 14:0.0022675737 19:0.0022675737 24:0.0022675737 28:0.0022675737 33:0.0022675737 34:0.0022675737 35:0.0022675737 43:0.0022675737 51:0.0022675737 52:0.0022675737 76:0.0022675737 93:0.0022675737 95:0.0022675737 97:0.0022675737 104:0.0022675737 106:0.0022675737 112:0.0022675737 136:0.0045351475 139:0.0022675737 140:0.0022675737 143:0.0022675737 152:0.0022675737 153:0.0022675737 156:0.0022675737 157:0.0022675737 158:0.0045351475 162:0.0045351475 166:0.0022675737 167:0.0045351475 168:0.0045351475 172:0.0022675737 174:0.0022675737 175:0.0022675737 177:0.0022675737 179:0.0022675737 182:0.0045351475 183:0.0022675737 186:0.0022675737 191:0.0022675737 198:0.0022675737 201:0.0022675737 202:0.0022675737 203:0.0045351475 204:0.0022675737 205:0.0068027209 206:0.0022675737 207:0.0022675737 208:0.0090702949 209:0.0022675737 211:0.0068027209 212:0.0022675737 213:0.0022675737 214:0.013605442 215:0.0045351475 216:0.0022675737 217:0.0068027209 218:0.0022675737 220:0.0022675737 221:0.0045351475 222:0.0022675737 223:0.0068027209 224:0.0022675737 225:0.0045351475 228:0.0045351475 232:0.0022675737 240:0.0022675737 244:0.0022675737 
100000 0:0.72335601 1:0.056689344 2:0.031746034 3:0.0022675737 4:0.0022675737 6:0.0045351475 8:0.0022675737 9:0.0022675737 14:0.0022675737 19:0.0022675737 24:0.0022675737 28:0.0022675737 34:0.0022675737 35:0.0022675737 43:0.0022675737 51:0.0022675737 52:0.0022675737 76:0.0022675737 93:0.0022675737 95:0.0022675737 97:0.0022675737 104:0.0022675737 106:0.0022675737 136:0.0045351475 139:0.0022675737 140:0.0022675737 143:0.0022675737 153:0.0022675737 157:0.0022675737 158:0.0022675737 162:0.0045351475 167:0.0022675737 168:0.0045351475 172:0.0022675737 174:0.0022675737 175:0.0022675737 177:0.0022675737 179:0.0022675737 182:0.0022675737 183:0.0022675737 186:0.0022675737 191:0.0022675737 201:0.0022675737 203:0.0045351475 204:0.0022675737 205:0.0068027209 208:0.0068027209 209:0.0022675737 211:0.0068027209 212:0.0022675737 213:0.0022675737 214:0.013605442 215:0.0045351475 217:0.0022675737 218:0.0022675737 220:0.0022675737 221:0.0045351475 223:0.0068027209 224:0.0022675737 225:0.0045351475 228:0.0045351475 232:0.0022675737 240:0.0022675737 244:0.0022675737 
100000 0:0.7505669 1:0.052154195 2:0.024943311 3:0.0022675737 4:0.0022675737 6:0.0045351475 9:0.0022675737 11:0.0022675737 14:0.0022675737 19:0.0022675737 24:0.0022675737 28:0.0022675737 34:0.0022675737 35:0.0022675737 43:0.0022675737 52:0.0022675737 76:0.0022675737 93:0.0022675737 95:0.0022675737 97:0.0022675737 104:0.0022675737 106:0.0022675737 118:0.0022675737 136:0.0045351475 139:0.0022675737 149:0.0022675737 152:0.0022675737 157:0.0022675737 158:0.0022675737 162:0.0022675737 168:0.0045351475 170:0.0022675737 172:0.0022675737 174:0.0022675737 175:0.0022675737 177:0.0022675737 178:0.0022675737 179:0.0022675737 182:0.0022675737 183:0.0022675737 186:0.0022675737 191:0.0022675737 199:0.0022675737 203:0.0045351475 204:0.0022675737 205:0.0045351475 208:0.0068027209 209:0.0022675737 211:0.0022675737 212:0.0022675737 214:0.015873017 215:0.0045351475 217:0.0022675737 220:0.0022675737 221:0.0045351475 223:0.0045351475 225:0.0045351475 228:0.0045351475 232:0.0022675737 240:0.0022675737 244:0.0022675737 
100000 0:0.55782312 1:0.052154195 2:0.01814059 3:0.0045351475 5:0.0022675737 6:0.0022675737 8:0.0022675737 10:0.0022675737 11:0.0045351475 13:0.0022675737 16:0.0045351475 17:0.0022675737 18:0.0022675737 20:0.0022675737 21:0.0022675737 22:0.0022675737 27:0.0022675737 42:0.0022675737 53:0.0022675737 56:0.0022675737 61:0.0022675737 67:0.0022675737 79:0.0022675737 102:0.0022675737 105:0.0022675737 106:0.0022675737 107:0.0022675737 109:0.0045351475 112:0.0022675737 115:0.0022675737 117:0.0068027209 118:0.0045351475 120:0.0045351475 121:0.0068027209 122:0.0022675737 123:0.0022675737 124:0.0022675737 125:0.0022675737 126:0.0022675737 127:0.0045351475 128:0.011337869 129:0.0022675737 130:0.011337869 131:0.011337869 132:0.011337869 133:0.0068027209 134:0.0068027209 135:0.011337869 136:0.0045351475 137:0.0022675737 138:0.0068027209 139:0.0045351475 140:0.0022675737 142:0.0068027209 143:0.0022675737 144:0.0022675737 145:0.0068027209 146:0.0045351475 147:0.0090702949 148:0.0045351475 151:0.0090702949 152:0.0045351475 153:0.0068027209 154:0.0068027209 155:0.0090702949 156:0.020408163 157:0.0045351475 158:0.0045351475 159:0.0045351475 161:0.0068027209 162:0.0022675737 163:0.0022675737 164:0.0045351475 165:0.0022675737 166:0.0068027209 168:0.0022675737 169:0.0068027209 171:0.0022675737 172:0.0022675737 173:0.0022675737 174:0.0022675737 175:0.0045351475 178:0.0022675737 179:0.0022675737 180:0.0022675737 185:0.0022675737 186:0.0022675737 188:0.0045351475 
100000 0:0.55782312 1:0.054421768 2:0.01814059 3:0.0045351475 5:0.0022675737 6:0.0022675737 8:0.0022675737 11:0.0045351475 13:0.0022675737 16:0.0045351475 17:0.0022675737 18:0.0022675737 20:0.0022675737 21:0.0022675737 22:0.0022675737 27:0.0022675737 42:0.0022675737 43:0.0022675737 53:0.0022675737 56:0.0022675737 61:0.0022675737 67:0.0022675737 79:0.0022675737 102:0.0022675737 105:0.0022675737 106:0.0022675737 107:0.0022675737 109:0.0045351475 112:0.0022675737 115:0.0022675737 117:0.0068027209 118:0.0022675737 120:0.0045351475 121:0.0068027209 122:0.0022675737 123:0.0022675737 124:0.0022675737 125:0.0022675737 126:0.0022675737 127:0.0045351475 128:0.011337869 129:0.0022675737 130:0.0090702949 131:0.013605442 132:0.011337869 133:0.0068027209 134:0.0068027209 135:0.011337869 136:0.0068027209 138:0.0068027209 139:0.0022675737 140:0.0022675737 142:0.0090702949 143:0.0022675737 144:0.0022675737 145:0.0090702949 146:0.0045351475 147:0.0090702949 148:0.0045351475 151:0.0090702949 152:0.0045351475 153:0.0068027209 154:0.0068027209 155:0.0068027209 156:0.01814059 157:0.0068027209 158:0.0068027209 159:0.0022675737 161:0.0068027209 162:0.0022675737 163:0.0022675737 164:0.0045351475 165:0.0022675737 166:0.0068027209 168:0.0022675737 169:0.0068027209 171:0.0022675737 172:0.0022675737 173:0.0022675737 174:0.0022675737 175:0.0045351475 178:0.0022675737 179:0.0022675737 180:0.0022675737 185:0.0022675737 186:0.0022675737 188:0.0045351475 
46923.5117630191 0:0.51020408 1:0.056689344 2:0.01814059 3:0.0045351475 5:0.0022675737 6:0.0022675737 8:0.0022675737 11:0.0045351475 13:0.0022675737 16:0.0045351475 18:0.0022675737 20:0.0022675737 21:0.0022675737 22:0.0022675737 27:0.0022675737 39:0.0022675737 42:0.0022675737 43:0.0022675737 53:0.0022675737 56:0.0022675737 61:0.0022675737 67:0.0022675737 79:0.0022675737 102:0.0022675737 105:0.0022675737 106:0.0022675737 107:0.0022675737 109:0.0022675737 112:0.0022675737 115:0.0022675737 117:0.0068027209 118:0.0022675737 120:0.0045351475 121:0.0045351475 122:0.0022675737 123:0.0022675737 124:0.0022675737 125:0.0022675737 126:0.0045351475 127:0.0045351475 128:0.011337869 129:0.0022675737 130:0.0090702949 131:0.011337869 132:0.011337869 133:0.0068027209 134:0.0090702949 135:0.011337869 136:0.0068027209 138:0.0090702949 139:0.0022675737 140:0.0068027209 141:0.0045351475 142:0.0068027209 143:0.0045351475 144:0.0068027209 145:0.0090702949 146:0.0068027209 147:0.015873017 148:0.0045351475 151:0.0068027209 152:0.0090702949 153:0.0068027209 154:0.0090702949 155:0.0090702949 156:0.015873017 157:0.0090702949 158:0.0090702949 159:0.0045351475 161:0.0068027209 162:0.0045351475 163:0.0022675737 164:0.0068027209 165:0.0022675737 166:0.0068027209 168:0.0022675737 169:0.0068027209 170:0.0022675737 171:0.0022675737 172:0.0022675737 173:0.0022675737 174:0.0022675737 175:0.0045351475 176:0.0022675737 178:0.0022675737 179:0.0022675737 180:0.0022675737 184:0.0022675737 185:0.0022675737 186:0.0022675737 188:0.0045351475 
100000 0:0.46031746 1:0.063492067 2:0.020408163 3:0.0045351475 5:0.0022675737 6:0.0022675737 8:0.0022675737 11:0.0045351475 16:0.0045351475 18:0.0045351475 20:0.0022675737 22:0.0022675737 27:0.0022675737 29:0.0022675737 39:0.0022675737 42:0.0022675737 43:0.0022675737 53:0.0022675737 56:0.0022675737 61:0.0022675737 67:0.0022675737 79:0.0022675737 102:0.0022675737 105:0.0022675737 106:0.0022675737 107:0.0022675737 109:0.0022675737 114:0.0022675737 117:0.0045351475 118:0.0022675737 120:0.0022675737 121:0.0022675737 122:0.0022675737 124:0.0045351475 125:0.0022675737 126:0.0022675737 127:0.0045351475 128:0.0090702949 129:0.0022675737 130:0.0090702949 131:0.011337869 132:0.011337869 133:0.0045351475 134:0.0090702949 135:0.011337869 136:0.0068027209 138:0.0090702949 139:0.0045351475 140:0.0068027209 141:0.0022675737 142:0.011337869 143:0.0045351475 144:0.0090702949 145:0.011337869 146:0.0045351475 147:0.013605442 148:0.0090702949 149:0.0022675737 151:0.0045351475 152:0.0090702949 153:0.0068027209 154:0.011337869 155:0.011337869 156:0.013605442 157:0.011337869 158:0.0045351475 159:0.0068027209 161:0.0090702949 162:0.011337869 163:0.0045351475 164:0.0090702949 165:0.0068027209 166:0.0068027209 167:0.0022675737 168:0.0045351475 169:0.0090702949 170:0.0045351475 171:0.0022675737 172:0.0022675737 173:0.0068027209 174:0.0045351475 175:0.0045351475 176:0.0022675737 177:0.0045351475 178:0.0022675737 179:0.0022675737 180:0.0045351475 181:0.0022675737 184:0.0045351475 185:0.0022675737 186:0.0022675737 188:0.0045351475 
100000 0:0.6394558 1:0.058956917 2:0.022675738 3:0.0045351475 4:0.0068027209 5:0.0045351475 6:0.0022675737 7:0.0022675737 14:0.0045351475 16:0.0022675737 18:0.0022675737 26:0.0022675737 32:0.0022675737 38:0.0022675737 39:0.0022675737 43:0.0022675737 48:0.0022675737 50:0.0022675737 62:0.0022675737 72:0.0022675737 82:0.0022675737 88:0.0022675737 89:0.0022675737 105:0.0022675737 106:0.0022675737 123:0.0022675737 128:0.0022675737 134:0.0022675737 136:0.0022675737 145:0.0022675737 154:0.0022675737 162:0.0022675737 163:0.0045351475 169:0.0022675737 170:0.0022675737 172:0.0022675737 173:0.0022675737 174:0.0022675737 175:0.0045351475 176:0.0022675737 179:0.0022675737 181:0.0068027209 182:0.0068027209 183:0.0090702949 184:0.0045351475 186:0.011337869 187:0.0090702949 188:0.0090702949 189:0.0090702949 190:0.0022675737 191:0.0090702949 192:0.0090702949 193:0.0045351475 194:0.0068027209 195:0.013605442 197:0.0045351475 198:0.0022675737 199:0.0068027209 200:0.011337869 201:0.011337869 202:0.0068027209 203:0.0045351475 205:0.0022675737 207:0.0022675737 208:0.0045351475 216:0.0022675737 217:0.0045351475 219:0.0022675737 
100000 0:0.65532881 1:0.049886622 2:0.022675738 3:0.0022675737 4:0.0090702949 5:0.0045351475 6:0.0022675737 7:0.0022675737 14:0.0045351475 16:0.0022675737 18:0.0022675737 25:0.0022675737 26:0.0022675737 32:0.0022675737 39:0.0022675737 43:0.0022675737 48:0.0022675737 50:0.0022675737 62:0.0022675737 72:0.0022675737 82:0.0022675737 88:0.0022675737 89:0.0022675737 105:0.0022675737 106:0.0022675737 123:0.0022675737 128:0.0022675737 136:0.0022675737 140:0.0022675737 145:0.0022675737 154:0.0022675737 162:0.0022675737 163:0.0045351475 170:0.0022675737 176:0.0022675737 177:0.0022675737 181:0.0068027209 182:0.0068027209 183:0.0045351475 184:0.0068027209 185:0.0022675737 186:0.0090702949 187:0.011337869 188:0.0090702949 189:0.0090702949 190:0.0045351475 191:0.0068027209 192:0.0068027209 193:0.0045351475 194:0.0090702949 195:0.01814059 197:0.0045351475 198:0.0022675737 199:0.0068027209 200:0.013605442 201:0.011337869 202:0.0068027209 203:0.0045351475 205:0.0022675737 207:0.0022675737 208:0.0045351475 216:0.0022675737 217:0.0045351475 219:0.0022675737 
100000 0:0.69614512 1:0.047619049 2:0.020408163 3:0.0022675737 4:0.0090702949 5:0.0045351475 6:0.0022675737 7:0.0022675737 14:0.0045351475 16:0.0022675737 18:0.0022675737 25:0.0022675737 32:0.0022675737 39:0.0022675737 43:0.0022675737 48:0.0022675737 50:0.0022675737 62:0.0022675737 72:0.0022675737 82:0.0022675737 88:0.0022675737 89:0.0022675737 105:0.0022675737 123:0.0022675737 128:0.0022675737 136:0.0022675737 140:0.0022675737 145:0.0022675737 154:0.0022675737 162:0.0022675737 163:0.0045351475 170:0.0022675737 181:0.0022675737 182:0.0045351475 183:0.0045351475 184:0.0068027209 185:0.0022675737 186:0.0045351475 187:0.0090702949 188:0.0068027209 189:0.0068027209 190:0.0045351475 191:0.0068027209 192:0.0045351475 193:0.0045351475 194:0.0045351475 195:0.015873017 197:0.0045351475 198:0.0022675737 199:0.0068027209 200:0.013605442 201:0.011337869 202:0.0068027209 203:0.0045351475 205:0.0022675737 207:0.0022675737 208:0.0045351475 216:0.0022675737 217:0.0045351475 219:0.0022675737 
100000 0:0.70521545 1:0.043083902 2:0.022675738 3:0.0022675737 4:0.0090702949 5:0.0045351475 6:0.0022675737 7:0.0045351475 14:0.0022675737 16:0.0022675737 18:0.0022675737 25:0.0022675737 32:0.0022675737 39:0.0022675737 43:0.0022675737 48:0.0022675737 50:0.0022675737 62:0.0022675737 72:0.0022675737 82:0.0022675737 89:0.0022675737 105:0.0022675737 119:0.0022675737 123:0.0022675737 128:0.0022675737 136:0.0022675737 140:0.0022675737 145:0.0022675737 154:0.0022675737 162:0.0022675737 163:0.0045351475 181:0.0022675737 182:0.0045351475 183:0.0045351475 184:0.0090702949 185:0.0022675737 186:0.0090702949 187:0.0090702949 188:0.0045351475 189:0.0068027209 190:0.0068027209 191:0.0068027209 192:0.0068027209 193:0.0022675737 194:0.0045351475 195:0.011337869 197:0.0045351475 198:0.0022675737 199:0.0068027209 200:0.011337869 201:0.0090702949 202:0.0045351475 203:0.0045351475 205:0.0022675737 207:0.0022675737 208:0.0045351475 216:0.0022675737 217:0.0045351475 219:0.0022675737 
100000 0:0.74603176 1:0.038548753 2:0.020408163 3:0.0022675737 4:0.0090702949 5:0.0045351475 7:0.0045351475 14:0.0022675737 16:0.0022675737 18:0.0022675737 25:0.0022675737 32:0.0022675737 39:0.0022675737 43:0.0022675737 48:0.0022675737 50:0.0022675737 62:0.0022675737 82:0.0022675737 89:0.0022675737 105:0.0022675737 119:0.0022675737 123:0.0022675737 128:0.0022675737 136:0.0022675737 140:0.0022675737 145:0.0022675737 154:0.0022675737 163:0.0045351475 181:0.0022675737 182:0.0045351475 183:0.0022675737 184:0.0090702949 185:0.0022675737 186:0.0090702949 187:0.0090702949 188:0.0045351475 189:0.0068027209 190:0.0068027209 191:0.0068027209 192:0.0022675737 193:0.0022675737 194:0.0045351475 195:0.0068027209 198:0.0022675737 199:0.0068027209 200:0.0090702949 201:0.0090702949 202:0.0022675737 203:0.0045351475 207:0.0022675737 208:0.0022675737 216:0.0022675737 217:0.0022675737 219:0.0022675737 
100000 0:0.78684807 1:0.029478459 2:0.020408163 3:0.0022675737 4:0.0068027209 5:0.0045351475 7:0.0045351475 14:0.0022675737 16:0.0022675737 18:0.0022675737 25:0.0022675737 32:0.0022675737 39:0.0022675737 43:0.0022675737 50:0.0022675737 62:0.0022675737 82:0.0022675737 89:0.0022675737 105:0.0022675737 119:0.0022675737 123:0.0022675737 128:0.0022675737 136:0.0022675737 140:0.0022675737 145:0.0022675737 163:0.0045351475 181:0.0022675737 182:0.0022675737 183:0.0022675737 184:0.0090702949 186:0.0090702949 187:0.0090702949 188:0.0022675737 189:0.0068027209 190:0.0068027209 191:0.0045351475 192:0.0022675737 193:0.0022675737 194:0.0045351475 195:0.0045351475 199:0.0068027209 200:0.0045351475 201:0.0045351475 202:0.0022675737 203:0.0045351475 207:0.0022675737 216:0.0022675737 217:0.0022675737 219:0.0022675737 
100000 0:0.61904764 1:0.24489796 2:0.052154195 3:0.022675738 4:0.020408163 5:0.0090702949 6:0.013605442 7:0.0045351475 8:0.0045351475 19:0.0022675737 20:0.0022675737 30:0.0022675737 65:0.0022675737 
100000 0:0.57823128 1:0.25170067 2:0.058956917 3:0.029478459 4:0.020408163 5:0.011337869 6:0.015873017 7:0.0045351475 8:0.0068027209 9:0.0022675737 10:0.0022675737 18:0.0022675737 19:0.0045351475 20:0.0022675737 22:0.0022675737 23:0.0022675737 30:0.0022675737 65:0.0022675737 
100000 0:0.54421771 1:0.24716553 2:0.063492067 3:0.031746034 4:0.020408163 5:0.013605442 6:0.020408163 7:0.0090702949 8:0.0090702949 9:0.0022675737 10:0.0090702949 13:0.0022675737 17:0.0022675737 18:0.0045351475 19:0.0045351475 20:0.0022675737 22:0.0022675737 23:0.0022675737 25:0.0022675737 30:0.0045351475 65:0.0022675737 
100000 0:0.50793654 1:0.24489796 2:0.065759636 3:0.034013607 4:0.020408163 5:0.015873017 6:0.020408163 7:0.011337869 8:0.015873017 9:0.0022675737 10:0.0090702949 11:0.0045351475 12:0.0045351475 13:0.0045351475 16:0.0022675737 17:0.0022675737 18:0.0068027209 19:0.0045351475 20:0.0022675737 22:0.0022675737 23:0.0045351475 25:0.0022675737 30:0.0045351475 37:0.0022675737 65:0.0022675737 78:0.0022675737 
19810.23458172484 9:0.0022675737 10:0.0022675737 11:0.0045351475 12:0.0022675737 13:0.0022675737 14:0.0045351475 15:0.0045351475 16:0.0068027209 17:0.0090702949 18:0.0090702949 19:0.011337869 20:0.0045351475 21:0.0068027209 22:0.011337869 23:0.01814059 24:0.015873017 25:0.034013607 26:0.03628118 27:0.072562359 28:0.052154195 29:0.029478459 30:0.049886622 31:0.077097505 32:0.068027213 33:0.079365082 34:0.11564626 35:0.077097505 36:0.045351475 37:0.040816326 38:0.031746034 39:0.015873017 40:0.011337869 41:0.022675738 42:0.0068027209 43:0.0068027209 44:0.0022675737 45:0.0022675737 46:0.0022675737 47:0.0022675737 56:0.0022675737 
65859.80179463886 11:0.0022675737 13:0.0022675737 14:0.0045351475 15:0.0022675737 16:0.0045351475 17:0.0068027209 18:0.0068027209 19:0.0090702949 20:0.0022675737 21:0.0090702949 22:0.0090702949 23:0.01814059 24:0.01814059 25:0.031746034 26:0.043083902 27:0.065759636 28:0.047619049 29:0.027210884 30:0.06122449 31:0.086167805 32:0.063492067 33:0.083900228 34:0.11564626 35:0.074829936 36:0.045351475 37:0.040816326 38:0.031746034 39:0.01814059 40:0.011337869 41:0.024943311 42:0.0068027209 43:0.0068027209 44:0.0022675737 45:0.0045351475 46:0.0045351475 47:0.0022675737 56:0.0022675737 57:0.0022675737 
100000 0:0.57596374 1:0.058956917 2:0.031746034 3:0.0045351475 5:0.0068027209 8:0.0022675737 11:0.0022675737 12:0.0022675737 14:0.0045351475 23:0.0022675737 28:0.0022675737 30:0.0022675737 38:0.0022675737 42:0.0022675737 46:0.0022675737 48:0.0022675737 49:0.0022675737 55:0.0022675737 60:0.0022675737 63:0.0022675737 78:0.0022675737 97:0.0022675737 100:0.0022675737 106:0.0022675737 110:0.0022675737 127:0.0022675737 131:0.0045351475 142:0.0022675737 143:0.0022675737 156:0.0022675737 161:0.0022675737 177:0.0022675737 178:0.0022675737 180:0.0022675737 182:0.0022675737 183:0.0022675737 184:0.0045351475 185:0.0045351475 186:0.0045351475 187:0.0045351475 188:0.0068027209 189:0.0068027209 190:0.0068027209 191:0.0090702949 192:0.0068027209 193:0.0090702949 194:0.0068027209 195:0.0068027209 196:0.015873017 197:0.0045351475 198:0.0045351475 199:0.0068027209 200:0.0068027209 201:0.0045351475 203:0.0045351475 204:0.011337869 205:0.0045351475 206:0.0045351475 207:0.0090702949 208:0.0022675737 209:0.0045351475 210:0.0090702949 211:0.0022675737 212:0.0022675737 213:0.0045351475 215:0.0068027209 216:0.0045351475 217:0.0045351475 218:0.0022675737 219:0.0022675737 220:0.0068027209 221:0.0022675737 224:0.0045351475 225:0.0068027209 226:0.0068027209 227:0.0045351475 230:0.0022675737 231:0.0022675737 234:0.0022675737 235:0.0022675737 237:0.0022675737 238:0.0022675737 241:0.0022675737 
100000 0:0.62358278 1:0.058956917 2:0.031746034 3:0.0045351475 5:0.0068027209 8:0.0022675737 11:0.0022675737 12:0.0022675737 14:0.0045351475 23:0.0022675737 28:0.0022675737 30:0.0022675737 38:0.0022675737 42:0.0022675737 46:0.0022675737 48:0.0022675737 55:0.0022675737 60:0.0022675737 63:0.0022675737 78:0.0022675737 97:0.0022675737 100:0.0022675737 106:0.0022675737 110:0.0022675737 127:0.0022675737 131:0.0045351475 142:0.0022675737 156:0.0022675737 161:0.0022675737 177:0.0022675737 178:0.0022675737 180:0.0022675737 182:0.0022675737 183:0.0022675737 184:0.0045351475 185:0.0045351475 186:0.0045351475 187:0.0045351475 188:0.0045351475 189:0.0068027209 190:0.0068027209 191:0.0022675737 192:0.0068027209 193:0.0090702949 194:0.0022675737 195:0.0045351475 196:0.011337869 197:0.0045351475 198:0.0045351475 199:0.0045351475 200:0.0045351475 201:0.0022675737 203:0.0045351475 204:0.0090702949 205:0.0045351475 206:0.0045351475 207:0.0090702949 208:0.0022675737 209:0.0045351475 210:0.0090702949 212:0.0022675737 213:0.0022675737 215:0.0045351475 216:0.0022675737 217:0.0022675737 219:0.0022675737 220:0.0068027209 221:0.0022675737 224:0.0045351475 225:0.0068027209 226:0.0068027209 227:0.0045351475 230:0.0022675737 231:0.0022675737 234:0.0022675737 235:0.0022675737 237:0.0022675737 238:0.0022675737 241:0.0022675737 
100000 0:0.67120183 1:0.056689344 2:0.031746034 3:0.0045351475 5:0.0068027209 8:0.0022675737 11:0.0022675737 12:0.0022675737 14:0.0022675737 23:0.0022675737 28:0.0022675737 30:0.0022675737 38:0.0022675737 42:0.0022675737 46:0.0022675737 48:0.0022675737 55:0.0022675737 60:0.0022675737 63:0.0022675737 97:0.0022675737 100:0.0022675737 106:0.0022675737 110:0.0022675737 127:0.0022675737 131:0.0045351475 142:0.0022675737 156:0.0022675737 177:0.0022675737 178:0.0022675737 180:0.0022675737 182:0.0022675737 183:0.0022675737 184:0.0045351475 185:0.0045351475 186:0.0045351475 187:0.0022675737 188:0.0045351475 189:0.0068027209 190:0.0022675737 191:0.0022675737 193:0.0090702949 195:0.0045351475 196:0.0090702949 197:0.0045351475 198:0.0022675737 199:0.0045351475 200:0.0045351475 201:0.0022675737 203:0.0022675737 204:0.0068027209 205:0.0022675737 206:0.0045351475 207:0.0090702949 208:0.0022675737 209:0.0045351475 210:0.0068027209 212:0.0022675737 213:0.0022675737 215:0.0022675737 216:0.0022675737 217:0.0022675737 219:0.0022675737 220:0.0068027209 221:0.0022675737 224:0.0045351475 225:0.0045351475 226:0.0045351475 227:0.0022675737 230:0.0022675737 231:0.0022675737 234:0.0022675737 235:0.0022675737 237:0.0022675737 238:0.0022675737 241:0.0022675737 
100000 0:0.71882087 1:0.052154195 2:0.029478459 3:0.0045351475 5:0.0068027209 8:0.0022675737 11:0.0022675737 12:0.0022675737 14:0.0022675737 23:0.0022675737 28:0.0022675737 38:0.0022675737 42:0.0022675737 46:0.0022675737 48:0.0022675737 55:0.0022675737 60:0.0022675737 63:0.0022675737 97:0.0022675737 100:0.0022675737 110:0.0022675737 127:0.0022675737 131:0.0045351475 142:0.0022675737 156:0.0022675737 178:0.0022675737 180:0.0022675737 182:0.0022675737 183:0.0022675737 184:0.0045351475 185:0.0045351475 186:0.0022675737 187:0.0022675737 188:0.0045351475 191:0.0022675737 193:0.0068027209 195:0.0022675737 196:0.0090702949 197:0.0022675737 198:0.0022675737 199:0.0045351475 200:0.0022675737 201:0.0022675737 203:0.0022675737 204:0.0045351475 205:0.0022675737 206:0.0022675737 207:0.0068027209 208:0.0022675737 209:0.0045351475 210:0.0068027209 212:0.0022675737 213:0.0022675737 215:0.0022675737 216:0.0022675737 217:0.0022675737 219:0.0022675737 220:0.0068027209 221:0.0022675737 224:0.0045351475 225:0.0022675737 226:0.0022675737 230:0.0022675737 231:0.0022675737 234:0.0022675737 235:0.0022675737 237:0.0022675737 238:0.0022675737 241:0.0022675737 
100000 0:1 
100000 0:1 
100000 0:0.99546486 1:0.0045351475 
100000 0:0.99092972 1:0.0068027209 2:0.0022675737 
100000 0:0.98639458 1:0.011337869 2:0.0022675737 
100000 0:0.99092972 1:0.0090702949 
100000 0:0.98185945 1:0.011337869 2:0.0068027209 
100000 0:0.96825397 1:0.015873017 2:0.011337869 3:0.0022675737 4:0.0022675737 
100000 0:0.95011342 1:0.022675738 2:0.011337869 3:0.0045351475 4:0.0022675737 6:0.0022675737 19:0.0022675737 33:0.0022675737 64:0.0022675737 
100000 0:0.95011342 1:0.0090702949 2:0.011337869 3:0.0068027209 4:0.0045351475 6:0.0022675737 13:0.0022675737 19:0.0045351475 24:0.0022675737 26:0.0022675737 33:0.0022675737 64:0.0022675737 
100000 0:0.93650794 1:0.0090702949 2:0.013605442 3:0.0068027209 4:0.0045351475 6:0.0022675737 7:0.0022675737 8:0.0022675737 13:0.0022675737 15:0.0022675737 19:0.0068027209 24:0.0022675737 26:0.0045351475 33:0.0022675737 64:0.0022675737 
100000 0:0.92290252 1:0.011337869 2:0.015873017 3:0.0068027209 4:0.0045351475 6:0.0022675737 7:0.0068027209 8:0.0022675737 12:0.0022675737 13:0.0045351475 15:0.0022675737 19:0.0068027209 24:0.0022675737 26:0.0045351475 33:0.0022675737 64:0.0022675737 
100000 0:0.92063493 1:0.011337869 2:0.015873017 3:0.0045351475 4:0.0045351475 6:0.0022675737 7:0.0068027209 8:0.0022675737 9:0.0045351475 12:0.0022675737 13:0.0045351475 15:0.0022675737 19:0.0068027209 24:0.0022675737 26:0.0045351475 33:0.0022675737 64:0.0022675737 
100000 0:0.90929705 1:0.011337869 2:0.01814059 3:0.0045351475 4:0.0045351475 5:0.0022675737 6:0.0022675737 7:0.013605442 8:0.0022675737 9:0.0045351475 12:0.0022675737 13:0.0045351475 15:0.0022675737 19:0.0068027209 24:0.0022675737 26:0.0045351475 33:0.0022675737 64:0.0022675737 
100000 0:0.87755102 1:0.029478459 2:0.020408163 3:0.0045351475 4:0.0045351475 5:0.0045351475 6:0.0090702949 7:0.013605442 8:0.0022675737 9:0.0068027209 12:0.0022675737 13:0.0045351475 15:0.0022675737 19:0.0068027209 24:0.0022675737 26:0.0045351475 33:0.0022675737 64:0.0022675737 
100000 0:0.861678 1:0.043083902 2:0.027210884 3:0.0045351475 4:0.0045351475 5:0.0045351475 6:0.0090702949 7:0.0090702949 8:0.0045351475 9:0.0090702949 13:0.0022675737 19:0.0068027209 24:0.0022675737 26:0.0045351475 29:0.0022675737 33:0.0022675737 64:0.0022675737 
100000 0:0.83673471 1:0.054421768 2:0.027210884 3:0.0090702949 4:0.0068027209 5:0.0090702949 6:0.011337869 7:0.0090702949 8:0.0045351475 9:0.0090702949 13:0.0022675737 19:0.0068027209 24:0.0022675737 26:0.0045351475 29:0.0022675737 33:0.0022675737 64:0.0022675737 
100000 0:0.80498868 1:0.068027213 2:0.027210884 3:0.013605442 4:0.0090702949 5:0.0090702949 6:0.011337869 7:0.0090702949 8:0.0045351475 9:0.0090702949 10:0.0022675737 11:0.0022675737 13:0.0045351475 19:0.0068027209 24:0.0022675737 25:0.0045351475 26:0.0045351475 29:0.0022675737 33:0.0022675737 64:0.0022675737 
100000 0:0.77777779 1:0.077097505 2:0.029478459 3:0.013605442 4:0.0090702949 5:0.011337869 6:0.011337869 7:0.0090702949 8:0.0045351475 9:0.013605442 10:0.0022675737 11:0.0045351475 13:0.0068027209 16:0.0022675737 19:0.0090702949 24:0.0022675737 25:0.0045351475 26:0.0045351475 29:0.0022675737 33:0.0022675737 64:0.0022675737 
100000 0:0.77777779 1:0.10204082 2:0.024943311 3:0.0090702949 4:0.0090702949 5:0.011337869 6:0.011337869 7:0.0068027209 8:0.0045351475 9:0.011337869 10:0.0045351475 11:0.0022675737 13:0.0045351475 16:0.0022675737 19:0.0045351475 25:0.0045351475 26:0.0022675737 29:0.0022675737 33:0.0022675737 64:0.0022675737 
100000 0:0.75963718 1:0.11337869 2:0.024943311 3:0.011337869 4:0.0090702949 5:0.011337869 6:0.011337869 7:0.0068027209 8:0.0045351475 9:0.011337869 10:0.0068027209 11:0.0022675737 13:0.0045351475 16:0.0022675737 19:0.0045351475 20:0.0022675737 25:0.0045351475 26:0.0022675737 29:0.0022675737 33:0.0022675737 64:0.0022675737 
100000 0:0.73469388 1:0.13151927 2:0.024943311 3:0.011337869 4:0.0090702949 5:0.011337869 6:0.011337869 7:0.0068027209 8:0.0068027209 9:0.011337869 10:0.0090702949 11:0.0022675737 13:0.0045351475 16:0.0022675737 19:0.0045351475 20:0.0022675737 25:0.0045351475 26:0.0022675737 28:0.0022675737 29:0.0022675737 33:0.0022675737 64:0.0022675737 
100000 0:0.71655327 1:0.17913832 2:0.024943311 3:0.0068027209 4:0.0068027209 5:0.011337869 6:0.011337869 7:0.0022675737 8:0.0045351475 9:0.0022675737 10:0.0068027209 11:0.0022675737 13:0.0068027209 16:0.0022675737 20:0.0022675737 25:0.0045351475 26:0.0022675737 28:0.0022675737 29:0.0022675737 33:0.0022675737 
100000 0:0.6802721 1:0.19727892 2:0.031746034 3:0.0090702949 4:0.0090702949 5:0.011337869 6:0.013605442 7:0.0022675737 8:0.0068027209 9:0.0022675737 10:0.0068027209 11:0.0022675737 13:0.0068027209 14:0.0022675737 16:0.0022675737 20:0.0022675737 25:0.0045351475 26:0.0022675737 28:0.0022675737 29:0.0022675737 33:0.0022675737 
100000 0:0.65759641 1:0.23129252 2:0.027210884 3:0.013605442 4:0.0090702949 5:0.0090702949 6:0.0090702949 8:0.0068027209 9:0.0022675737 10:0.0068027209 11:0.0022675737 13:0.0045351475 14:0.0022675737 16:0.0045351475 20:0.0022675737 25:0.0068027209 29:0.0022675737 37:0.0022675737 
100000 0:0.6371882 1:0.24716553 2:0.027210884 3:0.013605442 4:0.011337869 5:0.0090702949 6:0.011337869 8:0.0068027209 9:0.0022675737 10:0.0068027209 11:0.0022675737 13:0.0045351475 14:0.0022675737 16:0.0045351475 20:0.0022675737 25:0.0068027209 29:0.0022675737 37:0.0022675737 
100000 0:0.62131518 1:0.25850341 2:0.031746034 3:0.013605442 4:0.011337869 5:0.0090702949 6:0.011337869 8:0.0068027209 9:0.0022675737 10:0.0068027209 11:0.0022675737 13:0.0045351475 14:0.0022675737 16:0.0045351475 20:0.0022675737 25:0.0068027209 29:0.0022675737 37:0.0022675737 
100000 0:0.60770977 1:0.27437642 2:0.029478459 3:0.013605442 4:0.011337869 5:0.0090702949 6:0.011337869 8:0.0068027209 9:0.0022675737 10:0.0068027209 11:0.0022675737 13:0.0045351475 14:0.0022675737 16:0.0045351475 20:0.0022675737 25:0.0068027209 29:0.0022675737 37:0.0022675737 
100000 0:0.63492066 1:0.26530612 2:0.027210884 3:0.0090702949 4:0.0090702949 5:0.0090702949 6:0.011337869 8:0.0045351475 9:0.0022675737 10:0.0022675737 11:0.0022675737 13:0.0045351475 16:0.0045351475 20:0.0022675737 25:0.0068027209 29:0.0022675737 37:0.0022675737 
100000 0:0.6122449 1:0.28798187 2:0.027210884 3:0.0090702949 4:0.0090702949 5:0.0090702949 6:0.011337869 8:0.0045351475 9:0.0022675737 10:0.0022675737 11:0.0022675737 13:0.0045351475 16:0.0045351475 20:0.0022675737 25:0.0068027209 29:0.0022675737 37:0.0022675737 
100000 0:0.59410429 1:0.30612245 2:0.027210884 3:0.0090702949 4:0.0090702949 5:0.0090702949 6:0.011337869 8:0.0045351475 9:0.0022675737 10:0.0022675737 11:0.0022675737 13:0.0045351475 16:0.0045351475 20:0.0022675737 25:0.0068027209 29:0.0022675737 37:0.0022675737 
100000 0:0.58049887 1:0.31746033 2:0.029478459 3:0.0068027209 4:0.0090702949 5:0.0090702949 6:0.0090702949 8:0.0022675737 9:0.0045351475 10:0.0022675737 11:0.0022675737 13:0.0068027209 16:0.0045351475 20:0.0022675737 23:0.0022675737 25:0.0068027209 29:0.0022675737 37:0.0022675737 
100000 0:0.53287983 1:0.33333334 2:0.043083902 3:0.011337869 4:0.011337869 5:0.0090702949 6:0.0090702949 8:0.0022675737 9:0.0068027209 10:0.0045351475 11:0.0022675737 13:0.0068027209 16:0.0045351475 20:0.0022675737 23:0.0022675737 25:0.0068027209 29:0.0045351475 37:0.0022675737 41:0.0022675737 55:0.0022675737 
100000 0:0.48526078 1:0.34693879 2:0.045351475 3:0.020408163 4:0.013605442 5:0.011337869 6:0.015873017 8:0.0045351475 9:0.0068027209 10:0.0045351475 11:0.0022675737 12:0.0022675737 13:0.0068027209 16:0.0045351475 20:0.0022675737 23:0.0022675737 25:0.0068027209 26:0.0022675737 27:0.0022675737 29:0.0045351475 37:0.0022675737 41:0.0022675737 47:0.0022675737 55:0.0022675737 
100000 0:0.46258503 1:0.33786848 2:0.047619049 3:0.027210884 4:0.020408163 5:0.013605442 6:0.015873017 7:0.0068027209 8:0.0068027209 9:0.0068027209 10:0.0045351475 11:0.0022675737 12:0.0022675737 13:0.0068027209 16:0.0045351475 20:0.0022675737 23:0.0022675737 25:0.0068027209 26:0.0022675737 27:0.0022675737 29:0.0045351475 32:0.0022675737 37:0.0045351475 41:0.0022675737 47:0.0022675737 55:0.0022675737 
67544.41812930496 20:0.0045351475 22:0.0022675737 23:0.0022675737 24:0.0045351475 25:0.0068027209 26:0.013605442 27:0.034013607 28:0.020408163 29:0.024943311 30:0.03628118 31:0.01814059 32:0.040816326 33:0.031746034 34:0.031746034 35:0.034013607 36:0.034013607 37:0.031746034 38:0.047619049 39:0.043083902 40:0.054421768 41:0.047619049 42:0.022675738 43:0.029478459 44:0.029478459 45:0.020408163 46:0.031746034 47:0.038548753 48:0.024943311 49:0.024943311 50:0.027210884 51:0.022675738 52:0.015873017 53:0.01814059 54:0.024943311 55:0.022675738 56:0.011337869 57:0.0068027209 58:0.0045351475 59:0.011337869 60:0.0045351475 61:0.0090702949 62:0.0045351475 63:0.0022675737 64:0.0068027209 66:0.0022675737 69:0.0022675737 70:0.0022675737 71:0.0045351475 75:0.0022675737 80:0.0045351475 86:0.0022675737 
21205.41171240462 19:0.0045351475 20:0.0022675737 22:0.0068027209 23:0.013605442 24:0.022675738 25:0.022675738 26:0.045351475 27:0.052154195 28:0.03628118 29:0.040816326 30:0.068027213 31:0.034013607 32:0.049886622 33:0.068027213 34:0.045351475 35:0.058956917 36:0.056689344 37:0.034013607 38:0.040816326 39:0.03628118 40:0.040816326 41:0.020408163 42:0.029478459 43:0.013605442 44:0.015873017 45:0.0090702949 46:0.0068027209 47:0.013605442 48:0.013605442 49:0.0068027209 50:0.011337869 51:0.0045351475 52:0.0045351475 53:0.0045351475 54:0.0068027209 55:0.0090702949 56:0.0068027209 57:0.0068027209 58:0.0022675737 59:0.0090702949 60:0.0068027209 61:0.0090702949 62:0.0022675737 63:0.0022675737 64:0.0045351475 
65875.79252770882 0:0.58503401 1:0.052154195 2:0.031746034 3:0.0068027209 5:0.0022675737 9:0.0045351475 11:0.0068027209 17:0.0022675737 18:0.0022675737 24:0.0022675737 28:0.0022675737 29:0.0045351475 35:0.0022675737 40:0.0022675737 57:0.0022675737 62:0.0022675737 75:0.0022675737 79:0.0022675737 80:0.0022675737 96:0.0022675737 103:0.0022675737 114:0.0022675737 118:0.0022675737 122:0.0022675737 126:0.0022675737 129:0.0022675737 139:0.0022675737 153:0.0022675737 156:0.0022675737 161:0.0022675737 169:0.0022675737 172:0.0045351475 174:0.0022675737 175:0.0022675737 177:0.0068027209 178:0.0045351475 179:0.0090702949 180:0.0068027209 182:0.0045351475 183:0.0045351475 184:0.0045351475 185:0.0068027209 186:0.0045351475 187:0.0090702949 188:0.011337869 189:0.0022675737 190:0.0068027209 191:0.0022675737 192:0.0090702949 193:0.011337869 194:0.0090702949 195:0.0090702949 197:0.0068027209 198:0.0068027209 199:0.0068027209 200:0.0045351475 201:0.013605442 202:0.0045351475 203:0.015873017 204:0.0022675737 205:0.0090702949 207:0.0022675737 208:0.0045351475 209:0.0022675737 210:0.0045351475 211:0.0022675737 213:0.0045351475 214:0.0090702949 218:0.0022675737 220:0.0045351475 221:0.0022675737 222:0.0022675737 223:0.0022675737 225:0.0022675737 226:0.0022675737 229:0.0022675737 236:0.0022675737 
100000 0:0.63265306 1:0.052154195 2:0.027210884 3:0.0068027209 5:0.0022675737 9:0.0045351475 11:0.0068027209 17:0.0022675737 18:0.0022675737 24:0.0022675737 28:0.0022675737 29:0.0045351475 40:0.0022675737 57:0.0022675737 62:0.0022675737 75:0.0022675737 79:0.0022675737 80:0.0022675737 96:0.0022675737 103:0.0022675737 114:0.0022675737 118:0.0022675737 122:0.0022675737 126:0.0022675737 139:0.0022675737 153:0.0022675737 156:0.0022675737 161:0.0022675737 169:0.0022675737 172:0.0045351475 174:0.0022675737 177:0.0045351475 178:0.0022675737 179:0.0068027209 180:0.0068027209 182:0.0045351475 183:0.0045351475 184:0.0022675737 185:0.0068027209 186:0.0022675737 187:0.0045351475 188:0.0068027209 189:0.0022675737 190:0.0045351475 191:0.0022675737 192:0.0045351475 193:0.0068027209 194:0.0068027209 195:0.0068027209 197:0.0068027209 198:0.0068027209 199:0.0068027209 200:0.0045351475 201:0.013605442 202:0.0045351475 203:0.015873017 204:0.0022675737 205:0.0090702949 207:0.0022675737 208:0.0045351475 209:0.0022675737 210:0.0045351475 211:0.0022675737 213:0.0045351475 214:0.0090702949 218:0.0022675737 220:0.0045351475 221:0.0022675737 222:0.0022675737 223:0.0022675737 225:0.0022675737 226:0.0022675737 229:0.0022675737 236:0.0022675737 
100000 0:0.67800456 1:0.049886622 2:0.027210884 3:0.0045351475 5:0.0022675737 9:0.0045351475 11:0.0068027209 17:0.0022675737 24:0.0022675737 28:0.0022675737 29:0.0045351475 40:0.0022675737 57:0.0022675737 62:0.0022675737 75:0.0022675737 79:0.0022675737 80:0.0022675737 96:0.0022675737 114:0.0022675737 118:0.0022675737 122:0.0022675737 126:0.0022675737 139:0.0022675737 153:0.0022675737 156:0.0022675737 161:0.0022675737 172:0.0022675737 174:0.0022675737 177:0.0045351475 178:0.0022675737 179:0.0045351475 180:0.0045351475 182:0.0045351475 183:0.0045351475 184:0.0022675737 185:0.0068027209 187:0.0022675737 188:0.0068027209 189:0.0022675737 190:0.0022675737 192:0.0022675737 194:0.0068027209 195:0.0045351475 197:0.0068027209 198:0.0045351475 199:0.0068027209 200:0.0022675737 201:0.011337869 202:0.0045351475 203:0.015873017 204:0.0022675737 205:0.0090702949 207:0.0022675737 208:0.0045351475 209:0.0022675737 210:0.0045351475 211:0.0022675737 213:0.0045351475 214:0.0090702949 218:0.0022675737 220:0.0045351475 221:0.0022675737 222:0.0022675737 223:0.0022675737 225:0.0022675737 226:0.0022675737 229:0.0022675737 236:0.0022675737 
100000 0:0.59183675 1:0.24943312 2:0.03628118 3:0.015873017 4:0.011337869 5:0.015873017 6:0.01814059 7:0.0045351475 8:0.0090702949 9:0.0022675737 10:0.0068027209 11:0.0022675737 13:0.0068027209 14:0.0022675737 16:0.0045351475 20:0.0045351475 25:0.0068027209 26:0.0022675737 28:0.0022675737 29:0.0022675737 33:0.0022675737 37:0.0022675737 
100000 0:0.6371882 1:0.24716553 2:0.027210884 3:0.013605442 4:0.011337869 5:0.0090702949 6:0.011337869 8:0.0068027209 9:0.0022675737 10:0.0068027209 11:0.0022675737 13:0.0045351475 14:0.0022675737 16:0.0045351475 20:0.0022675737 25:0.0068027209 29:0.0022675737 37:0.0022675737 
100000 0:0.67800456 1:0.23129252 2:0.01814059 3:0.0090702949 4:0.0090702949 5:0.0090702949 6:0.011337869 8:0.0045351475 9:0.0022675737 10:0.0022675737 11:0.0022675737 13:0.0045351475 16:0.0045351475 20:0.0022675737 25:0.0068027209 29:0.0022675737 37:0.0022675737 
100000 0:0.72562361 1:0.19954649 2:0.013605442 3:0.0068027209 4:0.0068027209 5:0.0090702949 6:0.0068027209 8:0.0022675737 9:0.0022675737 10:0.0022675737 11:0.0022675737 13:0.0045351475 16:0.0045351475 20:0.0022675737 25:0.0068027209 29:0.0022675737 37:0.0022675737 
100000 0:0.74376416 1:0.18594104 2:0.013605442 3:0.0068027209 4:0.0068027209 5:0.0090702949 6:0.0068027209 8:0.0022675737 11:0.0022675737 13:0.0045351475 16:0.0045351475 20:0.0022675737 25:0.0068027209 29:0.0022675737 37:0.0022675737 
100000 0:0.78458053 1:0.16099773 2:0.011337869 3:0.0068027209 4:0.0068027209 5:0.0068027209 6:0.0045351475 8:0.0022675737 11:0.0022675737 13:0.0045351475 25:0.0045351475 29:0.0022675737 37:0.0022675737 
100000 0:0.80272108 1:0.14965987 2:0.011337869 3:0.0068027209 4:0.0045351475 5:0.0068027209 6:0.0045351475 8:0.0022675737 11:0.0022675737 13:0.0022675737 25:0.0022675737 29:0.0022675737 37:0.0022675737 
100000 0:0.82766443 1:0.138322 2:0.011337869 3:0.0022675737 4:0.0045351475 5:0.0068027209 6:0.0045351475 8:0.0022675737 29:0.0022675737 
100000 0:0.82766443 1:0.14058957 2:0.013605442 3:0.0022675737 4:0.0022675737 5:0.0045351475 6:0.0045351475 8:0.0022675737 29:0.0022675737 
100000 0:0.83219957 1:0.1292517 2:0.013605442 3:0.0045351475 4:0.0045351475 5:0.0045351475 6:0.0045351475 8:0.0045351475 29:0.0022675737 
100000 0:0.8639456 1:0.10204082 2:0.0090702949 3:0.0045351475 4:0.0022675737 5:0.0068027209 6:0.0045351475 8:0.0045351475 29:0.0022675737 
100000 0:0.85941046 1:0.10657597 2:0.0090702949 3:0.0045351475 4:0.0022675737 5:0.0068027209 6:0.0045351475 8:0.0045351475 29:0.0022675737 
100000 0:0.88435376 1:0.086167805 2:0.0090702949 4:0.0022675737 5:0.0068027209 6:0.0045351475 8:0.0045351475 29:0.0022675737 
100000 0:0.88662136 1:0.083900228 2:0.0090702949 4:0.0022675737 5:0.0068027209 6:0.0045351475 8:0.0045351475 29:0.0022675737 
100000 0:0.90249437 1:0.074829936 2:0.0068027209 4:0.0022675737 5:0.0045351475 6:0.0045351475 8:0.0022675737 29:0.0022675737 
100000 0:0.90702951 1:0.070294783 2:0.0068027209 4:0.0022675737 5:0.0045351475 6:0.0045351475 8:0.0022675737 29:0.0022675737 
100000 0:0.9319728 1:0.049886622 2:0.0045351475 5:0.0045351475 6:0.0045351475 8:0.0022675737 29:0.0022675737 
100000 0:0.94104308 1:0.045351475 2:0.0022675737 5:0.0045351475 6:0.0022675737 8:0.0022675737 29:0.0022675737 
100000 0:0.96371883 1:0.029478459 2:0.0022675737 5:0.0022675737 8:0.0022675737 
100000 0:0.97052157 1:0.029478459 
100000 0:0.97732425 1:0.022675738 
100000 0:0.99546486 1:0.0045351475 
100000 0:1 
100000 0:1 
100000 0:1 
100000 0:0.99546486 1:0.0045351475 
100000 0:0.99092972 1:0.0090702949 
100000 0:0.50566894 1:0.052154195 2:0.013605442 3:0.0045351475 5:0.0045351475 6:0.0022675737 7:0.0045351475 8:0.0022675737 10:0.0022675737 11:0.0068027209 13:0.0022675737 16:0.0045351475 17:0.0022675737 18:0.0022675737 20:0.0022675737 21:0.0022675737 22:0.0022675737 27:0.0022675737 67:0.0022675737 79:0.0022675737 102:0.0022675737 105:0.0022675737 106:0.0022675737 107:0.0022675737 109:0.0045351475 112:0.0022675737 115:0.0022675737 117:0.0068027209 118:0.0045351475 120:0.0068027209 121:0.0090702949 122:0.0022675737 123:0.0022675737 124:0.0022675737 126:0.0022675737 127:0.0022675737 128:0.0045351475 129:0.0022675737 130:0.011337869 131:0.011337869 132:0.011337869 133:0.0068027209 134:0.0045351475 135:0.011337869 136:0.0068027209 137:0.0022675737 138:0.0090702949 139:0.0045351475 140:0.0068027209 141:0.0022675737 142:0.0068027209 143:0.0068027209 144:0.0090702949 145:0.0068027209 146:0.0045351475 147:0.015873017 148:0.0022675737 151:0.0090702949 152:0.0068027209 153:0.0068027209 154:0.0090702949 155:0.0090702949 156:0.020408163 157:0.0045351475 158:0.0090702949 159:0.0045351475 161:0.0090702949 162:0.0068027209 163:0.0022675737 164:0.0090702949 165:0.0022675737 166:0.0022675737 167:0.0045351475 168:0.0045351475 169:0.0090702949 170:0.0068027209 171:0.0022675737 172:0.0045351475 174:0.0022675737 175:0.0022675737 179:0.0045351475 180:0.0068027209 184:0.0022675737 185:0.0045351475 186:0.0022675737 188:0.0022675737 189:0.0022675737 
100000 0:0.46031746 1:0.049886622 2:0.015873017 3:0.0045351475 5:0.0022675737 6:0.0022675737 7:0.0045351475 8:0.0022675737 10:0.0022675737 11:0.0068027209 13:0.0022675737 16:0.0045351475 17:0.0022675737 18:0.0022675737 20:0.0022675737 21:0.0022675737 22:0.0022675737 27:0.0022675737 61:0.0022675737 67:0.0022675737 79:0.0022675737 102:0.0022675737 105:0.0022675737 106:0.0022675737 107:0.0022675737 109:0.0045351475 112:0.0022675737 115:0.0022675737 117:0.0068027209 118:0.0045351475 120:0.0068027209 121:0.0068027209 122:0.0022675737 123:0.0022675737 124:0.0022675737 126:0.0022675737 127:0.0022675737 128:0.0045351475 129:0.0022675737 130:0.013605442 131:0.013605442 132:0.011337869 133:0.0068027209 134:0.0045351475 135:0.011337869 136:0.0068027209 137:0.0022675737 138:0.0090702949 139:0.0068027209 140:0.0068027209 141:0.0022675737 142:0.0068027209 143:0.0068027209 144:0.011337869 145:0.0090702949 146:0.0045351475 147:0.015873017 148:0.0045351475 151:0.0068027209 152:0.0068027209 153:0.0068027209 154:0.0090702949 155:0.011337869 156:0.020408163 157:0.0090702949 158:0.0090702949 159:0.0068027209 160:0.0022675737 161:0.011337869 162:0.0090702949 163:0.0045351475 164:0.011337869 165:0.0045351475 166:0.0022675737 167:0.0068027209 168:0.0045351475 169:0.0090702949 170:0.0068027209 171:0.0022675737 172:0.0022675737 173:0.0022675737 174:0.0022675737 175:0.0045351475 176:0.0022675737 177:0.0022675737 178:0.0045351475 179:0.0045351475 180:0.0068027209 184:0.0022675737 185:0.0022675737 186:0.0022675737 188:0.0045351475 189:0.0022675737 
100000 0:0.45578232 1:0.056689344 2:0.011337869 5:0.0022675737 12:0.0022675737 23:0.0022675737 32:0.0022675737 45:0.0022675737 57:0.0022675737 73:0.0022675737 78:0.0022675737 87:0.0022675737 98:0.0022675737 99:0.0045351475 108:0.0022675737 111:0.0022675737 112:0.0022675737 120:0.0022675737 121:0.0022675737 122:0.0022675737 123:0.0022675737 128:0.0022675737 133:0.0022675737 164:0.0022675737 179:0.0022675737 180:0.0022675737 181:0.0045351475 182:0.0022675737 183:0.0022675737 184:0.0045351475 185:0.0045351475 186:0.0045351475 187:0.0090702949 188:0.0090702949 189:0.0090702949 190:0.013605442 191:0.013605442 192:0.01814059 193:0.015873017 194:0.01814059 195:0.024943311 196:0.024943311 197:0.027210884 198:0.022675738 199:0.022675738 200:0.013605442 201:0.011337869 202:0.01814059 203:0.022675738 204:0.01814059 205:0.011337869 206:0.0045351475 207:0.022675738 208:0.0068027209 209:0.0045351475 210:0.0045351475 211:0.0068027209 215:0.0045351475 216:0.0022675737 217:0.0022675737 219:0.0090702949 220:0.0022675737 221:0.0022675737 228:0.0022675737 
100000 0:0.50793654 1:0.054421768 2:0.011337869 5:0.0022675737 12:0.0022675737 23:0.0022675737 32:0.0022675737 45:0.0022675737 57:0.0022675737 73:0.0022675737 78:0.0022675737 87:0.0022675737 98:0.0022675737 99:0.0045351475 108:0.0022675737 111:0.0022675737 112:0.0022675737 120:0.0022675737 121:0.0022675737 122:0.0022675737 128:0.0022675737 133:0.0022675737 147:0.0022675737 164:0.0022675737 179:0.0022675737 180:0.0022675737 181:0.0045351475 182:0.0022675737 183:0.0022675737 184:0.0022675737 185:0.0045351475 186:0.0022675737 187:0.0068027209 188:0.0090702949 189:0.0068027209 190:0.015873017 191:0.011337869 192:0.013605442 193:0.013605442 194:0.015873017 195:0.020408163 196:0.013605442 197:0.024943311 198:0.020408163 199:0.020408163 200:0.015873017 201:0.0090702949 202:0.011337869 203:0.020408163 204:0.01814059 205:0.011337869 206:0.0068027209 207:0.01814059 208:0.0068027209 209:0.0022675737 210:0.0045351475 211:0.0068027209 215:0.0045351475 216:0.0022675737 217:0.0022675737 219:0.0090702949 220:0.0022675737 221:0.0022675737 227:0.0022675737 228:0.0022675737 237:0.0022675737 
100000 0:0.56235826 1:0.047619049 2:0.013605442 5:0.0022675737 12:0.0022675737 23:0.0022675737 32:0.0022675737 45:0.0022675737 57:0.0022675737 73:0.0022675737 78:0.0022675737 87:0.0022675737 98:0.0022675737 99:0.0045351475 108:0.0022675737 111:0.0022675737 112:0.0022675737 121:0.0022675737 122:0.0022675737 128:0.0022675737 133:0.0022675737 137:0.0022675737 147:0.0022675737 164:0.0022675737 179:0.0022675737 180:0.0022675737 181:0.0045351475 182:0.0022675737 183:0.0022675737 184:0.0022675737 185:0.0022675737 187:0.0068027209 188:0.0068027209 189:0.0068027209 190:0.0090702949 191:0.0090702949 192:0.0090702949 193:0.013605442 194:0.013605442 195:0.01814059 196:0.0068027209 197:0.020408163 198:0.022675738 199:0.020408163 200:0.013605442 201:0.0045351475 202:0.011337869 203:0.01814059 204:0.013605442 205:0.011337869 206:0.0068027209 207:0.015873017 208:0.0068027209 210:0.0045351475 211:0.0068027209 215:0.0045351475 216:0.0022675737 217:0.0022675737 219:0.0068027209 220:0.0022675737 221:0.0022675737 227:0.0022675737 228:0.0022675737 233:0.0022675737 235:0.0022675737 237:0.0022675737 
