svm_type c_svc
kernel_type rbf
gamma 0.0039
nr_class 2
total_sv 1758
rho 15.4479
label 1 -1
nr_sv 875 883
SV
2230.050983086086 47:0.0045351475 54:0.0045351475 57:0.0022675737 58:0.0022675737 60:0.0022675737 63:0.0022675737 65:0.0022675737 66:0.0022675737 67:0.0045351475 68:0.0068027209 70:0.0068027209 71:0.0022675737 73:0.011337869 74:0.0045351475 75:0.011337869 76:0.0022675737 78:0.0045351475 79:0.0090702949 80:0.0022675737 82:0.011337869 83:0.011337869 85:0.011337869 86:0.011337869 87:0.0090702949 88:0.0068027209 89:0.0090702949 90:0.0090702949 91:0.0045351475 92:0.0090702949 93:0.0045351475 94:0.0045351475 95:0.0022675737 97:0.011337869 98:0.0090702949 99:0.011337869 101:0.0045351475 102:0.0068027209 103:0.0045351475 104:0.0045351475 105:0.0090702949 106:0.0090702949 107:0.0090702949 108:0.015873017 109:0.0090702949 110:0.013605442 111:0.0022675737 112:0.011337869 113:0.01814059 114:0.015873017 115:0.011337869 116:0.0090702949 117:0.0022675737 119:0.0068027209 120:0.013605442 121:0.0090702949 122:0.0090702949 123:0.011337869 124:0.0068027209 125:0.0045351475 126:0.0068027209 127:0.0045351475 128:0.0090702949 130:0.0045351475 131:0.0045351475 132:0.0068027209 133:0.0068027209 135:0.0022675737 137:0.0022675737 138:0.0022675737 140:0.0022675737 141:0.0068027209 142:0.0022675737 143:0.0022675737 144:0.0045351475 145:0.0022675737 147:0.0022675737 148:0.0068027209 149:0.0045351475 151:0.0022675737 152:0.0022675737 153:0.0022675737 154:0.0068027209 156:0.0045351475 157:0.0068027209 158:0.011337869 159:0.0090702949 160:0.011337869 161:0.0068027209 162:0.0068027209 163:0.0022675737 164:0.0045351475 165:0.0068027209 166:0.0022675737 167:0.0068027209 168:0.0068027209 169:0.015873017 170:0.0022675737 171:0.0068027209 172:0.0022675737 173:0.011337869 174:0.0045351475 175:0.0068027209 176:0.0090702949 177:0.0045351475 179:0.0045351475 180:0.011337869 181:0.0090702949 182:0.0090702949 183:0.0068027209 184:0.0045351475 185:0.0022675737 186:0.0022675737 187:0.0068027209 188:0.0022675737 189:0.0045351475 190:0.0090702949 191:0.0045351475 192:0.0090702949 193:0.0068027209 194:0.0068027209 195:0.0022675737 196:0.0068027209 198:0.0068027209 199:0.0090702949 200:0.0022675737 201:0.0022675737 202:0.0045351475 204:0.0022675737 205:0.0090702949 206:0.0090702949 207:0.0068027209 208:0.0090702949 209:0.0045351475 211:0.0022675737 212:0.0045351475 214:0.0090702949 216:0.0068027209 217:0.0068027209 218:0.0022675737 219:0.013605442 221:0.0045351475 222:0.0068027209 223:0.0068027209 224:0.0045351475 225:0.011337869 226:0.0045351475 227:0.011337869 228:0.01814059 229:0.0022675737 230:0.0045351475 231:0.0045351475 234:0.0022675737 235:0.0022675737 237:0.0045351475 238:0.0022675737 
100000 47:0.0045351475 54:0.0045351475 57:0.0022675737 58:0.0022675737 60:0.0022675737 63:0.0022675737 65:0.0022675737 66:0.0022675737 67:0.0045351475 68:0.0068027209 70:0.0068027209 71:0.0022675737 73:0.011337869 74:0.0068027209 75:0.011337869 76:0.0022675737 78:0.0045351475 79:0.0090702949 80:0.0022675737 82:0.011337869 83:0.011337869 85:0.011337869 86:0.011337869 87:0.0090702949 88:0.0068027209 89:0.0090702949 90:0.0090702949 91:0.0045351475 92:0.0090702949 93:0.0068027209 94:0.0045351475 95:0.0022675737 97:0.011337869 98:0.0090702949 99:0.011337869 101:0.0045351475 102:0.0090702949 103:0.0045351475 104:0.0045351475 105:0.0090702949 106:0.0090702949 107:0.0090702949 108:0.015873017 109:0.0090702949 110:0.015873017 111:0.0045351475 112:0.011337869 113:0.01814059 114:0.013605442 115:0.013605442 116:0.011337869 117:0.0022675737 119:0.0068027209 120:0.01814059 121:0.013605442 122:0.01814059 123:0.011337869 124:0.0068027209 125:0.0045351475 126:0.0068027209 127:0.0068027209 128:0.0068027209 130:0.0022675737 131:0.0045351475 132:0.0068027209 133:0.0068027209 135:0.0022675737 137:0.0045351475 138:0.0022675737 140:0.0022675737 141:0.0068027209 142:0.0022675737 143:0.0022675737 144:0.0022675737 145:0.0022675737 147:0.0022675737 148:0.0068027209 149:0.0068027209 151:0.0022675737 152:0.0022675737 153:0.0022675737 154:0.0068027209 156:0.0045351475 157:0.0090702949 158:0.0090702949 159:0.0090702949 160:0.0090702949 161:0.0068027209 162:0.0068027209 163:0.0022675737 164:0.0045351475 165:0.0068027209 166:0.0022675737 167:0.0045351475 168:0.0068027209 169:0.015873017 170:0.0022675737 171:0.0068027209 172:0.0022675737 173:0.011337869 174:0.0045351475 175:0.0068027209 176:0.0068027209 177:0.0045351475 179:0.0045351475 180:0.011337869 181:0.0090702949 182:0.0090702949 183:0.0068027209 184:0.0045351475 186:0.0022675737 187:0.0068027209 188:0.0022675737 189:0.0045351475 190:0.0068027209 191:0.0045351475 192:0.0068027209 193:0.0045351475 194:0.0068027209 196:0.0068027209 198:0.0068027209 199:0.0068027209 200:0.0022675737 201:0.0022675737 202:0.0045351475 204:0.0022675737 205:0.0090702949 206:0.0068027209 207:0.0068027209 208:0.0090702949 209:0.0045351475 211:0.0022675737 212:0.0045351475 214:0.0090702949 216:0.0068027209 217:0.0068027209 218:0.0022675737 219:0.011337869 221:0.0045351475 222:0.0045351475 223:0.0045351475 224:0.0045351475 225:0.011337869 226:0.0045351475 227:0.011337869 228:0.01814059 229:0.0022675737 230:0.0045351475 231:0.0045351475 234:0.0022675737 237:0.0045351475 238:0.0022675737 
100000 47:0.0045351475 54:0.0045351475 57:0.0022675737 58:0.0022675737 60:0.0022675737 63:0.0022675737 65:0.0022675737 66:0.0022675737 67:0.0045351475 68:0.0068027209 70:0.0068027209 73:0.011337869 74:0.0068027209 75:0.0090702949 76:0.0022675737 77:0.0022675737 78:0.0045351475 79:0.0068027209 82:0.0090702949 83:0.011337869 85:0.011337869 86:0.0090702949 87:0.0090702949 88:0.0090702949 89:0.0068027209 90:0.0090702949 91:0.0045351475 92:0.0090702949 93:0.0068027209 94:0.0045351475 97:0.011337869 98:0.0090702949 99:0.011337869 101:0.0045351475 102:0.0090702949 103:0.0045351475 104:0.0068027209 105:0.0068027209 106:0.0090702949 107:0.0068027209 108:0.013605442 109:0.0045351475 110:0.015873017 111:0.0045351475 112:0.0090702949 113:0.01814059 114:0.011337869 115:0.011337869 116:0.013605442 117:0.0090702949 119:0.013605442 120:0.01814059 121:0.013605442 122:0.015873017 123:0.011337869 124:0.0068027209 125:0.0045351475 126:0.0068027209 127:0.0068027209 128:0.0045351475 130:0.0022675737 131:0.0045351475 132:0.0068027209 133:0.0068027209 135:0.0022675737 137:0.0045351475 141:0.0068027209 142:0.0022675737 143:0.0045351475 144:0.0068027209 145:0.0022675737 148:0.0068027209 149:0.0090702949 151:0.0022675737 152:0.0022675737 153:0.0022675737 154:0.0045351475 156:0.0045351475 157:0.0090702949 158:0.0090702949 159:0.0068027209 160:0.0090702949 161:0.0068027209 162:0.0068027209 163:0.0022675737 164:0.0022675737 165:0.0068027209 166:0.0022675737 167:0.0045351475 168:0.0068027209 169:0.015873017 170:0.0022675737 171:0.0068027209 172:0.0045351475 173:0.011337869 174:0.0045351475 175:0.0068027209 176:0.0068027209 177:0.0045351475 179:0.0045351475 180:0.0068027209 181:0.0068027209 182:0.0090702949 183:0.0068027209 184:0.0045351475 186:0.0022675737 187:0.0068027209 189:0.0022675737 190:0.0068027209 191:0.0045351475 192:0.0068027209 193:0.0045351475 194:0.0068027209 196:0.0090702949 198:0.0045351475 199:0.0068027209 200:0.0022675737 201:0.0022675737 202:0.0045351475 204:0.0022675737 205:0.0090702949 206:0.0068027209 207:0.0090702949 208:0.0090702949 209:0.0068027209 210:0.0045351475 211:0.0022675737 212:0.0045351475 214:0.0068027209 216:0.011337869 217:0.0068027209 218:0.0022675737 219:0.011337869 221:0.0068027209 222:0.0068027209 223:0.0068027209 224:0.0045351475 225:0.013605442 226:0.0068027209 227:0.013605442 228:0.01814059 229:0.0022675737 230:0.0045351475 231:0.0068027209 232:0.0022675737 234:0.0045351475 237:0.0045351475 238:0.0022675737 
100000 47:0.0045351475 54:0.0045351475 57:0.0022675737 58:0.0022675737 60:0.0022675737 63:0.0022675737 65:0.0022675737 66:0.0022675737 67:0.0045351475 68:0.0068027209 70:0.0068027209 73:0.011337869 74:0.0068027209 75:0.0090702949 76:0.0022675737 77:0.0022675737 78:0.0045351475 79:0.0068027209 82:0.0090702949 83:0.013605442 85:0.011337869 86:0.0090702949 87:0.011337869 88:0.0090702949 89:0.0068027209 90:0.0090702949 91:0.0045351475 92:0.0090702949 93:0.0068027209 94:0.0045351475 97:0.011337869 98:0.0090702949 99:0.011337869 101:0.0045351475 102:0.0090702949 103:0.0068027209 104:0.0068027209 105:0.0068027209 106:0.011337869 107:0.0068027209 108:0.013605442 109:0.0068027209 110:0.01814059 111:0.0045351475 112:0.011337869 113:0.015873017 114:0.020408163 115:0.013605442 116:0.015873017 117:0.011337869 119:0.013605442 120:0.020408163 121:0.013605442 122:0.015873017 123:0.0090702949 124:0.0045351475 125:0.0045351475 126:0.0068027209 127:0.0090702949 128:0.0045351475 129:0.0022675737 130:0.0045351475 131:0.0022675737 132:0.0068027209 133:0.0068027209 135:0.0022675737 137:0.0022675737 141:0.0068027209 142:0.0045351475 143:0.0022675737 144:0.0068027209 145:0.0022675737 146:0.0022675737 148:0.0068027209 149:0.0090702949 151:0.0022675737 152:0.0022675737 153:0.0022675737 154:0.0045351475 156:0.0045351475 157:0.0068027209 158:0.0090702949 159:0.0068027209 160:0.0090702949 161:0.0068027209 162:0.0068027209 163:0.0022675737 164:0.0022675737 165:0.0068027209 166:0.0022675737 167:0.0045351475 168:0.0045351475 169:0.013605442 170:0.0022675737 171:0.0068027209 172:0.0045351475 173:0.011337869 174:0.0022675737 175:0.0068027209 176:0.0068027209 177:0.0045351475 179:0.0045351475 180:0.0068027209 181:0.0045351475 182:0.0090702949 183:0.0068027209 184:0.0045351475 186:0.0022675737 187:0.0068027209 190:0.0068027209 191:0.0045351475 192:0.0068027209 193:0.0022675737 194:0.0068027209 196:0.0068027209 198:0.0045351475 199:0.0045351475 200:0.0022675737 201:0.0022675737 202:0.0045351475 204:0.0022675737 205:0.0090702949 206:0.0045351475 207:0.0068027209 208:0.0068027209 209:0.0068027209 210:0.0045351475 211:0.0022675737 212:0.0022675737 214:0.0068027209 216:0.011337869 217:0.0068027209 218:0.0022675737 219:0.011337869 221:0.0045351475 222:0.0068027209 223:0.0068027209 224:0.0045351475 225:0.013605442 226:0.0068027209 227:0.013605442 228:0.01814059 229:0.0022675737 230:0.0045351475 231:0.0068027209 232:0.0022675737 234:0.0045351475 237:0.0045351475 238:0.0022675737 
100000 47:0.0045351475 50:0.0022675737 53:0.0022675737 54:0.0022675737 57:0.0022675737 58:0.0022675737 60:0.0022675737 62:0.0022675737 65:0.0022675737 66:0.0022675737 67:0.0045351475 68:0.0068027209 70:0.0045351475 73:0.0090702949 74:0.0068027209 75:0.0068027209 76:0.0022675737 77:0.0022675737 78:0.0022675737 79:0.0045351475 82:0.011337869 83:0.013605442 85:0.011337869 86:0.0045351475 87:0.015873017 88:0.0090702949 89:0.0045351475 90:0.0068027209 91:0.0090702949 92:0.011337869 93:0.0090702949 94:0.0045351475 97:0.01814059 98:0.011337869 99:0.013605442 101:0.011337869 102:0.011337869 103:0.0090702949 104:0.011337869 105:0.0068027209 106:0.013605442 108:0.015873017 109:0.0090702949 110:0.0068027209 111:0.0045351475 112:0.0090702949 113:0.011337869 114:0.013605442 115:0.011337869 116:0.011337869 117:0.011337869 119:0.015873017 120:0.015873017 121:0.013605442 122:0.01814059 123:0.0090702949 124:0.0045351475 125:0.0045351475 126:0.0068027209 127:0.0045351475 128:0.0045351475 129:0.0045351475 130:0.0068027209 132:0.0068027209 133:0.0022675737 134:0.0022675737 135:0.0022675737 136:0.0045351475 137:0.0022675737 138:0.0022675737 140:0.0022675737 141:0.0068027209 142:0.0045351475 143:0.0022675737 144:0.0068027209 145:0.0045351475 146:0.0022675737 148:0.0068027209 149:0.0068027209 151:0.0022675737 152:0.0022675737 153:0.0022675737 154:0.0045351475 156:0.0022675737 157:0.0045351475 158:0.0090702949 159:0.0045351475 160:0.0090702949 161:0.0090702949 162:0.011337869 163:0.0022675737 164:0.0022675737 165:0.0022675737 166:0.0022675737 167:0.0045351475 168:0.0045351475 169:0.0090702949 170:0.0045351475 171:0.0045351475 172:0.0045351475 173:0.0090702949 174:0.0045351475 175:0.0068027209 176:0.0045351475 177:0.0045351475 179:0.0045351475 180:0.0068027209 181:0.0022675737 182:0.0068027209 183:0.0090702949 184:0.0045351475 186:0.0022675737 187:0.0045351475 188:0.0045351475 190:0.0045351475 191:0.0045351475 192:0.0068027209 194:0.011337869 195:0.0022675737 196:0.0090702949 198:0.0068027209 199:0.0068027209 200:0.0022675737 201:0.0022675737 202:0.0022675737 203:0.0045351475 204:0.0045351475 205:0.0045351475 206:0.0022675737 207:0.0090702949 208:0.0045351475 209:0.0068027209 210:0.0045351475 211:0.0045351475 212:0.0045351475 213:0.0022675737 214:0.0068027209 216:0.011337869 217:0.0045351475 218:0.0022675737 219:0.015873017 220:0.0045351475 221:0.0045351475 222:0.0045351475 223:0.0090702949 224:0.0045351475 225:0.013605442 226:0.0045351475 227:0.0090702949 228:0.015873017 229:0.0022675737 230:0.0045351475 231:0.0068027209 232:0.0045351475 234:0.0045351475 237:0.0045351475 238:0.0022675737 
100000 46:0.0022675737 47:0.0045351475 48:0.0022675737 50:0.0045351475 53:0.0022675737 54:0.0022675737 58:0.0022675737 60:0.0022675737 62:0.0022675737 65:0.0022675737 66:0.0022675737 67:0.0045351475 68:0.0068027209 70:0.0068027209 73:0.0090702949 74:0.0068027209 75:0.0090702949 76:0.0022675737 77:0.0045351475 78:0.0022675737 79:0.0045351475 82:0.011337869 83:0.013605442 85:0.011337869 86:0.0045351475 87:0.020408163 88:0.0090702949 89:0.0045351475 90:0.011337869 91:0.0090702949 92:0.011337869 93:0.013605442 94:0.0045351475 95:0.0045351475 97:0.01814059 98:0.011337869 99:0.013605442 101:0.011337869 102:0.011337869 103:0.0090702949 104:0.011337869 105:0.0068027209 106:0.013605442 108:0.015873017 109:0.0090702949 110:0.0068027209 111:0.0045351475 112:0.0090702949 113:0.011337869 114:0.013605442 115:0.011337869 116:0.011337869 117:0.011337869 119:0.015873017 120:0.015873017 121:0.013605442 122:0.01814059 123:0.0090702949 124:0.0045351475 125:0.0045351475 126:0.0068027209 127:0.0045351475 128:0.0068027209 129:0.0045351475 130:0.0068027209 132:0.0045351475 133:0.0022675737 134:0.0022675737 135:0.0022675737 136:0.0045351475 137:0.0022675737 138:0.0022675737 139:0.0022675737 140:0.0022675737 141:0.0068027209 142:0.0045351475 143:0.0022675737 144:0.0068027209 145:0.0045351475 146:0.0022675737 147:0.0022675737 148:0.0068027209 149:0.0068027209 151:0.0022675737 152:0.0022675737 153:0.0022675737 154:0.0045351475 156:0.0022675737 157:0.0045351475 158:0.011337869 159:0.0045351475 160:0.0090702949 161:0.0090702949 162:0.011337869 164:0.0022675737 165:0.0022675737 166:0.0022675737 167:0.0045351475 168:0.0022675737 169:0.0068027209 170:0.0022675737 171:0.0045351475 172:0.0045351475 173:0.0090702949 174:0.0045351475 175:0.0068027209 176:0.0022675737 177:0.0045351475 179:0.0045351475 180:0.0068027209 181:0.0022675737 182:0.0068027209 183:0.0068027209 184:0.0045351475 186:0.0022675737 187:0.0045351475 188:0.0045351475 190:0.0045351475 191:0.0045351475 192:0.0068027209 194:0.011337869 195:0.0022675737 196:0.0090702949 198:0.0068027209 199:0.0045351475 200:0.0022675737 201:0.0022675737 202:0.0022675737 203:0.0045351475 204:0.0045351475 205:0.0045351475 206:0.0022675737 207:0.0090702949 208:0.0022675737 209:0.0068027209 210:0.0022675737 211:0.0022675737 212:0.0045351475 213:0.0022675737 214:0.0045351475 216:0.0090702949 217:0.0045351475 218:0.0022675737 219:0.015873017 220:0.0045351475 221:0.0045351475 222:0.0045351475 223:0.0090702949 224:0.0045351475 225:0.011337869 226:0.0045351475 227:0.0090702949 228:0.011337869 229:0.0022675737 230:0.0045351475 231:0.0045351475 232:0.0045351475 234:0.0045351475 237:0.0045351475 238:0.0022675737 
42414.21775260459 39:0.0022675737 46:0.0022675737 47:0.0068027209 48:0.0022675737 50:0.0045351475 53:0.0045351475 54:0.0022675737 57:0.0022675737 58:0.0068027209 60:0.0022675737 62:0.0022675737 66:0.0022675737 67:0.0045351475 68:0.0045351475 70:0.0068027209 73:0.0090702949 74:0.0068027209 75:0.011337869 76:0.0022675737 77:0.0045351475 78:0.0022675737 79:0.0045351475 82:0.013605442 83:0.013605442 85:0.0090702949 86:0.0068027209 87:0.01814059 88:0.0090702949 89:0.0068027209 90:0.0090702949 91:0.0090702949 92:0.011337869 93:0.01814059 94:0.0045351475 95:0.011337869 97:0.015873017 98:0.0090702949 99:0.013605442 101:0.0090702949 102:0.011337869 103:0.0068027209 104:0.011337869 105:0.0068027209 106:0.0068027209 108:0.015873017 109:0.0090702949 110:0.0068027209 111:0.0045351475 112:0.0068027209 113:0.0090702949 114:0.0068027209 115:0.0090702949 116:0.0090702949 117:0.011337869 119:0.015873017 120:0.015873017 121:0.011337869 122:0.015873017 123:0.011337869 124:0.0045351475 125:0.0045351475 126:0.0045351475 127:0.0045351475 128:0.0068027209 129:0.0045351475 130:0.0068027209 132:0.0045351475 133:0.0022675737 134:0.0045351475 135:0.0022675737 136:0.0045351475 137:0.0022675737 138:0.0045351475 139:0.0022675737 140:0.0022675737 141:0.0045351475 142:0.0045351475 143:0.0022675737 144:0.0068027209 145:0.0045351475 146:0.0022675737 147:0.0022675737 148:0.0068027209 149:0.0068027209 151:0.0022675737 152:0.0022675737 153:0.0022675737 154:0.0045351475 155:0.0022675737 156:0.0022675737 157:0.0045351475 158:0.011337869 159:0.0068027209 160:0.0090702949 161:0.0090702949 162:0.011337869 164:0.0022675737 165:0.0022675737 166:0.0022675737 167:0.0045351475 168:0.0022675737 169:0.0068027209 170:0.0022675737 171:0.0022675737 172:0.0045351475 173:0.0045351475 174:0.0045351475 175:0.0045351475 176:0.0022675737 177:0.0045351475 179:0.0045351475 180:0.0068027209 181:0.0022675737 182:0.0068027209 183:0.0045351475 184:0.0045351475 185:0.0022675737 186:0.0022675737 187:0.0068027209 188:0.0045351475 189:0.0022675737 190:0.0045351475 191:0.0045351475 192:0.0068027209 194:0.0090702949 195:0.0022675737 196:0.011337869 198:0.0090702949 199:0.0045351475 200:0.0022675737 201:0.0090702949 202:0.0022675737 203:0.0045351475 204:0.0068027209 205:0.0045351475 206:0.0022675737 207:0.013605442 208:0.0022675737 209:0.0068027209 210:0.0045351475 211:0.0045351475 212:0.0068027209 213:0.0022675737 214:0.0045351475 215:0.0045351475 216:0.0045351475 217:0.0045351475 218:0.0022675737 219:0.015873017 220:0.0045351475 221:0.0022675737 222:0.0045351475 223:0.0090702949 224:0.0045351475 225:0.011337869 226:0.0045351475 227:0.0068027209 228:0.011337869 229:0.0022675737 230:0.0045351475 231:0.0045351475 232:0.0045351475 234:0.0022675737 237:0.0022675737 
100000 19:0.0022675737 23:0.0045351475 24:0.0022675737 25:0.011337869 27:0.0090702949 30:0.0045351475 31:0.0068027209 33:0.0090702949 34:0.0090702949 35:0.0022675737 38:0.0045351475 39:0.0022675737 40:0.0022675737 41:0.0068027209 42:0.0022675737 43:0.0045351475 45:0.0090702949 46:0.0045351475 47:0.0090702949 48:0.0068027209 50:0.015873017 51:0.0090702949 52:0.0045351475 53:0.015873017 54:0.011337869 55:0.0045351475 57:0.011337869 58:0.0090702949 59:0.0068027209 60:0.013605442 61:0.0068027209 62:0.011337869 63:0.0045351475 65:0.0045351475 66:0.0090702949 67:0.0022675737 68:0.01814059 70:0.015873017 71:0.0068027209 73:0.0068027209 74:0.0090702949 75:0.0090702949 76:0.0022675737 77:0.0068027209 78:0.0068027209 79:0.0090702949 80:0.011337869 82:0.0090702949 83:0.0090702949 85:0.0045351475 86:0.0022675737 87:0.015873017 88:0.0068027209 89:0.0022675737 90:0.0090702949 91:0.0045351475 92:0.0090702949 93:0.011337869 94:0.0022675737 95:0.0022675737 97:0.0068027209 98:0.0045351475 99:0.0068027209 101:0.0090702949 102:0.011337869 103:0.0068027209 104:0.0090702949 105:0.0068027209 106:0.011337869 108:0.0068027209 109:0.0045351475 110:0.0022675737 111:0.0022675737 112:0.0045351475 113:0.0090702949 114:0.0068027209 115:0.0068027209 116:0.0068027209 117:0.011337869 119:0.0090702949 120:0.0022675737 121:0.0022675737 122:0.0090702949 123:0.0068027209 125:0.0045351475 126:0.0022675737 127:0.0068027209 128:0.0068027209 129:0.0045351475 130:0.0090702949 131:0.0022675737 132:0.0045351475 133:0.0022675737 134:0.0045351475 136:0.0045351475 137:0.0022675737 138:0.0045351475 139:0.0022675737 140:0.0068027209 141:0.0045351475 142:0.0045351475 143:0.0022675737 144:0.0068027209 145:0.0045351475 146:0.0022675737 147:0.0045351475 148:0.0068027209 149:0.0090702949 151:0.0022675737 153:0.0022675737 154:0.0045351475 155:0.0022675737 156:0.0022675737 157:0.0068027209 158:0.0090702949 159:0.0045351475 160:0.0068027209 161:0.0068027209 162:0.0068027209 164:0.0022675737 165:0.0022675737 166:0.0022675737 167:0.0022675737 169:0.0045351475 170:0.0022675737 172:0.0022675737 173:0.0022675737 174:0.0022675737 176:0.0022675737 177:0.0022675737 179:0.0022675737 180:0.0045351475 182:0.0045351475 183:0.0045351475 184:0.0045351475 185:0.0022675737 187:0.0068027209 188:0.0045351475 189:0.0045351475 191:0.0022675737 192:0.0022675737 194:0.0045351475 195:0.0022675737 196:0.011337869 198:0.0045351475 199:0.0045351475 200:0.0022675737 201:0.0045351475 202:0.0022675737 203:0.0022675737 204:0.0090702949 205:0.0068027209 207:0.0022675737 208:0.0090702949 211:0.0022675737 212:0.0022675737 213:0.0022675737 214:0.0022675737 215:0.0090702949 216:0.0045351475 217:0.0022675737 218:0.0022675737 219:0.0022675737 220:0.0022675737 221:0.0045351475 222:0.0045351475 223:0.0090702949 224:0.0022675737 225:0.0045351475 226:0.0022675737 228:0.0068027209 229:0.0022675737 230:0.0045351475 231:0.0045351475 232:0.0022675737 235:0.0022675737 236:0.0045351475 237:0.0022675737 
100000 19:0.0022675737 23:0.0045351475 24:0.0022675737 25:0.011337869 27:0.0090702949 30:0.0045351475 31:0.0068027209 33:0.0090702949 34:0.0090702949 35:0.0022675737 38:0.0045351475 39:0.0022675737 40:0.0022675737 41:0.0068027209 42:0.0022675737 43:0.0045351475 45:0.0090702949 46:0.0068027209 47:0.0090702949 48:0.0068027209 50:0.01814059 51:0.0090702949 52:0.0068027209 53:0.015873017 54:0.013605442 55:0.0045351475 57:0.013605442 58:0.0090702949 59:0.0045351475 60:0.015873017 61:0.0068027209 62:0.013605442 63:0.0045351475 65:0.0045351475 66:0.011337869 67:0.0045351475 68:0.013605442 70:0.01814059 71:0.0090702949 73:0.0090702949 74:0.013605442 75:0.013605442 76:0.0022675737 77:0.0045351475 78:0.0068027209 79:0.0090702949 80:0.011337869 82:0.013605442 83:0.0068027209 85:0.0022675737 86:0.0022675737 87:0.013605442 88:0.0045351475 89:0.0022675737 90:0.0068027209 91:0.0022675737 92:0.0068027209 93:0.011337869 95:0.0022675737 97:0.0068027209 98:0.0045351475 99:0.0068027209 101:0.0090702949 102:0.011337869 103:0.0090702949 104:0.0068027209 105:0.0068027209 106:0.011337869 108:0.0068027209 109:0.0045351475 111:0.0022675737 112:0.0045351475 113:0.0090702949 114:0.0045351475 115:0.0068027209 116:0.0022675737 117:0.0068027209 119:0.0068027209 121:0.0022675737 122:0.0090702949 123:0.0045351475 125:0.0022675737 126:0.0022675737 127:0.0068027209 128:0.0068027209 129:0.0045351475 130:0.0090702949 131:0.0022675737 132:0.0045351475 133:0.0022675737 134:0.0045351475 136:0.0045351475 137:0.0022675737 138:0.0045351475 139:0.0045351475 140:0.0068027209 141:0.0045351475 142:0.0045351475 143:0.0045351475 144:0.0068027209 145:0.0045351475 146:0.0022675737 147:0.0045351475 148:0.0045351475 149:0.0090702949 151:0.0045351475 153:0.0045351475 154:0.0045351475 155:0.0022675737 156:0.0022675737 157:0.0068027209 158:0.0090702949 159:0.0045351475 160:0.0068027209 161:0.0068027209 162:0.0068027209 165:0.0022675737 166:0.0045351475 167:0.0022675737 169:0.0045351475 170:0.0022675737 172:0.0022675737 173:0.0022675737 174:0.0022675737 176:0.0022675737 177:0.0022675737 179:0.0045351475 180:0.0045351475 182:0.0045351475 183:0.0045351475 184:0.0045351475 185:0.0022675737 187:0.0045351475 188:0.0045351475 189:0.0045351475 191:0.0045351475 194:0.0045351475 195:0.0022675737 196:0.011337869 198:0.0045351475 199:0.0045351475 200:0.0022675737 201:0.0045351475 202:0.0022675737 203:0.0022675737 204:0.0090702949 205:0.0045351475 208:0.0068027209 211:0.0022675737 213:0.0022675737 214:0.0022675737 215:0.0045351475 216:0.0022675737 217:0.0022675737 218:0.0045351475 219:0.0022675737 220:0.0022675737 221:0.0068027209 222:0.0045351475 223:0.0090702949 224:0.0022675737 225:0.0045351475 226:0.0022675737 227:0.0022675737 228:0.011337869 229:0.0068027209 230:0.0045351475 231:0.0022675737 235:0.0045351475 236:0.0045351475 237:0.0022675737 240:0.0022675737 241:0.0022675737 
100000 14:0.0022675737 19:0.0022675737 23:0.0045351475 24:0.0022675737 25:0.011337869 27:0.011337869 30:0.0068027209 31:0.0068027209 33:0.0090702949 34:0.0090702949 35:0.0022675737 36:0.0045351475 38:0.0045351475 39:0.0045351475 40:0.0045351475 41:0.0090702949 42:0.0045351475 43:0.0045351475 45:0.011337869 46:0.0090702949 47:0.011337869 48:0.0068027209 50:0.013605442 51:0.011337869 52:0.0068027209 53:0.013605442 54:0.015873017 55:0.0090702949 57:0.011337869 58:0.0068027209 59:0.0090702949 60:0.0090702949 61:0.0045351475 62:0.011337869 63:0.0045351475 65:0.0045351475 66:0.015873017 67:0.0068027209 68:0.024943311 70:0.020408163 71:0.0068027209 73:0.0090702949 74:0.013605442 75:0.022675738 76:0.013605442 77:0.013605442 78:0.015873017 79:0.013605442 80:0.015873017 82:0.024943311 83:0.013605442 85:0.011337869 86:0.01814059 87:0.011337869 88:0.0090702949 89:0.020408163 90:0.0068027209 91:0.0068027209 92:0.0045351475 93:0.0090702949 94:0.013605442 95:0.0022675737 97:0.013605442 98:0.0090702949 99:0.0090702949 100:0.0068027209 101:0.0068027209 102:0.0068027209 103:0.0045351475 104:0.0045351475 105:0.0045351475 106:0.011337869 107:0.0045351475 109:0.0022675737 110:0.0022675737 112:0.0022675737 114:0.0022675737 115:0.0090702949 116:0.0022675737 119:0.0045351475 122:0.0022675737 123:0.0045351475 125:0.0045351475 127:0.0022675737 128:0.0022675737 129:0.0022675737 130:0.0045351475 131:0.0045351475 133:0.0022675737 134:0.0045351475 136:0.0045351475 138:0.0068027209 139:0.0045351475 140:0.0068027209 141:0.0045351475 143:0.0022675737 144:0.0022675737 145:0.0045351475 147:0.0068027209 148:0.0022675737 149:0.0045351475 150:0.0022675737 151:0.0022675737 153:0.0022675737 154:0.0022675737 155:0.0045351475 156:0.0045351475 157:0.0022675737 158:0.0022675737 159:0.0045351475 160:0.0022675737 161:0.0022675737 162:0.0068027209 163:0.0022675737 164:0.0022675737 166:0.0022675737 169:0.0022675737 170:0.0022675737 172:0.0022675737 173:0.0022675737 174:0.0045351475 177:0.0022675737 178:0.0022675737 179:0.0022675737 180:0.0045351475 181:0.0022675737 182:0.0045351475 184:0.0022675737 185:0.0045351475 188:0.0045351475 191:0.0022675737 196:0.0045351475 198:0.0068027209 200:0.0022675737 201:0.0022675737 202:0.0022675737 205:0.0022675737 207:0.0022675737 208:0.0022675737 210:0.0045351475 213:0.0022675737 215:0.0045351475 216:0.0022675737 218:0.0022675737 219:0.0022675737 221:0.0068027209 222:0.0022675737 223:0.0022675737 224:0.0045351475 225:0.0022675737 226:0.0022675737 228:0.0090702949 229:0.0045351475 230:0.0045351475 232:0.0022675737 235:0.0045351475 236:0.0022675737 237:0.0022675737 238:0.0022675737 240:0.0022675737 252:0.0022675737 
100000 14:0.0022675737 19:0.0022675737 23:0.0045351475 24:0.0022675737 25:0.011337869 27:0.011337869 30:0.0068027209 31:0.0068027209 33:0.0090702949 34:0.0090702949 35:0.0022675737 36:0.0045351475 38:0.0045351475 39:0.0045351475 40:0.0045351475 41:0.0090702949 42:0.0045351475 43:0.0045351475 45:0.013605442 46:0.0090702949 47:0.011337869 48:0.0068027209 50:0.015873017 51:0.011337869 52:0.0090702949 53:0.013605442 54:0.01814059 55:0.0090702949 57:0.011337869 58:0.0068027209 59:0.0090702949 60:0.0090702949 61:0.0045351475 62:0.011337869 63:0.0045351475 65:0.0068027209 66:0.015873017 67:0.0068027209 68:0.027210884 70:0.020408163 71:0.011337869 73:0.011337869 74:0.013605442 75:0.022675738 76:0.013605442 77:0.013605442 78:0.01814059 79:0.015873017 80:0.015873017 82:0.022675738 83:0.013605442 85:0.011337869 86:0.01814059 87:0.011337869 88:0.0090702949 89:0.020408163 90:0.0068027209 91:0.0090702949 92:0.0068027209 93:0.0090702949 94:0.015873017 95:0.0022675737 97:0.011337869 98:0.0090702949 99:0.011337869 100:0.0090702949 101:0.0045351475 102:0.0068027209 103:0.0045351475 104:0.0045351475 105:0.0045351475 106:0.0090702949 107:0.0045351475 109:0.0022675737 110:0.0022675737 112:0.0022675737 113:0.0022675737 114:0.0022675737 115:0.011337869 116:0.0022675737 119:0.0022675737 122:0.0022675737 123:0.0045351475 125:0.0045351475 127:0.0022675737 128:0.0022675737 129:0.0022675737 130:0.0045351475 131:0.0045351475 133:0.0022675737 134:0.0045351475 136:0.0022675737 138:0.0068027209 139:0.0045351475 140:0.0045351475 141:0.0068027209 143:0.0022675737 144:0.0022675737 145:0.0022675737 147:0.0068027209 148:0.0022675737 149:0.0045351475 150:0.0022675737 151:0.0022675737 153:0.0022675737 154:0.0022675737 155:0.0045351475 156:0.0045351475 157:0.0022675737 158:0.0022675737 159:0.0045351475 160:0.0022675737 161:0.0022675737 162:0.0045351475 163:0.0022675737 164:0.0022675737 166:0.0022675737 169:0.0022675737 170:0.0022675737 172:0.0022675737 173:0.0022675737 174:0.0045351475 177:0.0022675737 178:0.0022675737 179:0.0022675737 180:0.0045351475 181:0.0022675737 182:0.0045351475 184:0.0022675737 185:0.0045351475 188:0.0022675737 191:0.0022675737 196:0.0045351475 198:0.0045351475 200:0.0022675737 201:0.0022675737 202:0.0022675737 205:0.0022675737 207:0.0022675737 208:0.0022675737 210:0.0022675737 213:0.0022675737 215:0.0022675737 216:0.0022675737 218:0.0022675737 219:0.0022675737 221:0.0068027209 222:0.0022675737 224:0.0045351475 226:0.0022675737 228:0.0068027209 229:0.0022675737 230:0.0045351475 232:0.0022675737 235:0.0045351475 237:0.0022675737 240:0.0022675737 252:0.0022675737 
100000 35:0.0022675737 36:0.0022675737 41:0.0022675737 46:0.0022675737 52:0.0022675737 57:0.0022675737 60:0.0045351475 61:0.0045351475 62:0.0022675737 63:0.0022675737 66:0.0090702949 67:0.0022675737 68:0.0045351475 70:0.0068027209 73:0.0068027209 74:0.011337869 75:0.0022675737 76:0.0022675737 77:0.0068027209 78:0.0045351475 79:0.0022675737 80:0.0022675737 82:0.015873017 83:0.013605442 85:0.0045351475 86:0.0045351475 87:0.0022675737 88:0.011337869 89:0.020408163 90:0.0090702949 91:0.011337869 92:0.0090702949 93:0.0090702949 94:0.0045351475 95:0.011337869 97:0.0045351475 99:0.0090702949 100:0.0022675737 101:0.011337869 102:0.0045351475 103:0.011337869 104:0.011337869 105:0.0068027209 106:0.011337869 107:0.0045351475 108:0.0068027209 109:0.0045351475 110:0.0068027209 111:0.011337869 112:0.0045351475 113:0.01814059 114:0.0045351475 115:0.0090702949 116:0.01814059 117:0.0090702949 119:0.015873017 120:0.0045351475 121:0.0045351475 122:0.0022675737 123:0.0068027209 124:0.0068027209 125:0.0022675737 126:0.0068027209 127:0.0045351475 128:0.0068027209 129:0.013605442 130:0.0045351475 131:0.0068027209 132:0.0068027209 134:0.0068027209 135:0.0022675737 136:0.0045351475 137:0.0068027209 138:0.0068027209 139:0.0022675737 140:0.0068027209 141:0.0045351475 142:0.0068027209 143:0.0022675737 144:0.0090702949 145:0.0090702949 146:0.0022675737 147:0.0090702949 148:0.0045351475 149:0.0090702949 150:0.011337869 151:0.0045351475 152:0.0045351475 153:0.0022675737 155:0.0090702949 156:0.0045351475 157:0.0068027209 158:0.0022675737 160:0.0068027209 161:0.0045351475 162:0.0022675737 164:0.011337869 165:0.011337869 166:0.0045351475 168:0.0068027209 170:0.0022675737 171:0.0045351475 172:0.0068027209 174:0.0045351475 175:0.0090702949 176:0.0068027209 177:0.0068027209 178:0.0022675737 179:0.0045351475 180:0.0022675737 181:0.0090702949 182:0.0045351475 183:0.015873017 185:0.0022675737 187:0.0090702949 188:0.0045351475 191:0.0045351475 192:0.0045351475 193:0.0022675737 194:0.0090702949 195:0.0045351475 196:0.0090702949 198:0.01814059 199:0.0022675737 200:0.0045351475 201:0.011337869 202:0.0068027209 203:0.0045351475 204:0.0068027209 205:0.0045351475 206:0.0068027209 207:0.0022675737 208:0.020408163 209:0.0068027209 210:0.0022675737 211:0.0022675737 212:0.0022675737 213:0.0022675737 214:0.011337869 215:0.0045351475 216:0.0068027209 217:0.0045351475 218:0.0090702949 220:0.0022675737 221:0.011337869 222:0.0022675737 223:0.0022675737 224:0.0022675737 225:0.0045351475 226:0.0022675737 228:0.0045351475 229:0.0045351475 231:0.0022675737 232:0.0022675737 233:0.0022675737 235:0.0022675737 236:0.0022675737 237:0.0022675737 238:0.0022675737 239:0.0022675737 240:0.0022675737 242:0.0022675737 244:0.0022675737 248:0.0022675737 253:0.0022675737 
100000 19:0.0022675737 23:0.0045351475 24:0.0022675737 25:0.011337869 27:0.0090702949 30:0.0045351475 31:0.0068027209 33:0.0090702949 34:0.0090702949 35:0.0022675737 38:0.0045351475 39:0.0022675737 40:0.0022675737 41:0.0068027209 42:0.0022675737 43:0.0045351475 45:0.0090702949 46:0.0068027209 47:0.0090702949 48:0.0068027209 50:0.01814059 51:0.0090702949 52:0.0068027209 53:0.015873017 54:0.011337869 55:0.0045351475 57:0.013605442 58:0.0090702949 59:0.0068027209 60:0.015873017 61:0.0068027209 62:0.013605442 63:0.0068027209 65:0.0045351475 66:0.011337869 67:0.0022675737 68:0.01814059 70:0.01814059 71:0.0090702949 73:0.0090702949 74:0.013605442 75:0.013605442 76:0.0022675737 77:0.0068027209 78:0.0090702949 79:0.0090702949 80:0.011337869 82:0.013605442 83:0.0068027209 85:0.0022675737 86:0.0022675737 87:0.013605442 88:0.0068027209 89:0.0022675737 90:0.0068027209 91:0.0045351475 92:0.0068027209 93:0.011337869 94:0.0022675737 95:0.0068027209 97:0.0068027209 98:0.0045351475 99:0.0068027209 101:0.0090702949 102:0.011337869 103:0.0090702949 104:0.0090702949 105:0.0068027209 106:0.011337869 108:0.0068027209 109:0.0045351475 111:0.0022675737 112:0.0045351475 113:0.0090702949 114:0.0068027209 115:0.0068027209 116:0.0068027209 117:0.011337869 119:0.0090702949 120:0.0022675737 121:0.0022675737 122:0.0090702949 123:0.0068027209 125:0.0045351475 126:0.0022675737 127:0.0068027209 128:0.0068027209 129:0.0045351475 130:0.0090702949 131:0.0022675737 132:0.0045351475 133:0.0022675737 134:0.0045351475 136:0.0045351475 137:0.0022675737 138:0.0045351475 139:0.0022675737 140:0.0068027209 141:0.0045351475 142:0.0045351475 143:0.0022675737 144:0.0068027209 145:0.0045351475 146:0.0022675737 147:0.0045351475 148:0.0045351475 149:0.0090702949 151:0.0022675737 153:0.0022675737 154:0.0045351475 155:0.0022675737 156:0.0022675737 157:0.0068027209 158:0.0090702949 159:0.0045351475 160:0.0068027209 161:0.0045351475 162:0.0068027209 165:0.0022675737 166:0.0022675737 167:0.0022675737 169:0.0045351475 170:0.0022675737 172:0.0022675737 173:0.0022675737 174:0.0022675737 176:0.0022675737 177:0.0022675737 179:0.0022675737 180:0.0045351475 182:0.0045351475 183:0.0045351475 184:0.0045351475 185:0.0022675737 187:0.0045351475 188:0.0045351475 189:0.0045351475 191:0.0022675737 194:0.0045351475 195:0.0022675737 196:0.011337869 198:0.0045351475 199:0.0045351475 200:0.0022675737 201:0.0045351475 202:0.0022675737 203:0.0022675737 204:0.0090702949 205:0.0045351475 208:0.0068027209 211:0.0022675737 214:0.0022675737 215:0.0045351475 216:0.0022675737 217:0.0022675737 218:0.0022675737 219:0.0022675737 220:0.0022675737 221:0.0045351475 222:0.0045351475 223:0.0090702949 224:0.0022675737 225:0.0045351475 226:0.0022675737 228:0.0068027209 229:0.0022675737 230:0.0045351475 231:0.0022675737 235:0.0022675737 236:0.0045351475 237:0.0022675737 
100000 19:0.0022675737 23:0.0045351475 24:0.0022675737 25:0.011337869 27:0.0090702949 30:0.0045351475 31:0.0068027209 33:0.0090702949 34:0.0090702949 35:0.0022675737 38:0.0045351475 39:0.0022675737 40:0.0022675737 41:0.0068027209 42:0.0022675737 43:0.0045351475 45:0.0068027209 46:0.0068027209 47:0.0090702949 48:0.0045351475 50:0.01814059 51:0.0090702949 52:0.0068027209 53:0.015873017 54:0.011337869 55:0.0045351475 57:0.013605442 58:0.0090702949 59:0.0068027209 60:0.015873017 61:0.0068027209 62:0.013605442 63:0.0068027209 65:0.0045351475 66:0.0090702949 67:0.0022675737 68:0.022675738 70:0.01814059 71:0.0090702949 73:0.011337869 74:0.013605442 75:0.013605442 76:0.0022675737 77:0.0090702949 78:0.0090702949 79:0.0090702949 80:0.011337869 82:0.015873017 83:0.0090702949 85:0.0022675737 86:0.0045351475 87:0.013605442 88:0.0068027209 89:0.0045351475 90:0.0068027209 91:0.0045351475 92:0.0068027209 93:0.013605442 94:0.0022675737 95:0.011337869 97:0.0068027209 98:0.0045351475 99:0.0068027209 101:0.0090702949 102:0.0090702949 103:0.0090702949 104:0.0090702949 105:0.0068027209 106:0.011337869 108:0.0090702949 109:0.0045351475 110:0.0022675737 111:0.0022675737 112:0.0045351475 113:0.0090702949 114:0.0068027209 115:0.0090702949 116:0.0068027209 117:0.011337869 119:0.013605442 120:0.0068027209 121:0.0045351475 122:0.011337869 123:0.0068027209 124:0.0022675737 125:0.0022675737 126:0.0022675737 127:0.0068027209 128:0.0068027209 129:0.0045351475 130:0.0090702949 131:0.0022675737 132:0.0045351475 133:0.0022675737 134:0.0045351475 136:0.0045351475 137:0.0022675737 138:0.0045351475 139:0.0022675737 140:0.0068027209 141:0.0045351475 142:0.0045351475 143:0.0022675737 144:0.0045351475 145:0.0045351475 146:0.0022675737 147:0.0045351475 148:0.0045351475 149:0.0045351475 151:0.0022675737 153:0.0022675737 154:0.0045351475 155:0.0022675737 157:0.0068027209 158:0.0090702949 159:0.0045351475 160:0.0068027209 161:0.0045351475 162:0.0068027209 165:0.0022675737 166:0.0022675737 167:0.0022675737 169:0.0045351475 170:0.0022675737 172:0.0022675737 173:0.0022675737 174:0.0022675737 176:0.0022675737 177:0.0022675737 179:0.0022675737 180:0.0022675737 182:0.0045351475 183:0.0045351475 184:0.0045351475 185:0.0022675737 187:0.0045351475 188:0.0045351475 189:0.0045351475 191:0.0022675737 194:0.0045351475 195:0.0022675737 196:0.011337869 198:0.0045351475 199:0.0045351475 200:0.0022675737 201:0.0045351475 203:0.0022675737 204:0.0068027209 205:0.0045351475 208:0.0045351475 211:0.0022675737 214:0.0022675737 215:0.0045351475 216:0.0022675737 217:0.0022675737 218:0.0022675737 219:0.0022675737 220:0.0022675737 221:0.0045351475 222:0.0022675737 223:0.0068027209 224:0.0022675737 225:0.0022675737 228:0.0045351475 229:0.0022675737 230:0.0022675737 231:0.0022675737 235:0.0022675737 237:0.0022675737 
100000 19:0.0022675737 23:0.0045351475 24:0.0022675737 25:0.011337869 27:0.0090702949 30:0.0045351475 31:0.0068027209 33:0.0090702949 34:0.0090702949 35:0.0022675737 38:0.0045351475 39:0.0022675737 40:0.0022675737 41:0.0045351475 42:0.0022675737 43:0.0022675737 45:0.0068027209 46:0.0068027209 47:0.0090702949 48:0.0045351475 50:0.01814059 51:0.0090702949 52:0.0068027209 53:0.015873017 54:0.011337869 55:0.0045351475 57:0.013605442 58:0.0090702949 59:0.0068027209 60:0.013605442 61:0.0068027209 62:0.013605442 63:0.0068027209 65:0.0045351475 66:0.0090702949 67:0.0022675737 68:0.022675738 70:0.01814059 71:0.011337869 73:0.011337869 74:0.015873017 75:0.011337869 76:0.0045351475 77:0.011337869 78:0.0090702949 79:0.0090702949 80:0.013605442 82:0.01814059 83:0.0090702949 85:0.0022675737 86:0.0045351475 87:0.013605442 88:0.0068027209 89:0.0045351475 90:0.0068027209 91:0.0045351475 92:0.0090702949 93:0.015873017 94:0.0045351475 95:0.015873017 97:0.0090702949 98:0.0022675737 99:0.0068027209 101:0.0090702949 102:0.0090702949 103:0.0090702949 104:0.0090702949 105:0.0068027209 106:0.0090702949 108:0.0090702949 109:0.0045351475 110:0.0045351475 111:0.0045351475 112:0.0045351475 113:0.0090702949 114:0.0068027209 115:0.0090702949 116:0.0068027209 117:0.011337869 119:0.015873017 120:0.011337869 121:0.0090702949 122:0.011337869 123:0.0090702949 124:0.0022675737 125:0.0022675737 126:0.0022675737 127:0.0068027209 128:0.0068027209 129:0.0045351475 130:0.0090702949 131:0.0022675737 132:0.0045351475 133:0.0022675737 134:0.0045351475 136:0.0045351475 137:0.0022675737 138:0.0045351475 139:0.0022675737 140:0.0068027209 141:0.0045351475 142:0.0045351475 143:0.0022675737 144:0.0045351475 145:0.0022675737 146:0.0022675737 147:0.0022675737 148:0.0045351475 149:0.0045351475 151:0.0022675737 153:0.0022675737 154:0.0045351475 155:0.0022675737 157:0.0068027209 158:0.0090702949 159:0.0045351475 160:0.0045351475 161:0.0045351475 162:0.0068027209 165:0.0022675737 166:0.0022675737 167:0.0022675737 169:0.0045351475 170:0.0022675737 172:0.0022675737 173:0.0022675737 174:0.0022675737 176:0.0022675737 177:0.0022675737 179:0.0022675737 180:0.0022675737 182:0.0045351475 183:0.0045351475 184:0.0045351475 185:0.0022675737 187:0.0045351475 188:0.0045351475 189:0.0022675737 191:0.0022675737 194:0.0045351475 195:0.0022675737 196:0.011337869 198:0.0045351475 199:0.0045351475 200:0.0022675737 201:0.0045351475 203:0.0022675737 204:0.0068027209 205:0.0022675737 208:0.0045351475 211:0.0022675737 214:0.0022675737 215:0.0022675737 218:0.0022675737 220:0.0022675737 221:0.0022675737 222:0.0022675737 223:0.0045351475 228:0.0045351475 229:0.0022675737 231:0.0022675737 235:0.0022675737 237:0.0022675737 
100000 61:0.0022675737 63:0.0022675737 65:0.0022675737 66:0.0045351475 68:0.0068027209 70:0.0090702949 71:0.0022675737 73:0.0045351475 74:0.0068027209 75:0.0090702949 76:0.011337869 77:0.0090702949 78:0.011337869 79:0.01814059 80:0.013605442 82:0.024943311 83:0.013605442 85:0.015873017 86:0.022675738 87:0.0090702949 88:0.0068027209 89:0.011337869 90:0.011337869 91:0.01814059 92:0.020408163 93:0.013605442 94:0.015873017 95:0.013605442 97:0.0090702949 98:0.011337869 99:0.013605442 100:0.015873017 101:0.013605442 102:0.011337869 103:0.020408163 104:0.015873017 105:0.011337869 106:0.0090702949 107:0.0090702949 108:0.015873017 109:0.0090702949 110:0.015873017 111:0.013605442 112:0.013605442 113:0.013605442 114:0.020408163 115:0.01814059 116:0.0068027209 117:0.0090702949 119:0.015873017 120:0.0045351475 121:0.020408163 122:0.0068027209 123:0.0068027209 124:0.013605442 125:0.0045351475 126:0.011337869 127:0.0090702949 128:0.013605442 129:0.0068027209 130:0.0068027209 133:0.0090702949 134:0.0090702949 135:0.0045351475 136:0.013605442 137:0.0045351475 138:0.011337869 139:0.0068027209 140:0.0090702949 141:0.013605442 142:0.011337869 143:0.0068027209 144:0.01814059 146:0.0022675737 147:0.011337869 148:0.020408163 149:0.013605442 150:0.011337869 151:0.0022675737 152:0.011337869 153:0.0090702949 154:0.0068027209 155:0.0068027209 156:0.015873017 158:0.0045351475 159:0.0068027209 160:0.0022675737 161:0.0022675737 164:0.0045351475 165:0.0068027209 167:0.0045351475 168:0.0045351475 169:0.0045351475 173:0.0022675737 180:0.011337869 183:0.0022675737 185:0.0022675737 186:0.0022675737 195:0.0022675737 
100000 61:0.0022675737 63:0.0045351475 65:0.0022675737 66:0.0045351475 68:0.0090702949 70:0.0090702949 71:0.0068027209 73:0.0045351475 74:0.0068027209 75:0.011337869 76:0.011337869 77:0.0090702949 78:0.011337869 79:0.022675738 80:0.013605442 82:0.027210884 83:0.013605442 85:0.01814059 86:0.022675738 87:0.0090702949 88:0.0090702949 89:0.011337869 90:0.015873017 91:0.015873017 92:0.022675738 93:0.013605442 94:0.015873017 95:0.015873017 97:0.011337869 98:0.011337869 99:0.013605442 100:0.01814059 101:0.013605442 102:0.011337869 103:0.020408163 104:0.013605442 105:0.0068027209 106:0.0090702949 107:0.0090702949 108:0.013605442 109:0.0090702949 110:0.013605442 111:0.013605442 112:0.013605442 113:0.0090702949 114:0.020408163 115:0.01814059 116:0.0068027209 117:0.0068027209 119:0.015873017 120:0.0045351475 121:0.020408163 122:0.0068027209 123:0.0068027209 124:0.011337869 125:0.0045351475 126:0.011337869 127:0.0090702949 128:0.011337869 129:0.0068027209 130:0.0068027209 133:0.0090702949 134:0.0090702949 135:0.0068027209 136:0.011337869 137:0.0045351475 138:0.0068027209 139:0.0068027209 140:0.0090702949 141:0.013605442 142:0.0090702949 143:0.0045351475 144:0.01814059 145:0.0022675737 146:0.0022675737 147:0.011337869 148:0.015873017 149:0.013605442 150:0.011337869 151:0.0022675737 152:0.011337869 153:0.0090702949 154:0.0068027209 155:0.0068027209 156:0.015873017 158:0.0045351475 159:0.0068027209 160:0.0022675737 161:0.0022675737 164:0.0045351475 165:0.0068027209 167:0.0045351475 168:0.0045351475 169:0.0045351475 173:0.0022675737 180:0.011337869 183:0.0022675737 185:0.0022675737 186:0.0022675737 195:0.0022675737 
100000 61:0.0022675737 62:0.0022675737 63:0.0045351475 65:0.0022675737 66:0.0045351475 68:0.0090702949 70:0.0090702949 71:0.0090702949 73:0.0045351475 74:0.011337869 75:0.01814059 76:0.013605442 77:0.011337869 78:0.011337869 79:0.022675738 80:0.015873017 82:0.029478459 83:0.013605442 85:0.01814059 86:0.022675738 87:0.0090702949 88:0.011337869 89:0.011337869 90:0.01814059 91:0.01814059 92:0.024943311 93:0.013605442 94:0.015873017 95:0.015873017 97:0.011337869 98:0.011337869 99:0.015873017 100:0.01814059 101:0.011337869 102:0.011337869 103:0.020408163 104:0.011337869 105:0.0068027209 106:0.0068027209 107:0.0090702949 108:0.013605442 109:0.011337869 110:0.011337869 111:0.013605442 112:0.0090702949 113:0.0090702949 114:0.01814059 115:0.01814059 116:0.0068027209 117:0.0068027209 119:0.015873017 120:0.0045351475 121:0.015873017 122:0.0068027209 123:0.0068027209 124:0.0068027209 125:0.0045351475 126:0.011337869 127:0.0068027209 128:0.013605442 129:0.0068027209 130:0.0068027209 133:0.0068027209 134:0.0090702949 135:0.0068027209 136:0.011337869 137:0.0045351475 138:0.0068027209 139:0.0045351475 140:0.0090702949 141:0.013605442 142:0.011337869 143:0.0022675737 144:0.013605442 145:0.0022675737 146:0.0022675737 147:0.011337869 148:0.013605442 149:0.013605442 150:0.011337869 151:0.0022675737 152:0.011337869 153:0.0090702949 154:0.0068027209 155:0.0045351475 156:0.01814059 158:0.0045351475 159:0.0068027209 161:0.0022675737 164:0.0045351475 165:0.0068027209 167:0.0045351475 168:0.0045351475 169:0.0045351475 173:0.0022675737 180:0.011337869 183:0.0022675737 185:0.0022675737 186:0.0022675737 195:0.0022675737 
100000 57:0.0022675737 61:0.0022675737 62:0.0090702949 63:0.0068027209 65:0.0045351475 66:0.0045351475 68:0.011337869 70:0.0090702949 71:0.0090702949 73:0.0068027209 74:0.011337869 75:0.01814059 76:0.013605442 77:0.011337869 78:0.013605442 79:0.024943311 80:0.015873017 82:0.029478459 83:0.01814059 85:0.01814059 86:0.022675738 87:0.011337869 88:0.011337869 89:0.011337869 90:0.020408163 91:0.01814059 92:0.024943311 93:0.015873017 94:0.015873017 95:0.015873017 97:0.013605442 98:0.011337869 99:0.01814059 100:0.01814059 101:0.011337869 102:0.011337869 103:0.01814059 104:0.011337869 105:0.0068027209 106:0.0068027209 107:0.0068027209 108:0.013605442 109:0.011337869 110:0.011337869 111:0.011337869 112:0.0068027209 113:0.0090702949 114:0.013605442 115:0.01814059 116:0.0068027209 117:0.0068027209 119:0.013605442 120:0.0045351475 121:0.015873017 122:0.0090702949 123:0.0045351475 124:0.0068027209 125:0.0045351475 126:0.0090702949 127:0.0068027209 128:0.0090702949 129:0.0068027209 130:0.0068027209 133:0.0045351475 134:0.0090702949 135:0.0068027209 136:0.0090702949 137:0.0045351475 138:0.0068027209 139:0.0045351475 140:0.0068027209 141:0.01814059 142:0.0068027209 143:0.0022675737 144:0.013605442 145:0.0022675737 146:0.0022675737 147:0.011337869 148:0.013605442 149:0.011337869 150:0.011337869 151:0.0022675737 152:0.011337869 153:0.0090702949 154:0.0068027209 155:0.0045351475 156:0.015873017 158:0.0045351475 159:0.0045351475 161:0.0022675737 164:0.0045351475 165:0.0045351475 167:0.0045351475 168:0.0045351475 169:0.0045351475 173:0.0022675737 180:0.011337869 183:0.0022675737 185:0.0022675737 186:0.0022675737 195:0.0022675737 
100000 50:0.0022675737 52:0.0022675737 57:0.0045351475 61:0.0045351475 62:0.0090702949 63:0.011337869 65:0.0068027209 66:0.0045351475 68:0.015873017 70:0.0090702949 71:0.0090702949 73:0.0068027209 74:0.011337869 75:0.01814059 76:0.013605442 77:0.015873017 78:0.013605442 79:0.024943311 80:0.015873017 82:0.031746034 83:0.022675738 85:0.01814059 86:0.024943311 87:0.011337869 88:0.011337869 89:0.011337869 90:0.020408163 91:0.01814059 92:0.024943311 93:0.015873017 94:0.015873017 95:0.015873017 97:0.013605442 98:0.011337869 99:0.01814059 100:0.01814059 101:0.011337869 102:0.011337869 103:0.020408163 104:0.011337869 105:0.0068027209 106:0.0090702949 107:0.0068027209 108:0.013605442 109:0.011337869 110:0.0090702949 111:0.0090702949 112:0.0045351475 113:0.0068027209 114:0.0090702949 115:0.01814059 116:0.0045351475 117:0.0068027209 119:0.013605442 120:0.0045351475 121:0.013605442 122:0.0068027209 123:0.0045351475 124:0.0068027209 125:0.0045351475 126:0.0090702949 127:0.0022675737 128:0.0090702949 129:0.0045351475 130:0.0068027209 133:0.0045351475 134:0.0090702949 135:0.0068027209 136:0.0068027209 137:0.0068027209 138:0.0045351475 139:0.0045351475 140:0.0068027209 141:0.01814059 142:0.0068027209 143:0.0022675737 144:0.015873017 145:0.0022675737 146:0.0022675737 147:0.0090702949 148:0.0090702949 149:0.011337869 150:0.011337869 151:0.0022675737 152:0.011337869 153:0.0090702949 154:0.0068027209 155:0.0045351475 156:0.015873017 158:0.0045351475 159:0.0045351475 161:0.0022675737 164:0.0022675737 165:0.0045351475 167:0.0045351475 168:0.0045351475 169:0.0022675737 173:0.0022675737 180:0.011337869 183:0.0022675737 185:0.0022675737 186:0.0022675737 195:0.0022675737 
100000 41:0.0022675737 48:0.0022675737 50:0.0022675737 51:0.0022675737 52:0.0022675737 57:0.0068027209 60:0.0022675737 61:0.0090702949 62:0.013605442 63:0.011337869 65:0.0068027209 66:0.0045351475 68:0.015873017 70:0.011337869 71:0.0090702949 73:0.011337869 74:0.011337869 75:0.01814059 76:0.015873017 77:0.015873017 78:0.013605442 79:0.024943311 80:0.01814059 82:0.031746034 83:0.022675738 85:0.01814059 86:0.027210884 87:0.011337869 88:0.011337869 89:0.011337869 90:0.020408163 91:0.01814059 92:0.024943311 93:0.015873017 94:0.015873017 95:0.015873017 97:0.013605442 98:0.011337869 99:0.01814059 100:0.01814059 101:0.013605442 102:0.0090702949 103:0.020408163 104:0.011337869 105:0.0068027209 106:0.0090702949 107:0.0045351475 108:0.011337869 109:0.0090702949 110:0.0068027209 111:0.0090702949 112:0.0045351475 113:0.0045351475 114:0.0090702949 115:0.013605442 117:0.0045351475 119:0.013605442 120:0.0045351475 121:0.011337869 122:0.0068027209 123:0.0045351475 124:0.0022675737 125:0.0045351475 126:0.0090702949 127:0.0022675737 128:0.0090702949 129:0.0022675737 130:0.0068027209 133:0.0045351475 134:0.0090702949 135:0.0068027209 136:0.0068027209 137:0.0068027209 138:0.0045351475 139:0.0045351475 140:0.0068027209 141:0.01814059 142:0.0068027209 143:0.0022675737 144:0.013605442 145:0.0022675737 146:0.0022675737 147:0.0068027209 148:0.0090702949 149:0.011337869 150:0.011337869 151:0.0022675737 152:0.011337869 153:0.0090702949 154:0.0068027209 155:0.0045351475 156:0.015873017 158:0.0068027209 159:0.0045351475 161:0.0022675737 164:0.0022675737 165:0.0045351475 167:0.0045351475 168:0.0068027209 173:0.0022675737 180:0.011337869 183:0.0022675737 185:0.0022675737 186:0.0022675737 195:0.0022675737 
99391.58593545359 41:0.0045351475 48:0.0022675737 50:0.0022675737 51:0.0045351475 52:0.0022675737 53:0.0045351475 54:0.0022675737 57:0.0068027209 58:0.0045351475 60:0.0068027209 61:0.011337869 62:0.013605442 63:0.011337869 65:0.0090702949 66:0.0045351475 68:0.020408163 70:0.011337869 71:0.0090702949 73:0.013605442 74:0.011337869 75:0.01814059 76:0.015873017 77:0.015873017 78:0.013605442 79:0.024943311 80:0.020408163 82:0.031746034 83:0.022675738 85:0.01814059 86:0.027210884 87:0.011337869 88:0.011337869 89:0.011337869 90:0.020408163 91:0.01814059 92:0.024943311 93:0.015873017 94:0.015873017 95:0.013605442 97:0.013605442 98:0.011337869 99:0.015873017 100:0.01814059 101:0.013605442 102:0.0090702949 103:0.020408163 104:0.0090702949 105:0.0090702949 106:0.0090702949 107:0.0045351475 108:0.0045351475 109:0.0068027209 110:0.0068027209 111:0.0090702949 112:0.0045351475 113:0.0045351475 114:0.0090702949 115:0.011337869 117:0.0022675737 119:0.013605442 120:0.0045351475 121:0.0090702949 122:0.0022675737 123:0.0045351475 124:0.0068027209 125:0.0045351475 126:0.0068027209 127:0.0022675737 128:0.0068027209 129:0.0022675737 130:0.0068027209 133:0.0045351475 134:0.0090702949 135:0.0045351475 136:0.0068027209 137:0.0068027209 138:0.0068027209 139:0.0045351475 140:0.0045351475 141:0.013605442 142:0.0068027209 143:0.0022675737 144:0.011337869 145:0.0022675737 146:0.0022675737 147:0.0068027209 148:0.0090702949 149:0.011337869 150:0.011337869 151:0.0022675737 152:0.0090702949 153:0.0090702949 154:0.0090702949 155:0.0045351475 156:0.015873017 158:0.0045351475 159:0.0045351475 161:0.0022675737 164:0.0022675737 165:0.0045351475 167:0.0045351475 168:0.0068027209 173:0.0022675737 178:0.0022675737 180:0.011337869 183:0.0022675737 185:0.0022675737 186:0.0022675737 195:0.0022675737 
100000 41:0.0045351475 47:0.0022675737 48:0.0022675737 50:0.0022675737 51:0.0045351475 52:0.0068027209 53:0.0068027209 54:0.0022675737 55:0.0045351475 57:0.0068027209 58:0.0045351475 60:0.0090702949 61:0.013605442 62:0.01814059 63:0.015873017 65:0.011337869 66:0.0045351475 67:0.0022675737 68:0.022675738 70:0.011337869 71:0.0090702949 73:0.013605442 74:0.015873017 75:0.020408163 76:0.015873017 77:0.015873017 78:0.015873017 79:0.024943311 80:0.01814059 82:0.034013607 83:0.022675738 85:0.01814059 86:0.027210884 87:0.013605442 88:0.011337869 89:0.01814059 90:0.022675738 91:0.020408163 92:0.027210884 93:0.015873017 94:0.015873017 95:0.013605442 97:0.01814059 98:0.011337869 99:0.015873017 100:0.01814059 101:0.013605442 102:0.0068027209 103:0.015873017 104:0.0090702949 105:0.0068027209 106:0.011337869 107:0.0022675737 108:0.0045351475 109:0.0068027209 110:0.0068027209 111:0.0090702949 112:0.0045351475 113:0.0022675737 114:0.0045351475 115:0.0090702949 116:0.0022675737 117:0.0022675737 119:0.011337869 120:0.0022675737 121:0.0090702949 122:0.0022675737 123:0.0045351475 124:0.0068027209 125:0.0045351475 126:0.0045351475 128:0.0045351475 129:0.0022675737 130:0.0068027209 133:0.0045351475 134:0.011337869 135:0.0022675737 136:0.0068027209 137:0.0045351475 138:0.0068027209 139:0.0045351475 140:0.0045351475 141:0.013605442 142:0.0068027209 143:0.0022675737 144:0.011337869 145:0.0022675737 146:0.0045351475 147:0.0045351475 148:0.0090702949 149:0.0068027209 150:0.0090702949 151:0.0022675737 152:0.0068027209 153:0.0022675737 154:0.0068027209 155:0.0022675737 156:0.013605442 158:0.0022675737 159:0.0045351475 161:0.0022675737 164:0.0022675737 165:0.0022675737 167:0.0045351475 168:0.0068027209 173:0.0022675737 180:0.011337869 183:0.0022675737 186:0.0022675737 
100000 0:0.0068027209 1:0.0022675737 2:0.031746034 3:0.015873017 5:0.074829936 6:0.024943311 7:0.054421768 8:0.022675738 9:0.043083902 10:0.0068027209 11:0.0022675737 12:0.0068027209 14:0.0022675737 15:0.0045351475 17:0.0090702949 18:0.0022675737 19:0.0022675737 21:0.0045351475 27:0.0090702949 28:0.0022675737 30:0.0022675737 31:0.0068027209 34:0.0068027209 35:0.0045351475 36:0.0022675737 38:0.0045351475 39:0.0045351475 40:0.0045351475 43:0.0022675737 45:0.0022675737 47:0.0045351475 48:0.0022675737 50:0.0022675737 51:0.0045351475 52:0.0022675737 55:0.0022675737 59:0.0045351475 60:0.0045351475 61:0.0022675737 62:0.0022675737 63:0.0022675737 66:0.0045351475 67:0.0045351475 68:0.0090702949 70:0.0022675737 71:0.0022675737 73:0.0045351475 74:0.0022675737 77:0.0022675737 78:0.0045351475 80:0.0068027209 82:0.0022675737 83:0.0022675737 85:0.0022675737 86:0.0045351475 87:0.0068027209 88:0.0045351475 89:0.0045351475 90:0.0045351475 91:0.0090702949 92:0.0045351475 93:0.0022675737 94:0.0068027209 95:0.011337869 97:0.0022675737 98:0.0045351475 99:0.011337869 100:0.0045351475 101:0.0045351475 102:0.0045351475 103:0.0068027209 104:0.0022675737 105:0.0090702949 106:0.0045351475 107:0.0068027209 108:0.0045351475 109:0.0068027209 110:0.0045351475 112:0.0022675737 115:0.0022675737 116:0.0022675737 117:0.0068027209 120:0.0022675737 121:0.0045351475 122:0.0045351475 123:0.0090702949 124:0.0022675737 125:0.0068027209 127:0.0045351475 129:0.0022675737 131:0.0022675737 133:0.0022675737 134:0.0022675737 135:0.0022675737 136:0.0022675737 139:0.0022675737 144:0.0022675737 148:0.0022675737 149:0.0045351475 150:0.0022675737 152:0.0022675737 155:0.0022675737 156:0.0022675737 158:0.0022675737 159:0.0045351475 160:0.0022675737 162:0.0022675737 163:0.0022675737 164:0.0045351475 166:0.0045351475 167:0.011337869 168:0.0022675737 170:0.0022675737 171:0.0068027209 172:0.0045351475 173:0.011337869 174:0.0090702949 176:0.0022675737 177:0.0068027209 178:0.0090702949 179:0.0045351475 180:0.011337869 181:0.0068027209 182:0.0068027209 183:0.0068027209 184:0.0045351475 185:0.0045351475 186:0.0045351475 187:0.0022675737 188:0.0022675737 189:0.0022675737 190:0.0022675737 191:0.0068027209 192:0.0045351475 193:0.0045351475 194:0.0045351475 195:0.0045351475 196:0.011337869 198:0.0090702949 199:0.0090702949 200:0.0045351475 201:0.0090702949 202:0.0068027209 203:0.0068027209 204:0.0068027209 206:0.0090702949 207:0.013605442 208:0.0068027209 210:0.020408163 211:0.0022675737 212:0.0045351475 213:0.0022675737 214:0.0068027209 215:0.0022675737 216:0.0068027209 218:0.0022675737 219:0.0045351475 220:0.0045351475 221:0.0022675737 224:0.0022675737 226:0.0022675737 
100000 0:0.0068027209 1:0.0022675737 2:0.029478459 3:0.015873017 5:0.072562359 6:0.022675738 7:0.049886622 8:0.022675738 9:0.022675738 10:0.0068027209 11:0.0022675737 12:0.0068027209 14:0.0022675737 15:0.0022675737 17:0.0090702949 18:0.0022675737 19:0.0022675737 21:0.0045351475 27:0.0090702949 28:0.0022675737 30:0.0022675737 31:0.0068027209 34:0.0068027209 35:0.0045351475 36:0.0022675737 38:0.0045351475 39:0.0045351475 40:0.0022675737 43:0.0022675737 45:0.0022675737 47:0.0045351475 48:0.0022675737 50:0.0022675737 51:0.0045351475 52:0.0022675737 55:0.0022675737 59:0.0045351475 60:0.0022675737 61:0.0022675737 62:0.0022675737 63:0.0022675737 66:0.0045351475 67:0.0045351475 68:0.0090702949 70:0.0022675737 71:0.0022675737 73:0.0045351475 74:0.0022675737 77:0.0022675737 78:0.0045351475 80:0.0068027209 82:0.0022675737 83:0.0022675737 85:0.0022675737 86:0.0045351475 87:0.0068027209 88:0.0045351475 89:0.0045351475 90:0.0045351475 91:0.0045351475 92:0.0045351475 93:0.0045351475 94:0.0068027209 95:0.011337869 97:0.0022675737 98:0.0022675737 99:0.011337869 100:0.0045351475 101:0.0045351475 102:0.0045351475 103:0.0068027209 104:0.0022675737 105:0.0090702949 106:0.0045351475 107:0.0068027209 108:0.0045351475 109:0.0068027209 110:0.0045351475 112:0.0022675737 115:0.0022675737 116:0.0022675737 117:0.0068027209 120:0.0045351475 121:0.0045351475 122:0.0045351475 123:0.0090702949 124:0.0022675737 125:0.0068027209 126:0.0022675737 127:0.0045351475 129:0.0022675737 130:0.0022675737 131:0.0022675737 133:0.0022675737 134:0.0022675737 135:0.0022675737 136:0.0022675737 139:0.0045351475 144:0.0022675737 148:0.0022675737 149:0.0045351475 150:0.0022675737 152:0.0022675737 156:0.0022675737 158:0.0022675737 159:0.0045351475 160:0.0022675737 161:0.0022675737 162:0.0022675737 163:0.0022675737 164:0.0045351475 166:0.011337869 167:0.011337869 168:0.0022675737 170:0.0022675737 171:0.0068027209 172:0.0068027209 173:0.011337869 174:0.013605442 176:0.0022675737 177:0.0068027209 178:0.011337869 179:0.0045351475 180:0.013605442 181:0.0068027209 182:0.0068027209 183:0.0068027209 184:0.0045351475 185:0.0045351475 186:0.0045351475 187:0.0045351475 188:0.0045351475 189:0.0022675737 190:0.0022675737 191:0.0090702949 192:0.0045351475 193:0.0045351475 194:0.0045351475 195:0.0045351475 196:0.013605442 198:0.0090702949 199:0.0090702949 200:0.0045351475 201:0.0090702949 202:0.0068027209 203:0.0068027209 204:0.0068027209 206:0.0090702949 207:0.013605442 208:0.0090702949 210:0.022675738 211:0.0022675737 212:0.0068027209 213:0.0022675737 214:0.0068027209 215:0.0022675737 216:0.0068027209 218:0.0022675737 219:0.0045351475 220:0.0045351475 221:0.0022675737 224:0.0022675737 226:0.0022675737 
17527.69508030026 1:0.0022675737 2:0.0045351475 5:0.027210884 6:0.01814059 7:0.03628118 8:0.0090702949 9:0.047619049 10:0.020408163 11:0.022675738 12:0.034013607 14:0.011337869 15:0.013605442 16:0.0045351475 17:0.0045351475 19:0.0022675737 21:0.0068027209 23:0.0068027209 25:0.0022675737 27:0.013605442 30:0.0022675737 31:0.0045351475 34:0.0068027209 35:0.0022675737 36:0.0022675737 38:0.0045351475 39:0.0068027209 40:0.0022675737 41:0.0022675737 43:0.0022675737 45:0.0022675737 47:0.0045351475 50:0.0045351475 51:0.0022675737 53:0.0022675737 60:0.0022675737 62:0.0022675737 63:0.0022675737 65:0.0022675737 66:0.0022675737 67:0.0068027209 68:0.0045351475 70:0.0022675737 73:0.011337869 75:0.0068027209 77:0.0022675737 80:0.0045351475 82:0.0045351475 85:0.0022675737 86:0.0022675737 87:0.0068027209 89:0.0045351475 90:0.0022675737 91:0.0090702949 92:0.011337869 93:0.0022675737 94:0.0022675737 95:0.0090702949 98:0.013605442 99:0.0045351475 100:0.0045351475 102:0.0022675737 103:0.0045351475 104:0.0090702949 105:0.0068027209 106:0.0022675737 107:0.0045351475 108:0.0022675737 109:0.0068027209 110:0.0022675737 111:0.0022675737 112:0.0022675737 114:0.0045351475 117:0.0022675737 119:0.0045351475 120:0.0022675737 122:0.0068027209 124:0.0022675737 127:0.0022675737 131:0.0045351475 132:0.0022675737 133:0.0022675737 134:0.0022675737 135:0.0022675737 136:0.0045351475 138:0.0022675737 142:0.0022675737 143:0.0022675737 144:0.0045351475 145:0.0022675737 146:0.0022675737 147:0.0022675737 148:0.0045351475 151:0.0022675737 155:0.0090702949 156:0.0045351475 157:0.0022675737 158:0.0068027209 159:0.0022675737 160:0.0022675737 161:0.0045351475 162:0.0022675737 163:0.0022675737 164:0.0068027209 165:0.0090702949 166:0.0068027209 167:0.0068027209 168:0.0022675737 169:0.011337869 170:0.013605442 171:0.0090702949 172:0.0022675737 173:0.0045351475 174:0.0045351475 175:0.0068027209 176:0.011337869 177:0.013605442 178:0.0022675737 179:0.0022675737 180:0.015873017 181:0.0090702949 182:0.0045351475 183:0.0022675737 184:0.0068027209 185:0.0090702949 186:0.013605442 187:0.015873017 188:0.0022675737 189:0.0068027209 190:0.0090702949 191:0.0022675737 192:0.0022675737 193:0.0090702949 194:0.013605442 195:0.015873017 196:0.015873017 198:0.0068027209 199:0.0068027209 200:0.0090702949 201:0.0090702949 202:0.0045351475 203:0.0022675737 204:0.0045351475 205:0.0068027209 206:0.0045351475 207:0.0022675737 208:0.0045351475 209:0.011337869 210:0.0045351475 211:0.0068027209 212:0.0045351475 215:0.0022675737 216:0.0022675737 217:0.0022675737 218:0.0045351475 219:0.0045351475 225:0.0022675737 226:0.0022675737 227:0.0022675737 231:0.0022675737 
100000 1:0.0022675737 2:0.0045351475 5:0.027210884 6:0.013605442 7:0.031746034 8:0.0090702949 9:0.047619049 10:0.01814059 11:0.029478459 12:0.040816326 14:0.0090702949 15:0.013605442 16:0.0068027209 17:0.0022675737 19:0.0045351475 21:0.0068027209 23:0.0068027209 25:0.0045351475 27:0.015873017 31:0.0022675737 34:0.0068027209 36:0.0022675737 38:0.0045351475 39:0.0068027209 40:0.0022675737 41:0.0022675737 43:0.0022675737 45:0.0022675737 47:0.0045351475 50:0.0045351475 51:0.0022675737 53:0.0022675737 60:0.0022675737 62:0.0022675737 63:0.0022675737 65:0.0022675737 67:0.0045351475 68:0.0045351475 70:0.0022675737 73:0.011337869 75:0.0090702949 77:0.0022675737 80:0.0022675737 82:0.0045351475 85:0.0022675737 86:0.0022675737 87:0.0045351475 89:0.0045351475 90:0.0022675737 91:0.0090702949 92:0.011337869 93:0.0022675737 95:0.0045351475 98:0.013605442 99:0.0022675737 100:0.0045351475 102:0.0022675737 103:0.0045351475 104:0.0068027209 105:0.0068027209 106:0.0045351475 107:0.0045351475 108:0.0022675737 109:0.0068027209 110:0.0022675737 111:0.0022675737 112:0.0022675737 114:0.0045351475 117:0.0022675737 119:0.0045351475 120:0.0022675737 122:0.0068027209 124:0.0022675737 125:0.0022675737 127:0.0022675737 128:0.0022675737 131:0.0022675737 132:0.0022675737 133:0.0045351475 134:0.0045351475 135:0.0022675737 136:0.0068027209 138:0.0045351475 142:0.0022675737 143:0.0022675737 144:0.0045351475 145:0.0022675737 146:0.0022675737 147:0.0022675737 148:0.0045351475 151:0.0022675737 155:0.0090702949 156:0.0045351475 157:0.0022675737 158:0.0045351475 159:0.0045351475 160:0.0022675737 161:0.0045351475 162:0.0045351475 163:0.0022675737 164:0.0022675737 165:0.0090702949 166:0.0090702949 167:0.0068027209 168:0.0022675737 169:0.01814059 170:0.013605442 171:0.011337869 172:0.0022675737 173:0.0045351475 174:0.0045351475 175:0.0090702949 176:0.011337869 177:0.015873017 178:0.0022675737 179:0.0045351475 180:0.015873017 181:0.0068027209 182:0.0045351475 184:0.011337869 185:0.0090702949 186:0.015873017 187:0.01814059 188:0.0022675737 189:0.011337869 190:0.011337869 191:0.0022675737 192:0.0022675737 193:0.0090702949 194:0.01814059 195:0.013605442 196:0.01814059 198:0.0045351475 199:0.0068027209 200:0.0068027209 201:0.0068027209 202:0.0022675737 203:0.0022675737 204:0.0022675737 205:0.0090702949 206:0.0045351475 207:0.0022675737 208:0.0022675737 209:0.011337869 210:0.0022675737 211:0.0068027209 212:0.0022675737 215:0.0022675737 217:0.0022675737 218:0.0022675737 219:0.0022675737 225:0.0022675737 227:0.0022675737 
100000 1:0.0022675737 2:0.0045351475 5:0.015873017 6:0.013605442 7:0.011337869 8:0.011337869 9:0.027210884 10:0.015873017 11:0.015873017 12:0.03628118 14:0.0045351475 15:0.013605442 16:0.013605442 17:0.01814059 18:0.0090702949 19:0.0045351475 21:0.0068027209 23:0.0068027209 25:0.0090702949 27:0.020408163 28:0.0022675737 30:0.0022675737 31:0.0022675737 33:0.0022675737 34:0.0045351475 35:0.0022675737 38:0.0068027209 39:0.0090702949 41:0.0045351475 43:0.0022675737 45:0.0045351475 47:0.0022675737 50:0.0045351475 53:0.0022675737 55:0.0022675737 62:0.0022675737 63:0.0022675737 67:0.0022675737 68:0.0068027209 73:0.011337869 74:0.0022675737 75:0.0090702949 76:0.0022675737 78:0.0022675737 79:0.0022675737 80:0.0022675737 82:0.0045351475 85:0.0045351475 86:0.0022675737 87:0.0045351475 89:0.0022675737 90:0.0022675737 91:0.0045351475 92:0.011337869 93:0.0045351475 95:0.0045351475 98:0.0045351475 99:0.0022675737 100:0.0022675737 102:0.0045351475 103:0.0045351475 104:0.0068027209 106:0.0045351475 107:0.0045351475 108:0.0022675737 110:0.0022675737 111:0.0045351475 112:0.0022675737 113:0.0022675737 114:0.0068027209 116:0.0022675737 117:0.0022675737 119:0.0045351475 120:0.0022675737 121:0.0022675737 122:0.0045351475 123:0.0022675737 124:0.0022675737 125:0.0045351475 126:0.0022675737 127:0.0022675737 128:0.0022675737 129:0.0022675737 131:0.0022675737 132:0.0022675737 133:0.0045351475 134:0.0045351475 135:0.0022675737 136:0.0045351475 138:0.0068027209 142:0.0045351475 143:0.0068027209 144:0.0045351475 145:0.0022675737 146:0.0022675737 147:0.0090702949 148:0.0068027209 150:0.0022675737 151:0.0045351475 153:0.0022675737 154:0.0045351475 155:0.0090702949 156:0.0068027209 157:0.0022675737 159:0.0045351475 160:0.0090702949 161:0.0045351475 162:0.0022675737 163:0.0045351475 164:0.0068027209 165:0.0090702949 166:0.0068027209 167:0.0068027209 169:0.01814059 170:0.013605442 171:0.011337869 172:0.0022675737 173:0.013605442 174:0.0045351475 175:0.011337869 176:0.011337869 177:0.015873017 178:0.0045351475 179:0.013605442 180:0.027210884 181:0.0045351475 182:0.0045351475 183:0.0045351475 184:0.015873017 185:0.013605442 186:0.015873017 187:0.013605442 188:0.0045351475 189:0.011337869 190:0.0090702949 191:0.0022675737 192:0.0022675737 193:0.011337869 194:0.013605442 195:0.0090702949 196:0.0045351475 198:0.0090702949 199:0.0045351475 200:0.0068027209 201:0.0090702949 202:0.0022675737 203:0.0022675737 204:0.0022675737 205:0.013605442 208:0.0022675737 209:0.0045351475 210:0.0022675737 211:0.0045351475 215:0.0022675737 
100000 21:0.0022675737 27:0.0022675737 31:0.0022675737 38:0.0045351475 40:0.0022675737 41:0.0022675737 46:0.0022675737 47:0.0022675737 51:0.0045351475 53:0.0045351475 55:0.0022675737 59:0.0022675737 62:0.0022675737 63:0.0022675737 65:0.0022675737 66:0.0022675737 67:0.0022675737 76:0.0022675737 77:0.0022675737 78:0.0022675737 79:0.0022675737 80:0.0045351475 82:0.0068027209 83:0.0090702949 86:0.011337869 87:0.0045351475 88:0.0045351475 89:0.0090702949 90:0.0068027209 91:0.0045351475 92:0.013605442 93:0.0045351475 94:0.0068027209 95:0.0045351475 97:0.0022675737 98:0.0068027209 99:0.0090702949 100:0.011337869 101:0.011337869 102:0.013605442 103:0.020408163 104:0.0090702949 105:0.0090702949 106:0.013605442 107:0.0090702949 108:0.027210884 109:0.027210884 110:0.0090702949 111:0.015873017 112:0.013605442 113:0.0090702949 114:0.01814059 115:0.01814059 116:0.0090702949 117:0.01814059 119:0.0045351475 120:0.020408163 121:0.01814059 122:0.01814059 123:0.0090702949 124:0.013605442 125:0.0090702949 126:0.015873017 127:0.01814059 128:0.013605442 129:0.0090702949 130:0.011337869 131:0.013605442 132:0.0090702949 133:0.013605442 134:0.0068027209 135:0.0090702949 136:0.0068027209 137:0.0022675737 138:0.013605442 139:0.024943311 140:0.0045351475 141:0.0090702949 142:0.011337869 143:0.0090702949 144:0.0068027209 145:0.015873017 146:0.0090702949 147:0.0090702949 148:0.013605442 149:0.013605442 150:0.0045351475 151:0.011337869 152:0.0068027209 153:0.0045351475 155:0.0068027209 156:0.011337869 157:0.0068027209 158:0.011337869 159:0.0045351475 160:0.0068027209 161:0.0045351475 162:0.0022675737 163:0.0068027209 164:0.0022675737 166:0.0068027209 167:0.0022675737 168:0.0045351475 169:0.0022675737 170:0.0090702949 171:0.0022675737 172:0.0068027209 173:0.0045351475 174:0.0022675737 175:0.0045351475 176:0.0068027209 177:0.0045351475 178:0.0068027209 179:0.0090702949 180:0.0068027209 185:0.0045351475 186:0.0045351475 187:0.0022675737 189:0.0045351475 190:0.0068027209 193:0.0022675737 194:0.0045351475 196:0.0022675737 198:0.0022675737 202:0.0022675737 203:0.0022675737 208:0.0022675737 
100000 16:0.0045351475 19:0.0022675737 21:0.0022675737 27:0.0022675737 31:0.0022675737 33:0.0022675737 34:0.0022675737 38:0.0045351475 40:0.0022675737 41:0.0022675737 43:0.0022675737 46:0.0022675737 47:0.0022675737 51:0.0045351475 53:0.0045351475 55:0.0022675737 59:0.0022675737 62:0.0022675737 63:0.0022675737 65:0.0022675737 66:0.0022675737 67:0.0022675737 76:0.0022675737 77:0.0022675737 78:0.0022675737 79:0.0022675737 80:0.0045351475 82:0.0068027209 83:0.0068027209 86:0.011337869 87:0.0045351475 88:0.0090702949 89:0.0090702949 90:0.0068027209 91:0.0090702949 92:0.011337869 93:0.0045351475 94:0.0068027209 95:0.0045351475 97:0.0022675737 98:0.0068027209 99:0.011337869 100:0.011337869 101:0.011337869 102:0.013605442 103:0.01814059 104:0.0090702949 105:0.0090702949 106:0.013605442 107:0.0090702949 108:0.024943311 109:0.027210884 110:0.0090702949 111:0.01814059 112:0.013605442 113:0.0090702949 114:0.015873017 115:0.01814059 116:0.0068027209 117:0.020408163 119:0.0045351475 120:0.015873017 121:0.013605442 122:0.015873017 123:0.0090702949 124:0.011337869 125:0.0090702949 126:0.01814059 127:0.015873017 128:0.013605442 129:0.0090702949 130:0.011337869 131:0.013605442 132:0.0068027209 133:0.011337869 134:0.0068027209 135:0.0090702949 136:0.0068027209 137:0.0022675737 138:0.011337869 139:0.027210884 140:0.0045351475 141:0.0090702949 142:0.0090702949 143:0.0090702949 144:0.0068027209 145:0.015873017 146:0.0090702949 147:0.0068027209 148:0.013605442 149:0.013605442 150:0.0045351475 151:0.011337869 152:0.0090702949 153:0.0045351475 155:0.0068027209 156:0.011337869 157:0.0068027209 158:0.011337869 159:0.0045351475 160:0.0068027209 161:0.0045351475 162:0.0022675737 163:0.0068027209 164:0.0022675737 165:0.0022675737 166:0.0068027209 167:0.0022675737 168:0.0045351475 169:0.0022675737 170:0.011337869 171:0.0022675737 172:0.0068027209 173:0.0045351475 174:0.0022675737 175:0.0045351475 176:0.0068027209 177:0.0045351475 178:0.0068027209 179:0.0090702949 180:0.0068027209 185:0.0045351475 186:0.0045351475 187:0.0022675737 189:0.0045351475 190:0.0068027209 193:0.0022675737 194:0.0045351475 196:0.0022675737 198:0.0022675737 202:0.0022675737 203:0.0022675737 208:0.0022675737 
27388.07182853523 15:0.0022675737 16:0.0090702949 18:0.0022675737 19:0.0045351475 21:0.0022675737 25:0.0045351475 27:0.0022675737 31:0.0022675737 33:0.0022675737 34:0.0022675737 38:0.0045351475 40:0.0045351475 41:0.0022675737 43:0.0045351475 45:0.0022675737 46:0.0022675737 47:0.0045351475 50:0.0022675737 51:0.0045351475 52:0.0022675737 53:0.0045351475 55:0.0022675737 57:0.0022675737 59:0.0022675737 61:0.0022675737 62:0.0045351475 63:0.0022675737 65:0.0022675737 66:0.0022675737 67:0.0022675737 68:0.0045351475 76:0.0022675737 77:0.0045351475 78:0.0022675737 79:0.0022675737 80:0.0045351475 82:0.011337869 83:0.0068027209 86:0.011337869 87:0.0045351475 88:0.0090702949 89:0.0090702949 90:0.0068027209 91:0.0090702949 92:0.013605442 93:0.0022675737 94:0.0068027209 95:0.0068027209 97:0.0022675737 98:0.0068027209 99:0.011337869 100:0.0090702949 101:0.011337869 102:0.015873017 103:0.01814059 104:0.011337869 105:0.0090702949 106:0.011337869 107:0.0090702949 108:0.024943311 109:0.022675738 110:0.0068027209 111:0.015873017 112:0.011337869 113:0.0090702949 114:0.013605442 115:0.01814059 116:0.0045351475 117:0.015873017 119:0.0022675737 120:0.013605442 121:0.011337869 122:0.011337869 123:0.0090702949 124:0.0090702949 125:0.0090702949 126:0.015873017 127:0.0068027209 128:0.011337869 129:0.0068027209 130:0.0068027209 131:0.011337869 132:0.0090702949 133:0.011337869 134:0.0068027209 135:0.011337869 136:0.0068027209 137:0.0068027209 138:0.011337869 139:0.027210884 140:0.0022675737 141:0.0090702949 142:0.0090702949 143:0.011337869 144:0.0068027209 145:0.015873017 146:0.0090702949 147:0.0068027209 148:0.011337869 149:0.011337869 150:0.0068027209 151:0.011337869 152:0.0090702949 153:0.0045351475 155:0.0068027209 156:0.011337869 157:0.0090702949 158:0.011337869 159:0.0045351475 160:0.0068027209 161:0.0045351475 162:0.0022675737 163:0.0068027209 165:0.0022675737 166:0.0068027209 167:0.0022675737 168:0.0045351475 169:0.0022675737 170:0.011337869 171:0.0022675737 172:0.0068027209 173:0.0045351475 174:0.0022675737 175:0.0045351475 176:0.0068027209 177:0.0045351475 178:0.0068027209 179:0.0090702949 180:0.0068027209 185:0.0045351475 186:0.0045351475 187:0.0022675737 189:0.0045351475 190:0.0068027209 193:0.0022675737 194:0.0045351475 196:0.0022675737 198:0.0022675737 202:0.0022675737 203:0.0022675737 208:0.0022675737 
100000 0:0.015873017 1:0.027210884 2:0.09297052 3:0.020408163 5:0.074829936 6:0.011337869 7:0.011337869 8:0.0068027209 9:0.011337869 10:0.0022675737 11:0.0022675737 12:0.0022675737 15:0.0022675737 17:0.0022675737 18:0.0045351475 21:0.0068027209 23:0.0022675737 24:0.0022675737 25:0.0022675737 27:0.0045351475 28:0.0090702949 30:0.0045351475 31:0.0045351475 33:0.0045351475 34:0.0022675737 35:0.0022675737 36:0.0045351475 38:0.0090702949 39:0.0045351475 40:0.0022675737 41:0.0022675737 42:0.0022675737 43:0.0068027209 45:0.0022675737 46:0.0022675737 47:0.011337869 48:0.0022675737 50:0.0045351475 51:0.0045351475 53:0.0022675737 55:0.0045351475 57:0.0022675737 58:0.0022675737 59:0.0022675737 60:0.0022675737 61:0.0045351475 62:0.0068027209 63:0.0045351475 66:0.0045351475 67:0.0022675737 68:0.0022675737 73:0.0022675737 74:0.0022675737 76:0.0022675737 78:0.0022675737 80:0.0022675737 82:0.0045351475 85:0.0045351475 86:0.0022675737 87:0.0022675737 88:0.0022675737 89:0.0022675737 90:0.0022675737 92:0.0045351475 93:0.0022675737 94:0.0068027209 95:0.0068027209 97:0.0022675737 98:0.0022675737 99:0.0068027209 100:0.0022675737 101:0.0022675737 102:0.0022675737 103:0.011337869 104:0.0022675737 105:0.0045351475 106:0.0022675737 107:0.0068027209 108:0.0045351475 110:0.0022675737 111:0.0022675737 112:0.0022675737 113:0.0022675737 114:0.0022675737 115:0.0022675737 116:0.0022675737 117:0.0068027209 120:0.0022675737 121:0.0045351475 122:0.0068027209 123:0.0068027209 124:0.0045351475 125:0.0090702949 126:0.0045351475 127:0.0068027209 130:0.0022675737 131:0.0045351475 132:0.0045351475 133:0.0045351475 134:0.0045351475 135:0.0022675737 136:0.0022675737 137:0.0022675737 138:0.0022675737 139:0.0022675737 140:0.0045351475 142:0.0022675737 146:0.0022675737 148:0.0045351475 149:0.0022675737 150:0.0022675737 151:0.0022675737 156:0.0068027209 159:0.0022675737 160:0.0022675737 162:0.0022675737 163:0.0045351475 164:0.0022675737 166:0.0022675737 167:0.0045351475 172:0.0022675737 173:0.0022675737 174:0.0022675737 177:0.0090702949 178:0.0045351475 179:0.0022675737 180:0.0068027209 181:0.0045351475 182:0.011337869 183:0.011337869 184:0.0045351475 185:0.0022675737 186:0.0068027209 187:0.0090702949 188:0.0090702949 189:0.011337869 190:0.0090702949 191:0.0022675737 192:0.0045351475 193:0.022675738 194:0.0090702949 195:0.01814059 196:0.020408163 198:0.0068027209 199:0.0090702949 200:0.0068027209 201:0.0022675737 202:0.0022675737 203:0.0090702949 205:0.0090702949 207:0.0045351475 208:0.0090702949 209:0.0022675737 211:0.0068027209 212:0.0045351475 213:0.0045351475 215:0.0022675737 216:0.0068027209 217:0.0068027209 218:0.0045351475 219:0.011337869 220:0.0045351475 221:0.0090702949 227:0.0022675737 231:0.0022675737 234:0.0022675737 235:0.0022675737 
100000 46:0.0022675737 47:0.0045351475 48:0.0022675737 50:0.0045351475 53:0.0022675737 54:0.0022675737 58:0.0022675737 60:0.0022675737 62:0.0022675737 65:0.0022675737 66:0.0022675737 67:0.0045351475 68:0.0068027209 70:0.0068027209 73:0.0090702949 74:0.0068027209 75:0.0090702949 76:0.0022675737 77:0.0045351475 78:0.0022675737 79:0.0045351475 82:0.011337869 83:0.013605442 85:0.011337869 86:0.0045351475 87:0.020408163 88:0.0090702949 89:0.0045351475 90:0.011337869 91:0.0090702949 92:0.011337869 93:0.013605442 94:0.0045351475 95:0.0045351475 97:0.01814059 98:0.011337869 99:0.013605442 101:0.011337869 102:0.011337869 103:0.0090702949 104:0.011337869 105:0.0068027209 106:0.013605442 108:0.015873017 109:0.0090702949 110:0.0068027209 111:0.0045351475 112:0.0090702949 113:0.011337869 114:0.013605442 115:0.011337869 116:0.011337869 117:0.011337869 119:0.015873017 120:0.015873017 121:0.013605442 122:0.01814059 123:0.0090702949 124:0.0045351475 125:0.0045351475 126:0.0068027209 127:0.0045351475 128:0.0068027209 129:0.0045351475 130:0.0068027209 132:0.0045351475 133:0.0022675737 134:0.0022675737 135:0.0022675737 136:0.0045351475 137:0.0022675737 138:0.0022675737 139:0.0022675737 140:0.0022675737 141:0.0068027209 142:0.0045351475 143:0.0022675737 144:0.0068027209 145:0.0045351475 146:0.0022675737 147:0.0022675737 148:0.0068027209 149:0.0068027209 151:0.0022675737 152:0.0022675737 153:0.0022675737 154:0.0045351475 156:0.0022675737 157:0.0045351475 158:0.011337869 159:0.0045351475 160:0.0090702949 161:0.0090702949 162:0.011337869 164:0.0022675737 165:0.0022675737 166:0.0022675737 167:0.0045351475 168:0.0022675737 169:0.0068027209 170:0.0022675737 171:0.0045351475 172:0.0045351475 173:0.0090702949 174:0.0045351475 175:0.0068027209 176:0.0022675737 177:0.0045351475 179:0.0045351475 180:0.0068027209 181:0.0022675737 182:0.0068027209 183:0.0068027209 184:0.0045351475 186:0.0022675737 187:0.0045351475 188:0.0045351475 190:0.0045351475 191:0.0045351475 192:0.0068027209 194:0.011337869 195:0.0022675737 196:0.0090702949 198:0.0068027209 199:0.0045351475 200:0.0022675737 201:0.0022675737 202:0.0022675737 203:0.0045351475 204:0.0045351475 205:0.0045351475 206:0.0022675737 207:0.0090702949 208:0.0022675737 209:0.0068027209 210:0.0022675737 211:0.0022675737 212:0.0045351475 213:0.0022675737 214:0.0045351475 216:0.0090702949 217:0.0045351475 218:0.0022675737 219:0.015873017 220:0.0045351475 221:0.0045351475 222:0.0045351475 223:0.0090702949 224:0.0045351475 225:0.011337869 226:0.0045351475 227:0.0090702949 228:0.011337869 229:0.0022675737 230:0.0045351475 231:0.0045351475 232:0.0045351475 234:0.0045351475 237:0.0045351475 238:0.0022675737 
100000 39:0.0022675737 46:0.0022675737 47:0.0068027209 48:0.0022675737 50:0.0045351475 53:0.0045351475 54:0.0022675737 57:0.0022675737 58:0.0068027209 60:0.0022675737 62:0.0022675737 66:0.0022675737 67:0.0045351475 68:0.0045351475 70:0.0068027209 73:0.0090702949 74:0.0068027209 75:0.011337869 76:0.0022675737 77:0.0045351475 78:0.0045351475 79:0.0045351475 82:0.013605442 83:0.015873017 85:0.011337869 86:0.0068027209 87:0.01814059 88:0.0090702949 89:0.0068027209 90:0.013605442 91:0.0090702949 92:0.011337869 93:0.01814059 94:0.0045351475 95:0.011337869 97:0.01814059 98:0.0090702949 99:0.013605442 101:0.011337869 102:0.011337869 103:0.0090702949 104:0.011337869 105:0.0068027209 106:0.013605442 108:0.015873017 109:0.0090702949 110:0.0068027209 111:0.0045351475 112:0.0090702949 113:0.011337869 114:0.013605442 115:0.011337869 116:0.011337869 117:0.011337869 119:0.015873017 120:0.015873017 121:0.013605442 122:0.01814059 123:0.011337869 124:0.0045351475 125:0.0045351475 126:0.0068027209 127:0.0045351475 128:0.0068027209 129:0.0045351475 130:0.0068027209 132:0.0045351475 133:0.0022675737 134:0.0022675737 135:0.0022675737 136:0.0045351475 137:0.0022675737 138:0.0022675737 139:0.0022675737 140:0.0022675737 141:0.0045351475 142:0.0045351475 143:0.0022675737 144:0.0068027209 145:0.0045351475 146:0.0022675737 147:0.0022675737 148:0.0068027209 149:0.0068027209 151:0.0022675737 152:0.0022675737 153:0.0022675737 154:0.0045351475 155:0.0022675737 156:0.0022675737 157:0.0045351475 158:0.011337869 159:0.0045351475 160:0.0090702949 161:0.0090702949 162:0.011337869 164:0.0022675737 165:0.0022675737 166:0.0022675737 167:0.0045351475 168:0.0022675737 169:0.0068027209 170:0.0022675737 171:0.0022675737 172:0.0045351475 173:0.0045351475 174:0.0045351475 175:0.0045351475 176:0.0022675737 177:0.0045351475 179:0.0045351475 180:0.0068027209 181:0.0022675737 182:0.0068027209 183:0.0045351475 184:0.0045351475 186:0.0022675737 187:0.0045351475 188:0.0045351475 190:0.0045351475 191:0.0045351475 192:0.0068027209 194:0.0090702949 195:0.0022675737 196:0.0090702949 198:0.0068027209 199:0.0045351475 200:0.0022675737 201:0.0022675737 202:0.0022675737 203:0.0045351475 204:0.0045351475 205:0.0045351475 206:0.0022675737 207:0.0090702949 208:0.0022675737 209:0.0068027209 210:0.0022675737 211:0.0022675737 212:0.0045351475 213:0.0022675737 214:0.0045351475 216:0.0045351475 217:0.0045351475 218:0.0022675737 219:0.015873017 220:0.0022675737 221:0.0022675737 222:0.0045351475 223:0.0090702949 224:0.0045351475 225:0.011337869 226:0.0045351475 227:0.0068027209 228:0.011337869 230:0.0045351475 231:0.0045351475 232:0.0045351475 234:0.0022675737 237:0.0022675737 
100000 19:0.0022675737 23:0.0045351475 24:0.0022675737 25:0.011337869 27:0.0090702949 30:0.0045351475 31:0.0068027209 33:0.0090702949 34:0.0090702949 35:0.0022675737 38:0.0045351475 39:0.0022675737 40:0.0022675737 41:0.0068027209 42:0.0022675737 43:0.0045351475 45:0.0090702949 46:0.0045351475 47:0.0090702949 48:0.0068027209 50:0.015873017 51:0.0090702949 52:0.0045351475 53:0.015873017 54:0.011337869 55:0.0045351475 57:0.011337869 58:0.0090702949 59:0.0068027209 60:0.013605442 61:0.0068027209 62:0.011337869 63:0.0045351475 65:0.0045351475 66:0.0090702949 67:0.0022675737 68:0.01814059 70:0.015873017 71:0.0068027209 73:0.0068027209 74:0.0090702949 75:0.0090702949 76:0.0022675737 77:0.0068027209 78:0.0068027209 79:0.0090702949 80:0.011337869 82:0.0090702949 83:0.0090702949 85:0.0045351475 86:0.0022675737 87:0.015873017 88:0.0068027209 89:0.0022675737 90:0.0090702949 91:0.0045351475 92:0.0090702949 93:0.011337869 94:0.0022675737 95:0.0022675737 97:0.0068027209 98:0.0045351475 99:0.0068027209 101:0.0090702949 102:0.011337869 103:0.0068027209 104:0.0090702949 105:0.0068027209 106:0.011337869 108:0.0068027209 109:0.0045351475 110:0.0022675737 111:0.0022675737 112:0.0045351475 113:0.0090702949 114:0.0068027209 115:0.0068027209 116:0.0068027209 117:0.011337869 119:0.0090702949 120:0.0022675737 121:0.0022675737 122:0.0090702949 123:0.0068027209 125:0.0045351475 126:0.0022675737 127:0.0068027209 128:0.0068027209 129:0.0045351475 130:0.0090702949 131:0.0022675737 132:0.0045351475 133:0.0022675737 134:0.0045351475 136:0.0045351475 137:0.0022675737 138:0.0045351475 139:0.0022675737 140:0.0068027209 141:0.0045351475 142:0.0045351475 143:0.0022675737 144:0.0068027209 145:0.0045351475 146:0.0022675737 147:0.0045351475 148:0.0068027209 149:0.0090702949 151:0.0022675737 153:0.0022675737 154:0.0045351475 155:0.0022675737 156:0.0022675737 157:0.0068027209 158:0.0090702949 159:0.0045351475 160:0.0068027209 161:0.0068027209 162:0.0068027209 164:0.0022675737 165:0.0022675737 166:0.0022675737 167:0.0022675737 169:0.0045351475 170:0.0022675737 172:0.0022675737 173:0.0022675737 174:0.0022675737 176:0.0022675737 177:0.0022675737 179:0.0022675737 180:0.0045351475 182:0.0045351475 183:0.0045351475 184:0.0045351475 185:0.0022675737 187:0.0068027209 188:0.0045351475 189:0.0045351475 191:0.0022675737 192:0.0022675737 194:0.0045351475 195:0.0022675737 196:0.011337869 198:0.0045351475 199:0.0045351475 200:0.0022675737 201:0.0045351475 202:0.0022675737 203:0.0022675737 204:0.0090702949 205:0.0068027209 207:0.0022675737 208:0.0090702949 211:0.0022675737 212:0.0022675737 213:0.0022675737 214:0.0022675737 215:0.0090702949 216:0.0045351475 217:0.0022675737 218:0.0022675737 219:0.0022675737 220:0.0022675737 221:0.0045351475 222:0.0045351475 223:0.0090702949 224:0.0022675737 225:0.0045351475 226:0.0022675737 228:0.0068027209 229:0.0022675737 230:0.0045351475 231:0.0045351475 232:0.0022675737 235:0.0022675737 236:0.0045351475 237:0.0022675737 
100000 19:0.0022675737 23:0.0045351475 24:0.0022675737 25:0.011337869 27:0.0090702949 30:0.0045351475 31:0.0068027209 33:0.0090702949 34:0.0090702949 35:0.0022675737 38:0.0045351475 39:0.0022675737 40:0.0022675737 41:0.0068027209 42:0.0022675737 43:0.0045351475 45:0.0090702949 46:0.0068027209 47:0.0090702949 48:0.0068027209 50:0.01814059 51:0.0090702949 52:0.0068027209 53:0.015873017 54:0.013605442 55:0.0045351475 57:0.013605442 58:0.0090702949 59:0.0045351475 60:0.015873017 61:0.0068027209 62:0.013605442 63:0.0045351475 65:0.0045351475 66:0.011337869 67:0.0045351475 68:0.013605442 70:0.01814059 71:0.0090702949 73:0.0090702949 74:0.013605442 75:0.013605442 76:0.0022675737 77:0.0045351475 78:0.0068027209 79:0.0090702949 80:0.011337869 82:0.013605442 83:0.0068027209 85:0.0022675737 86:0.0022675737 87:0.013605442 88:0.0045351475 89:0.0022675737 90:0.0068027209 91:0.0022675737 92:0.0068027209 93:0.011337869 95:0.0022675737 97:0.0068027209 98:0.0045351475 99:0.0068027209 101:0.0090702949 102:0.011337869 103:0.0090702949 104:0.0068027209 105:0.0068027209 106:0.011337869 108:0.0068027209 109:0.0045351475 111:0.0022675737 112:0.0045351475 113:0.0090702949 114:0.0045351475 115:0.0068027209 116:0.0022675737 117:0.0068027209 119:0.0068027209 121:0.0022675737 122:0.0090702949 123:0.0045351475 125:0.0022675737 126:0.0022675737 127:0.0068027209 128:0.0068027209 129:0.0045351475 130:0.0090702949 131:0.0022675737 132:0.0045351475 133:0.0022675737 134:0.0045351475 136:0.0045351475 137:0.0022675737 138:0.0045351475 139:0.0045351475 140:0.0068027209 141:0.0045351475 142:0.0045351475 143:0.0045351475 144:0.0068027209 145:0.0045351475 146:0.0022675737 147:0.0045351475 148:0.0045351475 149:0.0090702949 151:0.0045351475 153:0.0045351475 154:0.0045351475 155:0.0022675737 156:0.0022675737 157:0.0068027209 158:0.0090702949 159:0.0045351475 160:0.0068027209 161:0.0068027209 162:0.0068027209 165:0.0022675737 166:0.0045351475 167:0.0022675737 169:0.0045351475 170:0.0022675737 172:0.0022675737 173:0.0022675737 174:0.0022675737 176:0.0022675737 177:0.0022675737 179:0.0045351475 180:0.0045351475 182:0.0045351475 183:0.0045351475 184:0.0045351475 185:0.0022675737 187:0.0045351475 188:0.0045351475 189:0.0045351475 191:0.0045351475 194:0.0045351475 195:0.0022675737 196:0.011337869 198:0.0045351475 199:0.0045351475 200:0.0022675737 201:0.0045351475 202:0.0022675737 203:0.0022675737 204:0.0090702949 205:0.0045351475 208:0.0068027209 211:0.0022675737 213:0.0022675737 214:0.0022675737 215:0.0045351475 216:0.0022675737 217:0.0022675737 218:0.0045351475 219:0.0022675737 220:0.0022675737 221:0.0068027209 222:0.0045351475 223:0.0090702949 224:0.0022675737 225:0.0045351475 226:0.0022675737 227:0.0022675737 228:0.011337869 229:0.0068027209 230:0.0045351475 231:0.0022675737 235:0.0045351475 236:0.0045351475 237:0.0022675737 240:0.0022675737 241:0.0022675737 
75201.13969611902 19:0.0022675737 23:0.0045351475 24:0.0022675737 25:0.011337869 27:0.0090702949 30:0.0045351475 31:0.0068027209 33:0.0090702949 34:0.0090702949 35:0.0022675737 38:0.0045351475 39:0.0022675737 40:0.0022675737 41:0.0068027209 42:0.0022675737 43:0.0045351475 45:0.0090702949 46:0.0068027209 47:0.0090702949 48:0.0068027209 50:0.01814059 51:0.0090702949 52:0.0068027209 53:0.015873017 54:0.013605442 55:0.0045351475 57:0.015873017 58:0.0090702949 59:0.0045351475 60:0.015873017 61:0.0068027209 62:0.013605442 63:0.0045351475 65:0.0045351475 66:0.011337869 67:0.0045351475 68:0.013605442 70:0.020408163 71:0.0090702949 73:0.0090702949 74:0.015873017 75:0.01814059 76:0.0022675737 77:0.011337869 78:0.0068027209 79:0.011337869 80:0.015873017 82:0.022675738 83:0.011337869 85:0.0022675737 86:0.0045351475 87:0.013605442 88:0.0045351475 89:0.0022675737 90:0.0045351475 91:0.0022675737 92:0.0068027209 93:0.011337869 94:0.0022675737 95:0.0022675737 97:0.0090702949 98:0.0045351475 99:0.0068027209 101:0.0090702949 102:0.0090702949 103:0.0068027209 104:0.0045351475 105:0.0068027209 106:0.011337869 108:0.0068027209 109:0.0045351475 111:0.0022675737 112:0.0045351475 113:0.0090702949 114:0.0045351475 115:0.0068027209 116:0.0022675737 117:0.0068027209 119:0.0068027209 121:0.0022675737 122:0.0090702949 123:0.0045351475 125:0.0022675737 126:0.0022675737 127:0.0068027209 128:0.0068027209 129:0.0045351475 130:0.0090702949 131:0.0022675737 132:0.0045351475 133:0.0022675737 134:0.0045351475 136:0.0045351475 137:0.0022675737 138:0.0045351475 139:0.0045351475 140:0.0068027209 141:0.0022675737 142:0.0045351475 143:0.0045351475 144:0.0068027209 145:0.0045351475 146:0.0022675737 147:0.0045351475 148:0.0045351475 149:0.0090702949 151:0.0045351475 153:0.0045351475 154:0.0045351475 155:0.0022675737 156:0.0022675737 157:0.0068027209 158:0.0090702949 159:0.0045351475 160:0.0068027209 161:0.0068027209 162:0.0045351475 165:0.0022675737 166:0.0045351475 169:0.0022675737 170:0.0022675737 172:0.0022675737 173:0.0022675737 174:0.0022675737 176:0.0022675737 177:0.0022675737 179:0.0045351475 180:0.0045351475 182:0.0045351475 183:0.0045351475 184:0.0022675737 185:0.0022675737 187:0.0045351475 188:0.0045351475 189:0.0045351475 191:0.0022675737 194:0.0045351475 195:0.0022675737 196:0.0090702949 198:0.0045351475 199:0.0022675737 200:0.0022675737 201:0.0022675737 202:0.0022675737 203:0.0022675737 204:0.0045351475 205:0.0045351475 208:0.0045351475 211:0.0022675737 213:0.0022675737 214:0.0022675737 215:0.0045351475 216:0.0022675737 218:0.0022675737 219:0.0022675737 220:0.0022675737 221:0.0068027209 222:0.0022675737 223:0.0090702949 224:0.0022675737 225:0.0045351475 226:0.0022675737 227:0.0022675737 228:0.011337869 229:0.0068027209 230:0.0045351475 235:0.0045351475 236:0.0045351475 237:0.0022675737 240:0.0022675737 241:0.0022675737 
100000 14:0.0022675737 19:0.0022675737 23:0.0045351475 24:0.0022675737 25:0.011337869 27:0.011337869 30:0.0068027209 31:0.0068027209 33:0.0090702949 34:0.0090702949 35:0.0022675737 36:0.0045351475 38:0.0045351475 39:0.0045351475 40:0.0045351475 41:0.0090702949 42:0.0045351475 43:0.0045351475 45:0.011337869 46:0.0090702949 47:0.011337869 48:0.0068027209 50:0.013605442 51:0.011337869 52:0.0068027209 53:0.013605442 54:0.015873017 55:0.0090702949 57:0.011337869 58:0.0068027209 59:0.0090702949 60:0.0090702949 61:0.0045351475 62:0.011337869 63:0.0045351475 65:0.0045351475 66:0.015873017 67:0.0068027209 68:0.024943311 70:0.020408163 71:0.0068027209 73:0.0090702949 74:0.013605442 75:0.022675738 76:0.013605442 77:0.013605442 78:0.015873017 79:0.013605442 80:0.015873017 82:0.024943311 83:0.013605442 85:0.011337869 86:0.01814059 87:0.011337869 88:0.0090702949 89:0.020408163 90:0.0068027209 91:0.0068027209 92:0.0045351475 93:0.0090702949 94:0.013605442 95:0.0022675737 97:0.013605442 98:0.0090702949 99:0.0090702949 100:0.0068027209 101:0.0068027209 102:0.0068027209 103:0.0045351475 104:0.0045351475 105:0.0045351475 106:0.011337869 107:0.0045351475 109:0.0022675737 110:0.0022675737 112:0.0022675737 114:0.0022675737 115:0.0090702949 116:0.0022675737 119:0.0045351475 122:0.0022675737 123:0.0045351475 125:0.0045351475 127:0.0022675737 128:0.0022675737 129:0.0022675737 130:0.0045351475 131:0.0045351475 133:0.0022675737 134:0.0045351475 136:0.0045351475 138:0.0068027209 139:0.0045351475 140:0.0068027209 141:0.0045351475 143:0.0022675737 144:0.0022675737 145:0.0045351475 147:0.0068027209 148:0.0022675737 149:0.0045351475 150:0.0022675737 151:0.0022675737 153:0.0022675737 154:0.0022675737 155:0.0045351475 156:0.0045351475 157:0.0022675737 158:0.0022675737 159:0.0045351475 160:0.0022675737 161:0.0022675737 162:0.0068027209 163:0.0022675737 164:0.0022675737 166:0.0022675737 169:0.0022675737 170:0.0022675737 172:0.0022675737 173:0.0022675737 174:0.0045351475 177:0.0022675737 178:0.0022675737 179:0.0022675737 180:0.0045351475 181:0.0022675737 182:0.0045351475 184:0.0022675737 185:0.0045351475 188:0.0045351475 191:0.0022675737 196:0.0045351475 198:0.0068027209 200:0.0022675737 201:0.0022675737 202:0.0022675737 205:0.0022675737 207:0.0022675737 208:0.0022675737 210:0.0045351475 213:0.0022675737 215:0.0045351475 216:0.0022675737 218:0.0022675737 219:0.0022675737 221:0.0068027209 222:0.0022675737 223:0.0022675737 224:0.0045351475 225:0.0022675737 226:0.0022675737 228:0.0090702949 229:0.0045351475 230:0.0045351475 232:0.0022675737 235:0.0045351475 236:0.0022675737 237:0.0022675737 238:0.0022675737 240:0.0022675737 252:0.0022675737 
100000 14:0.0022675737 19:0.0022675737 23:0.0045351475 24:0.0022675737 25:0.011337869 27:0.011337869 30:0.0068027209 31:0.0090702949 33:0.011337869 34:0.0090702949 35:0.0022675737 36:0.0045351475 38:0.0045351475 39:0.0045351475 40:0.0068027209 41:0.011337869 42:0.0045351475 43:0.0045351475 45:0.013605442 46:0.0090702949 47:0.011337869 48:0.0068027209 50:0.01814059 51:0.011337869 52:0.0090702949 53:0.013605442 54:0.015873017 55:0.0090702949 57:0.011337869 58:0.0068027209 59:0.0090702949 60:0.0045351475 61:0.0045351475 62:0.011337869 63:0.0045351475 65:0.0068027209 66:0.015873017 67:0.0045351475 68:0.027210884 70:0.01814059 71:0.011337869 73:0.0090702949 74:0.013605442 75:0.01814059 76:0.011337869 77:0.013605442 78:0.01814059 79:0.011337869 80:0.015873017 82:0.022675738 83:0.013605442 85:0.011337869 86:0.01814059 87:0.0090702949 88:0.0090702949 89:0.01814059 90:0.0068027209 91:0.0090702949 92:0.0068027209 93:0.0090702949 94:0.015873017 95:0.0022675737 97:0.011337869 98:0.0090702949 99:0.0090702949 100:0.0068027209 101:0.0022675737 102:0.0068027209 103:0.0045351475 104:0.0045351475 105:0.0045351475 106:0.0090702949 107:0.0045351475 109:0.0022675737 110:0.0022675737 112:0.0022675737 113:0.0022675737 114:0.0022675737 115:0.0090702949 116:0.0022675737 119:0.0022675737 122:0.0022675737 123:0.0045351475 125:0.0022675737 127:0.0022675737 128:0.0022675737 129:0.0022675737 130:0.0045351475 131:0.0045351475 133:0.0022675737 134:0.0045351475 136:0.0022675737 138:0.0068027209 139:0.0045351475 140:0.0045351475 141:0.0022675737 143:0.0022675737 144:0.0022675737 145:0.0022675737 147:0.0068027209 148:0.0022675737 149:0.0045351475 150:0.0022675737 151:0.0022675737 153:0.0022675737 154:0.0022675737 155:0.0045351475 156:0.0045351475 157:0.0022675737 158:0.0022675737 159:0.0045351475 160:0.0022675737 161:0.0022675737 162:0.0045351475 163:0.0022675737 164:0.0022675737 166:0.0022675737 169:0.0022675737 170:0.0022675737 172:0.0022675737 173:0.0022675737 174:0.0090702949 177:0.0022675737 178:0.0022675737 179:0.0022675737 180:0.0045351475 181:0.0022675737 182:0.0045351475 184:0.0022675737 185:0.0068027209 188:0.0022675737 190:0.0022675737 191:0.0022675737 194:0.0022675737 195:0.0022675737 196:0.0045351475 198:0.0045351475 200:0.0045351475 201:0.0022675737 202:0.0022675737 205:0.0022675737 207:0.0022675737 208:0.0022675737 210:0.0045351475 213:0.0022675737 215:0.0022675737 216:0.0022675737 218:0.0022675737 219:0.0022675737 220:0.0022675737 221:0.0068027209 222:0.0022675737 223:0.0022675737 224:0.0045351475 226:0.0045351475 227:0.0022675737 228:0.0068027209 229:0.0022675737 230:0.0045351475 232:0.0022675737 233:0.0022675737 235:0.0045351475 236:0.0022675737 237:0.0022675737 238:0.0022675737 240:0.0022675737 252:0.0022675737 
100000 14:0.0022675737 19:0.0022675737 21:0.0022675737 23:0.0045351475 24:0.0045351475 25:0.013605442 27:0.011337869 30:0.0068027209 31:0.0090702949 33:0.011337869 34:0.0090702949 35:0.0045351475 36:0.0045351475 38:0.0045351475 39:0.0068027209 40:0.0068027209 41:0.011337869 42:0.0045351475 43:0.0045351475 45:0.013605442 46:0.0090702949 47:0.011337869 48:0.0068027209 50:0.011337869 51:0.011337869 52:0.011337869 53:0.011337869 54:0.015873017 55:0.011337869 57:0.011337869 58:0.0045351475 59:0.0090702949 60:0.0022675737 61:0.0045351475 62:0.013605442 63:0.0068027209 65:0.0090702949 66:0.01814059 67:0.0068027209 68:0.022675738 70:0.020408163 71:0.011337869 73:0.011337869 74:0.01814059 75:0.015873017 76:0.011337869 77:0.013605442 78:0.01814059 79:0.011337869 80:0.015873017 82:0.020408163 83:0.013605442 85:0.011337869 86:0.01814059 87:0.0090702949 88:0.0068027209 89:0.015873017 90:0.0068027209 91:0.0090702949 92:0.0068027209 93:0.0090702949 94:0.015873017 95:0.0022675737 97:0.0090702949 98:0.013605442 99:0.0090702949 100:0.0045351475 101:0.0045351475 102:0.0045351475 104:0.0045351475 105:0.0045351475 106:0.011337869 107:0.0045351475 109:0.0022675737 110:0.0022675737 112:0.0022675737 113:0.0022675737 114:0.0022675737 115:0.0068027209 116:0.0022675737 119:0.0022675737 122:0.0022675737 123:0.0045351475 125:0.0022675737 127:0.0022675737 128:0.0022675737 130:0.0045351475 131:0.0045351475 134:0.0022675737 136:0.0022675737 138:0.0045351475 139:0.0045351475 140:0.0045351475 141:0.0022675737 143:0.0022675737 144:0.0022675737 145:0.0022675737 147:0.0068027209 148:0.0022675737 149:0.0045351475 150:0.0022675737 151:0.0022675737 153:0.0022675737 155:0.0045351475 156:0.0045351475 157:0.0022675737 158:0.0022675737 159:0.0045351475 160:0.0022675737 161:0.0022675737 162:0.0045351475 163:0.0022675737 164:0.0022675737 166:0.0022675737 169:0.0022675737 172:0.0022675737 173:0.0022675737 174:0.0090702949 177:0.0022675737 178:0.0022675737 179:0.0022675737 180:0.0068027209 181:0.0022675737 182:0.0045351475 183:0.0022675737 184:0.0022675737 185:0.0045351475 188:0.0022675737 190:0.0022675737 191:0.0022675737 194:0.0022675737 195:0.0022675737 196:0.0045351475 198:0.0068027209 199:0.0022675737 200:0.0045351475 201:0.0022675737 202:0.0022675737 204:0.0022675737 205:0.0022675737 207:0.0022675737 208:0.0022675737 210:0.0045351475 213:0.0022675737 215:0.0022675737 218:0.0022675737 219:0.0022675737 221:0.0090702949 222:0.0022675737 223:0.0022675737 224:0.0045351475 225:0.0022675737 226:0.0045351475 227:0.0022675737 228:0.0022675737 229:0.0022675737 230:0.0022675737 233:0.0022675737 235:0.0045351475 236:0.0022675737 237:0.0022675737 238:0.0022675737 240:0.0045351475 244:0.0022675737 245:0.0045351475 252:0.0022675737 
