svm_type c_svc
kernel_type rbf
gamma 0.5
nr_class 2
total_sv 3879
rho 2.60377
label 1 -1
nr_sv 1941 1938
SV
1 0:0.52834469 1:0.01814059 5:0.0022675737 8:0.0045351475 9:0.0022675737 14:0.0022675737 27:0.0022675737 29:0.0022675737 36:0.0022675737 38:0.0022675737 53:0.0022675737 65:0.0022675737 78:0.0022675737 79:0.0022675737 87:0.0022675737 101:0.0022675737 102:0.0022675737 118:0.0022675737 123:0.0022675737 134:0.0022675737 147:0.0022675737 154:0.0022675737 156:0.0045351475 157:0.0022675737 158:0.0022675737 159:0.0045351475 160:0.0022675737 161:0.0022675737 163:0.0022675737 164:0.0045351475 165:0.0045351475 166:0.0022675737 167:0.0068027209 168:0.011337869 169:0.0045351475 170:0.0068027209 171:0.0045351475 172:0.0068027209 173:0.0045351475 174:0.0068027209 175:0.015873017 176:0.0090702949 177:0.0022675737 178:0.0068027209 179:0.011337869 180:0.0045351475 181:0.020408163 182:0.0090702949 183:0.011337869 184:0.0090702949 185:0.0068027209 186:0.020408163 187:0.015873017 188:0.011337869 189:0.0045351475 190:0.015873017 191:0.0045351475 192:0.011337869 193:0.01814059 194:0.0022675737 195:0.0045351475 196:0.0068027209 197:0.0068027209 198:0.0022675737 199:0.0045351475 200:0.0068027209 201:0.0022675737 202:0.013605442 203:0.0022675737 204:0.0090702949 205:0.0068027209 206:0.015873017 207:0.0022675737 208:0.0022675737 209:0.0022675737 211:0.0045351475 213:0.011337869 214:0.0045351475 220:0.0022675737 
1 0:0.49206349 1:0.01814059 5:0.0022675737 6:0.0022675737 8:0.0045351475 14:0.0022675737 27:0.0022675737 29:0.0022675737 36:0.0022675737 38:0.0022675737 53:0.0022675737 65:0.0022675737 78:0.0022675737 79:0.0022675737 87:0.0022675737 101:0.0022675737 102:0.0022675737 118:0.0022675737 123:0.0022675737 134:0.0022675737 147:0.0022675737 150:0.0022675737 154:0.0022675737 156:0.0045351475 157:0.0022675737 158:0.0022675737 159:0.0045351475 160:0.0022675737 161:0.0022675737 163:0.0022675737 164:0.0068027209 165:0.0045351475 166:0.0022675737 167:0.0068027209 168:0.011337869 169:0.0045351475 170:0.0068027209 171:0.0045351475 172:0.0068027209 173:0.0045351475 174:0.0068027209 175:0.015873017 176:0.0090702949 177:0.0022675737 178:0.011337869 179:0.013605442 180:0.0045351475 181:0.01814059 182:0.0090702949 183:0.0090702949 184:0.011337869 185:0.0045351475 186:0.020408163 187:0.020408163 188:0.011337869 189:0.011337869 190:0.013605442 191:0.0045351475 192:0.013605442 193:0.013605442 195:0.0068027209 196:0.0090702949 197:0.0068027209 198:0.0022675737 199:0.0045351475 200:0.0068027209 201:0.0022675737 202:0.015873017 203:0.0045351475 204:0.011337869 205:0.0068027209 206:0.01814059 207:0.0045351475 208:0.0022675737 209:0.0022675737 211:0.0022675737 213:0.013605442 214:0.0045351475 218:0.0022675737 220:0.0022675737 222:0.0022675737 231:0.0022675737 244:0.0022675737 
1 0:0.49659866 1:0.10884354 2:0.054421768 3:0.027210884 4:0.020408163 5:0.027210884 6:0.040816326 7:0.031746034 8:0.043083902 9:0.01814059 10:0.013605442 11:0.0090702949 12:0.011337869 13:0.015873017 14:0.011337869 15:0.0090702949 16:0.0045351475 17:0.011337869 18:0.0022675737 19:0.0045351475 20:0.0022675737 23:0.0045351475 24:0.0022675737 25:0.0022675737 26:0.0022675737 27:0.011337869 28:0.0045351475 30:0.0022675737 32:0.0022675737 34:0.0022675737 36:0.0022675737 
1 0:0.56462586 1:0.10204082 2:0.052154195 3:0.024943311 4:0.020408163 5:0.029478459 6:0.034013607 7:0.029478459 8:0.034013607 9:0.015873017 10:0.0068027209 11:0.0068027209 12:0.013605442 13:0.0068027209 14:0.0022675737 15:0.0090702949 16:0.0045351475 17:0.0068027209 18:0.0022675737 19:0.0022675737 23:0.0022675737 25:0.0045351475 27:0.0090702949 30:0.0022675737 32:0.0045351475 34:0.0022675737 36:0.0022675737 37:0.0022675737 38:0.0022675737 
1 0:0.6122449 1:0.10204082 2:0.052154195 3:0.022675738 4:0.013605442 5:0.029478459 6:0.029478459 7:0.027210884 8:0.031746034 9:0.013605442 10:0.0068027209 11:0.0045351475 12:0.011337869 13:0.0045351475 15:0.0045351475 16:0.0022675737 17:0.0045351475 18:0.0022675737 19:0.0022675737 23:0.0022675737 25:0.0022675737 27:0.0045351475 30:0.0022675737 32:0.0045351475 34:0.0022675737 36:0.0022675737 37:0.0022675737 
1 0:0.67573696 1:0.097505674 2:0.038548753 3:0.01814059 4:0.015873017 5:0.024943311 6:0.024943311 7:0.022675738 8:0.022675738 9:0.0068027209 10:0.0090702949 11:0.0022675737 12:0.011337869 13:0.0045351475 15:0.0022675737 17:0.0022675737 21:0.0022675737 23:0.0022675737 25:0.0022675737 27:0.0022675737 30:0.0022675737 34:0.0022675737 36:0.0022675737 37:0.0022675737 39:0.0022675737 
1 0:0.71655327 1:0.088435374 2:0.034013607 3:0.015873017 4:0.015873017 5:0.020408163 6:0.022675738 7:0.022675738 8:0.020408163 9:0.0045351475 10:0.0068027209 11:0.0022675737 12:0.0090702949 13:0.0022675737 15:0.0022675737 17:0.0022675737 21:0.0022675737 23:0.0022675737 25:0.0022675737 27:0.0022675737 30:0.0022675737 36:0.0022675737 
1 0:0.75963718 1:0.083900228 2:0.031746034 3:0.015873017 4:0.01814059 5:0.011337869 6:0.01814059 7:0.0090702949 8:0.011337869 9:0.0022675737 10:0.0068027209 11:0.0022675737 12:0.0090702949 13:0.0022675737 15:0.0022675737 17:0.0022675737 18:0.0022675737 21:0.0022675737 25:0.0022675737 26:0.0022675737 30:0.0022675737 36:0.0022675737 
1 0:0.79591841 1:0.081632651 2:0.027210884 3:0.015873017 4:0.01814059 5:0.011337869 6:0.011337869 7:0.0045351475 8:0.0068027209 11:0.0045351475 12:0.0090702949 13:0.0022675737 21:0.0022675737 25:0.0022675737 26:0.0022675737 30:0.0022675737 36:0.0022675737 
1 0:0.82539684 1:0.081632651 2:0.022675738 3:0.013605442 4:0.01814059 5:0.0068027209 6:0.0068027209 7:0.0045351475 8:0.0068027209 11:0.0045351475 12:0.0068027209 13:0.0022675737 
1 0:0.49433106 1:0.043083902 2:0.015873017 3:0.0068027209 4:0.013605442 5:0.0022675737 6:0.0045351475 7:0.0045351475 8:0.0068027209 9:0.0090702949 10:0.0068027209 11:0.0045351475 12:0.0045351475 14:0.0045351475 16:0.0045351475 17:0.0068027209 19:0.0045351475 20:0.0045351475 24:0.0045351475 25:0.0022675737 29:0.011337869 31:0.0022675737 32:0.0045351475 33:0.0022675737 34:0.0045351475 37:0.0022675737 38:0.0022675737 39:0.0045351475 40:0.0022675737 42:0.0045351475 43:0.0022675737 45:0.0022675737 46:0.0045351475 47:0.0022675737 48:0.0045351475 50:0.0045351475 51:0.0045351475 52:0.0045351475 53:0.0022675737 55:0.0045351475 56:0.0045351475 57:0.0068027209 58:0.0068027209 59:0.0045351475 60:0.0045351475 61:0.0022675737 62:0.0045351475 63:0.0022675737 64:0.0068027209 66:0.0090702949 67:0.0045351475 68:0.0090702949 69:0.0045351475 70:0.0022675737 71:0.0068027209 72:0.0022675737 73:0.0045351475 74:0.0022675737 75:0.0022675737 76:0.0022675737 77:0.0045351475 79:0.0045351475 80:0.0045351475 81:0.0068027209 82:0.0022675737 83:0.0045351475 85:0.0022675737 86:0.0022675737 87:0.0045351475 88:0.0022675737 89:0.0045351475 90:0.0022675737 91:0.0022675737 93:0.0022675737 94:0.0045351475 95:0.0022675737 96:0.0045351475 97:0.0045351475 98:0.0068027209 99:0.0022675737 100:0.0045351475 102:0.013605442 103:0.0022675737 104:0.0045351475 107:0.0068027209 109:0.0022675737 111:0.0045351475 112:0.0068027209 116:0.0022675737 117:0.0022675737 119:0.0022675737 121:0.0068027209 122:0.0045351475 123:0.0022675737 124:0.0022675737 125:0.0022675737 126:0.0045351475 128:0.0022675737 133:0.0045351475 134:0.0022675737 135:0.0022675737 137:0.0068027209 141:0.0022675737 143:0.0022675737 144:0.0022675737 149:0.0022675737 150:0.0022675737 154:0.0022675737 
1 0:0.47165534 1:0.015873017 2:0.0022675737 10:0.0022675737 20:0.0022675737 30:0.0022675737 33:0.0022675737 35:0.0022675737 40:0.0022675737 43:0.0022675737 45:0.0022675737 47:0.0022675737 50:0.0022675737 52:0.0022675737 56:0.0022675737 61:0.0045351475 66:0.0022675737 74:0.0022675737 91:0.0022675737 116:0.0022675737 147:0.0022675737 179:0.0022675737 181:0.0045351475 183:0.0045351475 184:0.0022675737 185:0.0045351475 186:0.0022675737 187:0.0045351475 188:0.0022675737 190:0.013605442 192:0.0068027209 193:0.0090702949 194:0.015873017 195:0.01814059 196:0.015873017 197:0.020408163 198:0.015873017 199:0.011337869 200:0.024943311 201:0.022675738 202:0.020408163 203:0.020408163 204:0.01814059 205:0.011337869 206:0.0045351475 207:0.015873017 208:0.015873017 209:0.0022675737 210:0.011337869 211:0.0090702949 212:0.0090702949 213:0.0068027209 214:0.0090702949 215:0.0090702949 216:0.013605442 217:0.0045351475 219:0.0045351475 220:0.011337869 221:0.0045351475 223:0.0068027209 224:0.0068027209 225:0.0045351475 226:0.0022675737 227:0.0068027209 228:0.0022675737 229:0.0022675737 230:0.0045351475 231:0.0022675737 232:0.0022675737 233:0.0022675737 234:0.0045351475 235:0.0022675737 236:0.0022675737 237:0.0022675737 240:0.0022675737 242:0.0022675737 244:0.0045351475 
1 0:0.51927435 1:0.01814059 2:0.0022675737 10:0.0022675737 20:0.0022675737 33:0.0022675737 35:0.0022675737 40:0.0022675737 43:0.0022675737 45:0.0022675737 47:0.0022675737 49:0.0022675737 50:0.0022675737 52:0.0022675737 56:0.0022675737 61:0.0045351475 66:0.0022675737 74:0.0022675737 91:0.0022675737 116:0.0022675737 147:0.0022675737 179:0.0022675737 181:0.0022675737 183:0.0045351475 184:0.0022675737 185:0.0045351475 186:0.0022675737 187:0.0045351475 188:0.0022675737 190:0.011337869 191:0.0022675737 192:0.0045351475 193:0.0068027209 194:0.011337869 195:0.01814059 196:0.015873017 197:0.022675738 198:0.015873017 199:0.011337869 200:0.022675738 201:0.020408163 202:0.015873017 203:0.020408163 204:0.01814059 205:0.0045351475 206:0.0022675737 207:0.011337869 208:0.011337869 209:0.0022675737 210:0.011337869 211:0.0090702949 212:0.011337869 213:0.0068027209 214:0.0090702949 215:0.0045351475 216:0.011337869 217:0.0022675737 219:0.0045351475 220:0.011337869 221:0.0045351475 223:0.0068027209 224:0.0045351475 225:0.0045351475 226:0.0022675737 227:0.0068027209 228:0.0022675737 229:0.0022675737 230:0.0045351475 231:0.0022675737 233:0.0022675737 234:0.0045351475 235:0.0022675737 236:0.0022675737 237:0.0022675737 240:0.0022675737 244:0.0045351475 
1 0:0.58730161 1:0.031746034 2:0.0045351475 3:0.0045351475 7:0.0022675737 8:0.0045351475 10:0.0022675737 17:0.0022675737 18:0.0045351475 22:0.0022675737 33:0.0022675737 36:0.0022675737 49:0.0022675737 55:0.0022675737 59:0.0022675737 62:0.0022675737 67:0.0022675737 82:0.0022675737 98:0.0022675737 100:0.0022675737 101:0.0022675737 107:0.0022675737 109:0.0022675737 112:0.0022675737 113:0.0045351475 114:0.0045351475 115:0.0022675737 122:0.0022675737 123:0.0022675737 126:0.0022675737 131:0.0045351475 132:0.0022675737 137:0.0022675737 138:0.0022675737 145:0.0022675737 147:0.0022675737 148:0.0022675737 149:0.0045351475 150:0.0022675737 152:0.0068027209 153:0.0022675737 154:0.0022675737 157:0.0022675737 158:0.0022675737 159:0.0022675737 160:0.0022675737 163:0.0068027209 164:0.0068027209 165:0.0045351475 166:0.0045351475 169:0.0022675737 173:0.0090702949 174:0.0045351475 175:0.0090702949 177:0.0068027209 178:0.0068027209 180:0.0068027209 181:0.0045351475 182:0.0090702949 184:0.0090702949 185:0.0068027209 186:0.0045351475 188:0.0045351475 189:0.0022675737 190:0.0068027209 192:0.0045351475 193:0.0045351475 195:0.0022675737 196:0.0022675737 198:0.0068027209 199:0.0045351475 200:0.0045351475 201:0.0068027209 202:0.0045351475 204:0.0045351475 205:0.0022675737 206:0.0045351475 208:0.0022675737 209:0.0045351475 210:0.0022675737 211:0.0045351475 212:0.0022675737 213:0.0068027209 214:0.0022675737 215:0.0045351475 216:0.0045351475 217:0.0022675737 219:0.0068027209 221:0.0068027209 222:0.0022675737 223:0.0045351475 225:0.0022675737 227:0.0068027209 228:0.0045351475 229:0.0045351475 230:0.0022675737 232:0.0022675737 233:0.0022675737 236:0.0045351475 239:0.0022675737 246:0.0022675737 
1 0:0.56009072 1:0.029478459 2:0.0045351475 3:0.0045351475 7:0.0022675737 8:0.0045351475 10:0.0022675737 18:0.0045351475 22:0.0022675737 33:0.0022675737 36:0.0022675737 49:0.0022675737 55:0.0022675737 59:0.0022675737 62:0.0022675737 67:0.0022675737 82:0.0022675737 98:0.0022675737 100:0.0022675737 101:0.0022675737 107:0.0022675737 109:0.0022675737 110:0.0022675737 112:0.0045351475 113:0.0068027209 114:0.0045351475 115:0.0022675737 122:0.0022675737 123:0.0022675737 126:0.0022675737 129:0.0022675737 131:0.0045351475 132:0.0022675737 133:0.0022675737 137:0.0022675737 138:0.0022675737 145:0.0022675737 147:0.0022675737 148:0.0022675737 149:0.0045351475 150:0.0022675737 152:0.0068027209 153:0.0045351475 154:0.0022675737 157:0.0022675737 158:0.0045351475 159:0.0022675737 160:0.0022675737 163:0.0068027209 164:0.0068027209 165:0.0045351475 166:0.0045351475 169:0.0022675737 173:0.0090702949 174:0.0045351475 175:0.0090702949 177:0.0068027209 178:0.0068027209 180:0.0068027209 181:0.0045351475 182:0.0090702949 184:0.0090702949 185:0.0068027209 186:0.0045351475 188:0.0045351475 189:0.0022675737 190:0.0068027209 192:0.0068027209 193:0.0045351475 195:0.0022675737 196:0.0022675737 198:0.0068027209 199:0.0045351475 200:0.0045351475 201:0.0068027209 202:0.0045351475 204:0.0045351475 205:0.0045351475 206:0.0068027209 208:0.0022675737 209:0.0045351475 210:0.0022675737 211:0.0045351475 212:0.0045351475 213:0.0068027209 214:0.0022675737 215:0.0045351475 216:0.0045351475 217:0.0022675737 219:0.0068027209 221:0.0068027209 222:0.0022675737 223:0.0068027209 224:0.0022675737 225:0.0022675737 227:0.0068027209 228:0.0045351475 229:0.0045351475 230:0.0022675737 232:0.0045351475 233:0.0022675737 236:0.0045351475 239:0.0022675737 246:0.0022675737 
1 0:0.48299322 1:0.029478459 2:0.0045351475 3:0.0045351475 7:0.0022675737 8:0.0045351475 18:0.0045351475 22:0.0022675737 27:0.0022675737 33:0.0022675737 36:0.0022675737 49:0.0022675737 55:0.0022675737 59:0.0022675737 62:0.0022675737 67:0.0022675737 82:0.0022675737 98:0.0022675737 100:0.0022675737 101:0.0022675737 107:0.0045351475 109:0.0068027209 110:0.0045351475 112:0.0090702949 113:0.0068027209 114:0.0045351475 115:0.0045351475 116:0.0022675737 117:0.0045351475 118:0.0022675737 119:0.0022675737 122:0.0022675737 123:0.0022675737 126:0.0022675737 129:0.0022675737 131:0.0022675737 132:0.0022675737 133:0.0022675737 135:0.0022675737 137:0.0022675737 138:0.0022675737 143:0.0022675737 145:0.0022675737 146:0.0022675737 147:0.0045351475 148:0.0022675737 149:0.0045351475 150:0.0022675737 152:0.0068027209 153:0.0045351475 154:0.0022675737 157:0.0022675737 158:0.0045351475 159:0.0045351475 160:0.0045351475 162:0.0022675737 163:0.0090702949 164:0.0068027209 165:0.0045351475 166:0.0045351475 169:0.0022675737 170:0.0045351475 171:0.0022675737 173:0.0090702949 174:0.0045351475 175:0.0090702949 177:0.011337869 178:0.0068027209 180:0.0090702949 181:0.0068027209 182:0.0090702949 184:0.011337869 185:0.0068027209 186:0.0045351475 188:0.0045351475 189:0.0022675737 190:0.0068027209 191:0.0022675737 192:0.0068027209 193:0.0045351475 195:0.0022675737 196:0.0022675737 198:0.0068027209 199:0.0045351475 200:0.0045351475 201:0.0090702949 202:0.0045351475 204:0.0045351475 205:0.0045351475 206:0.0068027209 208:0.0022675737 209:0.0045351475 210:0.0022675737 211:0.0068027209 212:0.0045351475 213:0.0068027209 214:0.0022675737 215:0.0045351475 216:0.0045351475 217:0.0022675737 219:0.0068027209 220:0.0045351475 221:0.0068027209 222:0.0022675737 223:0.0090702949 224:0.0022675737 225:0.0022675737 227:0.0068027209 228:0.0045351475 229:0.0045351475 230:0.0045351475 232:0.0045351475 233:0.0022675737 236:0.0045351475 239:0.0022675737 246:0.0022675737 
1 0:0.48072562 1:0.040816326 2:0.0045351475 3:0.0022675737 5:0.0022675737 7:0.0022675737 8:0.0022675737 9:0.0022675737 12:0.0022675737 14:0.0022675737 21:0.0022675737 28:0.0022675737 42:0.0022675737 43:0.0022675737 44:0.0022675737 64:0.0022675737 65:0.0022675737 66:0.0022675737 68:0.0022675737 95:0.0022675737 101:0.0022675737 102:0.0022675737 111:0.0022675737 114:0.0022675737 128:0.0022675737 133:0.0022675737 147:0.0022675737 154:0.0022675737 158:0.0022675737 161:0.0022675737 163:0.0022675737 165:0.0022675737 169:0.0022675737 173:0.0022675737 180:0.0022675737 183:0.0022675737 184:0.0022675737 187:0.0045351475 188:0.0045351475 189:0.0022675737 190:0.0022675737 191:0.0090702949 192:0.0090702949 193:0.0068027209 194:0.0090702949 195:0.011337869 196:0.011337869 197:0.013605442 198:0.013605442 199:0.013605442 200:0.015873017 201:0.0090702949 202:0.0090702949 203:0.013605442 204:0.011337869 205:0.0090702949 206:0.0045351475 207:0.013605442 208:0.01814059 209:0.011337869 210:0.0068027209 211:0.0068027209 212:0.0045351475 213:0.0022675737 214:0.0022675737 215:0.0022675737 216:0.011337869 217:0.0090702949 218:0.0022675737 219:0.0045351475 220:0.0045351475 221:0.0068027209 222:0.0022675737 223:0.0090702949 225:0.0022675737 226:0.0068027209 227:0.0068027209 228:0.0022675737 229:0.0068027209 230:0.0045351475 231:0.0090702949 233:0.0068027209 234:0.0022675737 235:0.0022675737 238:0.0045351475 239:0.0022675737 240:0.0022675737 241:0.0068027209 242:0.0022675737 243:0.0045351475 244:0.0045351475 245:0.0022675737 248:0.0022675737 251:0.0022675737 253:0.0022675737 254:0.0090702949 
1 0:0.52834469 1:0.040816326 2:0.0045351475 3:0.0022675737 5:0.0022675737 7:0.0022675737 8:0.0022675737 9:0.0022675737 12:0.0022675737 14:0.0022675737 21:0.0022675737 28:0.0022675737 42:0.0022675737 43:0.0022675737 44:0.0022675737 64:0.0022675737 65:0.0022675737 66:0.0022675737 68:0.0022675737 95:0.0022675737 101:0.0022675737 102:0.0022675737 111:0.0022675737 114:0.0022675737 128:0.0022675737 133:0.0022675737 147:0.0022675737 154:0.0022675737 158:0.0022675737 161:0.0022675737 163:0.0022675737 165:0.0022675737 169:0.0022675737 173:0.0022675737 180:0.0022675737 183:0.0022675737 184:0.0022675737 187:0.0045351475 188:0.0045351475 189:0.0022675737 190:0.0022675737 191:0.0090702949 192:0.0090702949 193:0.0068027209 194:0.0090702949 195:0.011337869 196:0.011337869 197:0.013605442 198:0.013605442 199:0.013605442 200:0.015873017 201:0.0090702949 202:0.0090702949 203:0.013605442 204:0.011337869 205:0.0068027209 206:0.0045351475 207:0.013605442 208:0.01814059 209:0.011337869 210:0.0068027209 211:0.0068027209 212:0.0045351475 213:0.0022675737 215:0.0022675737 216:0.011337869 217:0.0090702949 219:0.0045351475 220:0.0022675737 221:0.0068027209 222:0.0022675737 223:0.0068027209 225:0.0022675737 226:0.0068027209 227:0.0068027209 228:0.0022675737 229:0.0022675737 230:0.0045351475 231:0.0068027209 233:0.0045351475 234:0.0022675737 235:0.0022675737 238:0.0022675737 240:0.0022675737 241:0.0045351475 243:0.0022675737 244:0.0022675737 245:0.0022675737 248:0.0022675737 
1 0:0.56009072 1:0.040816326 2:0.0045351475 3:0.0022675737 5:0.0022675737 7:0.0022675737 8:0.0022675737 9:0.0022675737 12:0.0022675737 14:0.0022675737 21:0.0022675737 28:0.0022675737 42:0.0022675737 43:0.0022675737 44:0.0022675737 64:0.0022675737 65:0.0022675737 66:0.0022675737 68:0.0022675737 75:0.0022675737 95:0.0022675737 101:0.0022675737 102:0.0022675737 114:0.0022675737 128:0.0022675737 133:0.0022675737 147:0.0022675737 154:0.0022675737 158:0.0022675737 161:0.0022675737 163:0.0022675737 165:0.0022675737 169:0.0022675737 171:0.0022675737 173:0.0022675737 180:0.0022675737 181:0.0022675737 183:0.0022675737 184:0.0022675737 185:0.0022675737 186:0.0022675737 187:0.0045351475 188:0.0045351475 189:0.0022675737 190:0.0022675737 191:0.0090702949 192:0.011337869 193:0.0068027209 194:0.0090702949 195:0.011337869 196:0.011337869 197:0.013605442 198:0.013605442 199:0.011337869 200:0.015873017 201:0.0090702949 202:0.0090702949 203:0.013605442 204:0.011337869 205:0.0068027209 206:0.0045351475 207:0.013605442 208:0.01814059 209:0.0090702949 210:0.0068027209 211:0.0068027209 212:0.0045351475 213:0.0045351475 215:0.0022675737 216:0.011337869 217:0.0090702949 219:0.0045351475 220:0.0022675737 221:0.0090702949 222:0.0022675737 223:0.0045351475 227:0.0022675737 228:0.0022675737 229:0.0022675737 231:0.0045351475 233:0.0022675737 238:0.0022675737 248:0.0022675737 
1 0:0.60770977 1:0.040816326 2:0.0045351475 3:0.0022675737 5:0.0022675737 7:0.0022675737 8:0.0022675737 9:0.0022675737 12:0.0022675737 14:0.0022675737 21:0.0022675737 28:0.0022675737 42:0.0022675737 43:0.0022675737 44:0.0022675737 64:0.0022675737 65:0.0022675737 66:0.0022675737 68:0.0022675737 75:0.0022675737 95:0.0022675737 101:0.0022675737 102:0.0022675737 114:0.0022675737 128:0.0022675737 133:0.0022675737 147:0.0022675737 154:0.0022675737 158:0.0022675737 161:0.0022675737 163:0.0022675737 165:0.0022675737 169:0.0022675737 171:0.0022675737 173:0.0022675737 180:0.0022675737 181:0.0022675737 183:0.0022675737 184:0.0022675737 185:0.0022675737 186:0.0022675737 187:0.0045351475 188:0.0045351475 189:0.0022675737 190:0.0022675737 191:0.0090702949 192:0.0090702949 193:0.0068027209 194:0.0090702949 195:0.011337869 196:0.0090702949 197:0.011337869 198:0.013605442 199:0.011337869 200:0.015873017 201:0.0068027209 202:0.0090702949 203:0.013605442 204:0.011337869 205:0.0068027209 206:0.0045351475 207:0.011337869 208:0.01814059 209:0.0045351475 210:0.0045351475 211:0.0068027209 213:0.0022675737 215:0.0022675737 216:0.0090702949 217:0.0045351475 219:0.0045351475 221:0.0068027209 222:0.0022675737 223:0.0045351475 228:0.0022675737 231:0.0022675737 238:0.0022675737 
1 0:0.62358278 1:0.024943311 2:0.0045351475 4:0.0045351475 6:0.0045351475 11:0.0022675737 13:0.0022675737 23:0.0022675737 25:0.0022675737 32:0.0022675737 38:0.0022675737 39:0.0022675737 40:0.0022675737 41:0.0022675737 47:0.0022675737 75:0.0022675737 80:0.0022675737 103:0.0022675737 105:0.0022675737 115:0.0022675737 122:0.0022675737 123:0.0045351475 124:0.0022675737 131:0.0068027209 136:0.0022675737 140:0.0045351475 144:0.0022675737 145:0.0022675737 146:0.0022675737 147:0.0022675737 150:0.0022675737 152:0.0045351475 153:0.0068027209 154:0.0090702949 155:0.0045351475 160:0.0068027209 161:0.0022675737 162:0.0022675737 164:0.0045351475 166:0.0022675737 167:0.0022675737 170:0.0045351475 171:0.0022675737 172:0.0045351475 174:0.0045351475 175:0.0022675737 176:0.0022675737 177:0.0045351475 178:0.0068027209 179:0.0022675737 180:0.0022675737 181:0.0045351475 182:0.0045351475 183:0.0045351475 184:0.0022675737 186:0.0045351475 187:0.0045351475 188:0.0068027209 189:0.0045351475 190:0.0090702949 191:0.0045351475 192:0.0090702949 193:0.0022675737 194:0.0045351475 195:0.0045351475 196:0.0045351475 197:0.0068027209 198:0.0045351475 200:0.0090702949 201:0.0068027209 202:0.0022675737 203:0.0068027209 204:0.0045351475 205:0.0045351475 206:0.0022675737 207:0.0090702949 208:0.0090702949 209:0.0022675737 210:0.0068027209 211:0.0090702949 212:0.0068027209 213:0.0022675737 215:0.0090702949 217:0.0045351475 220:0.0022675737 222:0.0022675737 229:0.0022675737 
1 0:0.57596374 1:0.024943311 2:0.0045351475 4:0.0045351475 6:0.0045351475 11:0.0022675737 13:0.0022675737 23:0.0022675737 25:0.0022675737 32:0.0022675737 38:0.0022675737 39:0.0022675737 40:0.0022675737 41:0.0022675737 47:0.0022675737 75:0.0022675737 80:0.0022675737 103:0.0022675737 105:0.0022675737 115:0.0022675737 122:0.0022675737 123:0.0045351475 124:0.0022675737 131:0.0068027209 136:0.0022675737 140:0.0045351475 142:0.0022675737 144:0.0022675737 145:0.0022675737 146:0.0022675737 147:0.0022675737 150:0.0022675737 152:0.0068027209 153:0.0068027209 154:0.0090702949 155:0.0045351475 160:0.0068027209 161:0.0022675737 162:0.0022675737 164:0.0068027209 166:0.0022675737 167:0.0022675737 168:0.0022675737 170:0.0068027209 171:0.0045351475 172:0.0045351475 174:0.0068027209 175:0.0022675737 176:0.0022675737 177:0.0045351475 178:0.0090702949 179:0.0022675737 180:0.0022675737 181:0.0068027209 182:0.0068027209 183:0.0045351475 184:0.0045351475 185:0.0022675737 186:0.0068027209 187:0.0045351475 188:0.0068027209 189:0.0045351475 190:0.013605442 191:0.0068027209 192:0.0090702949 193:0.0022675737 194:0.0068027209 195:0.0045351475 196:0.0068027209 197:0.0068027209 198:0.0045351475 199:0.0022675737 200:0.0090702949 201:0.0068027209 202:0.0022675737 203:0.0090702949 204:0.0045351475 205:0.0045351475 206:0.0045351475 207:0.0090702949 208:0.0090702949 209:0.0022675737 210:0.0068027209 211:0.0090702949 212:0.0068027209 213:0.0022675737 215:0.0090702949 217:0.0045351475 220:0.0022675737 222:0.0022675737 229:0.0022675737 
1 0:0.50566894 1:0.024943311 2:0.0045351475 4:0.0045351475 6:0.0045351475 11:0.0022675737 23:0.0022675737 25:0.0022675737 32:0.0022675737 38:0.0022675737 39:0.0022675737 40:0.0022675737 41:0.0022675737 47:0.0022675737 75:0.0022675737 80:0.0022675737 103:0.0045351475 105:0.0022675737 115:0.0022675737 122:0.0022675737 123:0.0045351475 124:0.0022675737 131:0.0068027209 136:0.0022675737 140:0.0045351475 142:0.0022675737 144:0.0022675737 145:0.0022675737 146:0.0022675737 147:0.0022675737 150:0.0022675737 152:0.0068027209 153:0.0068027209 154:0.0090702949 155:0.0045351475 160:0.0068027209 161:0.0022675737 162:0.0022675737 164:0.0045351475 166:0.0022675737 167:0.0022675737 168:0.0045351475 170:0.0090702949 171:0.0045351475 172:0.0068027209 174:0.0068027209 175:0.0045351475 176:0.0045351475 177:0.0045351475 178:0.011337869 179:0.0022675737 180:0.0045351475 181:0.0068027209 182:0.0090702949 183:0.0045351475 184:0.0090702949 185:0.0045351475 186:0.0090702949 187:0.0068027209 188:0.013605442 189:0.0045351475 190:0.013605442 191:0.013605442 192:0.0090702949 193:0.0045351475 194:0.0068027209 195:0.0068027209 196:0.011337869 197:0.0090702949 198:0.0090702949 199:0.0022675737 200:0.0090702949 201:0.0090702949 202:0.0045351475 203:0.0090702949 204:0.0045351475 205:0.0045351475 206:0.0045351475 207:0.0090702949 208:0.011337869 209:0.0022675737 210:0.0090702949 211:0.0090702949 212:0.0068027209 213:0.0022675737 215:0.0090702949 217:0.0068027209 220:0.0022675737 222:0.0022675737 224:0.0022675737 229:0.0022675737 
1 0:0.50566894 1:0.13605443 2:0.054421768 3:0.034013607 4:0.029478459 5:0.011337869 6:0.015873017 7:0.022675738 8:0.01814059 9:0.022675738 10:0.0090702949 11:0.013605442 12:0.013605442 13:0.013605442 14:0.0090702949 15:0.013605442 16:0.013605442 17:0.0090702949 18:0.0022675737 19:0.0022675737 20:0.0090702949 21:0.0022675737 23:0.0068027209 24:0.0022675737 25:0.0045351475 26:0.0022675737 28:0.0022675737 29:0.0022675737 32:0.0045351475 33:0.0022675737 35:0.0068027209 36:0.0022675737 45:0.0022675737 
1 0:0.58276647 1:0.12698413 2:0.049886622 3:0.024943311 4:0.022675738 5:0.013605442 6:0.015873017 7:0.022675738 8:0.013605442 9:0.01814059 10:0.0090702949 11:0.0090702949 12:0.011337869 13:0.0090702949 14:0.0068027209 15:0.013605442 16:0.013605442 17:0.0090702949 18:0.0022675737 19:0.0022675737 20:0.0068027209 21:0.0022675737 23:0.0022675737 25:0.0045351475 26:0.0022675737 29:0.0022675737 32:0.0022675737 
1 0:0.62811792 1:0.1201814 2:0.049886622 3:0.022675738 4:0.022675738 5:0.011337869 6:0.013605442 7:0.022675738 8:0.013605442 9:0.013605442 10:0.0068027209 11:0.0090702949 12:0.0090702949 13:0.0068027209 14:0.0068027209 15:0.011337869 16:0.013605442 17:0.0068027209 19:0.0022675737 20:0.0022675737 21:0.0022675737 29:0.0022675737 32:0.0022675737 
1 0:0.69160998 1:0.1201814 2:0.040816326 3:0.020408163 4:0.01814059 5:0.0068027209 6:0.0090702949 7:0.022675738 8:0.011337869 9:0.011337869 10:0.0022675737 11:0.0068027209 12:0.0068027209 13:0.0022675737 14:0.0045351475 15:0.0068027209 16:0.0068027209 17:0.0022675737 19:0.0022675737 20:0.0022675737 29:0.0022675737 32:0.0022675737 
1 0:0.75510204 1:0.11337869 2:0.038548753 3:0.01814059 4:0.011337869 5:0.0045351475 6:0.0068027209 7:0.011337869 8:0.0068027209 9:0.0068027209 10:0.0022675737 11:0.0022675737 12:0.0045351475 13:0.0022675737 15:0.0022675737 16:0.0045351475 17:0.0022675737 19:0.0022675737 29:0.0022675737 32:0.0022675737 
1 0:0.79138321 1:0.10884354 2:0.03628118 3:0.015873017 4:0.0090702949 5:0.0045351475 6:0.0068027209 7:0.0045351475 8:0.0068027209 10:0.0022675737 11:0.0022675737 12:0.0022675737 13:0.0022675737 17:0.0022675737 29:0.0022675737 32:0.0022675737 
1 0:0.84807259 1:0.095238097 2:0.024943311 3:0.013605442 4:0.0068027209 6:0.0022675737 8:0.0022675737 17:0.0022675737 29:0.0022675737 32:0.0022675737 
1 0:0.89569163 1:0.083900228 2:0.0090702949 3:0.0022675737 4:0.0022675737 6:0.0022675737 8:0.0022675737 17:0.0022675737 
1 0:0.91383219 1:0.070294783 2:0.0045351475 3:0.0022675737 4:0.0022675737 6:0.0022675737 8:0.0022675737 17:0.0022675737 
1 0:0.93877554 1:0.052154195 2:0.0045351475 4:0.0022675737 8:0.0022675737 
1 0:0.94557822 1:0.045351475 2:0.0045351475 4:0.0022675737 8:0.0022675737 
1 0:0.95011342 1:0.040816326 2:0.0045351475 4:0.0022675737 8:0.0022675737 
1 0:0.95691609 1:0.03628118 2:0.0045351475 4:0.0022675737 
1 0:0.96598643 1:0.027210884 2:0.0045351475 4:0.0022675737 
1 0:0.8888889 1:0.047619049 2:0.024943311 3:0.0022675737 4:0.0090702949 5:0.0022675737 6:0.011337869 7:0.0022675737 8:0.0045351475 9:0.0045351475 10:0.0022675737 
1 0:0.88208616 1:0.049886622 2:0.029478459 4:0.0090702949 5:0.0022675737 6:0.011337869 7:0.0022675737 8:0.0045351475 9:0.0045351475 10:0.0022675737 25:0.0022675737 
1 0:0.85941046 1:0.063492067 2:0.031746034 4:0.011337869 5:0.0045351475 6:0.011337869 7:0.0022675737 8:0.0045351475 9:0.0045351475 10:0.0022675737 12:0.0022675737 25:0.0022675737 
1 0:0.83900225 1:0.074829936 2:0.034013607 4:0.013605442 5:0.0045351475 6:0.011337869 7:0.0022675737 8:0.0045351475 9:0.0045351475 10:0.0022675737 12:0.0022675737 20:0.0022675737 25:0.0022675737 35:0.0022675737 
1 0:0.81632656 1:0.079365082 2:0.038548753 3:0.0022675737 4:0.01814059 5:0.0068027209 6:0.013605442 7:0.0022675737 8:0.0045351475 9:0.0068027209 10:0.0022675737 12:0.0022675737 20:0.0022675737 25:0.0022675737 35:0.0022675737 
1 0:0.80045354 1:0.079365082 2:0.040816326 3:0.0090702949 4:0.020408163 5:0.0068027209 6:0.015873017 7:0.0045351475 8:0.0045351475 9:0.0068027209 10:0.0022675737 12:0.0022675737 20:0.0022675737 25:0.0022675737 35:0.0022675737 
1 0:0.80498868 1:0.079365082 2:0.043083902 3:0.011337869 4:0.020408163 5:0.0045351475 6:0.013605442 7:0.0045351475 8:0.0022675737 9:0.0068027209 10:0.0022675737 12:0.0022675737 20:0.0022675737 35:0.0022675737 
1 0:0.79365081 1:0.083900228 2:0.047619049 3:0.011337869 4:0.020408163 5:0.0045351475 6:0.013605442 7:0.0068027209 8:0.0022675737 9:0.0068027209 10:0.0022675737 12:0.0022675737 20:0.0022675737 35:0.0022675737 
1 0:0.78458053 1:0.090702951 2:0.049886622 3:0.011337869 4:0.020408163 5:0.0045351475 6:0.013605442 7:0.0068027209 8:0.0022675737 9:0.0068027209 10:0.0022675737 12:0.0022675737 20:0.0022675737 35:0.0022675737 
1 0:0.7528345 1:0.11337869 2:0.049886622 3:0.013605442 4:0.022675738 5:0.0045351475 6:0.013605442 7:0.0068027209 8:0.0022675737 9:0.0068027209 10:0.0022675737 12:0.0022675737 20:0.0022675737 22:0.0022675737 27:0.0022675737 35:0.0022675737 
1 0:0.73242629 1:0.11337869 2:0.052154195 3:0.015873017 4:0.027210884 5:0.0045351475 6:0.013605442 7:0.0090702949 9:0.0090702949 10:0.0022675737 12:0.0045351475 14:0.0022675737 15:0.0022675737 20:0.0022675737 22:0.0022675737 23:0.0022675737 27:0.0022675737 35:0.0022675737 
1 0:0.70294785 1:0.11564626 2:0.056689344 3:0.020408163 4:0.027210884 5:0.0090702949 6:0.015873017 7:0.0090702949 9:0.0090702949 10:0.0022675737 12:0.0068027209 13:0.0022675737 14:0.0045351475 15:0.0022675737 16:0.0022675737 20:0.0022675737 22:0.0022675737 23:0.0022675737 27:0.0022675737 35:0.0022675737 36:0.0022675737 
1 0:0.6802721 1:0.1201814 2:0.06122449 3:0.027210884 4:0.031746034 5:0.0090702949 6:0.01814059 7:0.0090702949 9:0.0090702949 10:0.0022675737 12:0.0068027209 13:0.0022675737 14:0.0045351475 15:0.0022675737 16:0.0022675737 20:0.0022675737 22:0.0022675737 23:0.0022675737 27:0.0022675737 35:0.0022675737 36:0.0022675737 
1 0:0.6394558 1:0.14512472 2:0.063492067 3:0.027210884 4:0.034013607 5:0.011337869 6:0.020408163 7:0.011337869 9:0.0090702949 10:0.0022675737 12:0.0068027209 13:0.0022675737 14:0.0045351475 15:0.0022675737 16:0.0022675737 17:0.0045351475 20:0.0022675737 22:0.0022675737 23:0.0022675737 27:0.0022675737 35:0.0022675737 36:0.0022675737 
1 0:0.59863949 1:0.16553289 2:0.070294783 3:0.027210884 4:0.03628118 5:0.013605442 6:0.022675738 7:0.013605442 8:0.0022675737 9:0.0090702949 10:0.0022675737 12:0.0090702949 13:0.0022675737 14:0.0045351475 15:0.0022675737 16:0.0022675737 17:0.0045351475 20:0.0022675737 22:0.0022675737 23:0.0022675737 27:0.0022675737 35:0.0022675737 36:0.0022675737 
1 0:0.60090703 1:0.17006803 2:0.068027213 3:0.027210884 4:0.034013607 5:0.015873017 6:0.01814059 7:0.013605442 8:0.0022675737 9:0.0068027209 10:0.0022675737 12:0.0090702949 13:0.0022675737 14:0.0068027209 15:0.0022675737 16:0.0022675737 17:0.0045351475 20:0.0022675737 22:0.0022675737 23:0.0022675737 27:0.0022675737 35:0.0022675737 36:0.0022675737 
1 0:0.59410429 1:0.17913832 2:0.068027213 3:0.029478459 4:0.034013607 5:0.015873017 6:0.015873017 7:0.013605442 8:0.0022675737 9:0.0045351475 10:0.0022675737 12:0.0090702949 13:0.0022675737 14:0.0068027209 15:0.0022675737 16:0.0022675737 17:0.0045351475 20:0.0022675737 22:0.0022675737 23:0.0022675737 27:0.0022675737 35:0.0022675737 36:0.0022675737 
1 0:0.56235826 1:0.19954649 2:0.070294783 3:0.031746034 4:0.03628118 5:0.015873017 6:0.015873017 7:0.013605442 8:0.0022675737 9:0.0068027209 10:0.0045351475 12:0.0090702949 13:0.0022675737 14:0.0068027209 15:0.0022675737 16:0.0022675737 17:0.0045351475 20:0.0022675737 22:0.0022675737 23:0.0022675737 27:0.0022675737 35:0.0022675737 36:0.0022675737 
1 0:0.52380955 1:0.20408164 2:0.077097505 3:0.038548753 4:0.03628118 5:0.01814059 6:0.015873017 7:0.015873017 8:0.0045351475 9:0.0090702949 10:0.0045351475 11:0.0022675737 12:0.011337869 13:0.0045351475 14:0.0090702949 15:0.0022675737 16:0.0022675737 17:0.0045351475 20:0.0022675737 22:0.0022675737 23:0.0022675737 27:0.0022675737 35:0.0022675737 36:0.0022675737 39:0.0022675737 
1 0:0.51247168 1:0.20181406 2:0.063492067 3:0.03628118 4:0.038548753 5:0.022675738 6:0.022675738 7:0.013605442 8:0.0090702949 9:0.0090702949 10:0.0045351475 11:0.0022675737 12:0.011337869 13:0.0045351475 14:0.0090702949 15:0.0022675737 16:0.0022675737 17:0.0090702949 19:0.0022675737 20:0.0068027209 22:0.0022675737 23:0.0022675737 27:0.0022675737 29:0.0022675737 35:0.0022675737 36:0.0022675737 39:0.0022675737 
1 0:0.47619048 1:0.19727892 2:0.063492067 3:0.040816326 4:0.038548753 5:0.022675738 6:0.022675738 7:0.022675738 8:0.015873017 9:0.0090702949 10:0.0068027209 11:0.0045351475 12:0.015873017 13:0.0090702949 14:0.013605442 15:0.0022675737 16:0.0022675737 17:0.0090702949 19:0.0045351475 20:0.0068027209 22:0.0022675737 23:0.0022675737 27:0.0022675737 29:0.0022675737 35:0.0022675737 36:0.0022675737 39:0.0022675737 
1 0:0.43764174 1:0.19727892 2:0.068027213 3:0.040816326 4:0.040816326 5:0.027210884 6:0.024943311 7:0.031746034 8:0.022675738 9:0.011337869 10:0.013605442 11:0.0045351475 12:0.015873017 13:0.0090702949 14:0.013605442 15:0.0022675737 16:0.0022675737 17:0.0090702949 19:0.0045351475 20:0.0068027209 22:0.0022675737 23:0.0022675737 27:0.0022675737 29:0.0022675737 35:0.0022675737 36:0.0022675737 39:0.0022675737 
1 0:0.47845805 1:0.020408163 5:0.0022675737 6:0.0022675737 8:0.0045351475 14:0.0022675737 22:0.0022675737 27:0.0022675737 29:0.0022675737 36:0.0022675737 38:0.0022675737 53:0.0022675737 65:0.0022675737 75:0.0022675737 78:0.0022675737 79:0.0022675737 87:0.0022675737 102:0.0022675737 114:0.0022675737 118:0.0022675737 123:0.0022675737 147:0.0022675737 150:0.0022675737 154:0.0022675737 156:0.0045351475 157:0.0022675737 158:0.0022675737 159:0.0045351475 163:0.0022675737 164:0.0045351475 165:0.0045351475 166:0.0022675737 167:0.0068027209 168:0.0090702949 169:0.0045351475 170:0.0068027209 171:0.0045351475 172:0.0022675737 173:0.0068027209 174:0.0045351475 175:0.013605442 176:0.0090702949 177:0.0022675737 178:0.0045351475 179:0.0090702949 180:0.0022675737 181:0.013605442 182:0.0090702949 183:0.0090702949 184:0.013605442 185:0.0045351475 186:0.015873017 187:0.024943311 188:0.011337869 189:0.013605442 190:0.011337869 191:0.0068027209 192:0.01814059 193:0.013605442 195:0.013605442 196:0.011337869 197:0.011337869 198:0.0045351475 199:0.0090702949 200:0.0090702949 201:0.0045351475 202:0.01814059 203:0.0045351475 204:0.011337869 205:0.0022675737 206:0.015873017 207:0.0068027209 208:0.0068027209 209:0.0045351475 211:0.0090702949 213:0.013605442 214:0.0045351475 218:0.0022675737 222:0.0022675737 231:0.0022675737 244:0.0022675737 
1 0:0.52607709 1:0.020408163 5:0.0022675737 6:0.0022675737 8:0.0045351475 14:0.0022675737 22:0.0022675737 27:0.0022675737 29:0.0022675737 36:0.0022675737 38:0.0022675737 53:0.0022675737 65:0.0022675737 75:0.0022675737 78:0.0022675737 79:0.0022675737 87:0.0022675737 102:0.0022675737 114:0.0022675737 118:0.0022675737 123:0.0022675737 147:0.0022675737 150:0.0022675737 154:0.0022675737 156:0.0045351475 157:0.0022675737 158:0.0022675737 159:0.0045351475 163:0.0022675737 164:0.0045351475 165:0.0045351475 166:0.0022675737 167:0.0068027209 168:0.0090702949 169:0.0045351475 170:0.0068027209 171:0.0045351475 172:0.0022675737 173:0.0045351475 174:0.0045351475 175:0.013605442 176:0.0090702949 177:0.0022675737 178:0.0045351475 179:0.0090702949 181:0.013605442 182:0.0090702949 183:0.0090702949 184:0.011337869 185:0.0045351475 186:0.015873017 187:0.022675738 188:0.011337869 189:0.011337869 190:0.0090702949 191:0.0045351475 192:0.015873017 193:0.013605442 195:0.0068027209 196:0.011337869 197:0.0045351475 198:0.0022675737 199:0.0068027209 200:0.0045351475 201:0.0045351475 202:0.01814059 203:0.0045351475 204:0.011337869 205:0.0022675737 206:0.015873017 207:0.0068027209 208:0.0045351475 209:0.0022675737 211:0.0068027209 213:0.013605442 214:0.0045351475 218:0.0022675737 222:0.0022675737 231:0.0022675737 244:0.0022675737 
1 0:0.43310657 1:0.17460318 2:0.068027213 3:0.03628118 4:0.054421768 5:0.024943311 6:0.031746034 7:0.031746034 8:0.024943311 9:0.015873017 10:0.01814059 11:0.0045351475 12:0.013605442 13:0.0068027209 14:0.013605442 16:0.0045351475 17:0.0045351475 18:0.0068027209 19:0.0068027209 20:0.0068027209 21:0.0045351475 23:0.0022675737 26:0.0022675737 29:0.0022675737 36:0.0022675737 39:0.0022675737 47:0.0022675737 
1 0:0.46938777 1:0.17006803 2:0.06122449 3:0.034013607 4:0.054421768 5:0.022675738 6:0.027210884 7:0.027210884 8:0.024943311 9:0.015873017 10:0.01814059 11:0.0045351475 12:0.011337869 13:0.0068027209 14:0.011337869 16:0.0022675737 17:0.0045351475 18:0.0068027209 19:0.0022675737 20:0.0068027209 21:0.0045351475 23:0.0022675737 26:0.0022675737 29:0.0022675737 36:0.0022675737 39:0.0022675737 47:0.0022675737 
1 0:0.46938777 1:0.15192744 2:0.063492067 3:0.03628118 4:0.047619049 5:0.022675738 6:0.034013607 7:0.027210884 8:0.022675738 9:0.015873017 10:0.01814059 11:0.0090702949 12:0.015873017 13:0.0045351475 14:0.011337869 15:0.0022675737 16:0.0022675737 17:0.0045351475 18:0.0068027209 19:0.0022675737 20:0.0068027209 21:0.0068027209 23:0.0022675737 26:0.0022675737 31:0.0022675737 36:0.0022675737 39:0.0022675737 55:0.0022675737 63:0.0022675737 78:0.0022675737 
1 0:0.50340134 1:0.14965987 2:0.056689344 3:0.03628118 4:0.040816326 5:0.020408163 6:0.031746034 7:0.027210884 8:0.022675738 9:0.015873017 10:0.01814059 11:0.0090702949 12:0.015873017 13:0.0022675737 14:0.0090702949 15:0.0022675737 17:0.0045351475 18:0.0068027209 19:0.0022675737 20:0.0045351475 21:0.0045351475 23:0.0022675737 26:0.0022675737 31:0.0022675737 36:0.0022675737 55:0.0022675737 63:0.0022675737 78:0.0022675737 
1 0:0.53741497 1:0.14965987 2:0.054421768 3:0.029478459 4:0.038548753 5:0.01814059 6:0.031746034 7:0.020408163 8:0.020408163 9:0.013605442 10:0.01814059 11:0.0068027209 12:0.015873017 13:0.0022675737 14:0.0090702949 15:0.0022675737 17:0.0045351475 18:0.0068027209 20:0.0022675737 21:0.0045351475 23:0.0022675737 26:0.0022675737 31:0.0022675737 55:0.0022675737 63:0.0022675737 78:0.0022675737 
1 0:0.57369614 1:0.13605443 2:0.049886622 3:0.022675738 4:0.03628118 5:0.01814059 6:0.031746034 7:0.01814059 8:0.015873017 9:0.013605442 10:0.01814059 11:0.0068027209 12:0.015873017 13:0.0022675737 14:0.0090702949 15:0.0022675737 17:0.0045351475 18:0.0068027209 20:0.0022675737 21:0.0045351475 23:0.0022675737 26:0.0022675737 55:0.0022675737 63:0.0022675737 78:0.0022675737 
1 0:0.60317463 1:0.12698413 2:0.043083902 3:0.022675738 4:0.034013607 5:0.01814059 6:0.027210884 7:0.015873017 8:0.015873017 9:0.013605442 10:0.015873017 11:0.0068027209 12:0.015873017 13:0.0022675737 14:0.0090702949 15:0.0022675737 17:0.0045351475 18:0.0068027209 20:0.0022675737 21:0.0045351475 23:0.0022675737 26:0.0022675737 63:0.0022675737 78:0.0022675737 
1 0:0.58956915 1:0.12698413 2:0.043083902 3:0.022675738 4:0.029478459 5:0.024943311 6:0.029478459 7:0.015873017 8:0.013605442 9:0.013605442 10:0.013605442 11:0.0090702949 12:0.015873017 13:0.0022675737 14:0.0090702949 15:0.0022675737 17:0.0045351475 18:0.0068027209 19:0.0045351475 20:0.0022675737 21:0.0068027209 23:0.0068027209 26:0.0022675737 63:0.0022675737 74:0.0022675737 
1 0:0.61904764 1:0.1201814 2:0.040816326 3:0.01814059 4:0.027210884 5:0.024943311 6:0.027210884 7:0.015873017 8:0.011337869 9:0.013605442 10:0.011337869 11:0.0090702949 12:0.015873017 13:0.0022675737 14:0.0090702949 15:0.0022675737 17:0.0022675737 18:0.0068027209 19:0.0045351475 20:0.0022675737 21:0.0068027209 23:0.0068027209 26:0.0022675737 
1 0:0.65079367 1:0.10884354 2:0.040816326 3:0.01814059 4:0.022675738 5:0.024943311 6:0.024943311 7:0.011337869 8:0.0090702949 9:0.013605442 10:0.011337869 11:0.0090702949 12:0.013605442 13:0.0022675737 14:0.0090702949 15:0.0022675737 18:0.0068027209 19:0.0045351475 20:0.0022675737 21:0.0068027209 23:0.0045351475 26:0.0022675737 
1 0:0.67800456 1:0.099773243 2:0.038548753 3:0.01814059 4:0.022675738 5:0.022675738 6:0.015873017 7:0.0068027209 8:0.0090702949 9:0.013605442 10:0.011337869 11:0.0090702949 12:0.013605442 13:0.0022675737 14:0.0090702949 15:0.0022675737 18:0.0068027209 19:0.0045351475 20:0.0022675737 21:0.0068027209 23:0.0045351475 26:0.0022675737 
1 0:0.70068026 1:0.099773243 2:0.03628118 3:0.013605442 4:0.020408163 5:0.020408163 6:0.015873017 7:0.0068027209 8:0.0068027209 9:0.0090702949 10:0.011337869 11:0.0068027209 12:0.013605442 13:0.0022675737 14:0.0068027209 15:0.0022675737 18:0.0068027209 19:0.0045351475 20:0.0022675737 21:0.0068027209 23:0.0045351475 26:0.0022675737 
1 0:0.69614512 1:0.09297052 2:0.038548753 3:0.013605442 4:0.01814059 5:0.020408163 6:0.01814059 7:0.0068027209 8:0.0068027209 9:0.0068027209 10:0.011337869 11:0.0068027209 12:0.011337869 14:0.0090702949 15:0.0045351475 17:0.0022675737 18:0.0068027209 19:0.0045351475 20:0.0022675737 21:0.0068027209 23:0.0090702949 25:0.0022675737 26:0.0022675737 30:0.0022675737 
1 0:0.73015875 1:0.083900228 2:0.03628118 3:0.013605442 4:0.015873017 5:0.01814059 6:0.013605442 7:0.0045351475 8:0.0068027209 9:0.0045351475 10:0.0090702949 11:0.0068027209 12:0.011337869 14:0.0068027209 15:0.0045351475 17:0.0022675737 18:0.0045351475 19:0.0045351475 20:0.0022675737 21:0.0045351475 23:0.0090702949 25:0.0022675737 26:0.0022675737 30:0.0022675737 
1 0:0.76190478 1:0.079365082 2:0.03628118 3:0.013605442 4:0.013605442 5:0.015873017 6:0.011337869 7:0.0022675737 8:0.0022675737 9:0.0045351475 10:0.0068027209 11:0.0068027209 12:0.0090702949 14:0.0045351475 15:0.0045351475 17:0.0022675737 18:0.0022675737 19:0.0045351475 20:0.0022675737 21:0.0022675737 23:0.0090702949 25:0.0022675737 30:0.0022675737 
1 0:0.79365081 1:0.077097505 2:0.031746034 3:0.011337869 4:0.0090702949 5:0.015873017 6:0.011337869 8:0.0022675737 9:0.0022675737 10:0.0068027209 11:0.0068027209 12:0.0045351475 14:0.0045351475 15:0.0045351475 17:0.0022675737 18:0.0022675737 19:0.0022675737 21:0.0022675737 23:0.0045351475 25:0.0022675737 30:0.0022675737 
1 0:0.82766443 1:0.072562359 2:0.027210884 3:0.0068027209 4:0.0090702949 5:0.0090702949 6:0.0090702949 8:0.0022675737 10:0.0068027209 11:0.0068027209 12:0.0045351475 14:0.0045351475 15:0.0022675737 17:0.0022675737 19:0.0022675737 21:0.0022675737 25:0.0022675737 30:0.0022675737 
1 0:0.83446711 1:0.063492067 2:0.024943311 3:0.0045351475 4:0.0090702949 5:0.0090702949 6:0.013605442 7:0.0022675737 8:0.0022675737 9:0.0022675737 10:0.0045351475 11:0.0045351475 12:0.0045351475 13:0.0022675737 14:0.0045351475 15:0.0022675737 20:0.0022675737 23:0.0022675737 25:0.0022675737 30:0.0022675737 34:0.0022675737 
1 0:0.861678 1:0.056689344 2:0.024943311 3:0.0045351475 4:0.0045351475 5:0.0068027209 6:0.013605442 7:0.0022675737 8:0.0022675737 9:0.0022675737 10:0.0022675737 11:0.0045351475 13:0.0022675737 14:0.0022675737 15:0.0022675737 20:0.0022675737 23:0.0022675737 30:0.0022675737 
1 0:0.88662136 1:0.052154195 2:0.022675738 3:0.0022675737 4:0.0022675737 5:0.0068027209 6:0.0090702949 7:0.0022675737 8:0.0022675737 9:0.0022675737 10:0.0022675737 13:0.0022675737 14:0.0022675737 20:0.0022675737 30:0.0022675737 
1 0:0.90929705 1:0.043083902 2:0.020408163 3:0.0022675737 4:0.0022675737 5:0.0022675737 6:0.0068027209 9:0.0022675737 10:0.0022675737 13:0.0022675737 14:0.0022675737 20:0.0022675737 30:0.0022675737 
1 0:0.92290252 1:0.040816326 2:0.015873017 3:0.0022675737 4:0.0022675737 5:0.0022675737 6:0.0045351475 9:0.0022675737 14:0.0022675737 20:0.0022675737 30:0.0022675737 
1 0:0.90702951 1:0.047619049 2:0.015873017 3:0.0022675737 4:0.0022675737 5:0.0045351475 6:0.0068027209 8:0.0022675737 9:0.0022675737 12:0.0022675737 14:0.0022675737 17:0.0022675737 32:0.0022675737 
1 0:0.91836739 1:0.043083902 2:0.013605442 3:0.0022675737 5:0.0045351475 6:0.0068027209 8:0.0022675737 9:0.0022675737 12:0.0022675737 17:0.0022675737 32:0.0022675737 
1 0:0.92290252 1:0.040816326 2:0.013605442 5:0.0045351475 6:0.0068027209 8:0.0022675737 9:0.0022675737 12:0.0022675737 17:0.0022675737 32:0.0022675737 
1 0:0.92517006 1:0.038548753 2:0.013605442 5:0.0045351475 6:0.0068027209 8:0.0022675737 9:0.0022675737 12:0.0022675737 17:0.0022675737 32:0.0022675737 
1 0:0.92743766 1:0.03628118 2:0.013605442 5:0.0045351475 6:0.0068027209 8:0.0022675737 9:0.0022675737 12:0.0022675737 17:0.0022675737 32:0.0022675737 
1 0:0.91156465 1:0.03628118 2:0.013605442 3:0.0022675737 4:0.0022675737 5:0.0068027209 6:0.0068027209 8:0.0022675737 9:0.0022675737 10:0.0022675737 12:0.0045351475 16:0.0022675737 17:0.0022675737 19:0.0022675737 32:0.0022675737 
1 0:0.91609979 1:0.031746034 2:0.013605442 3:0.0022675737 4:0.0022675737 5:0.0068027209 6:0.0068027209 8:0.0022675737 9:0.0022675737 10:0.0022675737 12:0.0045351475 16:0.0022675737 17:0.0022675737 19:0.0022675737 32:0.0022675737 
1 0:0.91836739 1:0.029478459 2:0.013605442 3:0.0022675737 4:0.0022675737 5:0.0068027209 6:0.0068027209 8:0.0022675737 9:0.0022675737 10:0.0022675737 12:0.0045351475 16:0.0022675737 17:0.0022675737 19:0.0022675737 32:0.0022675737 
1 0:0.91836739 1:0.029478459 2:0.013605442 3:0.0022675737 4:0.0022675737 5:0.0068027209 6:0.0068027209 8:0.0022675737 9:0.0022675737 10:0.0022675737 12:0.0045351475 16:0.0022675737 17:0.0022675737 19:0.0022675737 32:0.0022675737 
1 0:0.92517006 1:0.029478459 2:0.0090702949 3:0.0022675737 4:0.0022675737 5:0.0045351475 6:0.0068027209 8:0.0022675737 9:0.0022675737 10:0.0022675737 12:0.0045351475 16:0.0022675737 17:0.0022675737 19:0.0022675737 32:0.0022675737 
1 0:0.92743766 1:0.01814059 2:0.0090702949 3:0.0022675737 4:0.0045351475 5:0.0022675737 6:0.0090702949 7:0.0022675737 8:0.0045351475 10:0.0045351475 11:0.0022675737 12:0.0045351475 16:0.0022675737 17:0.0022675737 19:0.0022675737 32:0.0022675737 
1 0:0.94104308 1:0.013605442 2:0.0068027209 3:0.0022675737 4:0.0045351475 5:0.0022675737 6:0.0068027209 7:0.0022675737 8:0.0045351475 10:0.0045351475 11:0.0022675737 16:0.0022675737 17:0.0022675737 19:0.0022675737 32:0.0022675737 
1 0:0.95011342 1:0.013605442 2:0.0068027209 3:0.0022675737 4:0.0045351475 5:0.0022675737 6:0.0045351475 7:0.0022675737 8:0.0022675737 10:0.0022675737 11:0.0022675737 16:0.0022675737 17:0.0022675737 32:0.0022675737 
1 0:0.95918369 1:0.011337869 2:0.0045351475 3:0.0022675737 4:0.0045351475 6:0.0045351475 7:0.0022675737 8:0.0022675737 10:0.0022675737 16:0.0022675737 17:0.0022675737 32:0.0022675737 
1 0:0.95918369 1:0.013605442 2:0.0045351475 3:0.0045351475 4:0.0045351475 6:0.0022675737 8:0.0022675737 11:0.0022675737 16:0.0022675737 17:0.0022675737 32:0.0022675737 
1 0:0.56462586 1:0.043083902 2:0.0022675737 3:0.0022675737 5:0.0022675737 7:0.0022675737 11:0.0022675737 12:0.0022675737 14:0.0022675737 21:0.0022675737 28:0.0022675737 42:0.0022675737 43:0.0022675737 44:0.0045351475 64:0.0022675737 66:0.0022675737 68:0.0022675737 75:0.0022675737 95:0.0022675737 101:0.0022675737 102:0.0022675737 106:0.0022675737 114:0.0022675737 128:0.0022675737 133:0.0022675737 141:0.0022675737 147:0.0022675737 154:0.0022675737 158:0.0022675737 160:0.0022675737 161:0.0022675737 165:0.0045351475 166:0.0022675737 168:0.0022675737 169:0.0022675737 171:0.0045351475 173:0.0045351475 174:0.0022675737 175:0.0022675737 178:0.0022675737 179:0.0022675737 180:0.0045351475 181:0.0022675737 182:0.0022675737 183:0.0045351475 184:0.0045351475 185:0.0045351475 186:0.0022675737 187:0.0068027209 188:0.0045351475 189:0.0022675737 190:0.0022675737 191:0.0068027209 192:0.011337869 193:0.0090702949 194:0.0090702949 195:0.0090702949 196:0.011337869 197:0.011337869 198:0.013605442 199:0.011337869 200:0.015873017 201:0.0068027209 202:0.0090702949 203:0.01814059 204:0.011337869 205:0.0068027209 206:0.0045351475 207:0.011337869 208:0.01814059 209:0.0045351475 210:0.0022675737 211:0.0045351475 213:0.0022675737 215:0.0022675737 216:0.0090702949 217:0.0045351475 218:0.0022675737 219:0.0068027209 221:0.0068027209 222:0.0022675737 223:0.0022675737 228:0.0022675737 231:0.0022675737 238:0.0022675737 242:0.0022675737 
1 0:0.53287983 1:0.040816326 2:0.0022675737 3:0.0022675737 5:0.0022675737 7:0.0022675737 9:0.0022675737 11:0.0022675737 12:0.0022675737 14:0.0022675737 21:0.0022675737 28:0.0022675737 42:0.0022675737 43:0.0022675737 44:0.0022675737 64:0.0022675737 66:0.0022675737 68:0.0022675737 75:0.0022675737 95:0.0022675737 101:0.0022675737 102:0.0022675737 106:0.0022675737 114:0.0022675737 128:0.0022675737 133:0.0022675737 141:0.0022675737 147:0.0022675737 154:0.0022675737 158:0.0022675737 161:0.0022675737 165:0.0045351475 168:0.0022675737 169:0.0022675737 171:0.0045351475 173:0.0022675737 175:0.0022675737 179:0.0022675737 180:0.0068027209 181:0.0022675737 182:0.0022675737 183:0.0045351475 184:0.0022675737 185:0.0022675737 186:0.0022675737 187:0.0045351475 188:0.0045351475 189:0.0022675737 190:0.0022675737 191:0.0068027209 192:0.013605442 193:0.0090702949 194:0.0090702949 195:0.0090702949 196:0.011337869 197:0.015873017 198:0.013605442 199:0.011337869 200:0.015873017 201:0.0090702949 202:0.0090702949 203:0.01814059 204:0.011337869 205:0.0068027209 206:0.0068027209 207:0.013605442 208:0.01814059 209:0.0068027209 210:0.0068027209 211:0.0045351475 212:0.0045351475 213:0.0045351475 215:0.0022675737 216:0.011337869 217:0.0090702949 218:0.0022675737 219:0.0068027209 220:0.0022675737 221:0.0068027209 222:0.0022675737 223:0.0045351475 227:0.0022675737 228:0.0022675737 229:0.0022675737 231:0.0045351475 233:0.0022675737 238:0.0022675737 242:0.0022675737 248:0.0022675737 
1 0:0.48526078 1:0.040816326 2:0.0022675737 3:0.0022675737 5:0.0022675737 7:0.0022675737 9:0.0022675737 11:0.0022675737 12:0.0022675737 14:0.0022675737 21:0.0022675737 28:0.0022675737 42:0.0022675737 43:0.0022675737 44:0.0022675737 64:0.0022675737 66:0.0022675737 68:0.0022675737 75:0.0022675737 95:0.0022675737 101:0.0022675737 102:0.0022675737 106:0.0022675737 114:0.0022675737 128:0.0022675737 133:0.0022675737 141:0.0022675737 147:0.0022675737 154:0.0022675737 158:0.0022675737 161:0.0022675737 165:0.0045351475 168:0.0022675737 169:0.0022675737 171:0.0045351475 173:0.0022675737 175:0.0022675737 179:0.0022675737 180:0.0068027209 181:0.0022675737 182:0.0022675737 183:0.0045351475 184:0.0022675737 185:0.0022675737 186:0.0022675737 187:0.0045351475 188:0.0045351475 189:0.0022675737 190:0.0022675737 191:0.0068027209 192:0.013605442 193:0.0090702949 194:0.0090702949 195:0.0090702949 196:0.011337869 197:0.015873017 198:0.013605442 199:0.011337869 200:0.015873017 201:0.0090702949 202:0.0090702949 203:0.020408163 204:0.011337869 205:0.0068027209 206:0.0068027209 207:0.013605442 208:0.01814059 209:0.0068027209 210:0.0068027209 211:0.0045351475 212:0.0045351475 213:0.0045351475 215:0.0022675737 216:0.011337869 217:0.0090702949 218:0.0045351475 219:0.0068027209 220:0.0022675737 221:0.0068027209 222:0.0022675737 223:0.0068027209 225:0.0022675737 226:0.0068027209 227:0.0045351475 228:0.0022675737 229:0.0022675737 230:0.0068027209 231:0.0068027209 233:0.0045351475 234:0.0022675737 235:0.0022675737 238:0.0022675737 240:0.0022675737 241:0.0045351475 242:0.0022675737 243:0.0022675737 244:0.0022675737 245:0.0022675737 248:0.0022675737 
1 0:0.4648526 1:0.029478459 2:0.0045351475 3:0.0045351475 7:0.0022675737 8:0.0045351475 10:0.0022675737 18:0.0045351475 22:0.0022675737 33:0.0022675737 36:0.0022675737 49:0.0022675737 55:0.0022675737 59:0.0022675737 62:0.0022675737 67:0.0022675737 82:0.0022675737 98:0.0022675737 100:0.0022675737 101:0.0022675737 107:0.0045351475 109:0.011337869 110:0.0090702949 111:0.0022675737 112:0.0090702949 113:0.0068027209 114:0.0045351475 115:0.0022675737 116:0.0045351475 117:0.0022675737 122:0.0022675737 123:0.0045351475 126:0.0022675737 129:0.0022675737 131:0.0045351475 132:0.0022675737 133:0.0022675737 135:0.0022675737 137:0.0022675737 138:0.0022675737 144:0.0022675737 145:0.0022675737 146:0.0022675737 147:0.0045351475 148:0.0022675737 149:0.0045351475 150:0.0022675737 152:0.0068027209 153:0.0045351475 154:0.0022675737 157:0.0090702949 158:0.0045351475 159:0.0068027209 160:0.0045351475 162:0.0022675737 163:0.011337869 164:0.0090702949 165:0.0068027209 166:0.0045351475 167:0.0022675737 169:0.0022675737 170:0.0045351475 171:0.0022675737 173:0.0090702949 174:0.0045351475 175:0.013605442 177:0.011337869 178:0.0068027209 180:0.011337869 181:0.0068027209 182:0.0090702949 184:0.011337869 185:0.0068027209 186:0.0045351475 188:0.0045351475 189:0.0022675737 190:0.0068027209 192:0.0068027209 193:0.0045351475 195:0.0022675737 196:0.0022675737 198:0.0068027209 199:0.0045351475 200:0.0045351475 201:0.0068027209 202:0.0045351475 204:0.0045351475 205:0.0045351475 206:0.0068027209 208:0.0022675737 209:0.0045351475 210:0.0022675737 211:0.0045351475 212:0.0045351475 213:0.0068027209 214:0.0022675737 215:0.0045351475 216:0.0045351475 217:0.0022675737 219:0.0068027209 221:0.0068027209 222:0.0022675737 223:0.0068027209 224:0.0022675737 225:0.0022675737 227:0.0068027209 228:0.0045351475 229:0.0045351475 230:0.0022675737 232:0.0045351475 233:0.0022675737 236:0.0045351475 239:0.0022675737 246:0.0022675737 
1 0:0.49206349 1:0.031746034 2:0.0045351475 3:0.0045351475 7:0.0022675737 8:0.0045351475 10:0.0022675737 17:0.0022675737 18:0.0045351475 22:0.0022675737 33:0.0022675737 36:0.0022675737 49:0.0022675737 55:0.0022675737 59:0.0022675737 62:0.0022675737 67:0.0022675737 82:0.0022675737 98:0.0022675737 100:0.0022675737 101:0.0022675737 107:0.0045351475 109:0.011337869 110:0.0068027209 111:0.0022675737 112:0.0045351475 113:0.0045351475 114:0.0045351475 115:0.0022675737 116:0.0022675737 117:0.0022675737 122:0.0022675737 123:0.0045351475 126:0.0022675737 131:0.0045351475 132:0.0022675737 135:0.0022675737 137:0.0022675737 138:0.0022675737 140:0.0022675737 144:0.0022675737 145:0.0022675737 146:0.0022675737 147:0.0045351475 148:0.0022675737 149:0.0045351475 150:0.0022675737 152:0.0068027209 153:0.0022675737 154:0.0022675737 157:0.0090702949 158:0.0022675737 159:0.0068027209 160:0.0045351475 162:0.0022675737 163:0.011337869 164:0.0090702949 165:0.0068027209 166:0.0045351475 167:0.0022675737 169:0.0022675737 170:0.0045351475 171:0.0022675737 173:0.011337869 174:0.0045351475 175:0.013605442 177:0.011337869 178:0.0068027209 180:0.011337869 181:0.0068027209 182:0.0090702949 184:0.011337869 185:0.0068027209 186:0.0045351475 188:0.0045351475 189:0.0022675737 190:0.0068027209 192:0.0045351475 193:0.0045351475 195:0.0022675737 196:0.0022675737 198:0.0068027209 199:0.0045351475 200:0.0045351475 201:0.0068027209 202:0.0045351475 204:0.0045351475 205:0.0022675737 206:0.0045351475 208:0.0022675737 209:0.0045351475 210:0.0022675737 211:0.0045351475 212:0.0022675737 213:0.0068027209 214:0.0022675737 215:0.0045351475 216:0.0045351475 217:0.0022675737 219:0.0068027209 221:0.0068027209 222:0.0022675737 223:0.0045351475 225:0.0022675737 227:0.0068027209 228:0.0045351475 229:0.0045351475 230:0.0022675737 232:0.0022675737 233:0.0022675737 236:0.0045351475 239:0.0022675737 246:0.0022675737 
1 0:0.5714286 1:0.031746034 2:0.0045351475 3:0.0045351475 7:0.0022675737 8:0.0045351475 10:0.0022675737 17:0.0022675737 18:0.0045351475 22:0.0022675737 29:0.0022675737 33:0.0022675737 49:0.0022675737 55:0.0022675737 59:0.0022675737 62:0.0022675737 67:0.0022675737 82:0.0022675737 98:0.0022675737 100:0.0022675737 101:0.0022675737 107:0.0045351475 109:0.0068027209 110:0.0022675737 113:0.0022675737 114:0.0045351475 117:0.0022675737 122:0.0022675737 123:0.0022675737 126:0.0022675737 131:0.0045351475 132:0.0022675737 135:0.0022675737 137:0.0022675737 138:0.0022675737 140:0.0022675737 145:0.0022675737 147:0.0045351475 148:0.0022675737 149:0.0045351475 152:0.0068027209 153:0.0022675737 154:0.0022675737 158:0.0022675737 159:0.0045351475 160:0.0045351475 162:0.0022675737 163:0.0090702949 164:0.0068027209 165:0.0045351475 166:0.0045351475 169:0.0022675737 170:0.0045351475 171:0.0022675737 173:0.0068027209 174:0.0045351475 175:0.0090702949 177:0.011337869 178:0.0068027209 180:0.0090702949 181:0.0068027209 182:0.0090702949 184:0.011337869 185:0.0068027209 186:0.0045351475 188:0.0045351475 189:0.0022675737 190:0.0068027209 192:0.0045351475 193:0.0022675737 195:0.0022675737 196:0.0022675737 198:0.0068027209 199:0.0045351475 200:0.0045351475 201:0.0068027209 202:0.0045351475 204:0.0022675737 206:0.0045351475 208:0.0022675737 209:0.0045351475 210:0.0022675737 211:0.0045351475 212:0.0022675737 213:0.0045351475 214:0.0022675737 215:0.0022675737 216:0.0045351475 217:0.0022675737 219:0.0068027209 221:0.0068027209 222:0.0022675737 223:0.0045351475 225:0.0022675737 227:0.0045351475 228:0.0045351475 229:0.0022675737 230:0.0022675737 232:0.0022675737 233:0.0022675737 236:0.0045351475 239:0.0022675737 246:0.0022675737 
1 0:0.60317463 1:0.031746034 2:0.0045351475 3:0.0045351475 7:0.0022675737 8:0.0045351475 10:0.0022675737 17:0.0022675737 18:0.0045351475 22:0.0022675737 29:0.0022675737 33:0.0022675737 49:0.0022675737 55:0.0022675737 59:0.0022675737 62:0.0022675737 67:0.0022675737 82:0.0022675737 98:0.0022675737 100:0.0022675737 107:0.0045351475 109:0.0068027209 113:0.0022675737 117:0.0022675737 122:0.0022675737 126:0.0022675737 131:0.0045351475 132:0.0022675737 135:0.0022675737 137:0.0022675737 138:0.0022675737 140:0.0022675737 145:0.0022675737 147:0.0045351475 148:0.0022675737 149:0.0045351475 152:0.0045351475 153:0.0022675737 154:0.0022675737 158:0.0022675737 159:0.0022675737 160:0.0045351475 162:0.0022675737 163:0.0090702949 164:0.0068027209 165:0.0045351475 166:0.0045351475 169:0.0022675737 170:0.0045351475 171:0.0022675737 173:0.0068027209 174:0.0045351475 175:0.0090702949 177:0.011337869 178:0.0068027209 180:0.0090702949 181:0.0045351475 182:0.0090702949 184:0.011337869 185:0.0068027209 186:0.0045351475 188:0.0045351475 189:0.0022675737 190:0.0068027209 192:0.0045351475 193:0.0022675737 195:0.0022675737 196:0.0022675737 198:0.0068027209 199:0.0045351475 200:0.0022675737 201:0.0068027209 202:0.0045351475 204:0.0022675737 206:0.0045351475 208:0.0022675737 209:0.0045351475 210:0.0022675737 211:0.0022675737 212:0.0022675737 213:0.0045351475 214:0.0022675737 216:0.0045351475 217:0.0022675737 219:0.0045351475 221:0.0045351475 222:0.0022675737 223:0.0045351475 225:0.0022675737 227:0.0045351475 228:0.0022675737 229:0.0022675737 230:0.0022675737 232:0.0022675737 233:0.0022675737 236:0.0045351475 239:0.0022675737 246:0.0022675737 
1 0:0.63492066 1:0.031746034 2:0.0045351475 3:0.0045351475 7:0.0022675737 8:0.0045351475 10:0.0022675737 17:0.0022675737 18:0.0022675737 22:0.0022675737 29:0.0022675737 33:0.0022675737 49:0.0022675737 55:0.0022675737 59:0.0022675737 62:0.0022675737 67:0.0022675737 82:0.0022675737 98:0.0022675737 100:0.0022675737 109:0.0068027209 117:0.0022675737 122:0.0022675737 126:0.0022675737 131:0.0045351475 132:0.0022675737 135:0.0022675737 138:0.0022675737 140:0.0022675737 145:0.0022675737 147:0.0045351475 148:0.0022675737 149:0.0045351475 152:0.0045351475 153:0.0022675737 158:0.0022675737 159:0.0022675737 160:0.0045351475 162:0.0022675737 163:0.0090702949 164:0.0045351475 165:0.0045351475 166:0.0045351475 169:0.0022675737 170:0.0045351475 171:0.0022675737 173:0.0068027209 174:0.0045351475 175:0.0090702949 177:0.011337869 178:0.0068027209 180:0.0090702949 181:0.0045351475 182:0.0090702949 184:0.011337869 185:0.0068027209 186:0.0045351475 188:0.0045351475 189:0.0022675737 190:0.0068027209 192:0.0022675737 193:0.0022675737 195:0.0022675737 196:0.0022675737 198:0.0068027209 199:0.0045351475 201:0.0068027209 202:0.0045351475 204:0.0022675737 206:0.0022675737 208:0.0022675737 209:0.0045351475 210:0.0022675737 211:0.0022675737 212:0.0022675737 213:0.0022675737 214:0.0022675737 216:0.0045351475 217:0.0022675737 219:0.0022675737 221:0.0022675737 222:0.0022675737 223:0.0045351475 225:0.0022675737 227:0.0022675737 228:0.0022675737 229:0.0022675737 230:0.0022675737 232:0.0022675737 233:0.0022675737 236:0.0045351475 239:0.0022675737 246:0.0022675737 
1 0:0.48526078 1:0.022675738 2:0.0022675737 4:0.0045351475 6:0.0045351475 11:0.0022675737 12:0.0022675737 23:0.0022675737 25:0.0022675737 32:0.0022675737 38:0.0022675737 39:0.0022675737 40:0.0022675737 41:0.0022675737 47:0.0022675737 75:0.0022675737 80:0.0022675737 103:0.0045351475 115:0.0022675737 122:0.0022675737 123:0.0045351475 124:0.0022675737 131:0.0068027209 136:0.0022675737 140:0.0045351475 142:0.0022675737 144:0.0022675737 145:0.0022675737 146:0.0022675737 147:0.0022675737 150:0.0022675737 152:0.0068027209 153:0.0068027209 154:0.0090702949 155:0.0045351475 158:0.0022675737 160:0.0090702949 161:0.0022675737 162:0.0022675737 164:0.0045351475 166:0.0045351475 167:0.0022675737 168:0.0022675737 170:0.0068027209 171:0.0045351475 172:0.0068027209 174:0.0090702949 175:0.0045351475 176:0.0068027209 177:0.0045351475 178:0.011337869 179:0.0045351475 180:0.0045351475 181:0.0068027209 182:0.0090702949 183:0.0045351475 184:0.0090702949 185:0.0045351475 186:0.013605442 187:0.011337869 188:0.013605442 189:0.0045351475 190:0.011337869 191:0.013605442 192:0.0090702949 193:0.0045351475 194:0.0068027209 195:0.0068027209 196:0.011337869 197:0.011337869 198:0.0090702949 199:0.0022675737 200:0.0090702949 201:0.0090702949 202:0.0045351475 203:0.0090702949 204:0.0045351475 205:0.0045351475 206:0.0045351475 207:0.0090702949 208:0.011337869 209:0.0022675737 210:0.0090702949 211:0.0090702949 212:0.0068027209 213:0.0022675737 215:0.0090702949 217:0.0068027209 218:0.0022675737 220:0.0022675737 222:0.0022675737 224:0.0045351475 229:0.0022675737 233:0.0022675737 
1 0:0.55328798 1:0.024943311 2:0.0045351475 4:0.0045351475 6:0.0045351475 11:0.0022675737 23:0.0022675737 25:0.0022675737 32:0.0022675737 38:0.0022675737 39:0.0022675737 40:0.0022675737 41:0.0022675737 47:0.0022675737 75:0.0022675737 80:0.0022675737 103:0.0045351475 105:0.0022675737 115:0.0022675737 122:0.0022675737 123:0.0045351475 124:0.0022675737 131:0.0068027209 136:0.0022675737 140:0.0045351475 142:0.0022675737 144:0.0022675737 145:0.0022675737 146:0.0022675737 147:0.0022675737 150:0.0022675737 152:0.0068027209 153:0.0068027209 154:0.0090702949 155:0.0045351475 160:0.0068027209 161:0.0022675737 162:0.0022675737 164:0.0045351475 166:0.0022675737 167:0.0022675737 168:0.0022675737 170:0.0068027209 171:0.0045351475 172:0.0045351475 174:0.0068027209 175:0.0022675737 176:0.0022675737 177:0.0045351475 178:0.011337869 179:0.0022675737 180:0.0045351475 181:0.0068027209 182:0.0068027209 183:0.0045351475 184:0.0045351475 185:0.0022675737 186:0.0090702949 187:0.0045351475 188:0.0090702949 189:0.0045351475 190:0.013605442 191:0.0090702949 192:0.0090702949 193:0.0022675737 194:0.0068027209 195:0.0045351475 196:0.0090702949 197:0.0090702949 198:0.0045351475 199:0.0022675737 200:0.0090702949 201:0.0090702949 202:0.0022675737 203:0.0090702949 204:0.0045351475 205:0.0045351475 206:0.0045351475 207:0.0090702949 208:0.0090702949 209:0.0022675737 210:0.0090702949 211:0.0090702949 212:0.0068027209 213:0.0022675737 215:0.0090702949 217:0.0068027209 220:0.0022675737 222:0.0022675737 224:0.0022675737 229:0.0022675737 
1 0:0.62358278 1:0.024943311 2:0.0045351475 4:0.0045351475 6:0.0045351475 11:0.0022675737 13:0.0022675737 23:0.0022675737 25:0.0022675737 32:0.0022675737 38:0.0022675737 39:0.0022675737 40:0.0022675737 41:0.0022675737 47:0.0022675737 75:0.0022675737 80:0.0022675737 103:0.0022675737 105:0.0022675737 115:0.0022675737 122:0.0022675737 123:0.0045351475 124:0.0022675737 131:0.0068027209 136:0.0022675737 140:0.0045351475 144:0.0022675737 145:0.0022675737 146:0.0022675737 147:0.0022675737 150:0.0022675737 152:0.0045351475 153:0.0068027209 154:0.0090702949 155:0.0045351475 160:0.0068027209 161:0.0022675737 162:0.0022675737 164:0.0045351475 166:0.0022675737 167:0.0022675737 170:0.0045351475 171:0.0022675737 172:0.0045351475 174:0.0045351475 175:0.0022675737 176:0.0022675737 177:0.0045351475 178:0.0068027209 179:0.0022675737 180:0.0022675737 181:0.0045351475 182:0.0045351475 183:0.0045351475 184:0.0022675737 186:0.0045351475 187:0.0045351475 188:0.0068027209 189:0.0045351475 190:0.0090702949 191:0.0045351475 192:0.0090702949 193:0.0022675737 194:0.0045351475 195:0.0045351475 196:0.0045351475 197:0.0068027209 198:0.0045351475 200:0.0090702949 201:0.0068027209 202:0.0022675737 203:0.0068027209 204:0.0045351475 205:0.0045351475 206:0.0022675737 207:0.0090702949 208:0.0090702949 209:0.0022675737 210:0.0068027209 211:0.0090702949 212:0.0068027209 213:0.0022675737 215:0.0090702949 217:0.0045351475 220:0.0022675737 222:0.0022675737 229:0.0022675737 
1 0:0.73242629 1:0.10657597 2:0.047619049 3:0.022675738 4:0.0090702949 5:0.011337869 6:0.015873017 7:0.0068027209 8:0.0068027209 9:0.0045351475 10:0.0022675737 12:0.0022675737 13:0.0022675737 15:0.0022675737 17:0.0045351475 20:0.0022675737 21:0.0022675737 22:0.0022675737 27:0.0022675737 28:0.0022675737 29:0.0045351475 32:0.0022675737 33:0.0022675737 47:0.0022675737 
1 0:0.70294785 1:0.10884354 2:0.052154195 3:0.027210884 4:0.013605442 5:0.015873017 6:0.013605442 7:0.0068027209 8:0.0068027209 9:0.0045351475 10:0.0068027209 11:0.0022675737 12:0.0022675737 13:0.0022675737 15:0.0045351475 17:0.0045351475 20:0.0022675737 21:0.0022675737 23:0.0022675737 27:0.0022675737 28:0.0022675737 29:0.0045351475 32:0.0022675737 33:0.0022675737 35:0.0022675737 47:0.0022675737 
1 0:0.70521545 1:0.10884354 2:0.054421768 3:0.027210884 4:0.011337869 5:0.015873017 6:0.015873017 7:0.0068027209 8:0.0068027209 9:0.0045351475 10:0.0045351475 11:0.0022675737 12:0.0022675737 13:0.0022675737 15:0.0022675737 17:0.0045351475 20:0.0022675737 21:0.0022675737 23:0.0022675737 27:0.0022675737 28:0.0022675737 29:0.0045351475 32:0.0022675737 33:0.0022675737 35:0.0022675737 47:0.0022675737 
1 0:0.66666669 1:0.11564626 2:0.065759636 3:0.029478459 4:0.011337869 5:0.020408163 6:0.022675738 7:0.0068027209 8:0.0068027209 9:0.0022675737 10:0.0045351475 11:0.0045351475 12:0.0022675737 13:0.0022675737 15:0.0022675737 17:0.0045351475 18:0.0022675737 19:0.0022675737 20:0.0022675737 21:0.0022675737 23:0.0022675737 27:0.0022675737 28:0.0022675737 29:0.0045351475 32:0.0022675737 33:0.0022675737 34:0.0022675737 35:0.0022675737 47:0.0022675737 
1 0:0.62811792 1:0.12471656 2:0.081632651 3:0.034013607 4:0.013605442 5:0.01814059 6:0.022675738 7:0.0068027209 8:0.011337869 9:0.0022675737 10:0.0045351475 11:0.0045351475 12:0.0022675737 13:0.0045351475 15:0.0022675737 16:0.0022675737 17:0.0022675737 18:0.0045351475 19:0.0022675737 20:0.0022675737 21:0.0022675737 23:0.0022675737 27:0.0022675737 28:0.0022675737 29:0.0022675737 32:0.0022675737 33:0.0022675737 34:0.0022675737 35:0.0022675737 39:0.0022675737 47:0.0022675737 
1 0:0.60090703 1:0.14058957 2:0.083900228 3:0.029478459 4:0.015873017 5:0.020408163 6:0.020408163 7:0.0090702949 8:0.013605442 9:0.0022675737 10:0.0068027209 11:0.0045351475 12:0.0045351475 13:0.0045351475 15:0.0022675737 16:0.0022675737 17:0.0022675737 18:0.0045351475 19:0.0045351475 20:0.0022675737 21:0.0022675737 23:0.0022675737 27:0.0045351475 28:0.0022675737 29:0.0022675737 30:0.0022675737 32:0.0022675737 34:0.0022675737 35:0.0022675737 47:0.0022675737 
1 0:0.62131518 1:0.13378686 2:0.083900228 3:0.027210884 4:0.013605442 5:0.020408163 6:0.020408163 7:0.0090702949 8:0.013605442 9:0.0022675737 10:0.0068027209 11:0.0045351475 12:0.0045351475 13:0.0022675737 15:0.0022675737 16:0.0022675737 18:0.0045351475 19:0.0045351475 20:0.0022675737 21:0.0022675737 27:0.0045351475 28:0.0022675737 29:0.0022675737 30:0.0022675737 32:0.0022675737 35:0.0022675737 47:0.0022675737 
1 0:0.60317463 1:0.14965987 2:0.086167805 3:0.024943311 4:0.013605442 5:0.01814059 6:0.015873017 7:0.0090702949 8:0.015873017 9:0.0022675737 10:0.0068027209 11:0.0045351475 12:0.0068027209 13:0.0022675737 15:0.0045351475 16:0.0022675737 18:0.0045351475 19:0.0068027209 20:0.0022675737 21:0.0022675737 25:0.0022675737 27:0.0045351475 28:0.0022675737 29:0.0022675737 30:0.0022675737 32:0.0022675737 47:0.0022675737 
1 0:0.58956915 1:0.14965987 2:0.086167805 3:0.024943311 4:0.01814059 5:0.022675738 6:0.015873017 7:0.0090702949 8:0.011337869 9:0.0022675737 10:0.0068027209 11:0.0090702949 12:0.0090702949 13:0.0022675737 15:0.0068027209 16:0.0022675737 17:0.0022675737 18:0.0022675737 19:0.0068027209 20:0.0022675737 21:0.0022675737 25:0.0022675737 27:0.0045351475 28:0.0022675737 29:0.0022675737 30:0.0022675737 32:0.0022675737 47:0.0022675737 
1 0:0.58276647 1:0.15873016 2:0.088435374 3:0.022675738 4:0.015873017 5:0.020408163 6:0.015873017 7:0.0045351475 8:0.015873017 9:0.0045351475 10:0.0068027209 11:0.0090702949 12:0.0068027209 13:0.0022675737 14:0.0022675737 15:0.0045351475 16:0.0022675737 17:0.0022675737 18:0.0045351475 19:0.0068027209 20:0.0045351475 25:0.0022675737 27:0.0022675737 28:0.0022675737 29:0.0022675737 30:0.0022675737 32:0.0022675737 35:0.0022675737 47:0.0022675737 
1 0:0.60544217 1:0.14739229 2:0.086167805 3:0.022675738 4:0.015873017 5:0.020408163 6:0.01814059 7:0.0022675737 8:0.013605442 9:0.0068027209 10:0.0068027209 11:0.0068027209 12:0.0068027209 13:0.0022675737 15:0.0045351475 16:0.0022675737 17:0.0022675737 18:0.0045351475 19:0.0068027209 20:0.0045351475 25:0.0022675737 27:0.0022675737 29:0.0022675737 30:0.0022675737 32:0.0022675737 35:0.0022675737 
1 0:0.58956915 1:0.15646258 2:0.088435374 3:0.029478459 4:0.015873017 5:0.022675738 6:0.01814059 7:0.0022675737 8:0.013605442 9:0.011337869 10:0.0068027209 11:0.0045351475 12:0.0068027209 13:0.0022675737 15:0.0045351475 16:0.0022675737 17:0.0022675737 18:0.0022675737 19:0.0068027209 20:0.0045351475 25:0.0022675737 27:0.0022675737 30:0.0022675737 35:0.0022675737 
1 0:0.58049887 1:0.15646258 2:0.081632651 3:0.034013607 4:0.027210884 5:0.022675738 6:0.020408163 7:0.0045351475 8:0.011337869 9:0.011337869 10:0.0068027209 11:0.0045351475 12:0.0068027209 13:0.0022675737 15:0.0068027209 16:0.0022675737 18:0.0022675737 19:0.0045351475 20:0.0045351475 25:0.0022675737 27:0.0022675737 30:0.0022675737 35:0.0022675737 
1 0:0.6099773 1:0.14285715 2:0.081632651 3:0.027210884 4:0.031746034 5:0.022675738 6:0.020408163 7:0.0045351475 8:0.0090702949 9:0.011337869 10:0.0045351475 11:0.0045351475 12:0.0068027209 13:0.0022675737 15:0.0045351475 16:0.0022675737 19:0.0022675737 20:0.0045351475 25:0.0022675737 30:0.0022675737 35:0.0022675737 
1 0:0.6122449 1:0.15646258 2:0.079365082 3:0.029478459 4:0.027210884 5:0.020408163 6:0.015873017 7:0.0045351475 8:0.011337869 9:0.0068027209 10:0.0045351475 11:0.0045351475 12:0.0068027209 13:0.0022675737 15:0.0022675737 16:0.0022675737 20:0.0045351475 25:0.0022675737 35:0.0022675737 44:0.0022675737 74:0.0022675737 
1 0:0.62585032 1:0.15646258 2:0.072562359 3:0.027210884 4:0.029478459 5:0.020408163 6:0.015873017 7:0.0090702949 8:0.011337869 9:0.0068027209 10:0.0045351475 11:0.0022675737 12:0.0068027209 15:0.0022675737 20:0.0022675737 25:0.0022675737 35:0.0022675737 44:0.0022675737 
1 0:0.64172339 1:0.15873016 2:0.070294783 3:0.022675738 4:0.029478459 5:0.013605442 6:0.015873017 7:0.0090702949 8:0.0068027209 9:0.0090702949 10:0.0045351475 11:0.0022675737 12:0.0045351475 15:0.0022675737 20:0.0022675737 22:0.0022675737 25:0.0022675737 35:0.0022675737 
1 0:0.6825397 1:0.14512472 2:0.06122449 3:0.01814059 4:0.024943311 5:0.0090702949 6:0.015873017 7:0.0068027209 8:0.0068027209 9:0.0090702949 10:0.0045351475 11:0.0022675737 12:0.0022675737 15:0.0022675737 20:0.0022675737 22:0.0022675737 25:0.0022675737 35:0.0022675737 
1 0:0.67346942 1:0.15192744 2:0.058956917 3:0.020408163 4:0.024943311 5:0.0068027209 6:0.015873017 7:0.0068027209 8:0.0068027209 9:0.0090702949 10:0.0022675737 11:0.0022675737 12:0.0022675737 16:0.0022675737 20:0.0022675737 22:0.0068027209 25:0.0022675737 27:0.0022675737 35:0.0022675737 
1 0:0.64852607 1:0.14965987 2:0.063492067 3:0.024943311 4:0.031746034 5:0.0068027209 6:0.020408163 7:0.0090702949 8:0.0045351475 9:0.011337869 10:0.0022675737 11:0.0022675737 12:0.0045351475 15:0.0022675737 16:0.0022675737 20:0.0022675737 22:0.0068027209 25:0.0022675737 27:0.0022675737 35:0.0022675737 
1 0:0.6371882 1:0.138322 2:0.063492067 3:0.027210884 4:0.031746034 5:0.0090702949 6:0.020408163 7:0.0090702949 8:0.0045351475 9:0.011337869 10:0.0022675737 11:0.0022675737 12:0.0045351475 13:0.0045351475 14:0.0045351475 15:0.0022675737 16:0.0045351475 18:0.0022675737 20:0.0045351475 22:0.0068027209 25:0.0022675737 27:0.0022675737 35:0.0022675737 36:0.0022675737 
1 0:0.65532881 1:0.13378686 2:0.06122449 3:0.022675738 4:0.029478459 5:0.0090702949 6:0.020408163 7:0.0090702949 8:0.0045351475 9:0.0090702949 10:0.0022675737 12:0.0068027209 13:0.0045351475 14:0.0045351475 15:0.0022675737 16:0.0045351475 20:0.0045351475 22:0.0045351475 23:0.0022675737 25:0.0022675737 27:0.0022675737 35:0.0022675737 36:0.0022675737 
1 0:0.65532881 1:0.13605443 2:0.063492067 3:0.027210884 4:0.031746034 5:0.0068027209 6:0.022675738 7:0.0090702949 8:0.0022675737 9:0.0090702949 10:0.0022675737 12:0.0068027209 13:0.0045351475 14:0.0045351475 15:0.0022675737 16:0.0022675737 20:0.0022675737 22:0.0022675737 23:0.0022675737 27:0.0022675737 35:0.0022675737 36:0.0022675737 
1 0:0.6394558 1:0.14512472 2:0.063492067 3:0.027210884 4:0.034013607 5:0.011337869 6:0.020408163 7:0.011337869 9:0.0090702949 10:0.0022675737 12:0.0068027209 13:0.0022675737 14:0.0045351475 15:0.0022675737 16:0.0022675737 17:0.0045351475 20:0.0022675737 22:0.0022675737 23:0.0022675737 27:0.0022675737 35:0.0022675737 36:0.0022675737 
1 0:0.61678004 1:0.15419501 2:0.068027213 3:0.027210884 4:0.034013607 5:0.013605442 6:0.01814059 7:0.013605442 8:0.0022675737 9:0.0090702949 10:0.0022675737 12:0.0090702949 13:0.0022675737 14:0.0068027209 15:0.0022675737 16:0.0022675737 17:0.0045351475 20:0.0022675737 22:0.0022675737 23:0.0022675737 27:0.0022675737 35:0.0022675737 36:0.0022675737 
1 0:0.6394558 1:0.15192744 2:0.052154195 3:0.027210884 4:0.029478459 5:0.013605442 6:0.020408163 7:0.011337869 8:0.0022675737 9:0.0090702949 10:0.0022675737 12:0.0090702949 13:0.0022675737 14:0.0068027209 15:0.0022675737 16:0.0022675737 17:0.0045351475 20:0.0022675737 22:0.0022675737 23:0.0022675737 27:0.0022675737 35:0.0022675737 36:0.0022675737 
1 0:0.65532881 1:0.15873016 2:0.049886622 3:0.022675738 4:0.029478459 5:0.013605442 6:0.013605442 7:0.011337869 8:0.0022675737 9:0.0068027209 12:0.0090702949 13:0.0022675737 14:0.0068027209 15:0.0022675737 16:0.0022675737 17:0.0045351475 20:0.0022675737 23:0.0022675737 27:0.0022675737 36:0.0022675737 
1 0:0.68934244 1:0.15873016 2:0.040816326 3:0.015873017 4:0.029478459 5:0.013605442 6:0.0090702949 7:0.011337869 8:0.0022675737 9:0.0022675737 12:0.0068027209 13:0.0022675737 14:0.0068027209 16:0.0022675737 17:0.0045351475 23:0.0022675737 36:0.0022675737 
1 0:0.69614512 1:0.1632653 2:0.034013607 3:0.013605442 4:0.031746034 5:0.011337869 6:0.0090702949 7:0.0090702949 8:0.0022675737 9:0.0045351475 10:0.0022675737 12:0.0045351475 13:0.0022675737 14:0.0068027209 17:0.0045351475 23:0.0022675737 36:0.0022675737 
1 0:0.73015875 1:0.14285715 2:0.031746034 3:0.013605442 4:0.024943311 5:0.011337869 6:0.0068027209 7:0.0090702949 8:0.0022675737 9:0.0045351475 10:0.0022675737 12:0.0045351475 14:0.0068027209 17:0.0045351475 23:0.0022675737 36:0.0022675737 
1 0:0.72789115 1:0.14058957 2:0.031746034 3:0.01814059 4:0.020408163 5:0.011337869 6:0.0045351475 7:0.0090702949 8:0.0022675737 9:0.0068027209 10:0.0022675737 11:0.0022675737 12:0.0045351475 13:0.0022675737 14:0.0068027209 17:0.0045351475 23:0.0022675737 36:0.0022675737 
1 0:0.72335601 1:0.138322 2:0.031746034 3:0.015873017 4:0.024943311 5:0.013605442 6:0.0090702949 7:0.0045351475 8:0.0068027209 9:0.0045351475 10:0.0022675737 11:0.0022675737 12:0.0068027209 13:0.0022675737 14:0.0068027209 17:0.0045351475 23:0.0022675737 
1 0:0.7482993 1:0.12471656 2:0.029478459 3:0.0090702949 4:0.024943311 5:0.013605442 6:0.0090702949 7:0.0045351475 8:0.0045351475 9:0.0045351475 10:0.0022675737 11:0.0022675737 12:0.0068027209 13:0.0022675737 14:0.0068027209 17:0.0045351475 23:0.0022675737 
1 0:0.74376416 1:0.11564626 2:0.024943311 3:0.013605442 4:0.022675738 5:0.013605442 6:0.0068027209 7:0.011337869 8:0.011337869 9:0.0045351475 10:0.0022675737 11:0.0022675737 12:0.0090702949 13:0.0022675737 14:0.0090702949 17:0.0045351475 23:0.0022675737 
1 0:0.73015875 1:0.11111111 2:0.029478459 3:0.013605442 4:0.022675738 5:0.015873017 6:0.0068027209 7:0.013605442 8:0.011337869 9:0.0068027209 10:0.0090702949 11:0.0022675737 12:0.0090702949 13:0.0022675737 14:0.0090702949 17:0.0045351475 23:0.0022675737 
1 0:0.72108847 1:0.10884354 2:0.027210884 3:0.013605442 4:0.024943311 5:0.01814059 6:0.0090702949 7:0.013605442 8:0.0090702949 9:0.011337869 10:0.011337869 11:0.0022675737 12:0.0090702949 13:0.0022675737 14:0.0090702949 17:0.0022675737 18:0.0045351475 23:0.0022675737 
1 0:0.74149662 1:0.10204082 2:0.027210884 3:0.013605442 4:0.022675738 5:0.01814059 6:0.0068027209 7:0.0090702949 8:0.0068027209 9:0.011337869 10:0.011337869 11:0.0022675737 12:0.0090702949 13:0.0022675737 14:0.0090702949 18:0.0045351475 23:0.0022675737 
1 0:0.73469388 1:0.09297052 2:0.031746034 3:0.013605442 4:0.022675738 5:0.015873017 6:0.0090702949 7:0.0045351475 8:0.0090702949 9:0.011337869 10:0.011337869 11:0.0022675737 12:0.011337869 13:0.0022675737 14:0.0090702949 18:0.0068027209 20:0.0022675737 21:0.0045351475 23:0.0022675737 26:0.0022675737 
1 0:0.73015875 1:0.09297052 2:0.034013607 3:0.013605442 4:0.020408163 5:0.013605442 6:0.015873017 7:0.0068027209 8:0.0068027209 9:0.0068027209 10:0.011337869 11:0.0045351475 12:0.013605442 13:0.0022675737 14:0.0068027209 15:0.0022675737 18:0.0068027209 20:0.0022675737 21:0.0045351475 23:0.0022675737 26:0.0022675737 
1 0:0.72789115 1:0.090702951 2:0.034013607 3:0.013605442 4:0.01814059 5:0.01814059 6:0.015873017 7:0.0068027209 8:0.0045351475 9:0.0068027209 10:0.0090702949 11:0.0068027209 12:0.011337869 14:0.0068027209 15:0.0022675737 18:0.0068027209 19:0.0045351475 20:0.0022675737 21:0.0068027209 23:0.0045351475 26:0.0022675737 
1 0:0.75963718 1:0.081632651 2:0.031746034 3:0.013605442 4:0.015873017 5:0.015873017 6:0.013605442 7:0.0045351475 8:0.0045351475 9:0.0045351475 10:0.0068027209 11:0.0068027209 12:0.011337869 14:0.0045351475 15:0.0022675737 18:0.0045351475 19:0.0045351475 20:0.0022675737 21:0.0045351475 23:0.0045351475 26:0.0022675737 
1 0:0.76190478 1:0.079365082 2:0.03628118 3:0.013605442 4:0.013605442 5:0.015873017 6:0.011337869 7:0.0022675737 8:0.0022675737 9:0.0045351475 10:0.0068027209 11:0.0068027209 12:0.0090702949 14:0.0045351475 15:0.0045351475 17:0.0022675737 18:0.0022675737 19:0.0045351475 20:0.0022675737 21:0.0022675737 23:0.0090702949 25:0.0022675737 30:0.0022675737 
1 0:0.76417238 1:0.079365082 2:0.031746034 3:0.011337869 4:0.011337869 5:0.01814059 6:0.015873017 7:0.0022675737 8:0.0022675737 9:0.0045351475 10:0.0068027209 11:0.0068027209 12:0.0045351475 13:0.0022675737 14:0.0045351475 15:0.0045351475 17:0.0022675737 18:0.0022675737 19:0.0022675737 20:0.0022675737 21:0.0022675737 23:0.0068027209 25:0.0022675737 29:0.0022675737 30:0.0022675737 34:0.0045351475 
1 0:0.76643991 1:0.083900228 2:0.029478459 3:0.0068027209 4:0.011337869 5:0.013605442 6:0.01814059 7:0.0022675737 8:0.0045351475 9:0.0022675737 10:0.0068027209 11:0.0090702949 12:0.0068027209 13:0.0022675737 14:0.0045351475 15:0.0045351475 17:0.0022675737 19:0.0022675737 20:0.0022675737 21:0.0022675737 23:0.0045351475 25:0.0022675737 29:0.0022675737 30:0.0045351475 34:0.0045351475 
1 0:0.80045354 1:0.072562359 2:0.027210884 3:0.0045351475 4:0.0090702949 5:0.011337869 6:0.01814059 7:0.0022675737 8:0.0045351475 9:0.0022675737 10:0.0045351475 11:0.0068027209 12:0.0068027209 13:0.0022675737 14:0.0045351475 15:0.0045351475 20:0.0022675737 23:0.0045351475 25:0.0022675737 30:0.0045351475 32:0.0022675737 34:0.0022675737 
1 0:0.78911567 1:0.074829936 2:0.029478459 3:0.0090702949 4:0.0068027209 5:0.013605442 6:0.01814059 7:0.0022675737 8:0.0045351475 9:0.0045351475 10:0.0045351475 11:0.0068027209 12:0.0045351475 13:0.0022675737 14:0.0022675737 15:0.0045351475 16:0.0022675737 17:0.0022675737 19:0.0022675737 20:0.0022675737 21:0.0022675737 23:0.0045351475 30:0.0022675737 32:0.0022675737 63:0.0022675737 
1 0:0.78911567 1:0.079365082 2:0.029478459 3:0.0068027209 4:0.0068027209 5:0.013605442 6:0.01814059 7:0.0045351475 8:0.0068027209 9:0.0045351475 10:0.0068027209 11:0.0045351475 12:0.0045351475 13:0.0022675737 14:0.0022675737 15:0.0022675737 16:0.0022675737 17:0.0022675737 19:0.0022675737 20:0.0022675737 21:0.0022675737 30:0.0022675737 31:0.0022675737 32:0.0022675737 
1 0:0.79591841 1:0.079365082 2:0.027210884 3:0.0068027209 4:0.0090702949 5:0.0090702949 6:0.01814059 7:0.0045351475 8:0.0045351475 9:0.0068027209 10:0.0068027209 11:0.0045351475 12:0.0068027209 13:0.0022675737 14:0.0022675737 16:0.0022675737 17:0.0022675737 19:0.0022675737 20:0.0045351475 30:0.0022675737 32:0.0022675737 
1 0:0.8185941 1:0.077097505 2:0.022675738 3:0.0068027209 4:0.0090702949 5:0.0090702949 6:0.013605442 7:0.0045351475 8:0.0045351475 9:0.0045351475 10:0.0045351475 11:0.0022675737 12:0.0045351475 14:0.0022675737 16:0.0022675737 17:0.0022675737 19:0.0022675737 20:0.0045351475 30:0.0022675737 32:0.0022675737 
1 0:0.81632656 1:0.074829936 2:0.020408163 3:0.0045351475 4:0.011337869 5:0.013605442 6:0.011337869 7:0.0045351475 8:0.0045351475 9:0.0090702949 10:0.0045351475 11:0.0022675737 12:0.0045351475 14:0.0022675737 15:0.0045351475 16:0.0022675737 17:0.0022675737 19:0.0022675737 20:0.0022675737 32:0.0022675737 
1 0:0.81179142 1:0.068027213 2:0.020408163 3:0.0090702949 4:0.011337869 5:0.013605442 6:0.011337869 7:0.0045351475 8:0.0068027209 9:0.0090702949 10:0.0045351475 11:0.0068027209 12:0.0045351475 15:0.0045351475 16:0.0022675737 17:0.0022675737 19:0.0045351475 20:0.0022675737 32:0.0022675737 
1 0:0.80045354 1:0.074829936 2:0.020408163 3:0.0068027209 4:0.013605442 5:0.015873017 6:0.011337869 7:0.0045351475 8:0.0068027209 9:0.0090702949 10:0.0045351475 11:0.0068027209 12:0.0045351475 15:0.0068027209 16:0.0022675737 17:0.0022675737 19:0.0045351475 20:0.0022675737 32:0.0022675737 
1 0:0.80498868 1:0.070294783 2:0.020408163 3:0.0068027209 4:0.013605442 5:0.015873017 6:0.011337869 7:0.0045351475 8:0.0068027209 9:0.0090702949 10:0.0045351475 11:0.0068027209 12:0.0045351475 15:0.0068027209 16:0.0022675737 17:0.0022675737 19:0.0045351475 20:0.0022675737 32:0.0022675737 
1 0:0.78231293 1:0.077097505 2:0.024943311 3:0.0090702949 4:0.01814059 5:0.015873017 6:0.011337869 7:0.0045351475 8:0.0068027209 9:0.0090702949 10:0.0045351475 11:0.011337869 12:0.0045351475 15:0.0068027209 16:0.0022675737 17:0.0022675737 19:0.0045351475 20:0.0022675737 32:0.0022675737 
1 0:0.76190478 1:0.079365082 2:0.034013607 3:0.013605442 4:0.01814059 5:0.013605442 6:0.013605442 7:0.0045351475 8:0.0068027209 9:0.0090702949 10:0.0045351475 11:0.013605442 12:0.0045351475 15:0.0090702949 16:0.0022675737 17:0.0022675737 19:0.0045351475 20:0.0022675737 32:0.0022675737 
1 0:0.75736964 1:0.083900228 2:0.034013607 3:0.013605442 4:0.01814059 5:0.013605442 6:0.013605442 7:0.0045351475 8:0.0068027209 9:0.0090702949 10:0.0045351475 11:0.013605442 12:0.0045351475 15:0.0090702949 16:0.0022675737 17:0.0022675737 19:0.0045351475 20:0.0022675737 32:0.0022675737 
1 0:0.73922902 1:0.095238097 2:0.038548753 3:0.015873017 4:0.01814059 5:0.013605442 6:0.013605442 7:0.0045351475 8:0.0068027209 9:0.0090702949 10:0.0045351475 11:0.013605442 12:0.0045351475 15:0.0090702949 16:0.0022675737 17:0.0022675737 19:0.0045351475 20:0.0022675737 32:0.0022675737 
1 0:0.72335601 1:0.10884354 2:0.040816326 3:0.015873017 4:0.01814059 5:0.013605442 6:0.013605442 7:0.0045351475 8:0.0068027209 9:0.0090702949 10:0.0045351475 11:0.013605442 12:0.0045351475 15:0.0090702949 16:0.0022675737 17:0.0022675737 19:0.0045351475 20:0.0022675737 32:0.0022675737 
1 0:0.70521545 1:0.12244898 2:0.040816326 3:0.01814059 4:0.01814059 5:0.015873017 6:0.013605442 7:0.0045351475 8:0.0068027209 9:0.0090702949 10:0.0045351475 11:0.013605442 12:0.0045351475 15:0.0090702949 16:0.0022675737 17:0.0022675737 19:0.0045351475 20:0.0022675737 32:0.0022675737 
1 0:0.70975059 1:0.12244898 2:0.038548753 3:0.01814059 4:0.020408163 5:0.013605442 6:0.013605442 7:0.0045351475 8:0.0068027209 9:0.0068027209 10:0.0045351475 11:0.013605442 12:0.0045351475 15:0.0090702949 16:0.0022675737 17:0.0022675737 19:0.0045351475 20:0.0022675737 32:0.0022675737 
1 0:0.67573696 1:0.13605443 2:0.049886622 3:0.020408163 4:0.024943311 5:0.015873017 6:0.013605442 7:0.0045351475 8:0.0068027209 9:0.0068027209 10:0.0045351475 11:0.013605442 13:0.0022675737 15:0.0090702949 16:0.0022675737 17:0.0022675737 19:0.0045351475 20:0.0022675737 32:0.0045351475 
1 0:0.65306121 1:0.14739229 2:0.052154195 3:0.022675738 4:0.027210884 5:0.020408163 6:0.015873017 7:0.0045351475 8:0.0045351475 9:0.0068027209 10:0.0022675737 11:0.013605442 13:0.0022675737 15:0.0090702949 16:0.0022675737 17:0.0045351475 19:0.0022675737 20:0.0022675737 29:0.0022675737 32:0.0045351475 
1 0:0.65306121 1:0.14512472 2:0.052154195 3:0.024943311 4:0.027210884 5:0.020408163 6:0.01814059 7:0.0068027209 8:0.0068027209 9:0.0045351475 10:0.0022675737 11:0.011337869 13:0.0022675737 15:0.0090702949 16:0.0022675737 17:0.0045351475 19:0.0022675737 29:0.0022675737 32:0.0045351475 
1 0:0.69160998 1:0.1292517 2:0.049886622 3:0.024943311 4:0.01814059 5:0.01814059 6:0.015873017 7:0.0068027209 8:0.0068027209 9:0.0022675737 10:0.0022675737 11:0.011337869 13:0.0022675737 15:0.0068027209 16:0.0022675737 17:0.0045351475 29:0.0022675737 32:0.0045351475 
1 0:0.69614512 1:0.1292517 2:0.049886622 3:0.024943311 4:0.020408163 5:0.015873017 6:0.022675738 7:0.0022675737 8:0.0068027209 11:0.0090702949 13:0.0022675737 15:0.0068027209 16:0.0022675737 17:0.0045351475 29:0.0022675737 32:0.0045351475 
1 0:0.69841272 1:0.13605443 2:0.056689344 3:0.027210884 4:0.01814059 5:0.011337869 6:0.020408163 7:0.0022675737 8:0.0045351475 11:0.0068027209 13:0.0022675737 15:0.0068027209 17:0.0045351475 29:0.0022675737 32:0.0022675737 
1 0:0.66893423 1:0.15192744 2:0.065759636 3:0.029478459 4:0.01814059 5:0.01814059 6:0.01814059 7:0.0045351475 8:0.0068027209 11:0.0045351475 13:0.0022675737 15:0.0045351475 17:0.0022675737 29:0.0022675737 32:0.0022675737 
1 0:0.69160998 1:0.14285715 2:0.058956917 3:0.024943311 4:0.015873017 5:0.01814059 6:0.01814059 7:0.0045351475 8:0.0068027209 11:0.0045351475 13:0.0022675737 15:0.0045351475 17:0.0022675737 29:0.0022675737 32:0.0022675737 
1 0:0.66893423 1:0.14739229 2:0.056689344 3:0.024943311 4:0.020408163 5:0.01814059 6:0.01814059 7:0.0090702949 8:0.011337869 9:0.0022675737 10:0.0045351475 11:0.0045351475 12:0.0022675737 13:0.0022675737 15:0.0022675737 17:0.0022675737 29:0.0022675737 32:0.0022675737 
1 0:0.64399093 1:0.14739229 2:0.054421768 3:0.027210884 4:0.020408163 5:0.011337869 6:0.01814059 7:0.01814059 8:0.011337869 9:0.0090702949 10:0.0068027209 11:0.0045351475 12:0.0045351475 13:0.0022675737 14:0.0022675737 15:0.0045351475 16:0.0045351475 17:0.0022675737 19:0.0022675737 29:0.0022675737 32:0.0022675737 
1 0:0.6371882 1:0.1292517 2:0.054421768 3:0.024943311 4:0.022675738 5:0.0090702949 6:0.013605442 7:0.022675738 8:0.015873017 9:0.013605442 10:0.0045351475 11:0.0068027209 12:0.0068027209 13:0.0022675737 14:0.0068027209 15:0.011337869 16:0.0068027209 17:0.0022675737 19:0.0022675737 20:0.0022675737 29:0.0022675737 32:0.0022675737 
1 0:0.66893423 1:0.1201814 2:0.049886622 3:0.020408163 4:0.020408163 5:0.0090702949 6:0.011337869 7:0.022675738 8:0.011337869 9:0.011337869 10:0.0045351475 11:0.0068027209 12:0.0068027209 13:0.0022675737 14:0.0045351475 15:0.011337869 16:0.0068027209 17:0.0022675737 19:0.0022675737 20:0.0022675737 29:0.0022675737 32:0.0022675737 
1 0:0.65079367 1:0.12244898 2:0.040816326 3:0.022675738 4:0.020408163 5:0.0090702949 6:0.011337869 7:0.022675738 8:0.013605442 9:0.013605442 10:0.0045351475 11:0.0090702949 12:0.0090702949 13:0.0068027209 14:0.0068027209 15:0.0068027209 16:0.013605442 17:0.0068027209 19:0.0022675737 20:0.0022675737 29:0.0022675737 32:0.0022675737 
1 0:0.63492066 1:0.12698413 2:0.040816326 3:0.022675738 4:0.015873017 5:0.011337869 6:0.011337869 7:0.015873017 8:0.013605442 9:0.01814059 10:0.0068027209 11:0.0068027209 12:0.011337869 13:0.0090702949 14:0.0068027209 15:0.0090702949 16:0.0090702949 17:0.0090702949 18:0.0022675737 19:0.0022675737 20:0.0068027209 25:0.0022675737 26:0.0022675737 29:0.0022675737 32:0.0022675737 
1 0:0.66213155 1:0.12471656 2:0.03628118 3:0.022675738 4:0.015873017 5:0.013605442 6:0.0068027209 7:0.011337869 8:0.011337869 9:0.01814059 10:0.0045351475 11:0.0045351475 12:0.011337869 13:0.0068027209 14:0.0068027209 15:0.0090702949 16:0.0068027209 17:0.0090702949 19:0.0022675737 20:0.0068027209 25:0.0022675737 26:0.0022675737 29:0.0022675737 32:0.0022675737 
1 0:0.64399093 1:0.13151927 2:0.034013607 3:0.020408163 4:0.020408163 5:0.013605442 6:0.0068027209 7:0.011337869 8:0.011337869 9:0.015873017 10:0.0022675737 11:0.0090702949 12:0.0090702949 13:0.011337869 14:0.0068027209 15:0.0090702949 16:0.0068027209 17:0.0090702949 19:0.0022675737 20:0.0090702949 23:0.0022675737 25:0.0022675737 26:0.0022675737 32:0.0022675737 35:0.0045351475 45:0.0022675737 
1 0:0.63038552 1:0.12471656 2:0.034013607 3:0.020408163 4:0.027210884 5:0.015873017 6:0.0090702949 7:0.011337869 8:0.011337869 9:0.015873017 10:0.0022675737 11:0.0090702949 12:0.0090702949 13:0.011337869 14:0.0090702949 15:0.0045351475 16:0.0068027209 17:0.0068027209 19:0.0022675737 20:0.011337869 21:0.0045351475 23:0.0022675737 25:0.0045351475 26:0.0022675737 28:0.0022675737 35:0.0045351475 36:0.0022675737 38:0.0022675737 45:0.0022675737 
1 0:0.6122449 1:0.11791383 2:0.031746034 3:0.022675738 4:0.024943311 5:0.015873017 6:0.013605442 7:0.011337869 8:0.013605442 9:0.01814059 10:0.0045351475 11:0.0090702949 12:0.013605442 13:0.013605442 14:0.0090702949 15:0.0022675737 16:0.0022675737 17:0.0090702949 18:0.0022675737 19:0.0045351475 20:0.0090702949 21:0.0045351475 23:0.0045351475 24:0.0068027209 25:0.0068027209 26:0.0022675737 27:0.0022675737 32:0.0022675737 35:0.0045351475 36:0.0022675737 38:0.0022675737 
1 0:0.6371882 1:0.11337869 2:0.031746034 3:0.020408163 4:0.024943311 5:0.015873017 6:0.013605442 7:0.011337869 8:0.011337869 9:0.01814059 10:0.0045351475 11:0.0090702949 12:0.0068027209 13:0.011337869 14:0.0068027209 15:0.0022675737 16:0.0022675737 17:0.0090702949 18:0.0022675737 19:0.0045351475 20:0.0068027209 21:0.0045351475 23:0.0045351475 24:0.0068027209 25:0.0068027209 26:0.0022675737 27:0.0022675737 35:0.0045351475 36:0.0022675737 38:0.0022675737 
1 0:0.6122449 1:0.11111111 2:0.034013607 3:0.01814059 4:0.029478459 5:0.013605442 6:0.013605442 7:0.011337869 8:0.015873017 9:0.015873017 10:0.0068027209 11:0.0090702949 12:0.0090702949 13:0.01814059 14:0.0090702949 15:0.0068027209 16:0.0022675737 17:0.0090702949 18:0.0022675737 19:0.0090702949 20:0.0068027209 21:0.0045351475 23:0.0022675737 24:0.0045351475 25:0.0090702949 27:0.0022675737 31:0.0022675737 33:0.0022675737 35:0.0045351475 36:0.0022675737 38:0.0022675737 
1 0:0.59863949 1:0.099773243 2:0.03628118 3:0.015873017 4:0.027210884 5:0.015873017 6:0.013605442 7:0.015873017 8:0.015873017 9:0.01814059 10:0.0068027209 11:0.011337869 12:0.0090702949 13:0.020408163 14:0.0090702949 15:0.0068027209 16:0.0022675737 17:0.0090702949 18:0.0022675737 19:0.013605442 20:0.0068027209 21:0.0090702949 22:0.0045351475 23:0.0045351475 24:0.0022675737 25:0.0090702949 27:0.0022675737 31:0.0022675737 33:0.0022675737 34:0.0022675737 35:0.0045351475 36:0.0022675737 
1 0:0.58276647 1:0.088435374 2:0.040816326 3:0.015873017 4:0.027210884 5:0.01814059 6:0.015873017 7:0.015873017 8:0.015873017 9:0.01814059 10:0.0068027209 11:0.011337869 12:0.0090702949 13:0.015873017 14:0.0090702949 15:0.0068027209 16:0.0045351475 17:0.011337869 18:0.0045351475 19:0.011337869 20:0.011337869 21:0.011337869 22:0.0090702949 23:0.0045351475 24:0.0045351475 25:0.0068027209 26:0.0022675737 27:0.0022675737 28:0.0045351475 30:0.0022675737 31:0.0022675737 33:0.0022675737 34:0.0045351475 35:0.0022675737 
1 0:0.60090703 1:0.088435374 2:0.038548753 3:0.01814059 4:0.027210884 5:0.01814059 6:0.015873017 7:0.01814059 8:0.013605442 9:0.01814059 10:0.0045351475 11:0.011337869 12:0.0090702949 13:0.015873017 14:0.0090702949 15:0.0068027209 16:0.0045351475 17:0.011337869 18:0.0045351475 19:0.0090702949 20:0.0068027209 21:0.011337869 22:0.0068027209 23:0.0045351475 24:0.0022675737 25:0.0022675737 26:0.0022675737 27:0.0022675737 28:0.0045351475 30:0.0022675737 31:0.0022675737 33:0.0022675737 34:0.0045351475 35:0.0022675737 
1 0:0.57596374 1:0.090702951 2:0.038548753 3:0.01814059 4:0.029478459 5:0.01814059 6:0.01814059 7:0.015873017 8:0.015873017 9:0.01814059 10:0.0045351475 11:0.0090702949 12:0.011337869 13:0.013605442 14:0.0068027209 15:0.0068027209 16:0.0068027209 17:0.011337869 18:0.0045351475 19:0.0090702949 20:0.0090702949 21:0.011337869 22:0.0068027209 23:0.0068027209 24:0.0045351475 25:0.0045351475 26:0.0045351475 27:0.0045351475 28:0.0068027209 30:0.0022675737 32:0.0022675737 33:0.0068027209 34:0.0045351475 35:0.0022675737 
1 0:0.55782312 1:0.090702951 2:0.043083902 3:0.01814059 4:0.027210884 5:0.01814059 6:0.01814059 7:0.015873017 8:0.015873017 9:0.011337869 10:0.0045351475 11:0.0068027209 12:0.011337869 13:0.013605442 14:0.0068027209 15:0.0068027209 16:0.0090702949 17:0.011337869 18:0.0045351475 19:0.0090702949 20:0.0090702949 21:0.0090702949 22:0.0068027209 23:0.0090702949 24:0.0068027209 25:0.0090702949 26:0.0022675737 27:0.0022675737 28:0.0045351475 29:0.0022675737 30:0.0022675737 31:0.0045351475 32:0.0022675737 33:0.0045351475 34:0.0022675737 35:0.0022675737 36:0.0022675737 37:0.0022675737 38:0.0022675737 39:0.0045351475 41:0.0022675737 42:0.0022675737 46:0.0022675737 54:0.0022675737 
1 0:0.54195011 1:0.095238097 2:0.040816326 3:0.01814059 4:0.027210884 5:0.015873017 6:0.020408163 7:0.013605442 8:0.013605442 9:0.015873017 10:0.0045351475 11:0.0068027209 12:0.011337869 13:0.011337869 14:0.0068027209 15:0.0068027209 16:0.011337869 17:0.0090702949 18:0.0022675737 19:0.0090702949 20:0.0090702949 21:0.0068027209 22:0.0090702949 23:0.0068027209 24:0.0045351475 25:0.0090702949 27:0.0068027209 28:0.0045351475 29:0.0045351475 30:0.0022675737 31:0.0045351475 32:0.0022675737 33:0.0045351475 34:0.0045351475 35:0.0045351475 36:0.0022675737 37:0.0022675737 38:0.0022675737 39:0.0068027209 40:0.0045351475 41:0.0045351475 42:0.0022675737 43:0.0022675737 45:0.0022675737 46:0.0022675737 54:0.0022675737 
1 0:0.57823128 1:0.090702951 2:0.038548753 3:0.01814059 4:0.022675738 5:0.013605442 6:0.01814059 7:0.013605442 8:0.013605442 9:0.011337869 10:0.0045351475 11:0.0068027209 12:0.0090702949 13:0.011337869 14:0.0068027209 15:0.0045351475 16:0.011337869 17:0.0090702949 18:0.0022675737 19:0.0090702949 20:0.0090702949 21:0.0045351475 22:0.0090702949 23:0.0068027209 24:0.0045351475 25:0.0090702949 27:0.0068027209 28:0.0045351475 29:0.0045351475 31:0.0045351475 32:0.0022675737 33:0.0022675737 34:0.0045351475 35:0.0045351475 36:0.0022675737 37:0.0022675737 38:0.0022675737 39:0.0045351475 40:0.0045351475 41:0.0045351475 42:0.0022675737 45:0.0022675737 46:0.0022675737 54:0.0022675737 
1 0:0.58503401 1:0.079365082 2:0.03628118 3:0.01814059 4:0.01814059 5:0.013605442 6:0.01814059 7:0.013605442 8:0.011337869 9:0.011337869 10:0.0045351475 11:0.0090702949 12:0.0090702949 13:0.011337869 14:0.0068027209 15:0.0045351475 16:0.0090702949 17:0.0090702949 18:0.0022675737 19:0.011337869 20:0.0068027209 21:0.0068027209 22:0.011337869 23:0.0068027209 24:0.0045351475 25:0.0090702949 27:0.0068027209 28:0.0045351475 29:0.0045351475 30:0.0022675737 31:0.0068027209 32:0.0045351475 33:0.0045351475 34:0.0068027209 35:0.0045351475 36:0.0045351475 37:0.0022675737 38:0.0022675737 39:0.0022675737 40:0.0045351475 41:0.0022675737 42:0.0022675737 45:0.0022675737 46:0.0022675737 54:0.0022675737 
1 0:0.58049887 1:0.077097505 2:0.034013607 3:0.015873017 4:0.020408163 5:0.013605442 6:0.01814059 7:0.015873017 8:0.011337869 9:0.011337869 10:0.0068027209 11:0.0090702949 12:0.0068027209 13:0.013605442 14:0.0045351475 15:0.0045351475 16:0.011337869 17:0.011337869 18:0.0022675737 19:0.0045351475 20:0.0090702949 21:0.0068027209 22:0.013605442 23:0.0090702949 24:0.0045351475 25:0.0090702949 26:0.0022675737 27:0.0068027209 28:0.0045351475 29:0.0068027209 30:0.0022675737 31:0.0068027209 32:0.0022675737 33:0.0045351475 34:0.0090702949 35:0.0090702949 36:0.0022675737 37:0.0022675737 39:0.0022675737 40:0.0022675737 41:0.0022675737 42:0.0022675737 45:0.0022675737 46:0.0022675737 54:0.0022675737 
1 0:0.5714286 1:0.079365082 2:0.031746034 3:0.011337869 4:0.020408163 5:0.015873017 6:0.020408163 7:0.015873017 8:0.0090702949 9:0.011337869 10:0.0090702949 11:0.011337869 12:0.0068027209 13:0.01814059 14:0.0022675737 15:0.0045351475 16:0.011337869 17:0.013605442 18:0.0045351475 19:0.0045351475 20:0.0068027209 21:0.0068027209 22:0.011337869 23:0.0090702949 24:0.0045351475 25:0.0090702949 26:0.0022675737 27:0.011337869 28:0.0045351475 29:0.0068027209 30:0.0022675737 31:0.0068027209 32:0.0022675737 33:0.0045351475 34:0.011337869 35:0.0045351475 36:0.0022675737 37:0.0022675737 39:0.0022675737 40:0.0045351475 41:0.0022675737 42:0.0022675737 45:0.0022675737 46:0.0022675737 54:0.0022675737 
1 0:0.59863949 1:0.079365082 2:0.031746034 3:0.011337869 4:0.01814059 5:0.013605442 6:0.020408163 7:0.015873017 8:0.0090702949 9:0.011337869 10:0.0090702949 11:0.011337869 12:0.0068027209 13:0.015873017 14:0.0022675737 15:0.0045351475 16:0.011337869 17:0.0090702949 18:0.0045351475 19:0.0022675737 20:0.0068027209 21:0.0068027209 22:0.011337869 23:0.0068027209 24:0.0045351475 25:0.0090702949 26:0.0022675737 27:0.0090702949 28:0.0045351475 29:0.0045351475 30:0.0022675737 31:0.0068027209 33:0.0045351475 34:0.0068027209 35:0.0045351475 36:0.0022675737 37:0.0022675737 39:0.0022675737 40:0.0045351475 41:0.0022675737 42:0.0022675737 45:0.0022675737 46:0.0022675737 54:0.0022675737 
1 0:0.59637189 1:0.083900228 2:0.031746034 3:0.0068027209 4:0.01814059 5:0.013605442 6:0.01814059 7:0.015873017 8:0.0090702949 9:0.013605442 10:0.0090702949 11:0.011337869 12:0.0068027209 13:0.013605442 14:0.0045351475 15:0.0068027209 16:0.013605442 17:0.0090702949 18:0.0022675737 19:0.0022675737 20:0.0045351475 21:0.0068027209 22:0.015873017 23:0.0068027209 24:0.0045351475 25:0.0068027209 26:0.0022675737 27:0.0090702949 28:0.0045351475 29:0.0045351475 31:0.0090702949 33:0.0045351475 34:0.0090702949 35:0.0022675737 36:0.0022675737 39:0.0022675737 40:0.0045351475 41:0.0022675737 42:0.0022675737 45:0.0022675737 46:0.0022675737 52:0.0022675737 54:0.0022675737 
